################################################################################
# Neural network connection values (weights and biases).
################################################################################
# Col  Name       Description
################################################################################
# 1    connection Neural network connection value.
# 2    t          Connection type (a = weight, b = bias).
# 3    index      Index enumerating weights.
# 4    l_s        Starting point layer (end point layer for biases).
# 5    n_s        Starting point neuron in starting layer (end point neuron for biases).
# 6    l_e        End point layer.
# 7    n_e        End point neuron in end layer.
################################################################################
#                      1 2         3     4     5     6     7
#             connection t     index   l_s   n_s   l_e   n_e
############################################################
 -1.0166096087244132E-01 a         1     0     1     1     1
  2.5988348431648595E-03 a         2     0     1     1     2
 -2.5278867723121162E-01 a         3     0     1     1     3
 -6.2216423684520343E-02 a         4     0     1     1     4
  6.7845745468560681E-01 a         5     0     1     1     5
  2.4515788109912567E-01 a         6     0     1     1     6
  1.6109902122037532E+00 a         7     0     1     1     7
 -2.0453325220697274E-01 a         8     0     1     1     8
 -4.9064550059124856E-01 a         9     0     1     1     9
 -3.2233634089478664E-03 a        10     0     1     1    10
 -1.2258851776538697E+00 a        11     0     1     1    11
 -1.3864950172219509E-01 a        12     0     1     1    12
  8.3512819525815296E-02 a        13     0     1     1    13
  1.8651996472099067E-01 a        14     0     1     1    14
  2.2579563644882727E-01 a        15     0     1     1    15
 -6.8082467609726549E-01 a        16     0     1     1    16
  1.6260977613942748E-01 a        17     0     1     1    17
  3.0196980184931838E-01 a        18     0     1     1    18
  6.2065537028298123E-01 a        19     0     1     1    19
 -2.8941452279584307E-01 a        20     0     1     1    20
  5.0181312473447515E-01 a        21     0     2     1     1
  3.4168260460892347E-01 a        22     0     2     1     2
  1.3710403368561089E-01 a        23     0     2     1     3
  3.1733464002993282E-02 a        24     0     2     1     4
 -5.0297216424987645E-01 a        25     0     2     1     5
 -1.7631423193110771E-01 a        26     0     2     1     6
 -2.8031881224213047E+00 a        27     0     2     1     7
  4.0229553690036246E-01 a        28     0     2     1     8
  3.5239305650800962E-01 a        29     0     2     1     9
 -2.3995849824211091E-01 a        30     0     2     1    10
  1.3827126225778450E+00 a        31     0     2     1    11
  1.8532439696304548E-01 a        32     0     2     1    12
 -9.0241008698234107E-02 a        33     0     2     1    13
 -1.6471254249053285E-01 a        34     0     2     1    14
  1.0571180602064283E-01 a        35     0     2     1    15
  1.1428963938236500E-01 a        36     0     2     1    16
 -5.0344291226550675E-01 a        37     0     2     1    17
 -6.4076762255175512E-01 a        38     0     2     1    18
 -7.2086587829262783E-01 a        39     0     2     1    19
  1.9020373960841601E-02 a        40     0     2     1    20
 -4.2369055122483984E-01 a        41     0     3     1     1
 -3.8203733350730584E-01 a        42     0     3     1     2
  3.0943310923957701E-01 a        43     0     3     1     3
  9.8118966133354579E-02 a        44     0     3     1     4
 -3.7209785601966061E-01 a        45     0     3     1     5
 -4.5373665836666033E-01 a        46     0     3     1     6
 -1.0805588255764013E-01 a        47     0     3     1     7
 -5.0531030182505854E-01 a        48     0     3     1     8
  1.1400141859164969E-01 a        49     0     3     1     9
  1.4801037066056694E-01 a        50     0     3     1    10
  6.5745477213282125E-02 a        51     0     3     1    11
  2.8207338901850976E-01 a        52     0     3     1    12
 -4.9539489652234059E-01 a        53     0     3     1    13
 -2.0886490834027124E-01 a        54     0     3     1    14
 -1.9552956967206939E-02 a        55     0     3     1    15
  2.6170253288893147E-01 a        56     0     3     1    16
  4.7250448656526206E-01 a        57     0     3     1    17
  1.0300349980551816E-01 a        58     0     3     1    18
 -1.5692219064980209E-01 a        59     0     3     1    19
  3.3396690248807981E-01 a        60     0     3     1    20
  4.5731449261569612E-01 a        61     0     4     1     1
 -5.2801749698785712E-02 a        62     0     4     1     2
 -1.7576771485888820E-01 a        63     0     4     1     3
  1.0396204269176497E-01 a        64     0     4     1     4
 -2.4135441408295932E-02 a        65     0     4     1     5
  4.1053743865190195E-01 a        66     0     4     1     6
  5.3191263437744007E-01 a        67     0     4     1     7
  1.1069802728851126E+00 a        68     0     4     1     8
 -4.0719324377274174E-01 a        69     0     4     1     9
 -4.0061156921770411E-02 a        70     0     4     1    10
  6.6349057735586103E-01 a        71     0     4     1    11
 -2.9218799585155153E-01 a        72     0     4     1    12
  5.6694815713061686E-01 a        73     0     4     1    13
 -2.6463866750811971E-01 a        74     0     4     1    14
  4.0333443658009477E-01 a        75     0     4     1    15
  8.1361349591313337E-01 a        76     0     4     1    16
 -9.7719897957170791E-03 a        77     0     4     1    17
  5.0023166720682477E-01 a        78     0     4     1    18
  7.6885071387490211E-01 a        79     0     4     1    19
  2.4049197423666918E-01 a        80     0     4     1    20
 -2.0468297235134042E-01 a        81     0     5     1     1
  1.0429632514488879E-01 a        82     0     5     1     2
  1.6871437783709201E-01 a        83     0     5     1     3
 -2.7173286716375028E-01 a        84     0     5     1     4
 -5.3405263743698927E-01 a        85     0     5     1     5
  2.1439900113362656E-01 a        86     0     5     1     6
 -3.4400701278937501E-01 a        87     0     5     1     7
 -7.3631677797598916E-01 a        88     0     5     1     8
  9.5197220943542323E-03 a        89     0     5     1     9
  1.2240331923007115E-01 a        90     0     5     1    10
  2.8154480937402038E-01 a        91     0     5     1    11
  6.9611800721131132E-03 a        92     0     5     1    12
  6.5895066742863384E-01 a        93     0     5     1    13
  4.7413736154411440E-01 a        94     0     5     1    14
 -1.1550176979551244E-01 a        95     0     5     1    15
 -2.5130467054374678E-01 a        96     0     5     1    16
 -6.8186842161122974E-01 a        97     0     5     1    17
 -3.7062073457041772E-01 a        98     0     5     1    18
 -4.5812126263869929E-01 a        99     0     5     1    19
  3.6482324652460973E-01 a       100     0     5     1    20
 -2.1174528332029324E-01 a       101     0     6     1     1
 -5.6079843258089013E-01 a       102     0     6     1     2
  4.2933425730547264E-01 a       103     0     6     1     3
 -2.1105151315287449E-01 a       104     0     6     1     4
  3.3067693067429921E-01 a       105     0     6     1     5
 -3.5823621873174344E-01 a       106     0     6     1     6
  9.3831870952883667E-01 a       107     0     6     1     7
  5.6031430942337523E-01 a       108     0     6     1     8
  1.1378319862147959E-01 a       109     0     6     1     9
  1.6042137751539670E-01 a       110     0     6     1    10
 -2.8525756345872877E-01 a       111     0     6     1    11
  1.1200358416112641E-01 a       112     0     6     1    12
  1.2550629513747746E-01 a       113     0     6     1    13
  1.2805205077713333E-01 a       114     0     6     1    14
  2.2383235687806707E-01 a       115     0     6     1    15
  1.1548292002769761E-01 a       116     0     6     1    16
  1.9372893058816586E-02 a       117     0     6     1    17
  1.1431657820763111E-01 a       118     0     6     1    18
  1.3245972877441867E-01 a       119     0     6     1    19
 -1.4485505739136595E-01 a       120     0     6     1    20
 -3.8396142839649421E-02 a       121     0     7     1     1
  3.2916384551848371E-01 a       122     0     7     1     2
 -1.2007851089894843E-01 a       123     0     7     1     3
  1.9366683352696776E-01 a       124     0     7     1     4
 -5.2387404133586439E-02 a       125     0     7     1     5
 -9.9758620868582185E-02 a       126     0     7     1     6
  2.9990182818491046E-01 a       127     0     7     1     7
  3.5890999962054582E-01 a       128     0     7     1     8
  1.6965279381087103E-01 a       129     0     7     1     9
 -5.4804547741238052E-02 a       130     0     7     1    10
 -2.3208885548532371E-01 a       131     0     7     1    11
 -5.1916100520026109E-01 a       132     0     7     1    12
 -4.8013123928584245E-01 a       133     0     7     1    13
 -1.1160320684756309E-01 a       134     0     7     1    14
  3.1310373096431515E-01 a       135     0     7     1    15
 -1.1865535193119309E-02 a       136     0     7     1    16
 -1.6818761317970624E-01 a       137     0     7     1    17
 -3.7902254810843794E-01 a       138     0     7     1    18
  9.9999188042208527E-04 a       139     0     7     1    19
  2.9265303788668484E-01 a       140     0     7     1    20
 -4.3396759318765182E-01 a       141     0     8     1     1
 -1.1969227502244451E-01 a       142     0     8     1     2
 -2.2804921505176615E-01 a       143     0     8     1     3
 -6.2178532059349936E-02 a       144     0     8     1     4
 -1.1633862036804661E+00 a       145     0     8     1     5
 -9.2355718196700298E-02 a       146     0     8     1     6
 -6.6082961867900347E-01 a       147     0     8     1     7
 -3.8102959550078924E-01 a       148     0     8     1     8
  3.0448214945775087E-01 a       149     0     8     1     9
  1.4184943710755990E-01 a       150     0     8     1    10
 -1.5691303240912596E-01 a       151     0     8     1    11
  5.1524035972306848E-01 a       152     0     8     1    12
 -4.1554909282987590E-01 a       153     0     8     1    13
 -2.3883961373774784E-01 a       154     0     8     1    14
 -6.9393076242856233E-01 a       155     0     8     1    15
 -4.3163489935648203E-01 a       156     0     8     1    16
  1.8637544699513051E-01 a       157     0     8     1    17
 -5.0183057803406717E-01 a       158     0     8     1    18
 -6.3132397268770721E-02 a       159     0     8     1    19
 -1.3712358859386516E-02 a       160     0     8     1    20
  5.4546107917187248E-01 a       161     0     9     1     1
 -2.4742132310901187E-02 a       162     0     9     1     2
 -5.3233385660482080E-01 a       163     0     9     1     3
  1.2715710736281707E-01 a       164     0     9     1     4
  2.6629278734256889E-01 a       165     0     9     1     5
  3.3938476142575896E-01 a       166     0     9     1     6
  3.6640457644043861E-01 a       167     0     9     1     7
 -1.6759267083378432E-01 a       168     0     9     1     8
  1.2762006019642627E-01 a       169     0     9     1     9
  2.9018985348020898E-01 a       170     0     9     1    10
  3.9511410021034321E-01 a       171     0     9     1    11
  5.2624000533259233E-02 a       172     0     9     1    12
  2.6158253769643158E-01 a       173     0     9     1    13
  5.7060616767470829E-01 a       174     0     9     1    14
  6.4373593046222810E-01 a       175     0     9     1    15
  1.4826987367074121E-01 a       176     0     9     1    16
  4.2368645911839536E-01 a       177     0     9     1    17
 -1.3375482057933066E-01 a       178     0     9     1    18
 -1.2267345625760094E-01 a       179     0     9     1    19
 -4.7272522724545801E-01 a       180     0     9     1    20
 -3.7784507412502460E-01 a       181     0    10     1     1
  3.7410425399648797E-02 a       182     0    10     1     2
  4.8603000640727499E-02 a       183     0    10     1     3
 -7.0472747525853405E-02 a       184     0    10     1     4
  1.5533759987354781E-01 a       185     0    10     1     5
 -3.2447841735548533E-01 a       186     0    10     1     6
  7.4540875834565146E-02 a       187     0    10     1     7
  3.0366157451562632E-02 a       188     0    10     1     8
 -3.1500409406680496E-01 a       189     0    10     1     9
  1.9424348828844235E-01 a       190     0    10     1    10
  2.5469395529831623E-01 a       191     0    10     1    11
 -3.5137498278386009E-01 a       192     0    10     1    12
  2.9506078300992339E-01 a       193     0    10     1    13
  3.4957920060794484E-02 a       194     0    10     1    14
  9.6756596813143608E-02 a       195     0    10     1    15
 -1.3622790968051826E-01 a       196     0    10     1    16
 -1.4352991788494415E-01 a       197     0    10     1    17
  4.9700364783727363E-01 a       198     0    10     1    18
  2.2369641767042603E-01 a       199     0    10     1    19
  4.3817597808115838E-02 a       200     0    10     1    20
 -5.1036146020757656E-01 a       201     0    11     1     1
 -2.4616749997051945E-01 a       202     0    11     1     2
  7.0125027843964194E-01 a       203     0    11     1     3
 -5.1117998252421615E-01 a       204     0    11     1     4
  2.1142954330719169E-01 a       205     0    11     1     5
  2.2572672223337817E-01 a       206     0    11     1     6
 -7.1308031170679653E-01 a       207     0    11     1     7
  4.2776812504622824E-01 a       208     0    11     1     8
  3.7989778117285444E-01 a       209     0    11     1     9
  1.0570706634079436E+00 a       210     0    11     1    10
  1.1033057669988403E-01 a       211     0    11     1    11
  8.2675174018846620E-01 a       212     0    11     1    12
  1.5963748174263881E-01 a       213     0    11     1    13
  1.0555145213767185E-01 a       214     0    11     1    14
  3.9874976000663248E-01 a       215     0    11     1    15
 -2.8620627363222373E-01 a       216     0    11     1    16
 -6.4352265227030692E-01 a       217     0    11     1    17
  4.7991901712988734E-02 a       218     0    11     1    18
 -1.7364832364871893E-01 a       219     0    11     1    19
 -2.8885199067363299E-01 a       220     0    11     1    20
 -2.9411163868089008E-01 a       221     0    12     1     1
  4.5335791136793113E-01 a       222     0    12     1     2
  2.5334463397107287E-01 a       223     0    12     1     3
 -4.3127980408795230E-01 a       224     0    12     1     4
  1.5102828608278357E-01 a       225     0    12     1     5
  1.0931676388150326E-01 a       226     0    12     1     6
 -3.1267005591356212E-01 a       227     0    12     1     7
  6.9625713322848759E-01 a       228     0    12     1     8
  7.4484080633643021E-02 a       229     0    12     1     9
 -2.6953416319574924E-01 a       230     0    12     1    10
  1.1122041520633887E-01 a       231     0    12     1    11
 -4.1909937374342476E-01 a       232     0    12     1    12
  7.5229391378795807E-02 a       233     0    12     1    13
 -5.6188076260279751E-01 a       234     0    12     1    14
 -1.4286545762749639E-01 a       235     0    12     1    15
 -1.2157221469836550E-01 a       236     0    12     1    16
 -5.9862335331792749E-01 a       237     0    12     1    17
 -1.2951367632142569E-01 a       238     0    12     1    18
  8.7933981703317704E-02 a       239     0    12     1    19
  1.3862208620276187E-01 a       240     0    12     1    20
 -3.0190317148303630E-01 a       241     0    13     1     1
 -1.6212862256563979E-01 a       242     0    13     1     2
 -1.4302483276571631E+00 a       243     0    13     1     3
 -2.5248873905257729E-01 a       244     0    13     1     4
 -8.4200685771636724E-02 a       245     0    13     1     5
  2.0531092653843980E-02 a       246     0    13     1     6
  5.1899103791187784E-01 a       247     0    13     1     7
 -4.3508988458565689E-01 a       248     0    13     1     8
 -8.2865852988506850E-02 a       249     0    13     1     9
  4.1865561210029745E-01 a       250     0    13     1    10
  3.4781885996166706E-01 a       251     0    13     1    11
 -9.2370869756572571E-01 a       252     0    13     1    12
  6.1636333641023403E-02 a       253     0    13     1    13
 -4.3683401286601242E-01 a       254     0    13     1    14
  2.7840785970179910E-01 a       255     0    13     1    15
  6.2658677795239259E-02 a       256     0    13     1    16
 -3.1640835588865424E-01 a       257     0    13     1    17
 -6.5569558420016369E-02 a       258     0    13     1    18
  4.8544461898140939E-01 a       259     0    13     1    19
  2.8356338947591370E-01 a       260     0    13     1    20
 -7.1397160033080342E-01 a       261     0    14     1     1
  5.4105709315154371E-01 a       262     0    14     1     2
 -1.9020408470694555E-01 a       263     0    14     1     3
 -2.1003060922449104E-01 a       264     0    14     1     4
 -2.6741384316727068E-01 a       265     0    14     1     5
 -2.7010461109149381E-01 a       266     0    14     1     6
  8.2392253321729092E-01 a       267     0    14     1     7
 -5.5914272822095479E-01 a       268     0    14     1     8
  6.1434334096230314E-01 a       269     0    14     1     9
  1.3353067180267947E-01 a       270     0    14     1    10
  2.5510248713620276E-01 a       271     0    14     1    11
 -2.0394897886704474E-01 a       272     0    14     1    12
  6.1458170020972931E-02 a       273     0    14     1    13
 -2.0869450246757995E-01 a       274     0    14     1    14
 -2.2675606440348442E-01 a       275     0    14     1    15
  7.8379852248897600E-03 a       276     0    14     1    16
  4.1601946538861935E-02 a       277     0    14     1    17
  4.1731550335837381E-01 a       278     0    14     1    18
  2.3969405984806585E-01 a       279     0    14     1    19
 -4.4112839534615192E-03 a       280     0    14     1    20
  2.7209691917280882E-01 a       281     0    15     1     1
  3.2997179822912354E-01 a       282     0    15     1     2
  6.4867659786745935E-01 a       283     0    15     1     3
  1.3479114723094721E+00 a       284     0    15     1     4
  3.2297103543058969E-01 a       285     0    15     1     5
 -9.7010757038777901E-02 a       286     0    15     1     6
 -3.8344014071108623E-01 a       287     0    15     1     7
 -9.1073947596420513E-02 a       288     0    15     1     8
  3.7828831690532146E-02 a       289     0    15     1     9
  5.9913697927622668E-02 a       290     0    15     1    10
  3.8502839035553904E-02 a       291     0    15     1    11
 -2.7474491781645499E-02 a       292     0    15     1    12
 -1.2147430507865337E-01 a       293     0    15     1    13
 -9.2588831683259998E-01 a       294     0    15     1    14
  1.6040227834755744E-01 a       295     0    15     1    15
 -1.7463982685007465E-01 a       296     0    15     1    16
 -2.2838168252766072E-01 a       297     0    15     1    17
 -2.1874247848779008E-01 a       298     0    15     1    18
  7.7499353489843748E-01 a       299     0    15     1    19
 -5.2178852120370467E-01 a       300     0    15     1    20
 -1.2660215281302312E-01 a       301     0    16     1     1
  3.2103906837039442E-01 a       302     0    16     1     2
 -1.3014610391720308E-01 a       303     0    16     1     3
 -1.4553123258082831E-02 a       304     0    16     1     4
  3.9745507164788602E-01 a       305     0    16     1     5
 -1.8524510576137854E-01 a       306     0    16     1     6
 -3.5640370437153418E-01 a       307     0    16     1     7
  3.4813473145069829E-01 a       308     0    16     1     8
 -6.0868768210235702E-01 a       309     0    16     1     9
  2.2989131821690181E-02 a       310     0    16     1    10
  6.9847442966242096E-02 a       311     0    16     1    11
 -3.9600825152035929E-01 a       312     0    16     1    12
  1.0011589206968600E-01 a       313     0    16     1    13
  2.2781903229155895E-01 a       314     0    16     1    14
 -2.3035836259325163E-01 a       315     0    16     1    15
 -2.5585882808951343E-01 a       316     0    16     1    16
 -2.9224590831492553E-01 a       317     0    16     1    17
 -1.6615508245025357E-01 a       318     0    16     1    18
 -2.7959567688582839E-03 a       319     0    16     1    19
  3.4909893169057210E-01 a       320     0    16     1    20
  1.8442937804860463E-01 a       321     0    17     1     1
  1.2636816786699132E-01 a       322     0    17     1     2
  1.0766985264759010E-01 a       323     0    17     1     3
  8.7206273811263960E-02 a       324     0    17     1     4
  6.7756032152558196E-02 a       325     0    17     1     5
 -1.8773427812867199E-01 a       326     0    17     1     6
 -8.1180203015421185E-02 a       327     0    17     1     7
 -3.1484537093838572E-01 a       328     0    17     1     8
 -4.1570543926217240E-01 a       329     0    17     1     9
 -1.2359175341502783E-02 a       330     0    17     1    10
  1.3473333829697670E-01 a       331     0    17     1    11
 -1.3255544031055969E-01 a       332     0    17     1    12
  5.2610253550876646E-02 a       333     0    17     1    13
  1.1990569094985452E-01 a       334     0    17     1    14
 -2.6825852384446480E-01 a       335     0    17     1    15
  1.3886019826042620E-01 a       336     0    17     1    16
 -2.7503028832632537E-01 a       337     0    17     1    17
 -5.8657279941407500E-02 a       338     0    17     1    18
  2.2086552865909579E-03 a       339     0    17     1    19
  1.6188003887227384E-01 a       340     0    17     1    20
  4.4233684885353402E-03 a       341     0    18     1     1
  1.8708481024737846E-02 a       342     0    18     1     2
  3.6559976038806485E-01 a       343     0    18     1     3
 -9.1734641804341432E-02 a       344     0    18     1     4
  9.4178206790087884E-02 a       345     0    18     1     5
 -2.3114084667266191E-01 a       346     0    18     1     6
  6.9056018882080683E-01 a       347     0    18     1     7
 -9.5459250738845103E-01 a       348     0    18     1     8
  1.7003560613638216E-01 a       349     0    18     1     9
  1.1023793757416034E-01 a       350     0    18     1    10
 -3.5620600340044489E-01 a       351     0    18     1    11
 -3.4908045835564006E-02 a       352     0    18     1    12
 -2.0850570360080667E-01 a       353     0    18     1    13
  8.6150331070576514E-02 a       354     0    18     1    14
  1.2123852895318731E-01 a       355     0    18     1    15
  1.5330875808811911E-01 a       356     0    18     1    16
  4.2116810417573747E-01 a       357     0    18     1    17
 -5.1253866226568134E-01 a       358     0    18     1    18
 -1.7149818863460764E-01 a       359     0    18     1    19
 -2.3094181318103063E-02 a       360     0    18     1    20
  7.2308706809993351E-02 a       361     0    19     1     1
 -8.9493798470045821E-02 a       362     0    19     1     2
  1.2504658302640095E-01 a       363     0    19     1     3
 -3.9091237385465188E-02 a       364     0    19     1     4
  3.9394330046172883E-02 a       365     0    19     1     5
  1.0522685825475771E-01 a       366     0    19     1     6
 -3.0170854779936550E-02 a       367     0    19     1     7
  1.2359283816787002E-01 a       368     0    19     1     8
  2.3995825285459482E-01 a       369     0    19     1     9
 -2.6251816009842856E-02 a       370     0    19     1    10
  3.4070888574749386E-01 a       371     0    19     1    11
 -4.6687587926811389E-03 a       372     0    19     1    12
 -1.6679270059152171E-01 a       373     0    19     1    13
 -1.3524330232577883E-01 a       374     0    19     1    14
  1.8321858796035057E-02 a       375     0    19     1    15
  1.4401289296550290E-01 a       376     0    19     1    16
  3.6685119526964449E-01 a       377     0    19     1    17
  6.7225685911979999E-02 a       378     0    19     1    18
  6.7577702171689902E-02 a       379     0    19     1    19
 -7.2361982799719879E-02 a       380     0    19     1    20
  1.1639823723957751E-01 a       381     0    20     1     1
  3.9876604579900482E-01 a       382     0    20     1     2
 -8.6384193972016443E-01 a       383     0    20     1     3
  8.2533184071717974E-02 a       384     0    20     1     4
  6.4579629238469782E-01 a       385     0    20     1     5
  3.2455832128230339E-01 a       386     0    20     1     6
 -8.7045326245933463E-01 a       387     0    20     1     7
  8.9783569058471024E-01 a       388     0    20     1     8
 -7.1358136987820550E-02 a       389     0    20     1     9
 -7.1742934018655213E-01 a       390     0    20     1    10
 -2.8777555091386103E-01 a       391     0    20     1    11
  2.4682777100104539E-01 a       392     0    20     1    12
 -1.1971603902467434E-01 a       393     0    20     1    13
 -3.8407755019328582E-01 a       394     0    20     1    14
 -1.1153809260005848E-01 a       395     0    20     1    15
 -4.6003037196585683E-01 a       396     0    20     1    16
  2.1947311811182746E-01 a       397     0    20     1    17
  1.2949309002826319E+00 a       398     0    20     1    18
  8.7754118178338378E-02 a       399     0    20     1    19
 -7.8969396440926831E-01 a       400     0    20     1    20
  2.7094687306962967E-01 a       401     0    21     1     1
  1.1326232034164349E-01 a       402     0    21     1     2
 -5.8475482305502584E-02 a       403     0    21     1     3
  2.8344650306388125E-01 a       404     0    21     1     4
  3.8335998354798351E-01 a       405     0    21     1     5
  5.5867266508519767E-02 a       406     0    21     1     6
  6.7488911504530930E-02 a       407     0    21     1     7
  1.2188429287352030E-01 a       408     0    21     1     8
  6.3057495485070991E-01 a       409     0    21     1     9
 -1.4062672189939543E-01 a       410     0    21     1    10
  4.9603290661670085E-01 a       411     0    21     1    11
  2.5677216108671219E-01 a       412     0    21     1    12
 -3.5818581357342838E-01 a       413     0    21     1    13
  8.3420195893670357E-01 a       414     0    21     1    14
 -1.2294248410098318E+00 a       415     0    21     1    15
 -3.1005764098787331E-02 a       416     0    21     1    16
 -2.5705081930494900E-01 a       417     0    21     1    17
 -1.2651599117781628E-01 a       418     0    21     1    18
 -1.5908912942936868E-01 a       419     0    21     1    19
 -3.9868124040898273E-01 a       420     0    21     1    20
 -1.0053414303839081E-01 a       421     0    22     1     1
  2.7729289415909159E-01 a       422     0    22     1     2
  3.8413593347032288E-01 a       423     0    22     1     3
 -1.4543246710470098E-01 a       424     0    22     1     4
  2.1703621166462364E-01 a       425     0    22     1     5
  1.8659202961990623E-01 a       426     0    22     1     6
  2.9806336145186296E-01 a       427     0    22     1     7
  5.3492567187361027E-02 a       428     0    22     1     8
 -3.2316234960922680E-01 a       429     0    22     1     9
 -4.0661439448103792E-01 a       430     0    22     1    10
 -4.7376779915329997E-01 a       431     0    22     1    11
 -2.8203853131583650E-01 a       432     0    22     1    12
  1.3348457218735943E-01 a       433     0    22     1    13
 -3.9695533365107494E-01 a       434     0    22     1    14
  1.0229671178191075E+00 a       435     0    22     1    15
 -1.1504075346185985E-02 a       436     0    22     1    16
 -1.4982519962181026E-01 a       437     0    22     1    17
  5.2345815739318935E-01 a       438     0    22     1    18
 -1.9075207918460160E-01 a       439     0    22     1    19
  8.2434464710934602E-02 a       440     0    22     1    20
  3.6317182991462610E-02 a       441     0    23     1     1
 -8.2834074217855436E-01 a       442     0    23     1     2
  9.3897306288053733E-02 a       443     0    23     1     3
 -1.3640825291798006E-01 a       444     0    23     1     4
 -5.6988383636723361E-01 a       445     0    23     1     5
  1.4259478492440378E-01 a       446     0    23     1     6
  5.7555833216457952E-01 a       447     0    23     1     7
 -1.3261671601358846E-01 a       448     0    23     1     8
 -1.2622482357713297E-01 a       449     0    23     1     9
  2.2753824223941474E-01 a       450     0    23     1    10
 -2.0756486790301787E-02 a       451     0    23     1    11
  1.8004811106968530E-01 a       452     0    23     1    12
  2.3418920408166324E-01 a       453     0    23     1    13
 -6.3998353645033035E-01 a       454     0    23     1    14
 -8.8305396471638251E-02 a       455     0    23     1    15
  4.5019695525217607E-01 a       456     0    23     1    16
  5.3142109243546987E-01 a       457     0    23     1    17
 -3.7854276942836151E-01 a       458     0    23     1    18
  7.5680625383692190E-01 a       459     0    23     1    19
  6.4425294566211666E-01 a       460     0    23     1    20
  1.0336106196577058E-01 a       461     0    24     1     1
  3.3151048112691728E-01 a       462     0    24     1     2
  7.2450191068676078E-03 a       463     0    24     1     3
  1.8095137201051389E-01 a       464     0    24     1     4
  1.2303378679148122E-01 a       465     0    24     1     5
  9.6491731602394382E-02 a       466     0    24     1     6
 -2.6659786154552023E-01 a       467     0    24     1     7
  7.9373984930071556E-02 a       468     0    24     1     8
 -5.1803670792624899E-02 a       469     0    24     1     9
  3.5579308293953454E-01 a       470     0    24     1    10
  1.4572709618608787E-01 a       471     0    24     1    11
 -2.2153650602846742E-01 a       472     0    24     1    12
  4.3131860390925071E-02 a       473     0    24     1    13
  4.1475857918978043E-01 a       474     0    24     1    14
 -1.8279950976175210E-01 a       475     0    24     1    15
 -2.5349794480543458E-01 a       476     0    24     1    16
 -3.4042284914806165E-01 a       477     0    24     1    17
 -1.2732788044549914E-01 a       478     0    24     1    18
 -1.6417621661262466E-01 a       479     0    24     1    19
 -3.0505935061071461E-03 a       480     0    24     1    20
  4.0987544471177384E-01 a       481     0    25     1     1
 -9.0175510663811742E-02 a       482     0    25     1     2
 -2.4907662606571814E-02 a       483     0    25     1     3
  1.5430369688274170E-01 a       484     0    25     1     4
  1.7908630047155993E-01 a       485     0    25     1     5
 -5.6982411151884371E-01 a       486     0    25     1     6
 -3.6467568673404380E-02 a       487     0    25     1     7
 -6.1131128923003497E-01 a       488     0    25     1     8
  3.6778037968549428E-02 a       489     0    25     1     9
 -1.0850121973300603E-01 a       490     0    25     1    10
 -2.7004601234312448E-01 a       491     0    25     1    11
 -2.4964079701354402E-01 a       492     0    25     1    12
  2.7238829462012698E-01 a       493     0    25     1    13
  3.3647904674842008E-02 a       494     0    25     1    14
  2.4797276686368916E-01 a       495     0    25     1    15
 -4.8397977378448931E-01 a       496     0    25     1    16
  3.7957106828650544E-01 a       497     0    25     1    17
 -5.3896680747969583E-01 a       498     0    25     1    18
 -1.1670116465385615E-01 a       499     0    25     1    19
 -1.4567720144305368E-01 a       500     0    25     1    20
 -4.0898953333118537E-01 a       501     0    26     1     1
 -2.7187701766576317E-01 a       502     0    26     1     2
 -6.9928202258741579E-02 a       503     0    26     1     3
 -4.9057898324052024E-02 a       504     0    26     1     4
 -3.7297785229328856E-01 a       505     0    26     1     5
 -7.8367275259420083E-02 a       506     0    26     1     6
  1.6900482640929310E-01 a       507     0    26     1     7
 -4.8392368648650919E-01 a       508     0    26     1     8
 -1.4958260344559285E-01 a       509     0    26     1     9
 -1.6450655359177557E-01 a       510     0    26     1    10
 -7.4265509106120578E-02 a       511     0    26     1    11
  1.7911965784494899E-01 a       512     0    26     1    12
 -2.6891096849490409E-01 a       513     0    26     1    13
  5.1024502645445453E-02 a       514     0    26     1    14
  2.7496972883951731E-01 a       515     0    26     1    15
  5.1817720527800848E-01 a       516     0    26     1    16
  8.0682866147778712E-02 a       517     0    26     1    17
  3.7719196901234063E-02 a       518     0    26     1    18
 -3.6777642073816996E-01 a       519     0    26     1    19
  4.6236125332057829E-02 a       520     0    26     1    20
  8.0163117674874695E-01 a       521     0    27     1     1
  6.5660080866387577E-03 a       522     0    27     1     2
  6.3856750431593967E-01 a       523     0    27     1     3
  1.6688611519124211E-01 a       524     0    27     1     4
  3.6398376034982033E-01 a       525     0    27     1     5
 -6.1906666007064370E-01 a       526     0    27     1     6
  4.1224691521894963E-01 a       527     0    27     1     7
  1.2709718982106671E-01 a       528     0    27     1     8
  8.6867136594687855E-01 a       529     0    27     1     9
 -4.7340304458124938E-01 a       530     0    27     1    10
 -1.6491290781572507E-01 a       531     0    27     1    11
 -3.6627123936709988E-01 a       532     0    27     1    12
 -2.9779544724864304E-01 a       533     0    27     1    13
  5.6278569151282398E-01 a       534     0    27     1    14
 -3.1051986885018695E-01 a       535     0    27     1    15
 -3.3437128659286786E-01 a       536     0    27     1    16
  6.4192089737537206E-01 a       537     0    27     1    17
  1.3413136544313964E+00 a       538     0    27     1    18
 -2.3969402488103231E-01 a       539     0    27     1    19
 -7.1957661041203935E-02 a       540     0    27     1    20
 -3.7920214918272632E-01 b       541     1     1
  1.2570898899366469E+00 b       542     1     2
 -8.5537579181517553E-01 b       543     1     3
 -1.2732809252423467E+00 b       544     1     4
 -6.9516462704002835E-01 b       545     1     5
 -7.0353269302901744E-01 b       546     1     6
 -6.0144219141985067E-01 b       547     1     7
 -5.8551372145932790E-01 b       548     1     8
  5.9580022337692107E-01 b       549     1     9
 -6.5517640689510026E-01 b       550     1    10
  8.2932297006971556E-01 b       551     1    11
 -1.0089197399134744E+00 b       552     1    12
 -9.4702027422419155E-01 b       553     1    13
  8.7508454411098624E-01 b       554     1    14
  1.3221718052494240E+00 b       555     1    15
 -1.1876628375747060E+00 b       556     1    16
  1.2608300794279172E+00 b       557     1    17
  1.3827598612304608E+00 b       558     1    18
  3.3346827740063739E-01 b       559     1    19
  1.3692334472986749E+00 b       560     1    20
 -2.0243898808419478E-01 a       561     1     1     2     1
 -8.1817660966423317E-02 a       562     1     1     2     2
  2.9315895849925974E-03 a       563     1     1     2     3
 -1.8842846090241303E-01 a       564     1     1     2     4
  5.0427314264911260E-01 a       565     1     1     2     5
  2.3440046645586279E-01 a       566     1     1     2     6
 -2.7747121482216625E-01 a       567     1     1     2     7
  1.2367659574954214E-01 a       568     1     1     2     8
  3.9267084627985310E-01 a       569     1     1     2     9
 -4.8412871260193791E-01 a       570     1     1     2    10
 -3.9609180776848218E-01 a       571     1     1     2    11
  6.5052647727908686E-01 a       572     1     1     2    12
 -5.6781859555472228E-02 a       573     1     1     2    13
  3.7229752277698164E-01 a       574     1     1     2    14
  6.6690894220992614E-01 a       575     1     1     2    15
 -2.4787060061637136E-02 a       576     1     1     2    16
  3.6072277392989727E-01 a       577     1     1     2    17
  2.3875043902435492E-01 a       578     1     1     2    18
 -2.6855999329333008E-01 a       579     1     1     2    19
  2.3281958725526136E-01 a       580     1     1     2    20
  2.6749876531736766E-01 a       581     1     2     2     1
 -2.0719434750227789E-01 a       582     1     2     2     2
 -3.4249544140063587E-01 a       583     1     2     2     3
 -6.9090501213394417E-01 a       584     1     2     2     4
 -5.3294380573371314E-01 a       585     1     2     2     5
 -4.4297308148966474E-01 a       586     1     2     2     6
  1.0999583770290979E-01 a       587     1     2     2     7
  4.8277372703649557E-01 a       588     1     2     2     8
 -5.0507053891136233E-01 a       589     1     2     2     9
  5.1445878664869038E-01 a       590     1     2     2    10
  6.5974933062534130E-02 a       591     1     2     2    11
 -2.9162881085380871E-01 a       592     1     2     2    12
  7.7986869002899928E-01 a       593     1     2     2    13
 -3.5450538191108168E-02 a       594     1     2     2    14
 -4.1619025022412970E-01 a       595     1     2     2    15
  3.7583758321116334E-01 a       596     1     2     2    16
 -6.5108025558214891E-02 a       597     1     2     2    17
  2.9556633519698022E-01 a       598     1     2     2    18
  7.6261906962773895E-01 a       599     1     2     2    19
  4.8046934943889097E-01 a       600     1     2     2    20
 -8.9937659932469027E-01 a       601     1     3     2     1
  4.4671188924961525E-01 a       602     1     3     2     2
  6.3618322902746094E-01 a       603     1     3     2     3
 -1.0849348464508761E-01 a       604     1     3     2     4
  2.6828594207547596E-01 a       605     1     3     2     5
  1.8902284312682868E-01 a       606     1     3     2     6
  3.6086785262187687E-01 a       607     1     3     2     7
 -3.0163744109268736E-01 a       608     1     3     2     8
 -6.6742405474707323E-01 a       609     1     3     2     9
 -3.5785598183920975E-01 a       610     1     3     2    10
  3.5007829151004538E-01 a       611     1     3     2    11
 -3.8188472558917497E-01 a       612     1     3     2    12
 -3.6652603850102056E-01 a       613     1     3     2    13
  2.1289500683028106E-01 a       614     1     3     2    14
 -5.9104583586197523E-01 a       615     1     3     2    15
 -4.9808748665254104E-01 a       616     1     3     2    16
  4.9552133360843874E-02 a       617     1     3     2    17
 -7.2926334837882534E-01 a       618     1     3     2    18
  4.3428328349414999E-02 a       619     1     3     2    19
 -5.3732062823845161E-01 a       620     1     3     2    20
  7.9766026692024616E-01 a       621     1     4     2     1
  2.2948828959922282E-01 a       622     1     4     2     2
 -3.5891103323931334E-01 a       623     1     4     2     3
  2.5990867512304422E-01 a       624     1     4     2     4
 -4.3695137191854716E-01 a       625     1     4     2     5
 -2.8329239083098190E-01 a       626     1     4     2     6
 -1.0776539404123164E+00 a       627     1     4     2     7
  4.7180250962481261E-02 a       628     1     4     2     8
 -1.3368440544888212E+00 a       629     1     4     2     9
 -4.2764531632021135E-01 a       630     1     4     2    10
 -1.0272667767023649E-01 a       631     1     4     2    11
 -3.4971834779959732E-01 a       632     1     4     2    12
 -3.1448993646205562E-04 a       633     1     4     2    13
 -4.4785499837364146E-01 a       634     1     4     2    14
  5.4390306955822892E-02 a       635     1     4     2    15
 -1.3361319540808828E-01 a       636     1     4     2    16
  5.9412959160176526E-02 a       637     1     4     2    17
 -3.1819069508380188E-01 a       638     1     4     2    18
 -2.0536082665370592E-01 a       639     1     4     2    19
 -2.6345774164381797E-01 a       640     1     4     2    20
  7.0343303344161154E-02 a       641     1     5     2     1
  4.0527009888960165E-02 a       642     1     5     2     2
  5.0137419108772940E-01 a       643     1     5     2     3
 -1.7567452565814898E-01 a       644     1     5     2     4
 -3.0142293471235432E-01 a       645     1     5     2     5
 -4.0160029237413475E-01 a       646     1     5     2     6
  3.9678902748005906E-01 a       647     1     5     2     7
  2.7692860693435273E-01 a       648     1     5     2     8
 -1.6268667852329222E-01 a       649     1     5     2     9
 -2.2316414442071236E-01 a       650     1     5     2    10
 -2.7218050440530539E-01 a       651     1     5     2    11
 -1.3215205967656851E-01 a       652     1     5     2    12
  5.0440470163282147E-01 a       653     1     5     2    13
 -3.2483583740377941E-01 a       654     1     5     2    14
 -1.3659335356916860E-01 a       655     1     5     2    15
 -2.6034063409368280E-01 a       656     1     5     2    16
  7.8560012811254909E-02 a       657     1     5     2    17
  1.9095784610358715E-01 a       658     1     5     2    18
  6.6220409025413518E-01 a       659     1     5     2    19
 -2.4165271219672640E-01 a       660     1     5     2    20
 -8.1096575177545582E-01 a       661     1     6     2     1
  4.9728218367743499E-01 a       662     1     6     2     2
  2.1725477217683237E-01 a       663     1     6     2     3
 -9.4475211774586856E-02 a       664     1     6     2     4
 -1.0806304203782771E+00 a       665     1     6     2     5
 -3.6138295965871020E-01 a       666     1     6     2     6
  9.9357677065830707E-02 a       667     1     6     2     7
 -5.7788979941124907E-01 a       668     1     6     2     8
  1.5756917769437112E-01 a       669     1     6     2     9
 -5.1877116172382032E-01 a       670     1     6     2    10
 -5.2942705283363545E-01 a       671     1     6     2    11
  4.4766932967083828E-01 a       672     1     6     2    12
 -2.1459833874415837E-01 a       673     1     6     2    13
 -6.4131273403530475E-01 a       674     1     6     2    14
  3.0010392513997514E-01 a       675     1     6     2    15
 -4.2003710895326507E-01 a       676     1     6     2    16
 -2.0582259623700633E-01 a       677     1     6     2    17
 -5.3163596730838952E-02 a       678     1     6     2    18
 -5.1740659610840167E-01 a       679     1     6     2    19
  3.4628834036684197E-01 a       680     1     6     2    20
  3.3089042854724010E-01 a       681     1     7     2     1
 -1.7923203757243525E-01 a       682     1     7     2     2
 -4.9191605119779586E-01 a       683     1     7     2     3
  1.4030935694537544E-01 a       684     1     7     2     4
 -2.3366555330934308E-02 a       685     1     7     2     5
 -9.6161722269288130E-01 a       686     1     7     2     6
 -3.9083864693663595E-01 a       687     1     7     2     7
 -1.2866052780565615E-01 a       688     1     7     2     8
  1.4910896416432631E-01 a       689     1     7     2     9
 -2.2627301975669831E-01 a       690     1     7     2    10
  1.1253501092020735E-01 a       691     1     7     2    11
 -1.6793384955020405E-01 a       692     1     7     2    12
 -1.6947628329047937E-01 a       693     1     7     2    13
 -2.5004969688530315E-01 a       694     1     7     2    14
  3.9080641526202659E-01 a       695     1     7     2    15
  1.3837996126653393E-01 a       696     1     7     2    16
 -4.7403840993198852E-02 a       697     1     7     2    17
 -3.2313052191861158E-01 a       698     1     7     2    18
  7.0644216422532491E-02 a       699     1     7     2    19
 -4.5212527412198700E-01 a       700     1     7     2    20
  6.4581374626069665E-01 a       701     1     8     2     1
 -2.9873223587819153E-01 a       702     1     8     2     2
 -3.8954738650164050E-01 a       703     1     8     2     3
  6.1926738767542444E-01 a       704     1     8     2     4
  1.8172156067337350E-01 a       705     1     8     2     5
 -9.8797974151278400E-01 a       706     1     8     2     6
  6.1049177163518065E-01 a       707     1     8     2     7
 -3.4759509408194396E-02 a       708     1     8     2     8
  8.2858734442953497E-02 a       709     1     8     2     9
  1.4053659623213757E-01 a       710     1     8     2    10
 -2.3613749675195036E-03 a       711     1     8     2    11
  4.4648351497194448E-02 a       712     1     8     2    12
 -6.6293425108509174E-01 a       713     1     8     2    13
  1.8926645784084253E-01 a       714     1     8     2    14
  2.5186044312828759E-01 a       715     1     8     2    15
 -3.4003093637763110E-01 a       716     1     8     2    16
  4.0332979263979502E-01 a       717     1     8     2    17
  8.2668162893222361E-02 a       718     1     8     2    18
  6.3235358699268729E-01 a       719     1     8     2    19
 -6.1901002568660671E-03 a       720     1     8     2    20
 -1.4157055774290414E-01 a       721     1     9     2     1
 -5.6062503126081679E-02 a       722     1     9     2     2
 -4.1192556348217679E-01 a       723     1     9     2     3
 -6.1855534944568424E-01 a       724     1     9     2     4
  5.6298162621102925E-02 a       725     1     9     2     5
  6.5277363470002558E-01 a       726     1     9     2     6
  3.2223535664330932E-01 a       727     1     9     2     7
 -5.7563771013943199E-01 a       728     1     9     2     8
 -2.8958354548482534E-01 a       729     1     9     2     9
  1.7352682552451176E-01 a       730     1     9     2    10
 -3.5640100694704024E-01 a       731     1     9     2    11
  2.4405974455131391E-01 a       732     1     9     2    12
 -1.8723688657700907E-01 a       733     1     9     2    13
 -5.8278009613485626E-03 a       734     1     9     2    14
  3.9299292689994164E-01 a       735     1     9     2    15
  4.1639326997507059E-01 a       736     1     9     2    16
 -7.6643587555186273E-03 a       737     1     9     2    17
  6.3047612847352719E-01 a       738     1     9     2    18
 -3.9119296068299830E-01 a       739     1     9     2    19
  4.9302394091413043E-01 a       740     1     9     2    20
 -7.6041442147944227E-01 a       741     1    10     2     1
 -1.4245913689447412E-01 a       742     1    10     2     2
 -2.6086573529921012E-02 a       743     1    10     2     3
  1.5639036788883989E-01 a       744     1    10     2     4
 -9.1723624277150098E-02 a       745     1    10     2     5
 -2.2057845944116547E-01 a       746     1    10     2     6
  2.7101770917447127E-01 a       747     1    10     2     7
  4.1361304319053105E-01 a       748     1    10     2     8
 -6.7224562491245393E-02 a       749     1    10     2     9
  2.1553777423427714E-01 a       750     1    10     2    10
 -3.7519759057197904E-01 a       751     1    10     2    11
  3.8887124992989380E-01 a       752     1    10     2    12
 -6.4021723879181897E-02 a       753     1    10     2    13
 -8.6494616189701209E-02 a       754     1    10     2    14
  2.8832443376466560E-01 a       755     1    10     2    15
  2.6816152153734529E-01 a       756     1    10     2    16
  3.3848984509085650E-01 a       757     1    10     2    17
 -5.4332953344338408E-01 a       758     1    10     2    18
  1.3645640560969627E-01 a       759     1    10     2    19
 -7.0608912445992200E-01 a       760     1    10     2    20
 -7.5535305582342360E-01 a       761     1    11     2     1
 -7.6370410309719694E-02 a       762     1    11     2     2
 -3.3216668004988503E-01 a       763     1    11     2     3
 -9.1260840241483965E-01 a       764     1    11     2     4
 -9.8889570423892237E-02 a       765     1    11     2     5
  1.0748020288006455E+00 a       766     1    11     2     6
 -5.2855269440934782E-01 a       767     1    11     2     7
  2.1674045508002893E-01 a       768     1    11     2     8
 -2.6098059238438243E-01 a       769     1    11     2     9
  3.4781256089400048E-01 a       770     1    11     2    10
  3.0725824883814440E-01 a       771     1    11     2    11
 -4.9762356347974690E-01 a       772     1    11     2    12
  6.0315012937156853E-01 a       773     1    11     2    13
 -1.0298603767252534E+00 a       774     1    11     2    14
  9.5097111320791780E-02 a       775     1    11     2    15
  5.8932815786175186E-01 a       776     1    11     2    16
 -6.2945199677884778E-01 a       777     1    11     2    17
  7.7819177732696143E-01 a       778     1    11     2    18
 -6.7553735100344559E-01 a       779     1    11     2    19
  1.7028015454074991E-01 a       780     1    11     2    20
  3.4908267450896674E-01 a       781     1    12     2     1
  1.0465037126644866E-01 a       782     1    12     2     2
 -4.4591933008572331E-02 a       783     1    12     2     3
  5.2288666821069307E-01 a       784     1    12     2     4
  3.5360638410607670E-01 a       785     1    12     2     5
 -7.9678424948500404E-01 a       786     1    12     2     6
 -9.2591127190990663E-02 a       787     1    12     2     7
  9.1791621885074559E-02 a       788     1    12     2     8
 -9.3253347497550187E-01 a       789     1    12     2     9
 -4.1488116113839130E-01 a       790     1    12     2    10
 -9.5058403302116623E-01 a       791     1    12     2    11
  6.9349684473956064E-03 a       792     1    12     2    12
 -6.0786730789889698E-01 a       793     1    12     2    13
  6.2158652904287570E-01 a       794     1    12     2    14
 -4.3570651838057534E-01 a       795     1    12     2    15
 -5.5759695640880080E-01 a       796     1    12     2    16
  6.1049840073305793E-02 a       797     1    12     2    17
 -6.5868884279998119E-01 a       798     1    12     2    18
 -1.6191351666237086E-01 a       799     1    12     2    19
 -5.2883088051571248E-01 a       800     1    12     2    20
  8.6066597879618700E-01 a       801     1    13     2     1
  1.1807831504425701E+00 a       802     1    13     2     2
  9.8957138465035691E-02 a       803     1    13     2     3
 -1.7697367409044401E-02 a       804     1    13     2     4
  9.9980149448908595E-01 a       805     1    13     2     5
 -1.6623008207992282E-01 a       806     1    13     2     6
  6.5699024370396142E-01 a       807     1    13     2     7
 -3.8045046983420888E-01 a       808     1    13     2     8
 -1.9173976238265611E-01 a       809     1    13     2     9
 -4.1833792339981751E-01 a       810     1    13     2    10
 -4.5805390965834691E-02 a       811     1    13     2    11
  3.1932490363422389E-01 a       812     1    13     2    12
  3.1671590751007594E-01 a       813     1    13     2    13
  3.2833743899492562E-01 a       814     1    13     2    14
  7.2759127074836616E-01 a       815     1    13     2    15
 -2.2045130492483503E-01 a       816     1    13     2    16
 -2.0078624346588761E-01 a       817     1    13     2    17
 -5.2026204108207386E-01 a       818     1    13     2    18
  4.0610441630680488E-01 a       819     1    13     2    19
  2.6640178415379412E-01 a       820     1    13     2    20
 -6.7195943727450502E-01 a       821     1    14     2     1
  6.4936926214224644E-02 a       822     1    14     2     2
 -3.6598211563554234E-01 a       823     1    14     2     3
 -6.2120431481838023E-01 a       824     1    14     2     4
 -4.2263445828945972E-01 a       825     1    14     2     5
  5.6331306502046385E-01 a       826     1    14     2     6
  7.3034931505198697E-01 a       827     1    14     2     7
  6.9501396884222510E-01 a       828     1    14     2     8
  5.8061797234812196E-01 a       829     1    14     2     9
  5.5975413331269730E-01 a       830     1    14     2    10
 -2.0547758155567794E-01 a       831     1    14     2    11
 -4.4473215389684206E-01 a       832     1    14     2    12
  2.5430035781757909E-01 a       833     1    14     2    13
 -2.2996573785790544E-01 a       834     1    14     2    14
  4.3846403264958450E-02 a       835     1    14     2    15
  4.8689249583501470E-01 a       836     1    14     2    16
  7.8265798149036253E-02 a       837     1    14     2    17
 -2.9459581940408641E-01 a       838     1    14     2    18
  5.0032571762204325E-01 a       839     1    14     2    19
  4.0890316313553748E-01 a       840     1    14     2    20
 -2.1887647455336348E-01 a       841     1    15     2     1
  8.4088224947028334E-02 a       842     1    15     2     2
 -2.9253855700084996E-01 a       843     1    15     2     3
  9.0465401990783706E-03 a       844     1    15     2     4
  6.9233592877064420E-01 a       845     1    15     2     5
 -6.6029404428797034E-01 a       846     1    15     2     6
 -1.9652189150739149E-01 a       847     1    15     2     7
  6.1284543166929606E-01 a       848     1    15     2     8
 -2.2798942866738706E-01 a       849     1    15     2     9
  1.2236090413642301E-02 a       850     1    15     2    10
  5.9641063843695008E-01 a       851     1    15     2    11
 -6.7524692424060717E-01 a       852     1    15     2    12
 -1.1508185593944478E-01 a       853     1    15     2    13
  3.9060676187488069E-01 a       854     1    15     2    14
  5.2119141211738468E-03 a       855     1    15     2    15
  3.8524236598013045E-01 a       856     1    15     2    16
  1.9431569385761099E-01 a       857     1    15     2    17
  2.2234669480833816E-02 a       858     1    15     2    18
  1.1571825588901803E+00 a       859     1    15     2    19
 -4.3551336018054848E-01 a       860     1    15     2    20
  2.9910975238930659E-01 a       861     1    16     2     1
 -6.4513692167187764E-01 a       862     1    16     2     2
  6.5478045991892231E-01 a       863     1    16     2     3
 -1.0230241397492450E+00 a       864     1    16     2     4
  3.0798376947165679E-01 a       865     1    16     2     5
  2.5885223834481647E-01 a       866     1    16     2     6
  1.7299123254026327E-01 a       867     1    16     2     7
 -9.1987208685837274E-01 a       868     1    16     2     8
  4.0143086691327590E-01 a       869     1    16     2     9
 -3.2721514824827896E-01 a       870     1    16     2    10
 -3.0679510406971860E-01 a       871     1    16     2    11
 -9.6220774559664199E-02 a       872     1    16     2    12
 -3.3491149396151493E-01 a       873     1    16     2    13
 -6.1904456850920853E-01 a       874     1    16     2    14
  5.1918858152120428E-01 a       875     1    16     2    15
  3.9415388582138805E-01 a       876     1    16     2    16
 -4.6662263539996496E-01 a       877     1    16     2    17
 -1.3327603157048118E-01 a       878     1    16     2    18
  2.0197690691116696E-01 a       879     1    16     2    19
 -5.1271447083932531E-01 a       880     1    16     2    20
  3.0411124754303198E-01 a       881     1    17     2     1
  2.8009276661873628E-01 a       882     1    17     2     2
 -2.5785945262140442E-01 a       883     1    17     2     3
 -1.2119361637390033E-01 a       884     1    17     2     4
 -8.2484828470796079E-02 a       885     1    17     2     5
  7.5152019271612039E-02 a       886     1    17     2     6
 -1.2062621063368309E-01 a       887     1    17     2     7
 -1.0503333251173408E-01 a       888     1    17     2     8
  7.0170492624287054E-02 a       889     1    17     2     9
  4.8903557872238168E-01 a       890     1    17     2    10
 -3.1134455858498600E-01 a       891     1    17     2    11
 -1.5872210152423415E-02 a       892     1    17     2    12
 -5.4165793422195818E-01 a       893     1    17     2    13
  2.2318867917258461E-01 a       894     1    17     2    14
 -2.9380272406740893E-01 a       895     1    17     2    15
  6.0538168489601851E-01 a       896     1    17     2    16
 -4.0560089489882650E-01 a       897     1    17     2    17
  9.6021320834917920E-02 a       898     1    17     2    18
 -5.1967923388837552E-02 a       899     1    17     2    19
  2.8719932440894247E-01 a       900     1    17     2    20
 -5.4106633368360468E-01 a       901     1    18     2     1
  4.5410079992060987E-01 a       902     1    18     2     2
 -4.0573999278414463E-01 a       903     1    18     2     3
 -2.9194307604827402E-01 a       904     1    18     2     4
 -8.2157742565999869E-01 a       905     1    18     2     5
  5.1108262093425849E-01 a       906     1    18     2     6
 -4.3723295031962306E-01 a       907     1    18     2     7
 -4.8521483252326486E-01 a       908     1    18     2     8
 -3.2425222084737249E-01 a       909     1    18     2     9
 -1.1940247607469572E-01 a       910     1    18     2    10
  3.8767852328958252E-01 a       911     1    18     2    11
 -6.6280275597459648E-01 a       912     1    18     2    12
 -3.0103170389930634E-01 a       913     1    18     2    13
  7.0692637839320815E-01 a       914     1    18     2    14
 -2.2004794811113099E-01 a       915     1    18     2    15
  2.5335691181053133E-01 a       916     1    18     2    16
 -1.0981632881888392E-01 a       917     1    18     2    17
  5.8283187319121998E-01 a       918     1    18     2    18
  5.3380715097771703E-01 a       919     1    18     2    19
  1.6120316203056700E-01 a       920     1    18     2    20
  4.9084596172023576E-01 a       921     1    19     2     1
 -3.3218829720174442E-01 a       922     1    19     2     2
  2.7634596464873762E-01 a       923     1    19     2     3
  5.4783118305714973E-01 a       924     1    19     2     4
 -4.6421109682367867E-01 a       925     1    19     2     5
 -4.1033603490711573E-01 a       926     1    19     2     6
  3.0199297190992358E-01 a       927     1    19     2     7
  7.2879606953694287E-01 a       928     1    19     2     8
  9.7582461253202069E-01 a       929     1    19     2     9
 -5.1063605741029117E-01 a       930     1    19     2    10
 -3.7733388664812634E-01 a       931     1    19     2    11
  3.8411776909171652E-01 a       932     1    19     2    12
 -2.4848731810637487E-01 a       933     1    19     2    13
  8.7233648258181307E-01 a       934     1    19     2    14
  2.6129568039948553E-01 a       935     1    19     2    15
  5.8909783940882388E-01 a       936     1    19     2    16
  3.6891844061936502E-01 a       937     1    19     2    17
 -3.4952437746581655E-01 a       938     1    19     2    18
  7.1246772382875700E-01 a       939     1    19     2    19
  3.6366798591106655E-02 a       940     1    19     2    20
  4.8444521052391686E-02 a       941     1    20     2     1
 -9.8267454090745665E-02 a       942     1    20     2     2
 -6.9003943984951688E-01 a       943     1    20     2     3
 -3.1657070790187303E-01 a       944     1    20     2     4
 -7.3611357300568403E-01 a       945     1    20     2     5
 -4.6619709534127252E-01 a       946     1    20     2     6
 -7.0766385832778167E-01 a       947     1    20     2     7
  2.6825989060594591E-01 a       948     1    20     2     8
 -3.0645201193005994E-02 a       949     1    20     2     9
 -4.8816928720803549E-01 a       950     1    20     2    10
 -1.9163277124582184E-01 a       951     1    20     2    11
 -4.0982406320858589E-01 a       952     1    20     2    12
  8.4042729670228711E-01 a       953     1    20     2    13
  3.0506294848454135E-01 a       954     1    20     2    14
  1.5570902804990966E-01 a       955     1    20     2    15
  4.9209173294949760E-01 a       956     1    20     2    16
  5.3519575912988204E-01 a       957     1    20     2    17
  4.4828622445133831E-01 a       958     1    20     2    18
 -3.6182451956640532E-01 a       959     1    20     2    19
 -3.9934947326530185E-01 a       960     1    20     2    20
 -9.4768278434761344E-01 b       961     2     1
 -9.4576885633238872E-01 b       962     2     2
 -7.6900630138933146E-01 b       963     2     3
  2.5605416345934690E-01 b       964     2     4
 -8.9451566439797370E-01 b       965     2     5
 -1.4777273876094417E+00 b       966     2     6
 -1.6772269912466504E+00 b       967     2     7
  4.4655767759680337E-01 b       968     2     8
 -1.6480979320998582E-02 b       969     2     9
  1.2597349507333542E+00 b       970     2    10
  1.4679590653088928E+00 b       971     2    11
 -3.7687417578026727E-01 b       972     2    12
  2.4099918363577758E-01 b       973     2    13
 -1.1584934789097039E+00 b       974     2    14
 -6.1722138169093455E-01 b       975     2    15
  1.1495229493729135E+00 b       976     2    16
  1.1090929291604170E+00 b       977     2    17
  8.2756796128287236E-01 b       978     2    18
 -3.0345160379588493E-01 b       979     2    19
  6.9179939569997373E-01 b       980     2    20
 -1.5150881149486610E+00 a       981     2     1     3     1
 -9.6805484489326366E-01 a       982     2     2     3     1
 -2.5795284839204329E+00 a       983     2     3     3     1
 -9.4877777167697164E-01 a       984     2     4     3     1
 -2.5169415312410255E+00 a       985     2     5     3     1
 -4.8937108833248039E-01 a       986     2     6     3     1
 -1.4592786286729398E+00 a       987     2     7     3     1
  1.5886366986899449E+00 a       988     2     8     3     1
 -6.5419092350643449E-01 a       989     2     9     3     1
  1.0836774263616611E+00 a       990     2    10     3     1
  1.8553633323597349E+00 a       991     2    11     3     1
 -6.1194014120103790E-01 a       992     2    12     3     1
  1.4023095156002803E+00 a       993     2    13     3     1
 -1.1508056619184202E-01 a       994     2    14     3     1
 -7.7186690060635976E-01 a       995     2    15     3     1
  1.9717535888970545E+00 a       996     2    16     3     1
  4.8915865986076662E-01 a       997     2    17     3     1
  1.7628212636544405E+00 a       998     2    18     3     1
 -2.1153339204877447E-01 a       999     2    19     3     1
  8.6539561173309287E-01 a      1000     2    20     3     1
  1.3078214142746525E+00 b      1001     3     1
