     16.2013272384
     21.7932995943
     11.3233530671
      4.4408432261
     12.3813972238
     -8.6392356408
    -14.3194211989
    -16.3963042538
    -12.8527300129
     19.8894592494
     -6.4594839368
    -15.6263473740
     -8.9097199229
      8.5260071113
    -17.4494468587
     20.0390583843
     17.4886932260
      8.4597075195
     -5.6828637505
     18.7207563905
      9.8241312940
    -17.7726061462
     -1.5132721718
     11.1229364884
      3.9306596202
      9.6301122594
      8.6741262672
     -0.6221314441
     16.7906013862
    -13.1916646336
      5.3188881204
      7.0266506113
      2.8593992691
      3.1340381840
     -5.3324600342
     -0.6275074797
     15.9710397714
     -4.2231477031
     -4.1443678970
     10.3897364697
     -5.4039863534
      3.1003290614
      6.0209211620
     -3.0544882296
     -5.5580737219
    -12.5682313799
     13.5658776307
      6.8198775466
     -2.0693112847
     -5.3965480154
      1.5683673510
     22.3447365958
     -2.3560362082
     -2.1766087011
      1.4913173656
    -13.0267850523
      0.6758269346
     12.4371786996
     -6.7030602526
      7.8338968369
    -21.5351523890
    -22.8578195838
    -10.2073056969
      0.2232761576
    -13.2977355893
      8.9088599948
     10.6118436643
     22.2172207983
      6.0338818244
    -11.5401828785
      7.0367780064
     17.2623344555
     15.8962169117
    -11.6685297156
      7.7601219296
    -25.0412160513
      5.1303220140
    -14.1359608835
     -2.4795848858
    -16.6132302116
     -5.5087033089
     21.4894496818
     -2.2466363070
    -20.2438603847
     -2.3375153996
    -11.7402778424
     -8.7585772149
     -1.5927621915
    -26.7853527044
     19.4040853956
    -52.2830246341
    -54.0716989997
    -13.9544887862
     -5.3285939761
     11.5539836431
     10.7849310809
    -53.4510598473
     45.8807147993
      6.7730448699
    -33.5583814368
     26.5474377634
     13.4630535815
      8.7392818433
    -10.8695887686
      5.6224999329
     14.0786322987
      1.6970402481
    -52.0514688833
    -11.2415659124
     12.1504005867
      2.0575095176
    -52.8806394379
     -3.4625853652
    -32.5898074966
     -4.2615963276
     31.6816091448
     -8.2565382664
    -54.0857713232
    -25.9831468083
      2.9799650537
     14.3896810401
     29.0915858581
     34.8923071589
     -5.3070941856
     20.4425824747
    -18.7379508299
     -8.1110477935
    -51.4717774289
    -15.2834625962
     30.2701059548
    -25.1392907522
      0.7742217693
     11.6572445838
     49.2121475688
     -0.6243963824
     20.4525619691
    -12.8066733982
     10.5980424948
     -2.9212358192
     -1.7441267670
     19.1435664108
     79.9096287881
     -6.6571054490
    -12.4147542774
     -2.7747459699
    -18.4817246063
      2.6099016284
    -25.6701433435
      7.9991796008
     -2.7646825694
     42.4714052494
     20.0094069522
    -11.2665222686
    -17.3437340908
    -12.5991113422
      0.3737345445
     49.4886029172
    -29.3681663711
     38.6438874437
    -18.5288388378
     -9.8343278009
    -18.0589295697
    -30.4781278895
     15.1491906371
     58.7350099767
     -0.6505879763
    -93.3908197434
     40.1766952078
     48.0416498073
    -25.1934735475
    -34.4273244078
     -1.7774929358
     22.1066432193
     58.5311140427
     -2.8891861577
     -5.7859311942
     -4.5708073706
     45.9907911914
     50.6639487597
    -23.5500246091
     -4.9950373217
     14.1013645882
     -4.3338484230
     29.8860760712
     -1.7773956989
     -4.3659821544
    -16.9290552751
     19.8888168660
    -29.9190329243
     33.1748092210
      6.6560076151
      6.1581848626
     -1.3659125103
    -37.3233607196
    -75.7463068411
     -7.1358213939
    102.7654823744
     -4.9394923009
    -40.3074230908
     32.9956783388
     24.2710342392
    -28.2125218960
    -21.8820372296
     -3.5354598651
      7.9369189861
      3.4634172074
     12.2212598487
      6.5799876648
    -30.3263242358
     10.9356874817
     -2.9125848740
     -9.3587361819
     -4.2589337364
     -5.6070610384
     -0.7329902101
      3.1758670584
      2.9734598406
      5.5663693433
      9.7372606487
     -8.1757246293
      5.2226660913
     -1.8751790249
     -0.0150423791
      5.6821959030
     17.0050295266
     -1.2596585455
    -17.1985966866
     -2.8111015306
      8.9202832819
     -3.6766568494
     -6.9339635359
     -0.6145471797
      5.8747553762
      2.5875888077
      0.3239893981
     -1.0276170909
     -4.8111914385
     -0.4347490635
      4.3061544689
     -0.3687033562
    -21.0544912135
    -11.8849674706
     21.2840938101
     -3.2055563715
     -5.2741829926
     -0.7890171638
     -6.2997208619
     -3.2274688448
    -33.2248406092
    -12.5973881537
     25.7358070924
      2.7133036460
      5.3673919397
      5.8915041425
     -7.1519091988
    -11.4098539102
    -29.0743758217
      9.3957204210
      3.4227123287
    -38.0049005674
    -15.3594197035
    -15.9717838097
    -18.7262642805
     16.5949816988
      1.3052380697
      0.4983821329
      1.9149139000
     33.6346948768
     23.4539921632
      2.1906913826
     17.1424177229
     -1.0306271249
    -25.4899935319
      7.2115125551
     12.8311513380
     -4.6854168918
     19.5384676005
      1.4037944088
     28.4120967711
      8.5608230126
    -14.3906221154
      4.0631943010
     -9.3682866099
     -9.8328054367
      3.1888034559
     22.1467974668
     19.5663599521
      2.9483667257
      0.4128477173
     40.1146538100
     19.2366598253
     17.5734148343
     23.2415607546
    -22.9868285012
    -20.2655724483
     14.5252590734
     -8.9219650667
    -33.3048172566
    -11.9279914957
     -2.9426302666
     26.3027495080
     12.2088296054
     -8.9893252110
      4.3725041449
    -13.8686883293
      5.6091503414
    -28.7894528292
     -3.9308162191
     36.7737710477
     15.3049911779
    -50.1889259301
    -19.2248397193
     -2.4337606822
     -4.5315485772
      8.5049731636
     -8.7299792309
     26.9544484375
    -13.1840339009
    -12.0278389304
     19.0223726424
      6.1217121202
     20.6997574141
      0.9759611732
    -15.8997197711
     21.4777775756
    -24.7149984980
     -0.7880009354
    -30.0161838505
    -40.5056087553
      8.5486831300
    -24.3029121718
     51.0761036824
     12.1431319327
    -20.3295222317
      8.8235000229
     28.9364024375
      8.8579431723
     16.2907430783
    -46.8957276031
     -0.0473680974
     60.3914952006
     24.5244771168
     19.8957999761
      8.5903920536
     -1.9552878038
    -12.1466512996
    -12.9660033336
    -46.1654749651
      8.8841481815
    -16.1137338774
    -21.0483503373
    -38.2138950055
    -16.8736268550
     40.2696068222
     17.0498834462
     -2.1554302991
     25.9433346715
     37.9416392843
     25.6788336242
    -19.7796307309
     25.1509822060
     -9.3630857736
    -51.0185632771
    -33.8194717105
     13.9107253244
     18.1565836981
    -30.9608539614
     15.1156556258
      1.9319561296
     13.7474912424
    -21.4998746573
     42.2858632385
     -9.5730469080
     -6.3045604056
     -9.8500329914
     25.8125883826
      4.6839168527
     33.4680869418
    -16.9491032697
     11.3651100287
      4.3238849079
     27.9260952410
      8.3598522033
    -54.2346762444
    -20.2981965284
     -0.5593164209
     11.0576218174
    -12.3467157462
      2.7512520955
    -20.0659797189
     -4.8504816731
    -89.8604763038
      5.0608529943
     12.2407416512
    -14.0203253943
    -51.3620516783
     21.4406610216
    -21.4184931178
     -3.0616472476
    -36.2536953646
      8.1801543168
     -9.2013747317
    -26.0041031689
     -7.2910953856
      1.0618598250
      6.7082696080
    -14.5599456586
     63.2774772127
     -5.1896867460
    -40.9400478138
      9.9009992030
     16.0327463104
      1.6858724604
    -25.4048620445
    -52.8731155795
     27.1562959363
    -39.4906247159
      0.7013205733
     37.4197241272
      2.6316928341
      2.2322420019
     -7.9239459500
      7.4216024442
      7.5540151975
     -7.7127115115
    -16.5813136730
     10.0817351858
     -4.1231848277
     -1.1954571699
     -8.1109944774
     10.5750150493
     -4.4665652988
     -5.3088079967
      2.4864749422
     -1.2851221043
     -8.5542575393
     -0.9296417230
     -3.0951872598
      3.0318703712
     -2.2046868081
      3.2146075334
     -8.4916000707
      0.8462746959
     18.4965607799
     -2.4838288471
     -5.4143983228
     -4.8350444938
      3.1068860040
      8.5615443622
     -2.6710558114
     -0.6739428224
      0.5543955981
     -2.0707169249
     -5.3368843390
     -3.2795577455
     -6.5742957767
      1.3401578657
     16.6566189834
      8.9083142239
     -8.7925094678
      2.7970085468
     -3.0089224060
    -13.9086509907
     -5.7973254703
     -1.4407744623
      6.6384648594
     -2.6693173383
      6.4659248388
     12.2903252435
      1.4293429705
      2.3811531804
     -4.1939609318
     -2.7169205434
     10.2920284785
      2.9061807473
    -14.4078997717
     10.5054476511
      7.4723351109
     13.8647018162
      8.8818540221
    -14.4975812309
     -0.9814828769
      2.5964133085
      1.6740356727
     -1.2220969819
     -0.3500832948
     -5.4431225393
     -4.4886113229
      0.8345086329
     -4.5808307948
      6.9265004616
      4.7735577996
     -4.3221618814
     -1.7527504099
     -3.7063415115
    -13.0728431514
     -7.1534744515
     -7.1131322720
      3.9008937219
     -1.2579644499
     -3.9442495962
      2.7334096474
      0.0545242327
    -10.0744512675
      3.0060226901
      8.8627411002
     -7.2561389717
      0.3473372137
     -3.9043607799
      2.8618955177
      4.3720588395
     -0.7854693980
      8.1585506601
      9.3649996231
      6.6422024557
     15.3797102612
     -0.5358169594
    -35.3986469192
    -21.4489304121
     25.1453557136
     -5.5052013069
      3.6774489281
     32.2805225964
     11.0674382570
      5.9712089121
    -15.8401366436
      5.9904992392
    -16.8894596679
    -31.4193560750
     -7.5368655750
     -3.8941469225
     10.4054054335
      5.5056901010
    -25.7673068949
    -11.2854432262
     36.8046313805
    -26.2833428916
    -19.2547311801
    -31.2015142821
    -19.6571663149
     35.9234438538
      3.4493818173
     -8.8040617109
     -4.6530728231
      2.0062733117
      0.7815509210
     13.1067670897
      9.0839065325
     -0.2967166892
     14.3563959439
    -20.7656947398
    -10.7764094282
     16.6883869908
      4.8004361910
     12.4044155164
     29.6849219749
     16.5474254105
     18.1232463055
    -12.3242114377
      6.8399360674
     13.9102054892
     -8.8902340741
      7.0172817144
     27.1376056475
     -2.9503826206
    -21.8584404069
     17.0777345764
     -0.0917842216
      8.1053418427
    -10.1824407543
     -4.0832782856
     -2.6432995458
    -17.8117173844
     -7.4106722653
     -7.6701790901
    -17.4048392596
     -1.6827359908
     37.7034486308
     18.7647075553
    -42.1119174939
      3.6009637067
      2.6380717838
    -41.0229365524
     -7.7542031389
    -15.1386753770
     25.1321376535
      4.9473227759
     30.6485356658
     37.6668871567
     17.3964568027
      4.8141651429
    -11.4289979266
     -7.0499717621
     32.2888539119
     20.6851073100
    -51.8818893234
     31.8564249424
     22.4313881343
     33.3734435730
     17.4359930372
    -50.9576222662
     -3.8048061890
     16.8539351713
      8.6720416905
      1.3725472404
     -1.2655706411
    -16.2000326738
    -11.7590100909
     -2.8542861347
    -21.6385833644
     25.6980509070
      9.9876943157
    -28.7884826066
     -4.0612857979
    -15.4832573621
    -32.1379247213
    -19.2421992233
    -31.7797258238
     23.0301604231
    -19.2867589228
    -29.7524202262
     15.9659026203
    -17.4139396257
    -41.3978007622
     -3.6899852264
     29.4205066033
    -17.3664440324
      0.3456957651
     -8.7697064557
     18.0949586831
     -5.0569312922
     13.9669242146
     26.3971636480
     10.6430810981
      1.7142681154
     14.6890789947
      6.0112537789
    -30.8027617214
     -8.7210446672
     40.5878108546
      1.4534709620
    -17.9485471117
     37.9815702068
     -3.0579598216
     20.2935025162
    -25.8696900560
    -14.8815517152
    -44.1764251691
    -26.0262743466
    -21.5683966580
     -5.7091450697
      6.7686918631
     -1.6608430704
    -27.7822559947
    -17.2633993427
     47.1778259102
    -27.9616055418
    -17.3564111568
    -27.3823140304
     -4.9113060909
     59.4961232424
     -1.7071853109
    -19.7427637994
    -10.1212578120
     -6.3455262017
      5.0636468307
     12.3847065151
     14.8978822614
      9.9004607822
     21.2886437036
    -10.8400069625
     -4.8606570090
     30.6776312987
     -2.9094934764
      6.8622114042
     19.3457583839
      7.7865325068
     42.9084226578
    -27.1828169666
     33.6688192641
     35.5327508449
    -23.3428938305
     20.1689570691
     46.7378226269
      7.0803413697
    -29.4563008814
     10.2690023059
      3.6504090251
      8.5774952867
    -25.3074987467
    -35.8633766546
     10.5386724457
     86.6657371324
     62.6318405412
    -18.9670718891
    -29.2043787943
     49.6651999702
    -28.8409241988
     11.9867775278
    -21.9490258302
      8.0903739723
    -80.0864042853
     16.6767018417
     12.9764114827
     19.7245726911
    -35.7805253741
     -1.0930102503
    -40.0464366942
     33.9378226076
     -4.9775218294
     -3.2781408399
    -39.6572156293
     -5.0422424965
     89.1419626039
     46.6047028278
     -3.8613615484
    -15.6193920833
     10.7907348117
    -18.6730210849
     46.3323564591
      4.3981616021
    -12.4706538945
    -35.4850661508
      8.0151799826
    -35.7178253369
     26.7963187725
     44.7429145263
     42.6988495854
      9.8448133247
    -49.4640605166
     15.7740587974
    -15.4309380701
    -29.9712793066
    -67.3692637469
      8.2762722606
    -38.9051624035
     -3.3520046565
     15.1265514739
     20.4997708043
    -18.3394456534
    -40.1158427162
   -101.1632437367
     16.2054018885
     24.2124504487
      5.1614372639
     24.6170743866
      4.8606359847
     73.6184612217
     19.2250235404
      0.3971259084
     24.5873364935
    -25.7759373403
    -44.8090601192
    -30.8608241763
      8.0063508391
    -10.3908618115
    -15.6323455597
     21.9098193211
     -3.7734875635
    -12.6007955049
     -9.2856887084
     43.5937020011
    -24.0138626419
      7.0087415508
    -21.0964852153
     25.2402995143
     14.4256655653
     52.2397792236
     -3.5640765284
     12.8001905594
      6.3871700347
      6.3090352767
     14.7908643757
     -9.2280659808
    -13.0451925428
    -22.6597737824
     16.3325536057
      3.1917135233
     21.7722157095
    -21.1196715098
    -27.0423633746
      4.0691543317
     21.6542654065
      0.0427484187
     15.6980283108
    -12.3407190033
    -13.8643159636
    -21.5139329114
     -9.9727522991
      7.1161586430
     -9.5165620833
      1.8855094402
     -4.8773938706
     24.9760873940
      0.5552460862
      9.1951053737
      7.1424196514
    -25.3359345314
      9.2302168426
    -19.3206116203
     -8.0694223966
     37.3526464114
    -12.9734712824
    -26.0257764353
     -7.3039045333
      6.3935773554
     -3.4702588191
    -24.7772128257
     -7.8629507406
     11.7409651403
     -1.8315687494
     61.9069077706
    -18.3824004784
    -13.8722684798
     19.9340098640
     50.8369031886
    -31.1051800267
     18.8267410340
      9.8277940267
     37.9930037783
    -22.8428892598
     10.6588499462
     19.8316137184
     -2.8129568149
     -1.2435118307
      9.2938381644
      3.6216836184
    -30.9131863981
     -3.8227920989
     29.1647798640
     -7.3492132457
     10.3238214240
     -4.4259999888
    -19.7252965888
     28.9294912622
     -2.9644137684
     26.4664588996
     -7.2185915748
    -37.6226714383
      4.8287865490
     -2.4854774733
      9.1679282635
     13.9506124271
     -0.2861750782
     18.4857688743
    -11.8381192617
    -29.9757753136
    -19.0269811874
      0.5391439267
     28.6799874357
     -0.6848473042
     13.0119035826
     13.8373577320
     35.2938391182
    -11.9120586841
     18.5672414301
      1.2734878468
     -6.5888493113
    -15.2062560439
     22.7164352967
     26.5127311142
     58.0251832568
    -11.6534505406
     -8.8123282973
      3.6602715016
    -13.7282517071
     -3.1660282116
    -39.2380151064
    -13.7688781271
     -1.2519705862
     -3.2693218771
     -2.7792057420
     11.7636205429
     -6.8153880805
      4.7390984817
     -2.4626913255
     -1.8546940708
     -9.7054004902
     -7.2741129921
     -8.1872438320
     -7.2034473013
     -1.6974807123
      8.8302689139
     11.6314176170
     10.9766420489
      5.4959321727
    -16.7837323992
     -1.2095345318
      2.0913811140
    -12.0067444047
     -0.8339896159
     14.2930039102
      4.7581774062
    -16.4301919454
     -4.5420050514
     -0.4671157134
      0.7993822528
     -9.8888905855
      4.3439440783
      0.7259282582
      3.4866892656
      3.6994210612
      1.8219980743
      1.5748388451
     -1.5427330971
      3.2169697200
      0.1279192814
      1.8619792984
     -0.6711412055
      5.0146038741
     -1.5594995818
      1.6474011029
     -1.9843638283
      0.3034458107
    -14.5721664966
     -0.6581502026
      2.1084629695
     -5.0559417792
     12.4517200269
      4.4606763242
      2.7215804791
     -0.0613604231
      1.3080614591
      8.5135059593
      6.4296961960
      0.8820924008
      0.5663356245
      3.7215041976
     -3.8526652201
     -4.6603062796
     -4.8613149682
     -1.6227973517
     -1.6614269427
      2.4960281251
      1.8293080733
     -0.1141833143
     -1.2704950780
      1.5593336015
      2.0512132257
      2.6976720332
     -4.1248506383
     -4.3309664738
      5.1776216448
      0.0506523002
      6.6624551208
      0.7247376192
    -14.1424896395
      3.0254147913
     -9.2787068388
     -0.5935077383
      0.4036937873
      2.4086693958
      8.4340436885
    -13.7042593892
     -1.1714308743
     -0.3108815690
      4.2212521549
     -0.3049040281
      3.9845723490
      7.3463044171
     -1.4879252305
     -0.8125286901
     -1.5100678580
     -0.9083432562
      0.1720766902
      0.9082103526
      0.5311566733
     -1.3069613532
      0.8714517523
     -1.5292083606
     -0.8280358962
     -0.7258621970
      1.3950823965
     -0.5750511595
      5.8990518183
      0.7135169338
     -0.2484052907
      1.4897243943
     -5.4784803891
     -2.0306843266
     -1.6086084762
      0.0350291932
      0.8260093535
     -4.0487743297
     -1.6063564106
      0.2211617072
      0.0578671603
     -1.3152887880
      1.2450475404
      1.6777705152
     -6.0709188841
     -2.6966678698
     -2.4256259567
      2.0714008215
      2.4908628016
     -1.3047273345
     -0.9468113977
      1.1060560752
      2.2100564639
      0.9917762461
     -4.1542750125
     -5.2302376822
      6.0839449164
      0.0825768868
     12.6997495084
      0.8502703469
    -16.5047583264
      5.5608647294
    -14.7143243841
     -2.6945424977
     -0.6705400481
      3.3186855607
      9.1150336548
    -18.2106606303
     -3.9427797390
     -0.2533991824
      4.1042886138
     -2.0400086841
      5.7215154039
      9.2072895326
     12.6933714172
      1.7750694501
      7.3299051534
     -2.2426932817
      2.8407694380
     -0.8887997871
      1.6427864126
      0.5739487026
     -5.3672551199
     -2.7185053109
      5.9646805144
      6.4198131803
     -9.5720767907
      6.0324514225
    -16.7185558613
     -2.1205828878
     19.5415929775
     -3.5503906863
     21.4043311801
      3.8411936667
      4.4322690608
     -2.8361652596
    -14.9365239172
     25.9170144803
      2.2165540904
      1.4879092039
     -5.3377532806
      0.1549006182
    -10.0354923176
    -13.1819212637
    -12.6428105906
     14.4479441222
     -5.7856288978
     -2.3864389568
      3.6820465210
     -7.0707997187
     -4.7949068040
      4.7972055835
     13.5664287364
      6.2547960664
     -7.9916491816
    -15.9791382227
      8.0679367832
     -2.3408660762
     10.1593469618
     -5.7989497414
    -28.7654044156
     -0.7636720709
     -6.0175009603
      8.6367075521
      6.6375789319
      5.6850848384
     15.3772337575
     -8.4330688092
      1.5512793901
     -2.6127995900
     15.7864208496
      4.0905084618
      7.3358762469
     13.4569692827
      8.3038018476
     -6.3869725385
      2.4628229434
      0.9365619719
     -0.8761128002
      4.2897883453
      3.0230833162
     -4.8836138240
     -8.0021252662
     -1.1701869681
      5.9512013830
      8.5608360522
     -2.8992631393
      0.2568461920
     -3.5358280877
      1.0391603624
     11.9587535428
      3.8147439719
      4.4476174871
     -3.2789155323
     -4.7088966942
     -0.4199813107
    -10.4444824666
      4.1464860817
      1.7923828540
      3.4234665878
    -11.6805859767
     -2.8084006994
     -0.7910283783
     -8.6608314975
      7.7886775365
     -4.3662985879
      3.3326406138
      0.0256887823
     -5.3553420064
      8.1234044450
      2.3251444610
     -3.2426516569
     -3.1795820941
      3.4988024772
      0.5617872717
      6.5104408608
     -1.2252494741
     -0.2136009815
    -11.9930789967
      4.3697020593
     16.2682288881
     -1.3346740831
      8.5906636390
     -1.7989160581
     -1.5291736945
     -1.8194474484
     -2.5959928511
      6.5994522970
      2.7591086595
      1.3024827764
     -5.6791603055
     -0.7782949209
     -3.7429511099
     -7.6597327963
     18.3586653336
    -16.4429101874
      7.2839363914
      2.0101834866
     -4.8941865015
     11.0000438911
      7.1483630894
     -9.7317590472
    -16.7907444775
     -4.3484231762
     10.5476205956
     19.6256536591
     -8.1374669590
      1.5506303028
    -12.7002313040
      5.2104944647
     32.9722943799
      4.9908089205
     11.0630906980
     -8.6305397067
     -9.8591986171
     -3.5242498265
    -20.9448241851
     11.2220850086
      2.7813230249
      5.7897571348
    -23.0797672555
     -5.5895394054
     -5.4467913419
    -19.2430389308
    -29.1155289068
     19.6683774719
    -10.0763588401
      6.0055767424
      4.6585813699
    -16.6366939415
     -8.5371312842
     17.6644743691
     16.0667042173
      1.3578373184
    -10.9572333584
    -26.0191208088
      5.1395104012
     -3.0600811483
     13.2774991598
     -4.6455414322
    -53.3349954662
     -7.3933829074
    -14.0407635641
     11.4866996938
     13.9688873354
      5.7480049357
     21.3240722952
    -19.7868339705
      0.6284944201
     -6.0050177126
     27.0856760676
     11.5189124864
      6.5621385241
     26.3296980545
      0.0856669972
      0.3192957873
     -0.6478447585
     -0.1111336010
     -0.0803669365
     -0.4986760816
      0.1269241848
     -0.6995994399
     -0.7423493146
     -0.4330783765
     -0.2762862866
      0.4617933299
     -0.2127406886
     -0.2012424337
      0.2576480499
      0.1770397839
      1.5186504898
     -0.1388855415
     -1.3389399966
     -0.4443998289
     -0.5093295918
     -0.1453674799
     -0.0216471260
     -0.0324220289
      0.0666710412
      0.2395517126
     -0.2586657488
     -0.2461966971
      0.0367594045
     -0.1351650854
      0.7538195274
     -0.6686898493
      0.8664987278
     -0.2230777176
     -0.4289176171
      0.5703533063
      0.0971188052
     -0.1492845148
     -0.5388874768
     -1.0521860653
      1.1798355156
     -0.1521260110
     -0.1448867754
     -0.1684940123
     -0.7332446177
      0.5330521630
      1.1701727294
      0.8767353378
      0.2042737473
      0.0343644334
      0.3802249180
      0.4849537985
     -1.5374999045
     -0.5696551249
     -0.3177186669
     -0.4486032926
     -0.7104477684
     -0.6639793839
     -0.0265465532
     -0.5028294990
     -1.1657312314
      0.7941596926
     -0.1330392390
     -0.4940899981
     -0.0804513189
     -0.7490962187
     -0.5971279335
      0.1439353553
      0.0759945148
     -0.6438292712
      0.0123960476
     -0.9913720011
     -0.2418945489
     -0.2687895918
      0.3024570341
     -0.7107027453
     -1.6646081555
      0.0963396863
     -0.2190975644
      0.9838108874
     -0.0462838753
      0.7781706639
      0.8473117640
     -1.7771433054
     -0.2433972270
     -0.1655081947
      1.4215286456
     -0.0096754423
      0.6076548031
      1.1401304741
     -0.3535603432
      0.1092574710
     -1.3863378932
      0.4699784619
      0.7805467991
     -2.1279816621
     -0.2092933923
     -0.1868897750
      1.6800512463
      4.3622284753
      0.0298395033
      3.0133237110
      0.6827101456
      0.1308322429
      0.6090693750
     -2.7495173010
     -4.6163400006
     -0.2125255529
      0.1657959200
      0.7610010182
     -0.7557981252
     -0.6494182637
      0.2724728347
      2.6514469078
      1.6559841400
      1.9247377542
     -2.5019801652
      1.6087611755
      1.3714708980
     -0.3815927192
      0.4782077638
     -4.3623012312
     -1.7883264303
      5.5138175356
     -1.0141157441
      1.9116538104
      0.6133926159
      0.1335207509
     -5.7122836308
     -5.3325555312
      5.3587117978
      7.7332214171
     -5.9184589659
     -1.2894383565
      4.8545989956
     -2.3438475739
      1.8913226855
     -2.9995649882
     -1.3244079152
     -2.4138293227
     -3.4481747316
     -2.1450693566
     -7.2515605223
      3.5552853549
      1.2957587037
      2.4879702309
     -6.5946809296
      2.1681894394
     -2.3329016664
     -4.1210188032
      1.1687218022
      0.5724257794
      0.2593683124
     -0.8648706279
     -0.2120268523
     -0.0193487335
      1.6634306352
     -0.7663336492
     -2.7303324898
      0.7479355523
     -1.9095668185
     -1.2990828298
      2.5337017255
      0.0717765704
      0.7696007928
      0.5581730403
     -0.7888927624
      2.8550761058
      1.2184419750
     -1.9631450619
      2.6195363770
     -1.1435273890
      1.3316326180
     -0.3991410289
     -0.8681275517
     -1.1687738523
     -0.3214703426
     -0.8562446915
      0.4362317391
      0.5108879451
     -0.3989025679
     -1.0431561134
      5.9046553954
     -6.7081845907
      3.4483829627
      7.7944685558
     -2.2478122100
      1.6648930744
      2.2067559128
     -4.5200909734
     -3.1439122111
     -5.3509699757
      0.7799962143
      4.2755914203
      1.0161294633
      2.1453992026
     12.4867309376
     -0.2965026553
     -1.2737068138
     -1.4334290900
      4.9853968067
      2.3977375140
      8.6393600298
     -0.5095144134
     -6.5085182067
     -2.0132522499
      9.5543766627
     -5.4129111363
     -3.2913105759
      5.5624899269
     -0.5415903887
      1.3977814583
     -0.9300868123
     -0.4212718478
     -0.5174040247
     -1.2917762464
      0.7593682814
     -0.7063611138
      0.3878375792
      0.1124376794
     -1.6439629784
     -0.1514983784
     -0.0069218512
     -0.6212462246
      0.3702626575
      0.6820913218
      0.0801198652
     -1.2480532399
     -0.8316848669
     -0.2198780877
     -1.0376313955
     -0.7839766725
      0.5316941898
     -0.9518463405
      0.2817465996
     -0.3256425704
      0.5577060450
     -0.3010864793
      0.1511248136
      0.0499605053
     -2.0108524108
     -5.2797082739
      2.6054961349
     -0.1101466548
      3.5436093192
     -7.6141381567
     -0.5765326252
      1.9769240153
     -1.5078594342
     -7.0685473741
      5.7465872755
     -0.2968648835
     -3.6088831723
      2.5315948360
      4.6594028191
      0.3626534383
     -0.2914566432
      3.2337502293
     -6.5174608174
     -2.8737570173
     -0.2150569762
     -0.6958499086
     -7.8541977124
     -4.2128773606
     -7.9515940715
     -1.8360407951
     -2.8393152675
     -3.7293165929
      0.6178829161
      2.1852398459
      5.0578541009
      2.0164229836
     -5.0485763283
     -7.1263936791
    -11.4075688998
      2.9004214328
      1.5325764039
     -8.8135205467
      3.9483920409
      1.1463715010
      2.5354891124
      5.9754447495
      2.2366513696
     -9.2316791859
     -1.1235747888
     -0.0567368281
     16.5953254995
     -5.5844723470
      2.2628190569
      0.0062321972
     -7.1913690127
     -5.2404871012
     -2.0095073964
      5.8267715289
      0.9387090626
     -4.3038955529
     -4.2103375611
      0.5036907018
      1.4946083785
     -8.7753706385
     -2.1593377578
      0.7866286097
     -0.0064522563
     -0.0736192901
      0.4757892371
      0.2438790964
     -0.3926612060
      1.1564121207
     -0.1859151472
     -0.8683910508
     -0.0946592761
     -0.5111692681
     -0.7504185689
     -0.2357758954
      1.8159484810
      0.8506485293
     -0.3716964171
      0.4114789676
     -0.8851956564
     -0.7843236431
     -0.2798071497
      0.5662238234
     -0.3986066671
     -0.7812882869
     -0.2877543736
      0.9473928685
      0.2257566176
      0.2894500875
     -0.4278972739
      1.2797258922
     -1.0551461329
      0.2975338912
     -0.0061809961
     -0.9215039089
      1.2681400638
     -0.9866477914
     -0.2678746379
     -1.2013245645
     -1.3833198403
      1.2209432636
      0.7408808688
     -0.0189673833
     -1.1441993703
      0.0572906494
      1.4249887312
      0.3143755871
      1.6102856759
      0.9993852764
     -1.1606347790
     -0.1311911422
     -1.2423303783
     -0.2638976812
      0.5576680163
      1.2239629581
      1.3536149825
     -0.3842495549
      0.1721459911
     -0.9530496768
     -0.5554541662
      0.1413268661
     -0.9205569868
     -0.1338076398
     -0.3537501241
      3.3051995944
      0.1671537345
      0.2340599633
      0.4522215600
     -0.4529105240
     -0.1655195262
      1.0965977842
      0.0225766071
     -0.3193318840
      0.1896549769
      1.2514998404
      0.2871838806
      0.7755773285
     -0.2308680193
      0.4955093526
      0.7339916157
      0.1263309776
     -2.3019678962
      0.5194592734
     -0.1604575523
     -0.1462502702
      1.2160116540
     -0.4119652623
      0.4559754984
      1.8046789378
     -0.0779596431
      0.6811151668
     -0.4772268240
     -0.2100439010
      2.1583239651
     -6.1534122902
      0.2108320881
     -0.7170452129
     -0.0718210175
     -0.2035980193
      0.6053182861
      0.4369953922
     -0.3939431238
      0.2157546886
     -0.4460508878
     -0.3264212450
     -0.0258626845
     -0.4120780379
     -0.5185482531
     -0.0887890184
     -0.4068757045
     -0.3189432655
     -2.5521944110
      2.9128245511
      0.3691588284
      0.7472517866
      0.0842619301
     -0.0285572233
     -0.2303711391
      0.4206119932
      0.1267120253
      0.5265408040
      0.2278440016
     -0.6067188338
     -1.4442267740
     -4.7871432885
      0.3731273304
      0.0708605617
     -0.2237791638
     -0.2424261897
     -1.2929253494
      0.0940664256
      0.5903581091
      0.2120561581
      0.1345483151
      0.4412526513
     -0.7326374125
     -0.7627525422
     -0.9069501866
      0.6047993443
      0.6375936738
     -0.3612044230
      0.4516960270
     -0.9398007963
      0.3477041721
     -0.1470300921
     -0.8029605505
     -0.9288186183
     -0.3158131036
     -0.4987284039
      0.1967738948
      0.0182768769
     -0.2049029722
     -0.2007181096
      0.8349893864
     -4.6892852003
     -0.2684716411
     -0.0833009046
     -0.0284627088
     -0.4418775661
      0.3895360895
      0.8260353388
     -0.1382820029
      0.5690779192
      0.5586803216
     -0.0026939664
     -0.2452770400
      0.4104905360
      0.9443119774
     -0.7173168515
     -2.3801500417
      0.3828247333
      0.9911904916
     -1.4712361750
      0.1194473139
     -0.6369229634
      0.5515548720
     -0.2422294223
      0.0741176895
      1.0929171517
      0.5848452361
     -0.1764152866
     -0.1524243792
     -0.1598417955
      2.5502779633
     11.4209204141
      0.4387601224
      0.0726798389
      0.3105682476
     -0.5324192209
      0.3975089252
     -1.5442067607
     -0.7411470700
     -0.0593017693
      0.3492425547
     -0.3171964014
      0.7493250793
     -0.3752465481
      0.1350835561
     -1.2555603082
      1.2570540871
      0.7899380359
      9.5582188416
     -1.6903105237
      0.5043680396
     -0.0056774380
      1.9978629047
     -0.1124433911
      0.9213569478
      1.2364668049
      0.0823755041
     -0.9241967774
     -0.3184978654
      0.7268957866
      1.8183467701
     -0.0747653940
     -0.3439849459
      0.0421097577
      0.5498378326
     -1.1514451742
     -0.3148034078
     -0.2278314794
     -0.2066048506
      0.0320482390
     -0.3105510081
     -1.1828871244
      0.1022319609
      0.8013139126
     -0.3935288851
      0.5452069026
     -1.7017166697
      0.8465803264
     -0.2216369977
      7.7510494457
     -0.2007053836
      0.7113518724
     -0.2026875581
      0.8124164533
      0.1286645533
      1.0155085005
     -0.1748325921
     -1.0523166928
      0.5368436821
      0.0760635956
     -1.6616728222
      4.3482245393
     -0.1494815711
     -0.4910345726
      0.3352320270
      0.2249986710
      0.7113350198
      0.0186840983
     -1.4342584889
     -0.0319139145
     -0.5557649488
      0.0790259417
      0.4948414617
     -0.1315975181
     -1.6256081386
     -2.0089806904
     -1.6174727290
      0.2992474115
     11.8137920706
      5.6765437665
     -0.5438148761
      0.5627965132
      0.6743127096
     -0.0775287851
     -0.3552640410
     -0.0748181159
     -1.0341538872
     -0.2177558418
     -3.5163235252
     -0.3257529681
      5.9774812362
     -6.8221467285
     -0.3418216904
      1.1065047998
      0.8878351951
      0.5090950835
      1.3063590582
     -0.0363641225
     -0.9189698200
     -0.0748922715
      0.5178962028
     -0.3926779541
     -0.4944869048
     -0.6915214719
      2.1112302366
      0.6945832186
     -1.0427768740
      0.2072922797
     -0.7085119763
      2.7811306335
      0.4486131366
      1.7202299177
      1.8785924745
      1.1358031350
     -0.3613917412
     -0.2569989335
      0.7066219351
     -0.0192981371
     -1.8608735072
     -0.1386432401
      0.2254712027
      1.2029747711
     -0.1738689988
      0.4102916271
     -0.3833896937
     -0.3024355682
      1.2915175881
      0.4239935038
     -0.2059214716
      0.6349310887
      0.5731354149
     -1.9092986654
     -0.7276869903
     -0.1652453846
      2.4535344707
      1.6007552191
     -0.5753550315
      0.1403687603
      3.4887905388
     -0.8884833794
     -0.0888288115
     -0.6290735035
     -0.7988384824
      0.8676046567
      0.1774222333
     -1.2620615602
      0.8069194897
      0.4175932376
      0.1799938872
     -0.9430750027
      2.1504588107
     -3.9976562541
     -0.0050455731
     -0.6825203596
     -0.1569206036
     -0.6291093574
     -0.5221160352
     -0.1679053288
      0.3460618181
      0.4394888225
      0.3251408926
      0.9629420979
      0.7016983825
      0.5815425094
      0.6740291324
     -0.0201428659
      0.7805440807
     -0.0650294591
    -10.9007664092
      6.0544502044
     -0.0700323812
      0.0948483779
     -1.5973814020
     -0.1991730681
      0.0635005867
      1.8900634155
      0.6552626576
      0.6452245948
      0.5227222279
     -0.5939574672
     -0.3734391239
     -0.0104314119
      0.0736916390
     -1.0238608682
      0.3981010512
      0.1540295230
      0.8772056473
     -1.7211598673
     -0.2160557702
     -0.2518643014
     -0.5364044779
     -0.9507034089
     -0.2948604084
     -0.3140429430
     -2.3807669890
     -2.0616987838
      0.2191143434
     -0.1093640590
      4.0337211463
      2.4937366903
     -0.6721761945
      0.9725806710
      1.8488614910
      0.9160056334
     -0.3621237123
     -0.2763758371
     -0.3247550299
     -0.5567142681
      0.6113014837
      0.1590299447
      1.1162204824
      0.6648361196
      0.2012313545
     -0.0699842526
     -0.9097193092
      0.1830240536
     -0.8671840477
     -0.2948755345
      1.1029056143
      0.5599839142
     -0.0332946984
     -0.9787439774
     -0.2147381434
      0.1659937434
      1.7589170448
      0.7416361672
      0.1950882422
      0.1235897568
     -1.3901238832
     -0.7690553599
      0.0545086924
      0.1340384108
     -0.0655812527
      0.4484093121
     -0.4219716568
     -1.5332455159
      0.5600759037
      0.1992057274
     -0.6479051312
     -0.3658699482
      1.6220086446
     -2.3170366749
     -0.4364384996
      0.2411648587
      0.3776326494
      0.4438761217
      2.0437012343
     -2.3572032470
     -0.2046806838
      0.1240598536
     -0.8756143028
      0.1982514018
      0.3910826182
      0.2690636074
     -1.7548304843
     -2.2997898948
     -0.3113699603
      0.0672017443
    -10.5652795766
     -3.1627484134
     -0.5337552635
      0.5409088841
      2.3388544815
     -0.6438492106
      0.3163968933
      2.5052795939
      0.1364379257
     -1.7516905948
     -0.1075038696
      0.2803246237
      0.5841609471
     -1.6280884610
     -0.3040755385
     -0.4403875784
     -0.0629217815
      0.6018746225
      0.0868541113
      1.4761329063
      0.9399024483
     -0.1693130839
     -0.7777780286
     -0.4916786805
      0.0002435373
     -0.3016484384
      0.3289340691
      1.3515838021
     -0.7787385335
     -0.3521596101
     -3.5007356596
      2.0283145098
     -0.0670219732
     -0.3262767626
     -0.9999263340
      0.3077311782
     -0.4656103361
     -0.8953682517
      0.3038406715
      0.6751055211
      0.6098722626
     -0.1220432681
     -0.1600063664
     -4.8612831517
      0.1235032872
     -0.1598303189
     -0.0450320901
      0.5258462443
      2.3721587071
      1.0364126267
     -0.3164198014
     -0.2765280358
     -0.8376316161
      0.3428009193
     -1.3725501602
     -0.6560470453
      1.6721770081
      0.4365114807
     -0.0861288696
     -0.3287844170
     -2.2499341057
     -2.3658370521
      0.7730589432
      0.0979849439
     -0.2447174699
     -1.7216491823
     -1.4070232454
     -0.9080426460
     -0.1096422672
      0.1934375678
     -0.3479611067
     -0.4388581751
      1.0954088785
     -0.3201531907
      0.2336113319
     -0.2679243035
     -0.0060244738
      0.1883869445
     -0.5826827935
     -0.2520559034
      0.5942718151
      0.4883170251
      0.4542095310
      0.0813529503
     -0.9906466596
      0.2594052462
     -0.5439978962
      1.2488738533
     -0.6093588861
     -0.3505788746
      0.5921823571
     -4.1939297501
     -0.2650915911
     -0.3979848265
     -0.3193996199
     -0.0782551317
     -0.1724683005
     -0.8174452002
      0.1275922897
      0.3444979533
      1.8340453098
      0.5931477005
     -4.7315384118
      0.0035468753
     -0.1855890895
     -1.1175452985
     -1.0212944665
      1.0735717396
      3.4205034521
      0.3387022277
     -0.6982633790
      0.1517609525
     -0.6287017299
     -1.3803727913
     -0.3350862963
     -1.5771002579
     -1.3704228269
      1.7352146045
      1.5430941805
      0.2194229790
     -1.2509382176
     -5.4449735024
      0.1161768195
      0.3889665860
     -2.3712765197
     -0.3895497777
     -0.8680325172
     -5.4140319531
      0.6747461100
      2.6166491116
     -0.2199023510
     -0.0806204619
     -0.1160417538
     -7.1839820136
      0.6784770583
     -0.2372565780
      0.3252801722
     -1.1713379087
     -0.3608309242
     -0.5612155877
     -0.4262238531
      0.0183391840
      0.1819379416
     -0.0492870010
     -0.1796378771
      0.2371922831
     -0.4807093801
      0.4857651272
     -0.4451741543
      0.1709047932
      6.3042854977
      6.5304083989
      0.5350947254
      0.9264557918
     -1.5211121581
      1.8016000781
      0.1909930076
      0.8622048904
      0.1730058200
      0.4566591396
      0.5450505991
      0.3160542011
     -0.4186023543
     -0.3880120777
     -0.4071730652
     -0.8524899086
      0.1239492166
      1.8530248828
      4.4403960549
      1.2098475349
     -0.5938682764
     -0.2705589946
     -1.3582642394
      0.7201682626
     -0.8696536789
     -0.9396701977
     -0.9094628934
      0.3401122474
      0.6509167702
     -0.2545830086
      2.0857685572
     -2.5312714866
      0.1060760862
      0.6774055597
     -0.3857896287
     -1.5416951600
     -1.5440529576
     -2.8427176707
     -0.1669474591
      0.8196128746
     -0.2227477214
     -0.4549531955
     -1.3586426120
      0.6503516322
     -0.3758635784
      0.4044819951
      0.1235787438
      0.0287424022
     -0.6465897060
     -0.6052134453
      0.6440271240
      0.2306227983
      0.4883436071
      1.8214280123
      0.2262223588
      0.6114475448
     -0.4830564105
      0.1008800063
      0.6547868035
     -0.1971649784
      4.0049572391
      0.6794363709
     -0.2811560997
     -0.3397698546
      0.9469508847
     -1.0405722223
      0.5017165197
     -0.5454278964
     -0.5282618019
     -0.5449714135
      1.4582910800
      0.2748572753
     -0.2076914187
      2.5850890564
      1.1129312584
     -0.7501195885
     -1.5349593483
     -0.2773256941
     -0.6494532600
     -1.2798005154
      0.3819338079
     -0.0370089419
      0.0202809964
     -1.6664667135
     -0.7307483870
     -0.4914171498
      0.5361963786
     -2.0818168854
      0.0196918632
     -0.3227960933
      6.2287508074
     -2.1071447692
      0.0964223785
     -0.9399206095
     -2.2068790342
      0.4801829867
     -0.0906126234
     -1.2617466386
     -0.1196774460
     -0.1005688296
     -1.5213023586
     -0.0905866906
      0.7362023709
     -0.6220151674
      0.4085466407
      0.3275310726
     -0.9499777759
      0.2511138023
     -0.6239508210
      1.4037531291
      1.0184319477
      0.3677444867
     -0.5315749511
      1.1498304758
     -0.3620255037
      1.1458055791
      3.6895444344
      0.8539324738
     -1.8746394726
     -0.1968179886
     -4.1575060587
     -3.4090537974
      0.2274727674
     -0.1432886930
     -1.3535044285
      1.0189042369
     -0.2509053987
      1.3289751201
      0.3633353075
      1.1974007015
     -0.0649625112
     -0.6908191207
     -1.2268388322
      0.2316609811
      0.0504643265
     -0.1800224803
      0.3250720796
      0.2479549411
      0.8814407442
     -0.0321456304
     -0.1571293927
     -0.0393439179
     -0.0605855383
      0.1208879459
     -0.3670666273
      0.2239327200
      0.0588550217
      0.5065003092
     -0.8052553497
     -0.1733015164
      3.5553173331
     -1.6031085674
      0.1884884566
      0.4609558813
     -0.2447675961
     -0.8449738767
      0.1364601505
      0.4355554388
     -0.2075428302
      0.0993123985
     -0.6119550343
      0.2781876797
     -2.8076006642
      0.1705796907
     -0.2053385604
      0.2672040431
     -0.2061035193
      0.2351491235
     -1.3980007370
      0.5551354475
      0.9108582636
     -0.1644494984
     -0.5265228763
      1.9460679276
     -1.7772728971
      0.1530903815
     -2.3367028488
      0.6850705710
     -2.1180459358
     -0.0114659062
      5.0975041505
     -6.8941053198
     -0.0546336408
     -0.8454666440
      0.2939672009
     -1.1178356309
      0.0299128778
     -1.4558435499
     -0.7137893967
     -0.5563311429
      0.5658333927
      0.3047247861
     -0.7781227009
      3.0847110748
     -0.2520468128
      0.7342010981
      0.5674534545
     -0.6114957180
     -0.6607593257
      0.9545939685
     -0.2912003508
     -0.3553896456
      0.1016169765
     -0.2036581746
      0.2218196223
      0.1330865475
     -0.6441993497
      0.2359787497
     -0.7969561884
      0.4168697976
      5.3628547077
     -2.4734496503
     -0.7230068544
     -1.3294193522
     -0.6734909328
      1.3053037257
      1.7700370660
     -0.4165312581
      0.0014537322
      0.4793122537
      0.2239218796
     -0.4764649509
     -0.2729654554
      4.2779153912
     -0.0128393447
     -0.0456642476
      0.2026310062
     -0.1036246814
      0.9218304019
     -1.5242478742
     -0.3010388602
      0.0091775053
      0.4149534449
      1.6885301542
     -0.3660248459
     -0.4368137730
     -2.5301852276
     -1.2427305064
      0.6703466621
     -0.5494819571
      1.7843592336
      2.1491920275
      0.1002181315
      0.2314835023
      1.3307664842
     -0.9214238624
     -0.0635670566
     -0.5986639568
     -0.4498466351
     -1.1045644299
      0.0089552050
      0.1180803640
     -0.6113132775
      0.3883090441
      0.2156529981
     -0.1365010498
     -0.1787708495
     -0.0215573334
     -1.0125782503
     -1.6258264440
      0.2638166497
      0.0933803204
      0.3372527887
     -0.3811484997
     -0.3574807525
      0.4878624446
      0.1839916705
     -1.9478630152
      0.5235917529
      0.3282575785
      2.5573676716
      0.1951377580
      0.1809824575
     -0.0871668531
     -0.1820685475
      0.3325036048
      0.3286184122
      0.0499936560
      0.0515685489
     -0.7846688716
      1.5799363450
      0.6658144421
     -5.6208345839
      2.3444966767
      0.5043127288
     -0.2135347679
     -0.5063537469
     -1.2038256081
     -6.5252659501
     -1.0964136904
      0.7122609692
      0.6926833570
      1.2162022910
     -0.4667123793
      1.3163578138
      0.3322378487
      0.3956935206
      2.3851633400
      1.6841409958
      0.3121491180
      6.1931728812
     -0.2816299206
     -0.0522311258
     -1.2769991635
     -1.8553173312
      1.5762829578
      1.8967969596
     -1.2253636990
     -0.4861701504
      0.1908119430
      0.3498354889
      0.0528145414
      0.7273205763
      2.9258810467
     -0.2640099507
      0.8060950637
      0.0993585077
      0.3226804863
     -0.8000448851
     -0.6187993790
      0.6192779862
     -0.0543762581
      0.0640419507
      0.9264538305
     -0.3292592468
      0.5392370723
      0.1763222444
     -0.6424292460
      0.2178952713
     -0.3793875923
     -0.6224914341
     -5.1080476537
     -0.1083778176
      0.3772976264
      1.0596496409
     -0.6958590326
      0.0678660955
      0.1884694265
     -0.2639173290
      0.2279289242
     -0.5503876694
     -0.3754215102
     -1.0434016784
     -1.9469693349
     -0.3920990182
      0.1401641622
      0.5310339931
     -0.0103097811
      0.6983654893
      1.5599383595
      0.1709732644
     -0.0965990281
     -0.1221307583
      0.7912561419
      0.6500274646
     -0.0631498818
     -2.3367266794
      1.4944955471
      1.7320627540
      0.1353866291
     -5.9361448438
      0.3167577152
     -0.3012041108
     -0.6650040215
      1.0152225340
     -1.5194108637
      0.1477009806
      0.6334926331
     -0.0178958493
      0.1846657470
     -4.3236163190
      1.8829773717
      4.5189446596
      6.2433229707
     -0.6605528421
      1.3477580219
      0.7645879120
     -0.8607045668
     -1.9956185291
     -2.4079215073
     -0.4002111443
      2.0660837635
      1.6892269517
      0.1747879780
      0.9418252130
      3.3416426133
      6.6130732613
     -3.0466804592
     -2.6855807636
     -0.0830431862
     -9.1486283498
      4.7895775918
      0.0851569773
      1.0140461248
      1.9026624271
      1.6730056707
     -0.6962115016
      5.2348789621
      0.8682898065
     -1.1778787211
     -0.0384446987
     -0.0831934954
     -0.0993113735
      0.0730532500
      0.2061833170
      0.1750844982
     -0.1374927885
      0.1738596427
     -0.0163010772
     -0.0325259787
     -0.0679427694
      0.1903555613
     -0.1199927980
      0.1422063845
      0.0698883464
     -0.1068138669
      0.0160860746
      0.0508928075
      0.0208142798
      0.2024673950
     -0.0048072135
      0.0027121254
     -0.1971524270
     -0.0822756623
     -0.1347865292
     -0.0213455140
     -0.0952860036
      0.0335710065
     -0.1857422068
     -0.2229233567
      0.1171695543
