     -1.5042651320
     -0.4072839170
     12.7034108145
      3.7487370689
      3.0209553098
    -42.2202674453
      1.5029775940
    -16.2088229474
    -41.1308877198
     -0.5823411470
      9.2921459051
     22.0350964537
     23.7466663164
      0.2961909686
    -14.9182274051
     -2.8846473524
     19.4652539222
      6.0902486712
     15.0511784782
     25.2244044637
     19.6887815408
     -8.1886128114
    -12.7958314683
    -14.7051374640
     27.8759923249
    -19.5351450735
    -13.7601842513
     10.8970637971
    -35.5440035539
      9.1025226116
     -4.9460377878
      0.6261725063
     -0.7962080338
      1.1805967409
      8.8387157856
     -0.2801950949
     -2.1510278561
    -11.8797530150
     -1.0909069868
      1.0126423951
     -2.1243780770
     -3.5872319836
      3.1981229432
     -2.1475738159
     -6.1766889935
      0.2224842314
     12.1265931156
     -1.8093751107
      6.2810183925
      3.2984192969
      5.7147855070
    -10.9706775951
     -9.3817555600
     -4.2218758399
     -0.7532497637
     -4.4048560069
      0.6300928856
      2.0761983617
      3.3318944683
      2.1615409188
      3.1690217534
     -1.2842343806
    -21.5172559481
     -0.3495678407
      2.0267361537
     47.3292451252
      0.8274016334
      8.3612789988
     43.3074049579
      3.6107073607
     -8.2344743301
    -20.9629481293
    -23.1931020325
      4.4595870795
     11.3359807474
      4.2351296535
    -20.0856662604
     -6.7763119484
     -8.7230923845
    -18.6954949070
    -24.2460760439
     -2.4477790451
     11.7775757405
      5.0976029562
    -34.6269880293
     13.2490006921
     13.0091227683
     -4.9678672390
     38.9921069953
    -10.7418780091
     24.6794317191
     -9.5734696233
    -28.9894899210
     -1.2990460103
    -23.1289930305
     45.9992741277
     16.2257734832
     41.8462581663
     47.1251457671
     -2.0699384603
      1.6907608186
     -4.1864524728
    -33.2661697570
     21.2481568402
     24.8889361929
      2.6140650474
    -61.5890331040
      7.4515901224
    -18.4263357834
    -14.9275264551
    -50.3457484321
     14.4856635304
     38.9073640260
     -0.3315013405
    -37.4816198220
     19.4611293249
     14.5197372867
     -5.0722644910
     28.6782144884
    -27.0108446456
     -1.6110912749
      3.3725458178
     55.5856908129
    -16.2865703901
    -36.9917980843
   -163.8039498060
     26.9050268935
     70.4982746799
    -36.2242061099
    -68.5816449140
     14.9185817395
     36.1022007130
     11.1880796100
    -11.5958490632
    -10.9839666039
     -4.8292086464
     22.5207240900
    100.5580401208
     25.6833233335
     21.2704449104
     35.9256176413
     28.4951297349
    -55.6230194799
    -28.9585524904
     80.0424677488
      2.7560427418
     40.4482264969
    -29.1981765047
    -58.6939868773
    -48.9067029375
    -23.1035434684
     15.3185820545
      8.9035659663
      7.0782570416
     -3.0188736515
     21.1637138656
    -25.1625455165
     -4.4312895888
     -8.4219116993
      8.3877106869
     -5.9982962963
    -11.9714060803
      5.3417531824
    -19.9401229862
      0.6067581971
      3.8855682535
     23.7612619571
    -28.8323721868
    -15.7878211434
    -21.9497720224
     20.2811451182
     38.3055787063
      0.0785012600
     44.5628374435
      9.3877031662
     15.8778499943
     -4.7626090971
    -18.4403797150
      5.1956228604
     26.1457334288
      4.2603161797
    -13.2544299216
      3.0951102804
      4.3694607388
     31.8346310507
     18.6542433868
      5.1568761099
    -52.6802037939
    -22.9371272136
     20.1425408977
      5.3341883821
      4.4193553928
     11.2841534694
     12.2724355847
    -13.0207147313
     -7.9403463596
      8.3475197570
    -20.7169909665
     13.9365887837
     21.8859070364
      2.6171192607
    -52.2645815403
     -0.3975329459
    -32.3822650960
    -17.6588131520
    -28.3314706123
    -32.1340411871
     31.8453896441
    -11.4701270598
     14.8436566683
     -4.4816002770
      2.9031353034
    -12.0360567049
     17.5778673293
      5.2219450349
     43.7570414608
     -6.1537232388
     -3.8924497900
      7.3673256911
     12.5455430104
      3.6600199815
     -1.3362361329
     -7.5318176128
      1.4299668418
     -2.4039176478
      4.0103313572
     -5.7908050840
    -14.1845438169
     -2.0555054938
     -7.1068036047
    -10.6970457311
      7.1711861607
      3.2069752540
      5.3336181513
    -19.7016343365
      1.1984143716
      0.4181082291
     -2.9464086807
     14.2757944114
      5.2255204425
      3.5947744851
     -4.9606335862
    -34.6826789675
     -3.9231465094
      1.5175683780
      0.2458705610
     -0.3445499852
      2.8590740489
      5.0979332671
      8.6180920653
      7.1479115961
     -0.7686637771
      8.5770846783
      5.3687273749
      2.4036047216
      1.9035180557
    -10.9248173413
      2.7874512765
      3.5017950368
     -3.2314937063
     10.7328438613
     -0.6898912785
     -2.4629584755
     -5.1735233756
     26.3973198545
      6.6711481050
     -1.5555540431
     -3.6805479626
     11.6873231057
     -2.1882380211
      7.1186818755
     -7.8050889620
      1.2893228177
     -1.3780964065
      2.2620816351
     -0.6882817714
     -5.0642551220
     10.6329858386
      0.4666041719
      0.6949734650
     -7.5198286505
     -0.5698224546
    -15.1491470370
     -6.2799302764
    -11.4650197374
      0.8799390937
     -9.4695649676
      4.7637263457
      3.4282852011
     -1.2301416035
     -7.9361199398
     -2.6677147540
     -5.0800243287
      2.1983724895
     -0.9935788880
      0.1795668664
     -8.7297828862
     -7.5914331806
      2.0962086895
      6.4407649726
    -10.2812499615
      9.6206257036
     58.1831300750
      5.8380835657
     -5.9587700304
     -7.1672255124
     -3.7480129943
    -15.8409976987
    -14.6873169702
    -22.5361867681
    -15.0116102863
      1.8659840676
    -25.7412736760
     -8.3928280511
     -1.3671707267
      4.1623978993
     23.0719552048
     -5.6009940489
      0.3619223416
     15.1435326647
    -19.4308317977
     -0.1852779593
      3.3846943658
     14.2306235413
    -53.4082626470
    -14.4666163894
      0.4364688486
     12.5583673018
    -21.5880554423
     10.5836911426
    -18.5351033383
     26.0771404720
     16.3796365048
      7.3282806610
     -3.3457874332
      3.0652957422
     14.4395833122
    -26.7517141974
      0.1712540505
      0.2340885724
     18.0681355386
      4.7686912418
     41.1219163545
     12.5536610716
     23.6151273549
     -7.9236674824
     31.4666213312
    -10.6355228976
    -13.4849277490
      1.8395921552
     16.2400010812
     10.2680736795
     16.8665503131
     -1.9435197920
     -8.3454440929
     -1.5070771603
     22.1279034234
     14.2267716424
    -12.2681250054
    -20.5476956980
     36.2478101574
    -52.8901357102
    -37.6512196848
    -25.3827515867
      5.2605819346
     -8.3416431606
    -21.5958484979
     56.2821976873
     -7.3430239731
    -17.5794098763
    -16.8194050174
    -22.5195415925
    -57.2454294673
     -6.3740345357
    -19.5481473832
     23.5741807240
    -71.2878470482
     12.7315264900
     35.0776733915
      5.0904122614
    -27.9435341658
    -18.1937358649
    -29.6431776849
    -10.2582716343
     31.0686492466
      4.6996384353
    -31.0709919928
    -17.1329516568
     34.9734190550
     46.1787472272
      6.7219430119
     -6.6749820789
    -26.7123245550
      1.3410370829
      0.7491817246
     11.2685637054
      5.4030247829
     18.8994415916
     13.8789997555
     16.2330052841
      7.4258775077
     -2.8769302468
     17.8705014061
      3.0676521631
     -4.9174650650
     -9.2998265727
    -15.1309385128
      2.9498772132
     -6.2473678306
    -19.5010658560
     12.5097829159
      2.5660427512
     -1.0474297493
     -7.1112928303
     27.9909883155
      8.3219151888
      2.9638861382
    -12.1422838396
      9.1386771515
    -12.3926462066
      3.8130350369
     -1.7626026858
     -2.7692699024
     -9.0063164518
      4.0527801025
     -9.7451125263
     -4.2487522619
    -13.3468964929
     -8.6600857021
     -4.5639331806
     -3.4719462756
     -0.5703748052
      3.5821107708
      0.4385983579
     -0.6300297143
      5.2422981046
      3.1392930029
     -0.7110194159
      2.3265446925
     12.1211071277
     -3.6950037959
     -4.5834535554
     -2.3275033489
      2.8166020462
     -1.5418994742
      0.6755182699
     -4.8950838420
      5.8145063090
      1.4470015894
      7.7592403820
      9.7986767750
    -26.2018509441
     17.6572335792
     13.8933247984
    -95.3128723491
    -26.7631942028
     21.6660237923
     68.3948183670
    -73.5467576801
    -43.6425038722
     12.5918454475
    -18.9053075887
      5.6393485381
     39.7160892428
      1.0846593728
    -34.8479043413
    -36.6041039932
    -21.9864118195
     25.1494226859
     31.5348393494
    -10.2072049689
     24.6450046836
    -17.6972067039
    -15.6695872497
    -30.8790005004
      1.1630319990
     25.3283940210
    -64.4137392146
     30.2834282577
     39.0374120834
    -32.7018724013
     50.4997211577
     17.1304279445
     15.9559016122
     44.3162997249
     20.2212364822
      2.3631344973
    -83.0235630894
     41.6463134202
     44.9921820595
     -1.4058513572
     33.1475468909
     24.4810160366
    -22.9018690282
      5.2218639777
     -2.5092568763
     79.5649766079
      3.2830749931
    -42.3947000515
    -21.8924514600
     25.5044999387
     -1.4391497690
     30.9339300575
     18.7266714270
     -6.3846868429
     -3.5109278138
      3.5759705106
     43.7966185006
    -44.1187472312
    -56.9696243266
      0.4125747034
      8.4947401889
    -21.6762451204
    -13.2771316975
     52.9166367434
     14.8878852833
    -16.3592789935
    -22.6429538146
     43.7504171490
     13.4795792757
     -3.6628465318
      4.0703623072
     -2.3671092696
    -19.2637021150
      7.4915223481
     26.8800307550
      1.1573052100
     12.4001782027
     -4.7236201621
    -15.7728813159
      1.2065412921
    -14.8592915770
      5.2014232833
      8.6221322556
     18.5076859227
      0.0862248583
    -12.2739113692
     37.0670841887
     -6.9168376274
    -11.1681435385
     -9.1283755955
      3.9599388179
     17.3538475130
     18.5072868939
      5.6449341252
     19.0314761276
      7.6730279951
     13.6873016575
      0.6807652729
      0.0885846635
     14.2279774103
      9.9547840054
    -10.5795027831
     -0.5422841775
     -1.6346219934
     -4.1791980822
      0.1532707763
      2.4296074732
     -1.3687286043
     -8.2573623637
     -4.6514116042
      4.4595050779
     -2.9681207686
    -11.1940494850
     -8.0327372061
     -6.4284298787
      2.9417790057
     -9.1385302904
     -2.9175752852
    -12.0326506910
     -3.5436009469
      2.6121837314
      4.7298636633
      2.9702738668
     -6.6736640310
     -1.9458756091
      4.0452340945
     -2.0018987298
     -7.5573310693
      1.1107754367
      0.3404502317
      3.1574823569
     -1.1529173998
      0.7324681145
     -1.9534393091
     -6.6582012209
      7.4302303386
     -1.8907780095
     -0.9077522281
      0.8706950102
      0.0215489871
      2.3253687844
      2.1486977651
     -0.3648696118
     -2.7633461348
     -0.9545359753
      1.5829496162
     -4.1936690021
     -3.1697265592
     -1.8419605841
     17.8328971222
      2.9434668411
    -20.8387460574
    -54.8770343007
    -16.5235684709
    -54.5374101750
    -15.7332836629
     -4.1783484460
     19.3867246515
     -0.9343209708
    -36.1827892632
    -27.6820421808
     23.7849597974
     -7.5789280121
     24.4566793324
      2.3604476274
     -1.8971622640
     -9.9056349735
    -14.6241454738
     -2.7175564199
     14.9767213934
     -8.6239962477
     22.7689205966
     35.8646127863
     35.6410080436
     12.0211224483
      1.3948871198
     14.8619255056
      3.8758922533
     18.9657935009
     -9.5154535744
     -1.1527963364
     -8.5675698512
     26.0387847012
     23.6096569806
     70.1021246147
     -6.6182650933
    -33.2391400852
     -4.8796046686
     26.6976993054
      8.2994295753
     -1.6626454974
     -5.0978419571
      3.5627575506
    -10.1416483021
     -0.0872065567
      2.6769948290
    -34.5661277585
     -0.0639625386
     -2.4685288922
     -8.6263137593
     -9.1849542174
      5.3293434298
     -2.5422980695
    -33.9296035522
     -8.1074564304
    -19.2905949053
      6.4628447987
     13.1754156679
     16.6411266244
      2.7176427183
     -2.6085623811
      0.5314929199
      6.6215573870
      3.4194195940
      3.2602749486
     -0.6723198890
     -4.2607286469
     -3.2274233825
      4.8079809921
      4.1922216627
      2.1780785997
      1.4213829056
     -2.2068433399
    -11.1264061898
      1.6426068087
     -4.7975738421
      4.2712130041
     -1.1265526092
      3.7469666985
     -0.6708839900
      0.7392315048
     -7.9580470019
     -0.5505770858
     -4.6839449694
      3.1229842233
     -0.1172670434
     -1.5270284197
      1.6706083889
     -0.8566157546
     -5.7372729794
      8.3660532527
     -8.3007941130
     -4.0298002903
      6.8207992204
     -0.6477199713
      3.2237179572
     -3.0962864682
      4.1517656173
     -8.4202959364
      1.3251689393
      2.6420899643
     -1.7855430521
     -1.6933608914
      5.1676936942
      8.3487636807
     -6.3367188887
      2.2265612164
      7.4071141569
      3.5348066331
      7.2525379614
     -3.6411128697
     -0.1688233102
      0.0142937281
     -6.2420273407
     -2.4052083883
      2.4617791875
      2.2748050989
     -5.2893793592
      0.9001518699
      9.1227823094
    -13.0660946041
      9.4872406669
     12.7197673085
     -4.3394352265
      5.0127715554
     -7.4148027768
     -2.3627242804
     -8.7770619537
     17.8444098811
      3.2130390989
     -0.2554680476
      3.6219189556
      0.7742613051
    -19.7111432583
     -8.2540915979
      3.1688348496
      2.1583902877
    -10.7948936206
      0.8632753550
    -10.0023206241
      4.5875579596
     -7.8707883277
     -0.1349565349
      1.9546553679
      7.4371570459
     -2.1988907297
     -4.3084562205
      9.3593417986
     -2.4428644684
      2.0065581776
     -2.8310696076
      1.8343112192
      1.2302246368
     -3.2642180876
     -0.8842063922
     -4.2034485965
      0.8214349442
     -1.5010247756
      4.4247451808
     -1.1823826884
     -1.2325814054
      0.5481643397
      2.7749735263
      0.1572778147
     -3.9337674318
      4.3396104896
     -2.4629776653
     -4.1150598004
     -1.1867403072
     -3.8378965406
      1.1226966941
      4.3177184963
     -0.1238351642
      4.1424967455
      0.0450357605
      0.3414468941
      0.3220920733
      3.1269526875
      0.8986185776
     -6.9894340492
     12.2169113083
     -5.6591055818
     -7.2527603807
      3.0812864752
     -1.3948153658
      9.7117626980
      2.5083768771
      7.1013536221
    -14.2432558230
      0.5859696844
      0.4143080063
     -1.3977027562
     -1.3203146418
     13.4657586924
      8.1008755948
      0.6665760772
     -1.6153262458
      9.8360212150
     -0.6969911300
      8.1277172217
     -4.3665067979
      3.4483214094
     -0.1592215981
     -1.7927832328
     -7.9319675425
      1.9301656188
      3.6486435463
     -7.3991665481
      2.8264087788
      4.4076596169
     -3.3210979792
     -3.1142364602
     -4.6987397020
     -2.3492809104
      1.4859809322
      0.3050710019
      1.3109969619
     -0.6041608151
      4.6379033567
     -8.1884153044
     -4.7823201683
     10.0958683093
      2.8936873220
     -3.9649513217
     -2.8137707716
      0.4619413356
     -1.4556947544
     -0.9513871912
     -4.2303795830
      5.5577486998
     -0.6648734464
      0.9788731227
      2.3417586559
      2.4490614654
      1.9393914936
      0.8215690136
     -1.1173396497
     -1.0906861081
      1.2197118825
      6.3467852918
     -5.6878940359
     16.0207811161
      1.9055607771
     -3.8177090639
      4.5747309736
      0.8850976216
      3.0714499900
     -0.5211723666
      8.5387510117
     -2.7085666891
     -6.8443238725
      7.8844856019
      1.7705259528
     -6.0281017747
    -10.2225979749
      4.2468131386
     -2.9831432932
    -10.8305420412
     -3.5068485647
      2.9821173109
      5.0088869080
      3.9291594071
      3.5655066500
     -5.0795903062
      5.2856795188
      3.3026946303
      4.2010922194
     -0.0270066589
     -4.4314182908
     -7.0342470361
      6.6945728187
    -29.7227181339
    -12.5599602408
      2.3497797819
     -5.0365461993
      0.8065812181
     -1.2827006001
      3.1481846334
     -9.7522749078
     -8.4694638937
      4.6420701933
     -0.0180362747
     -0.1906244211
      6.2810785492
     15.2597311824
     -8.0196195613
      1.8896169163
     17.6885490521
     -0.7602214032
      6.6042291574
     -9.5686404420
     -3.0005982707
     -1.7795331311
      9.7630625447
     -7.2321491968
     -3.3401867045
     -8.0494933514
     -4.2104693333
      7.1189123712
     -5.1498714803
      4.6189969627
     -5.6738948188
     -4.0311088781
      2.0531615552
     -2.9595148470
      1.4017815076
      1.0905592688
      3.2447252670
     -6.6557326732
     -0.7791393784
      3.0582112927
     -4.5986539901
     -1.4932410874
      5.6641904965
      6.7203208532
     -4.0758434168
     -0.6695739358
      6.0542048540
      0.3487766690
      1.8831836324
     -2.4576489339
      0.0928323483
     -0.3213828024
     -0.2576198169
     -3.4196783417
     -1.2795181659
     -2.0421981400
     -2.9268738860
     -1.1296632599
      6.9084245150
     -9.5851115579
     16.6358992989
      7.7071735976
     -1.9232047929
      2.5455244230
     -2.2090816860
     -3.3368080575
     -5.5315411459
      8.4371061451
      3.6126089233
     -3.0867856345
      0.2406419339
     -0.7503042781
    -12.4189812068
    -11.4502152715
     -1.0813126851
      2.5600828217
    -12.7431724931
      1.5336363579
     -5.1522364614
      6.6610718127
     -3.0150851801
      2.0640042699
     -7.1278334791
      8.1700487790
      1.2468749033
      2.9875655476
      4.2523433487
     -5.1218365833
      0.9480603482
      0.6133509085
      2.0359915027
      0.3097103593
      0.5027286523
     -0.8850249462
      0.4036529195
     -1.0182089209
     -0.0510220481
      0.3863805429
      0.8289715182
     -0.3268419185
     -0.1808412761
     -0.4990543747
     -0.9178581290
      0.0635671661
     -0.3499113872
      0.4031824882
     -0.7702077498
      0.2851924740
      0.1777202935
     -0.0120929102
     -0.8700386919
     -0.0897745853
      0.1977199540
     -0.7165786471
     -0.0967914588
     -0.3338026683
      0.3392807776
      0.2909598774
     -0.4881491381
     -0.5211340739
     -1.7212491015
     -0.1868435837
     -0.3239641946
      0.3707303269
     -0.2215916518
      0.1302493733
     -0.2934170089
     -0.5309932090
     -0.6710874513
      0.0744991679
     -0.1371119437
      0.5897189315
      0.6203230302
     -0.4971845739
      0.5101174444
     -0.5482240493
     -0.3629029246
     -0.3143887745
     -0.3125309913
      0.2244866266
     -0.7861974752
      0.0930354921
      0.6923958896
      0.1492154131
      0.0278450502
      0.6195270739
     -0.1347729837
     -0.3725283614
     -1.2909452749
      1.8855588822
     -2.3141994833
     -0.0727837623
      0.0972298931
      0.5166885660
      1.4735411823
      1.7079736217
      0.8326091455
      0.5504226146
     -0.5383533830
      1.7636937681
      3.5379200624
      0.4688556402
      0.0382535474
     -1.1635288791
     -1.9785100368
      0.5604839561
      1.3887346061
      0.2807125080
      1.8833174277
     -0.3528625848
     -1.0642257306
     -1.7577095272
     -1.9228121799
     -0.1155897758
     -0.6310569888
     -0.1583966893
     -1.2224765221
     -1.5780750380
     -0.2195626502
     -0.4483813034
     -0.3736839010
      0.3937565905
     -0.6796139862
     -0.0253903082
     -0.1937698699
     -0.6938131653
     -0.3878022751
      0.2513389243
     -0.1473660150
     -0.3917600846
     -1.8885245151
      0.2849043643
     -0.4520355507
      0.2983060026
      0.3089627499
     -0.4114779977
     -0.5594106287
     -0.1929854491
      0.5859393109
      0.2362349553
      0.0052512079
      0.7669689536
      0.5768860942
     -0.1495730175
      0.1968615866
     -0.2592714647
      0.3137490885
      0.0947053592
     -0.8153535839
      0.6404623177
     -3.2632777873
     -0.1236872148
     -0.4766885694
      0.4651531389
     -0.9743534510
      1.2529596758
      0.9262931946
      0.1959887252
     -0.7956413489
      0.9791763236
      0.9142706008
      0.5240835222
      1.5412866228
      1.1319754080
      0.5833187473
     -0.2876288134
      2.1184448544
      0.0848071068
      0.6286107725
     -0.8696817601
      0.5324759072
     -0.6416400176
      1.4093720539
     -0.3891441944
      0.2533200144
     -0.2627023913
      0.4541536922
      0.2288978092
      0.8994102718
     -0.5003465744
      3.8447447238
     -1.0209757605
      0.5688372046
      0.0751998852
     -0.2199574107
     -0.5282423765
     -0.3262631803
     -0.1892896586
     -0.1176685458
     -1.6157481830
     -1.2054217836
     -0.3384090287
      1.4160202228
     -1.0824678383
      2.3895255983
     -1.0912316400
     -1.5875009974
     -0.3356468017
     -0.9319391842
      0.8952699174
      1.1264236609
      0.1467811843
     -1.1675591783
      0.7306938700
      0.6036640802
      0.9869368035
     -0.3237608750
      1.1737560625
     -4.1422156598
      6.9535203506
     11.8198479226
     11.0803086855
      0.1084164801
      0.7426937386
      3.4179245345
      2.1792511619
      3.1469467922
     -2.7652884608
     13.9985030311
      0.2810749879
    -12.2529028722
     -4.3736037249
      9.8403970769
     -0.2678438393
      5.0609074462
      0.5359143918
      0.2949918733
      3.2189445467
     -4.4335565824
      4.7026873905
      1.9646523701
     -2.0293462614
     -7.3525879675
      0.5388517396
      3.7342444974
      5.2751280487
      1.1529359597
     -0.8603797415
      1.0759241706
     -0.9357747391
      5.1918407464
     -2.5060270273
      3.1774759372
     -0.3871999426
      0.1308646463
     -0.0355173792
      0.7535140059
     -0.0559746374
     -1.3160869935
     -2.2863368976
      4.9997688034
      2.1116394099
     -2.2841800438
      1.4040967979
     -1.8147575457
      1.1847093499
     -0.3749433602
      0.1687787520
      0.6195260321
     -0.0086151025
     -2.6036014959
     -2.1785820615
     -0.7165520578
      1.3892255179
     -1.1765299263
     -1.9513504052
     -1.2060163395
     -0.9530253267
     -1.0327086969
     -0.2490048349
     -3.8482888999
      0.6616043209
     -0.2489262568
      0.6747323035
     -0.1342809356
     -1.2593386649
     -0.5872862420
      0.2339780251
     -0.4692228097
      1.0131577901
     -1.9320819284
      0.0078202800
      0.0833348748
     -1.8511725928
      0.2843626439
     -0.6348585937
     -0.5428967177
      0.3400473998
      0.1423908419
     -0.0940823683
     -1.3527647668
     -0.4338707226
      2.3038270168
     -0.4531454882
     -0.3384061744
      0.6413978311
     -0.1761647871
     -0.7398830065
     -3.8565391376
      1.8473465331
    -14.7978752466
      2.3934012220
      0.4097068884
     -1.7030629083
     -6.1889453283
     -4.9998190949
     -2.5139924620
      0.4848345321
      3.8032850911
      5.9166894644
     -5.0894131428
      0.9713335565
      0.5961834671
      5.4306308660
     -2.1435655099
      5.3873611365
      5.4123673257
      5.2349753239
     -5.2921314837
     -3.9234039861
     -3.1973615824
     -2.9007842872
      5.4114576399
     -2.5394939854
     -1.3293902541
     -2.1453082788
      4.1408826602
      5.9533167293
      1.5891634436
      0.3325737857
      4.7265843859
      0.9670495427
     -0.4447027800
     -1.1010517990
      2.2463736732
     -1.1579076763
      0.6983601109
      0.8577790146
     -0.6288049896
     -2.3239307372
      1.3032926143
      1.0688155237
     -3.4446161464
      0.7534211611
      0.0839043903
     -0.1354155275
     -1.8934289066
      0.8273626706
      3.0770658655
      1.3981872321
      1.1506858878
      0.3555154153
      0.3814742330
     -0.8060432845
      1.1068744143
     -1.2916015674
     -0.1333638770
     -0.3985303451
      1.5297244402
      0.1628007872
      1.4707234809
     -1.5161437406
      0.5807693895
     -0.2174695052
     -0.9010073358
      2.3381812657
      0.4049626722
     -1.1130758347
     -0.4145369255
      0.2049263439
      1.7885291684
     -0.5849569079
      1.1329410306
      0.1318944710
     -0.1751677833
      0.7226077995
      0.5647236064
     -1.6513871433
     -1.8285729255
      0.0134570135
      1.0586463628
      0.5421118352
     -1.7438349596
      0.6855638880
     -0.1703612868
      0.1814826746
      0.0757179749
      0.6036582719
     -5.2891266285
      2.2175607585
     -2.0592750035
    -14.1050095147
     -1.8955512179
     -7.6806390406
     -4.8749872570
      6.1875884632
      5.8088813589
    -10.1220403898
     -9.6169018852
     -0.6847015013
     -7.9110640510
      3.2587370271
     21.9542050160
     -2.9968714087
      4.9552093232
     -9.3322417303
     -1.5434124413
     -5.3127216363
     -0.3544894699
     -1.3876691589
     17.2149021895
      0.4450198467
      7.7249398113
     -5.3813233503
     -1.1285254700
      4.4218065558
     -3.8426320599
     -0.3060747527
      5.7113628433
     -5.5618366973
      4.4073840518
      5.5252333044
     -2.8835992899
      2.7554607146
      5.6345278990
      0.9732840754
     -3.7344194446
      3.3802730668
      2.6319336249
     -1.3175898227
      3.0592757309
     -2.6919281856
     -9.7307209862
     -4.1891076353
      0.9039214046
      2.2436847409
     -0.6324801291
     -2.8445256865
     -2.3309551530
      2.7873234603
    -10.0365858353
     -0.0584755632
      2.6674843965
      3.5257159532
     -4.5026201958
     -3.2425837202
      2.1522576117
     -0.4792988366
      1.0411767025
     -1.2052236149
     -1.4259094258
     -1.4753512281
      0.6432131802
      0.3666038023
     -1.3014916139
      0.4164485155
      0.2570629510
     -1.0400191207
      1.2944678989
      1.0306829759
     -1.0635140642
      0.1559413788
      0.7098279211
     -0.5967582872
      0.1164711174
      0.5018276306
      1.4546483822
      0.0231258235
      0.6464927761
     -0.1783167794
     -1.6010064460
     -0.7321120990
      1.4147881095
      0.0651683758
      1.2637538025
      0.4602759516
      0.0997275071
     -0.0580924121
     -0.2818093708
      0.7007707155
      0.2311929943
     -1.1444932438
     -0.8771695560
      1.2456327195
     -0.8375998441
      0.2587029481
      4.1095507926
     -0.6923809080
     -0.0396923034
     -0.9175666023
     -0.9973187584
      0.8767872593
      0.2285362432
     -0.3801597903
     -0.3778225090
      0.5602112109
     -0.5899727554
     -4.0112763899
     -1.1846569667
     -1.0622638495
     -0.4929576417
     -0.2341427902
      0.3811711058
     -2.4177638964
      0.7411316540
     -3.8708463519
     -0.3570175030
     -0.4445922522
     -0.7135129294
     -0.6842689207
      0.1186832296
      0.0552542948
     -2.3824451031
     -0.4950784342
      0.8102134000
     -0.7842772219
     -0.4930562220
     -0.9804928001
      0.0140804731
     -0.2562263032
     -0.5427845069
      1.6025640956
     -0.7058941341
     -1.2219959104
     -1.1428451834
      0.1874454987
     -0.4031432534
     -0.9294519777
     -0.1975469464
      0.3054529476
     -0.1861031867
      1.5137319657
     -7.8312405931
     -2.0161950161
      1.2583162451
     -2.6678698057
     -2.1028694558
     -0.4766952826
      0.1914806054
      2.8197814434
     -0.4423933440
      1.2051900600
     -1.1653374745
     -1.0357137062
      1.4964667030
      1.1709041631
     -2.0662487327
      0.5820124761
     -0.1062297202
     -0.2531003795
     -0.2755846428
      0.0675587813
     -0.6758508977
      1.3682865665
      0.9330788361
     -0.1908671706
     -0.3961162245
      0.5325249275
      1.0015693905
     -0.5533046435
      0.7468401193
      1.5168763050
     -9.8235434924
     -0.1040000251
      3.5760605762
     -1.3134100109
     -2.0167179532
     -0.6608416077
      1.2222689572
      4.4212988004
     -2.8257629116
     -1.6795270310
      3.0245927046
      0.9045156160
     -2.2829577586
     -0.4050319455
      0.5960669097
      0.4457713625
     -0.9731504028
      0.1622788030
      0.9147179518
     -0.6941328825
     -1.8967799136
      1.1965495467
      1.8353732051
     -0.8369531601
     -0.5828181423
      1.5215511601
     -3.9590892642
     -0.0497768798
     -1.4761243262
     -1.6177717614
     -3.5887603383
      0.0736247238
      1.2325172644
      3.2224133744
      0.2583470596
     -0.6023317763
      0.0124358626
     -0.2293089120
     -0.8444173736
     -0.9337616959
     -0.5727959423
      0.1059522622
     -0.7341535300
      0.0096903593
      0.2782032911
     -0.2049034235
      0.2823149490
      0.5984988309
     -0.1759666276
     -0.2906902879
     -0.0564730849
     -0.8802791080
      0.4163382476
     -0.1437628837
      0.2994278563
      0.0685289350
     -1.1664683694
      0.0297270124
      0.0134495655
      0.1960414146
     -1.4063522677
      0.1321834025
      0.9163582151
      0.2406835423
      0.5081130086
     -0.5336580103
     -0.5740934029
     -0.0112591221
      1.0882556785
      0.3543069838
     -1.3737375481
      0.0873691332
      0.0293991377
     -0.3700441621
     -0.6408735099
      0.0068699945
      0.1160520793
     -0.3236349568
     -0.6353011627
      1.0407728128
     -0.4353558151
      0.1466946179
     -0.7008380046
     -0.0312163549
      0.3094391434
      0.0911360719
     -0.5120029918
      0.1197936172
      0.0196349303
      1.2101803461
     -0.5498875730
     -1.0803567066
      1.1944320695
      0.6088025806
     -0.6676866800
     -0.5556757234
      0.5079914445
      1.0101969999
      2.4806886205
     -0.2857785351
      2.2926365672
      0.3444606452
     -0.0489642296
      0.8838622960
      1.6568442935
      0.7643139391
      0.0517535503
      0.5805417018
     -0.1957146926
     -0.6717001433
     -0.4435974980
      1.2936475550
      0.0874371775
      1.3449767728
     -0.1985203131
     -0.7598271875
      0.2698198198
      1.3813191203
      0.7793223429
      1.3795966530
      9.1176966619
      0.6894798623
      2.1587256767
      2.6245551361
      1.9881497431
      0.5011824073
     -0.3621843341
     -0.6310315496
      0.0492172961
     -0.6087763953
      0.6447452219
      0.4448176659
      1.4080794458
     -0.3960391249
      0.2278633781
      0.1093058078
     -0.1739465663
     -0.0185158747
      0.8005455763
     -0.2682678927
      0.2332691248
      0.2227580485
     -0.2761341414
     -0.4833597232
     -0.0728352908
     -0.3114910295
      1.3310779788
      0.7483693085
     -1.1891586676
     -0.8995116789
      3.6216298993
      1.3681363671
     -0.2014874441
      1.6031172626
      0.7399865520
      0.4516931369
      0.0246652328
      0.8987260810
     -0.1591553169
     -0.7004251737
     -1.3114391565
     -0.3226860875
      0.4139898171
      0.5381329287
      0.6874144728
      0.4136807472
      0.1543783164
      0.7770752670
     -0.2024571901
     -0.3812628824
     -0.1940209960
      0.6534750881
      0.4199377432
      0.0621187927
     -0.3290876142
     -0.8312419906
     -0.4565485928
     -0.3576355589
      0.7053190440
      0.1285880867
     -0.1287387287
     -0.6708542393
     -0.3687168690
      1.1877694785
      0.9493035859
      0.1479086601
      0.8700159276
      1.0187861020
     -1.5374946071
     -0.0730025075
      0.4715143025
      0.0999617212
     -1.1459594978
      0.7874777648
      0.7677819194
     -0.2149585959
      0.0431902458
      0.4914752923
      0.3137512508
     -1.2510958924
      0.4164416063
      0.1183867810
      0.3410213762
      0.5103731891
     -0.1781642964
     -0.2536059112
     -1.9160913433
     -0.5369564213
      1.5451015132
      0.5733409358
      1.0855522870
      0.2466506680
     -1.1674303305
     -0.2085610102
      0.0238310651
     -0.7784481964
      0.1383461125
     -3.1501027899
      2.0737891304
      2.7430311884
      0.1218205708
     -0.3906734982
      0.2478595274
     -0.0780707913
      0.6891019780
     -0.0368029147
      0.1282675769
     -0.3287379784
      0.0167711519
     -0.2818107890
      1.2910201534
      1.6163685189
     -0.4955047147
     -1.2312700779
      0.5536545548
     -0.4500301774
      2.1120708975
     -0.6460571931
      0.1300900170
     -0.8239096053
      4.1811306356
      0.6592465249
     -5.7850119301
      1.9838327735
     -1.7300975041
      2.2382264428
     -0.3598799826
     -0.7651030011
      2.2014341357
      0.2604288410
     -1.3781713975
     -2.2065772684
      1.4616594120
     -0.9371565645
     -1.8069995371
      0.2758904893
     -0.3772641366
     -1.8769767024
     -1.0632260085
      0.0582856006
     -0.9226388312
      0.2083679292
      1.8787754087
      1.4663502677
     -0.3361203469
      1.0080069937
      2.9395118759
     -1.9506925115
     -0.3118690561
     -0.6967398465
      2.6144953616
     -0.7465828471
      2.1013122278
     -3.3557233106
      0.5934450910
      0.6253513182
      1.1066739740
      1.5125937957
     -0.7768757413
     -0.2282228323
     -0.4790787954
      0.1803798567
     -1.1372816675
     -0.0866843133
     -1.5626642943
     -0.2528942196
     -0.0902233891
      1.0013547901
      0.6598505899
     -0.3905717129
      0.4241195405
     -0.7857447055
     -0.8004225001
     -1.5977809352
      0.4833613995
     -0.1581253875
     -0.8598275469
      0.0325245455
      0.2373090876
     -0.4970816290
      0.6638138376
     -0.2928341826
     -1.7899312360
      0.9047706364
     -0.2178294089
     -0.2071268897
     -0.6062907770
     -1.1954709445
      0.5081155406
     -0.3037439606
     -0.3620170986
     -0.2696391692
      1.8542128771
     -0.5444620837
     -0.1161899949
     -0.1852160538
      0.2935365916
     -0.1902559180
      0.1889483661
      0.1305276394
     -0.2805009608
      0.5121146132
     -0.4013165500
      1.2921507596
      0.0922785272
     -0.3674960263
      1.0417742285
      0.0338969792
      0.5564274171
      0.4113841381
      0.5065064980
      0.5556875748
      1.7251597419
     -0.8135847726
     -0.4939503627
     -0.7232300841
      0.2736668713
     -1.7020320226
      1.3351859498
     -0.2322365659
      1.4279943847
      1.4517556419
      0.1528509032
     -1.0449705403
     -0.5866787146
     -0.5103630640
      0.2529729035
     -0.2267406722
     -0.4320838586
      0.3516867853
      0.4456000441
      0.1335654860
     -0.1809807629
     -0.2526024843
     -0.1953215125
      0.0143652054
      0.6439936218
      0.6451804042
      0.8045672161
     -0.3343104790
      3.1606004611
     -0.1559073845
     -4.3722117186
     -0.5823479617
     -0.5576416253
      0.4043750550
     -0.3087362048
     -1.8096120323
      0.0879531989
     -0.1573375103
      2.1214035212
      0.3966977458
     -0.0949110236
     -0.5834490643
      0.0341520881
     -0.3709344907
     -0.2595307043
     -0.0286135359
      0.1071459115
      0.0435806638
      0.1350885504
      0.8045009021
      0.7319385747
      0.3251865586
     -0.6320847308
      1.0159692319
     -0.0563440271
      0.2159377231
      0.2414977358
     -0.8226267625
      4.0872576609
      0.2119114598
     -0.7390175465
     -2.2435468947
      1.2331472520
      1.0238236681
     -0.2924392408
     -0.5256353193
      0.1851693079
     -0.4442982496
     -0.6192765807
      0.0471903057
      0.1920515834
      0.5900894385
      1.4502293751
      0.1430432898
      0.2618824545
      0.2665516437
     -0.1315444241
     -0.0816000776
      0.2135691488
     -0.3734150307
      0.1594178749
      0.7579244148
      0.2941481193
      0.0784625909
     -0.4659112139
     -0.1209903980
      0.4178984748
     -0.0418126117
     -2.6057970847
     -0.4758347928
      3.9852229955
     -0.7801354764
      0.1450546422
      0.1521374731
     -0.2276049887
      0.8565804171
      1.6238753724
     -0.8475855238
      0.2067966422
     -0.4260612988
      3.3412528404
     -0.1805014927
     -0.5146762349
     -0.5673277365
     -0.0448303973
     -0.1984601580
     -0.1089165619
      0.5127057575
     -0.1707230097
      0.8187364499
      0.4604152250
      1.1168892525
      0.4461755090
      0.1795227076
      2.1901831893
      0.5638175715
      0.3581164722
     -0.4777137514
     -7.8679296014
      0.0230023377
      2.5576398346
     -1.3240138202
      0.7384929133
      0.7475271710
      0.9267589885
      2.6859590189
     -1.4215572703
     -0.3207023747
      0.2544883352
     -0.7736754233
     -2.0724548602
      2.3136523711
      1.0822227415
      0.1861314188
      0.0386922064
      0.1722838716
     -0.5425951430
     -0.7027235359
      0.0698656615
      0.1611664124
      0.1984090030
     -0.8573067574
     -0.0306713324
      1.0479819737
      1.1454435086
     -0.1336080797
      1.1750661752
      1.7594947626
      0.1671315353
      0.1695463181
      6.2912401613
     -0.9010749480
     -0.0166432139
     -1.0666089714
     -0.4099946843
      1.2031074510
     -0.0923493373
     -0.6149973337
     -0.8776422484
      0.4236712616
      0.3414245455
     -0.5180755887
     -0.2794273263
     -0.4590877471
      0.1722990809
     -0.8218505348
      0.1135326118
      0.6822404108
      0.4669761646
     -0.9583998597
     -0.8919724300
     -0.1523055918
     -0.3223879641
     -0.9597320321
     -0.4202913232
      0.2036546270
     -0.8093349036
      0.1148559385
     -0.3935622430
     -0.5742055309
     -0.8601204676
      1.7966647694
      0.2373804745
      0.0213546740
      0.3801990813
      0.3926828266
      0.6461721573
      0.2130385097
      0.4923623354
      0.3070227410
     -0.4552328395
      0.5513518855
      0.4483563223
      0.5560347384
      0.0500326710
      0.7018084944
     -0.9265414619
     -0.5994246480
     -0.3163831268
     -0.1712740478
      1.0625497975
      0.2916443458
      0.1780988753
      0.6728860330
      0.4069580823
     -0.0041923565
      0.6313679811
      0.4037594559
     -1.0451541609
      0.1476429356
      1.3783974882
     -2.2893266929
     -0.2384214143
      0.0853532115
      0.0708223466
      0.6266513659
     -1.0973870836
     -0.1429192955
      0.0216114669
     -0.4003340210
     -1.4141585137
     -0.1347586832
      0.3102131763
      0.3127956862
     -0.6853523517
      0.7454674093
      0.2315133844
     -0.5389077504
      0.2962650908
      1.3173282009
      0.5762953333
     -1.3424561453
     -0.4948614712
      0.4082949235
     -0.7921599892
     -0.2448989253
     -0.8651738233
     -1.1209146999
      0.3420180452
      0.2710543104
     -2.5439827378
      0.9861200620
      0.6282347869
      0.8425099067
     -0.0707928531
      1.8530340887
      0.3063388866
      0.7542847396
     -2.2053401081
     -2.1547083839
     -1.7554514990
      0.7851035832
      2.0027026745
     -0.7583167213
      0.1477453326
     -0.5445333443
     -0.6491103183
     -0.0762604909
      0.1244068852
     -2.2820386102
     -1.3409060654
      1.2752093836
      0.8826706699
     -1.2382703189
      1.4058054724
     -0.0716354607
     -0.1442046354
      0.3598991405
     -3.6003673884
     -0.3773094703
      6.0503910367
      0.6259507438
      1.9520296924
     -1.0085848937
     -0.3580183883
      1.0333539945
     -0.5205142993
     -1.0404903951
     -2.8044079673
     -0.5478148528
      1.2586328528
     -0.9254988048
     -1.2561013834
     -0.9300767392
      0.6418251599
     -0.2573422340
     -0.1390140959
      1.2996548221
     -0.1524278846
     -1.4927208934
     -0.2234473288
      0.1587398563
      0.2855411471
     -1.0127247452
     -0.2199511631
     -1.1480941900
     -1.0151773336
      0.2663532527
     -7.5517421572
     -1.6120238061
      1.1472337439
      0.0986598441
     -0.8091944138
     -1.5482232407
     -0.0971908828
      0.4660363958
      2.1513663321
      0.5545694418
      0.2675704318
     -0.4227806906
      0.4454919958
      0.3893858105
     -1.8911946679
      0.2564688494
     -0.0520060454
      0.3929473486
     -0.3649990655
     -0.3125704565
     -0.2492135198
      1.2475155519
      0.8171709198
     -1.1773035212
     -0.2162746193
      2.3692332616
      0.1329910828
      0.2416800428
     -0.0471120910
      1.0286777432
      1.2231246699
     -0.8123377847
      0.2227628008
      0.5168471676
      2.3093193688
      0.9682663762
     -0.5914709441
     -0.2389447754
      0.2499705009
      0.3748212599
     -0.7474625603
     -0.8233731617
      0.3098529157
      0.3486753297
      0.1690816928
      0.2227399737
      0.1132868335
      0.0387288284
     -0.1829594902
      0.4545131581
     -0.5576928953
     -0.8078358907
      0.3647084894
      1.5248097590
      0.1597229399
      1.3543927363
      0.7640698041
     -1.1970884801
     -0.6623102226
      0.2073313357
     -0.1787203481
     -0.3990234618
      1.3935432932
     -1.1316954840
      0.2809365768
     -0.5756225541
     -0.7819157916
      1.9567057505
     -0.9554885956
     -1.0042045675
     -2.6075918434
     -1.6117208552
     -1.6835536642
      1.5621891580
     -0.6881079329
      1.6570268454
     -0.0056855902
     -0.4567243780
     -0.6309354287
     -0.2688728115
     -0.1233116072
      0.6848412545
      1.8781221952
      3.2201781045
     -0.3483350522
     -0.7839739555
     -2.3044513013
     -1.6453862395
     -0.4374649535
      0.9712473343
     -5.9900164827
     -0.5967225399
      2.3620930485
     -1.8687863501
      1.0133727969
     -0.5390473654
     -0.7947334800
      0.4015946840
     -0.5606602802
     -0.6634583011
     -1.3421319103
     -0.3996868204
      1.1203985073
     -0.1275662721
      0.9459206275
      0.1845843349
     -0.7432707512
      0.2993064786
      0.3001546952
      0.5690943961
     -0.5940448087
     -0.4055594593
     -0.1985960279
      0.3466154287
     -0.2122001127
      0.0664891547
      1.3966007483
      0.2067212471
     -2.2324682878
     -0.0146973969
     -5.8492352261
      0.1671398958
      1.7709542025
     -2.4638586874
     -0.7900065964
      0.0966034881
     -0.7206009891
     -1.1484903244
      0.1551100474
      0.5565551177
     -1.2211784574
     -0.1615954184
     -0.0455843401
      0.0713014082
     -0.7177250454
      0.5017180064
      0.0780153345
      0.3991504468
      0.1592708785
      0.2180120220
     -0.5420918506
     -0.6773004299
     -0.3061501398
      0.5880414959
      0.2356557562
      0.0522865058
     -0.1118777708
      1.1407788300
     -0.2597921974
      1.4186719998
     -4.4725904853
      0.6896972999
      2.8271993803
     -0.3023261016
     -1.8764132301
     -0.4929017793
      0.1680074709
      0.7444175110
      0.6153569268
     -0.0896642694
      0.3466644581
      0.1948973160
     -0.4253915644
     -0.0166899809
     -0.6544801818
      0.6385738697
     -0.3800370169
      0.6394773941
     -0.0195645945
     -0.4656298874
     -0.7748884611
      0.1007597969
      0.3302375213
     -1.2707282725
      0.1323898503
      0.8451007864
      0.5469876558
      0.1823808182
     -0.5395011988
     -0.2643062163
      2.4061629053
      0.0137312410
     -1.0793991828
      1.0822941429
      0.6710507101
     -0.5541554135
      3.8835827177
      7.2018473842
     -9.8793439513
     -0.0441793472
      5.0099496782
      2.4317449478
     -4.8283526701
      0.2902226089
      0.0772582744
     -2.9322684213
      0.1803059380
      1.5156451043
      2.7244230572
     -0.7449170354
     -3.4491031409
     -1.1286303521
     -2.8508309538
     -3.3654486506
     -1.2073506577
      1.2198075691
     -9.9094515781
      2.1244609142
     -1.2373455956
      0.2953151053
     -8.2732801760
      1.3791829148
      0.8125234694
     12.0457503333
     -1.3113750040
     -4.2128697081
      0.0994560017
      0.0664505982
     -0.2053519782
     -0.0423167468
     -0.1529812095
      0.1485759986
     -0.0408081309
      0.1407576154
     -0.0419379339
      0.1155026654
      0.2300735089
     -0.0466709869
      0.1205957483
      0.1808732640
      0.1420942698
     -0.2070708983
      0.0720796653
      0.0866527089
      0.1764702888
      0.1212664332
      0.0503722542
      0.0604268832
     -0.0558793602
      0.0527840462
      0.0151314511
      0.0594918357
      0.0230903417
      0.0213940037
      0.0204130454
      0.0593366751
      0.3117062211
