################################################################################
# Neural network connection values (weights and biases).
################################################################################
# Col  Name       Description
################################################################################
# 1    connection Neural network connection value.
# 2    t          Connection type (a = weight, b = bias).
# 3    index      Index enumerating weights.
# 4    l_s        Starting point layer (end point layer for biases).
# 5    n_s        Starting point neuron in starting layer (end point neuron for biases).
# 6    l_e        End point layer.
# 7    n_e        End point neuron in end layer.
################################################################################
#                      1 2         3     4     5     6     7
#             connection t     index   l_s   n_s   l_e   n_e
############################################################
 -6.8743454324708586E-01 a         1     0     1     1     1
 -1.3495737248246216E+00 a         2     0     1     1     2
 -6.2919823512781914E-01 a         3     0     1     1     3
 -3.1763981047885609E-01 a         4     0     1     1     4
  2.0104371889614298E-01 a         5     0     1     1     5
 -4.2893618857490307E-01 a         6     0     1     1     6
 -2.6320394285421550E-01 a         7     0     1     1     7
  2.8090115531818487E-02 a         8     0     1     1     8
 -1.7921283042531672E-01 a         9     0     1     1     9
 -3.3164457338007125E-01 a        10     0     1     1    10
 -3.2736667216109600E-01 a        11     0     1     1    11
 -1.9721554468234543E+00 a        12     0     1     1    12
  5.3191152426755173E-01 a        13     0     1     1    13
 -5.9274243762040624E-01 a        14     0     1     1    14
 -1.1174695247196631E+00 a        15     0     1     1    15
  1.1913610604178110E-01 a        16     0     1     1    16
  1.1488351561668667E-01 a        17     0     1     1    17
 -3.2423863704816924E-01 a        18     0     1     1    18
  1.0752390201938407E+00 a        19     0     1     1    19
  9.0821751487473479E-01 a        20     0     1     1    20
  2.4347392645451388E-01 a        21     0     2     1     1
  4.9475016305726233E-01 a        22     0     2     1     2
  1.2464378714494856E-01 a        23     0     2     1     3
  7.5454344446863941E-01 a        24     0     2     1     4
 -4.4536809824106505E-01 a        25     0     2     1     5
  7.3007347743018880E-01 a        26     0     2     1     6
  1.5559485170517717E-01 a        27     0     2     1     7
 -4.4424726402871867E-01 a        28     0     2     1     8
  5.6225673810072840E-01 a        29     0     2     1     9
  4.1224609819239255E-01 a        30     0     2     1    10
  9.4210285786778925E-02 a        31     0     2     1    11
  1.4991545449629127E+00 a        32     0     2     1    12
 -9.0493492285417776E-01 a        33     0     2     1    13
  1.4007006849760311E+00 a        34     0     2     1    14
  7.3253211218734193E-01 a        35     0     2     1    15
  2.2393987049534336E-01 a        36     0     2     1    16
 -3.4405134067122706E-01 a        37     0     2     1    17
  3.0707382505876524E-01 a        38     0     2     1    18
 -1.7176120093945826E-01 a        39     0     2     1    19
 -1.2248141053484101E+00 a        40     0     2     1    20
  4.5837808297362392E-01 a        41     0     3     1     1
  6.5913243722711057E-01 a        42     0     3     1     2
  5.4779592299053693E-02 a        43     0     3     1     3
 -4.4175005139395561E-02 a        44     0     3     1     4
 -2.1514995803387266E-01 a        45     0     3     1     5
  1.3091911263282643E-01 a        46     0     3     1     6
  1.0457175169758472E-01 a        47     0     3     1     7
  4.7430235529431036E-01 a        48     0     3     1     8
  7.9278548032802196E-02 a        49     0     3     1     9
  5.2825471416624370E-01 a        50     0     3     1    10
 -3.2830057121298478E-01 a        51     0     3     1    11
 -8.9883323967645790E-01 a        52     0     3     1    12
 -5.1049062073558271E-01 a        53     0     3     1    13
 -1.2249438696477311E-01 a        54     0     3     1    14
  5.8512959197263015E-01 a        55     0     3     1    15
  6.0430141603678200E-01 a        56     0     3     1    16
 -1.8854136837432669E-02 a        57     0     3     1    17
  5.6123251446809541E-01 a        58     0     3     1    18
  5.5678357232403675E-01 a        59     0     3     1    19
 -3.2323402199947525E-02 a        60     0     3     1    20
 -3.4393383828408780E-01 a        61     0     4     1     1
 -5.0673621531375646E-01 a        62     0     4     1     2
  2.7862038100042819E-01 a        63     0     4     1     3
  5.0798289221573334E-01 a        64     0     4     1     4
 -7.0642605055548369E-02 a        65     0     4     1     5
 -2.9196212642895236E-01 a        66     0     4     1     6
  2.9724893447012343E-02 a        67     0     4     1     7
 -6.4193260697383514E-01 a        68     0     4     1     8
 -8.4473540396548488E-02 a        69     0     4     1     9
 -2.8927284828407762E-01 a        70     0     4     1    10
 -3.8343083229501007E-01 a        71     0     4     1    11
  1.8560395566472096E-01 a        72     0     4     1    12
  2.2745440290594232E-01 a        73     0     4     1    13
  7.3904944866225353E-01 a        74     0     4     1    14
 -3.6419856299816944E-01 a        75     0     4     1    15
 -5.9143286420932062E-01 a        76     0     4     1    16
 -5.5672612524320098E-01 a        77     0     4     1    17
 -2.2844810354285881E-03 a        78     0     4     1    18
 -4.6841162536503700E-01 a        79     0     4     1    19
  3.8853259673643942E-01 a        80     0     4     1    20
  1.0433699776390352E-01 a        81     0     5     1     1
  3.1563245672371681E-01 a        82     0     5     1     2
 -5.3089513926038212E-01 a        83     0     5     1     3
  1.3485187962638892E-01 a        84     0     5     1     4
  5.1054066914646967E-01 a        85     0     5     1     5
 -3.9536845320998021E-01 a        86     0     5     1     6
 -4.9374717564259668E-01 a        87     0     5     1     7
  1.4148122182508566E-01 a        88     0     5     1     8
 -2.1593558548446593E-01 a        89     0     5     1     9
  5.9797475795368094E-01 a        90     0     5     1    10
 -2.1919454227652560E-01 a        91     0     5     1    11
  1.5989359801644545E-01 a        92     0     5     1    12
 -8.1984362877044981E-01 a        93     0     5     1    13
 -1.2777513526669948E-01 a        94     0     5     1    14
  7.8249845659196315E-01 a        95     0     5     1    15
  5.4885085266144373E-01 a        96     0     5     1    16
  1.8615600430187154E-01 a        97     0     5     1    17
  2.1913183468237021E-02 a        98     0     5     1    18
  7.0518422525941415E-01 a        99     0     5     1    19
  7.5937707892609176E-03 a       100     0     5     1    20
 -2.6002908314765560E-01 a       101     0     6     1     1
 -7.0287254052412251E-01 a       102     0     6     1     2
 -1.9504304689203458E-01 a       103     0     6     1     3
  3.2851022146656692E-03 a       104     0     6     1     4
  2.3700750880019200E-01 a       105     0     6     1     5
  3.2025890326415379E-01 a       106     0     6     1     6
 -1.3404663257963911E-01 a       107     0     6     1     7
  1.1178536869815107E-01 a       108     0     6     1     8
 -2.0106494133079902E-01 a       109     0     6     1     9
 -4.9410619261406286E-01 a       110     0     6     1    10
 -2.9802917834543974E-01 a       111     0     6     1    11
 -1.1231421437237343E+00 a       112     0     6     1    12
  7.3736515659330615E-01 a       113     0     6     1    13
  2.8107204365474459E-01 a       114     0     6     1    14
 -5.3348543710280305E-01 a       115     0     6     1    15
 -3.4191322707459887E-01 a       116     0     6     1    16
 -2.6845780518401580E-01 a       117     0     6     1    17
  3.8750065735211070E-01 a       118     0     6     1    18
  8.5374171401594159E-02 a       119     0     6     1    19
  2.4653539025953300E-01 a       120     0     6     1    20
 -8.2923341916644813E-02 a       121     0     7     1     1
  5.4613478370589374E-01 a       122     0     7     1     2
  3.2139994909899999E-01 a       123     0     7     1     3
  1.3176916363584976E+00 a       124     0     7     1     4
 -2.8166843268244768E-01 a       125     0     7     1     5
 -9.0138528545861751E-01 a       126     0     7     1     6
  1.7425413832366096E-01 a       127     0     7     1     7
  1.8095553250689672E-01 a       128     0     7     1     8
  3.6992075697452342E-01 a       129     0     7     1     9
 -3.7480186647605114E-02 a       130     0     7     1    10
  4.6500601439594025E-01 a       131     0     7     1    11
 -5.3631866582352594E-01 a       132     0     7     1    12
  6.6076976771122686E-01 a       133     0     7     1    13
 -3.8464612073304966E-01 a       134     0     7     1    14
 -9.7288960789442019E-02 a       135     0     7     1    15
  2.6616958450050812E-02 a       136     0     7     1    16
 -3.2316296597558924E-01 a       137     0     7     1    17
 -5.2156477360739195E-01 a       138     0     7     1    18
 -2.6813809694657215E-01 a       139     0     7     1    19
  3.5350518823865179E-01 a       140     0     7     1    20
 -4.7719253199487116E-01 a       141     0     8     1     1
  1.1947708679450805E-01 a       142     0     8     1     2
  3.8151160147278956E-01 a       143     0     8     1     3
 -2.5442785820172237E-01 a       144     0     8     1     4
  5.4514599129127234E-03 a       145     0     8     1     5
  1.3162171365871728E-01 a       146     0     8     1     6
  7.1530191893361650E-01 a       147     0     8     1     7
  2.7053309157305422E-01 a       148     0     8     1     8
 -3.4360230553837870E-02 a       149     0     8     1     9
  2.6272187280476073E-01 a       150     0     8     1    10
 -4.1970257220665136E-01 a       151     0     8     1    11
 -4.7621622348080189E-01 a       152     0     8     1    12
 -5.6684493343870557E-01 a       153     0     8     1    13
 -1.8254936651747641E-01 a       154     0     8     1    14
 -1.0391663416874894E-01 a       155     0     8     1    15
 -1.5105865825562764E-01 a       156     0     8     1    16
  4.8444559231321405E-01 a       157     0     8     1    17
 -4.7161729468068368E-02 a       158     0     8     1    18
  3.6060592238799244E-01 a       159     0     8     1    19
  2.9118222832767049E-01 a       160     0     8     1    20
  8.4301166040209863E-01 a       161     0     9     1     1
  9.0203673905926007E-01 a       162     0     9     1     2
 -7.9071239289270276E-02 a       163     0     9     1     3
 -3.2396117969550714E-01 a       164     0     9     1     4
 -7.5580597853379755E-02 a       165     0     9     1     5
 -6.0934281716639886E-02 a       166     0     9     1     6
 -4.2034064714489466E-01 a       167     0     9     1     7
 -1.1035356709523479E-01 a       168     0     9     1     8
  2.2235466279442090E-01 a       169     0     9     1     9
 -1.3511619122473489E-01 a       170     0     9     1    10
  1.2634947444735187E-01 a       171     0     9     1    11
  3.1615630002251999E-01 a       172     0     9     1    12
  2.6885149048269086E-01 a       173     0     9     1    13
  7.4658596039271308E-01 a       174     0     9     1    14
 -5.8710595451653369E-01 a       175     0     9     1    15
  5.7927467627261775E-01 a       176     0     9     1    16
  6.2371430902718417E-01 a       177     0     9     1    17
  1.2448490988384089E-01 a       178     0     9     1    18
  2.3172861925563176E-01 a       179     0     9     1    19
 -9.7318255527503630E-02 a       180     0     9     1    20
 -5.9520067935611365E-01 a       181     0    10     1     1
  2.5909244806790188E-01 a       182     0    10     1     2
 -3.1207539341441370E-01 a       183     0    10     1     3
 -3.2424697443413730E-01 a       184     0    10     1     4
  3.1837290346115021E-01 a       185     0    10     1     5
  2.1025686649477854E-01 a       186     0    10     1     6
 -1.7685358633801437E-02 a       187     0    10     1     7
 -9.6892538038961279E-02 a       188     0    10     1     8
  2.4849913215158934E-01 a       189     0    10     1     9
 -4.9364456400291273E-02 a       190     0    10     1    10
 -2.5713453652012142E-01 a       191     0    10     1    11
  7.2709098939586596E-03 a       192     0    10     1    12
  2.9075124791238954E-01 a       193     0    10     1    13
 -3.4920061064263913E-01 a       194     0    10     1    14
  8.4985768549881613E-01 a       195     0    10     1    15
  3.3155124487184501E-01 a       196     0    10     1    16
  3.5090929949883581E-01 a       197     0    10     1    17
  6.1475458554788379E-02 a       198     0    10     1    18
  1.5834234404658887E-01 a       199     0    10     1    19
 -8.0255111862845041E-01 a       200     0    10     1    20
 -2.9215679342802250E-02 a       201     0    11     1     1
 -1.2653496004193004E-01 a       202     0    11     1     2
 -5.1587435319103214E-01 a       203     0    11     1     3
  3.1967453832038403E-02 a       204     0    11     1     4
  7.7566959338173411E-02 a       205     0    11     1     5
 -7.1993687462666067E-01 a       206     0    11     1     6
  7.5696118332436257E-01 a       207     0    11     1     7
  1.8170642235468620E-01 a       208     0    11     1     8
 -6.0879823809728029E-01 a       209     0    11     1     9
 -5.1990088462889217E-02 a       210     0    11     1    10
 -7.3934351949357088E-02 a       211     0    11     1    11
  6.7461100310625983E-03 a       212     0    11     1    12
  3.7795158910555605E-02 a       213     0    11     1    13
  1.4314214044323431E-01 a       214     0    11     1    14
  1.1232631361718290E-01 a       215     0    11     1    15
  2.8961822276678850E-01 a       216     0    11     1    16
  1.5078200704844358E-01 a       217     0    11     1    17
 -4.4328987470050379E-01 a       218     0    11     1    18
 -4.7579759745546749E-02 a       219     0    11     1    19
  2.5463123505238378E-01 a       220     0    11     1    20
 -9.5833121505539048E-02 a       221     0    12     1     1
  2.9376228547458444E-01 a       222     0    12     1     2
  5.8251248535528023E-02 a       223     0    12     1     3
  6.7273352659849706E-01 a       224     0    12     1     4
 -3.3043728116901211E-01 a       225     0    12     1     5
 -4.4136483374446464E-02 a       226     0    12     1     6
 -3.7933411323402239E-01 a       227     0    12     1     7
  3.5411065934376101E-01 a       228     0    12     1     8
 -1.9482339115231842E-01 a       229     0    12     1     9
  2.9200831319051135E-01 a       230     0    12     1    10
  2.0516019086711165E-01 a       231     0    12     1    11
  1.4139880854095793E-01 a       232     0    12     1    12
 -4.0260867177576337E-01 a       233     0    12     1    13
 -2.3808387953233376E-01 a       234     0    12     1    14
 -3.1959428239231080E-01 a       235     0    12     1    15
 -8.4316604642894893E-02 a       236     0    12     1    16
  2.5076674928927051E-01 a       237     0    12     1    17
 -2.0237853124394586E-01 a       238     0    12     1    18
 -6.3506705408862185E-01 a       239     0    12     1    19
  2.7770895597437262E-01 a       240     0    12     1    20
 -3.3678123326172177E-01 a       241     0    13     1     1
  4.6353420668979309E-02 a       242     0    13     1     2
  4.1496754972109712E-01 a       243     0    13     1     3
 -4.4221304962338746E-02 a       244     0    13     1     4
 -2.2475389583507720E-02 a       245     0    13     1     5
  2.2223595987331168E-01 a       246     0    13     1     6
 -8.5036173754575073E-01 a       247     0    13     1     7
 -1.0838778092286798E-01 a       248     0    13     1     8
  4.4837292814248458E-01 a       249     0    13     1     9
  6.8731340106606365E-01 a       250     0    13     1    10
  2.4602224787392155E-01 a       251     0    13     1    11
  3.5222853386873632E-01 a       252     0    13     1    12
  1.4658712285722839E-01 a       253     0    13     1    13
 -4.8213142806073983E-01 a       254     0    13     1    14
  1.9306405715454569E-01 a       255     0    13     1    15
 -1.6140437252238390E-02 a       256     0    13     1    16
 -2.9768505237217030E-01 a       257     0    13     1    17
  5.9224690547621688E-02 a       258     0    13     1    18
  2.0373596530404790E-02 a       259     0    13     1    19
 -1.4137136470858017E-01 a       260     0    13     1    20
  7.7875565897255639E-02 a       261     0    14     1     1
 -3.1313714227883274E-02 a       262     0    14     1     2
 -6.9131384548432859E-02 a       263     0    14     1     3
 -1.3375988888293999E-01 a       264     0    14     1     4
 -1.0954229034201463E-01 a       265     0    14     1     5
  2.7720938056279887E-01 a       266     0    14     1     6
  2.4302689866627475E-01 a       267     0    14     1     7
 -6.4380017094585379E-02 a       268     0    14     1     8
 -5.2139112197259870E-02 a       269     0    14     1     9
 -3.1734860470948689E-01 a       270     0    14     1    10
 -2.6287197892322400E-01 a       271     0    14     1    11
 -1.2337055330498327E-03 a       272     0    14     1    12
  1.1864330602142588E-01 a       273     0    14     1    13
 -1.1499551337879922E-01 a       274     0    14     1    14
  2.4818179180650923E-01 a       275     0    14     1    15
 -7.1533565168220195E-02 a       276     0    14     1    16
  1.7380502443006240E-01 a       277     0    14     1    17
 -9.1385026736751016E-02 a       278     0    14     1    18
 -2.1840792576472148E-01 a       279     0    14     1    19
  8.4211328131567065E-02 a       280     0    14     1    20
 -1.6300958738456714E-01 a       281     0    15     1     1
 -1.5063901899613416E-01 a       282     0    15     1     2
 -2.5898327485228151E-01 a       283     0    15     1     3
 -4.5215061556805553E-01 a       284     0    15     1     4
  1.7651939684376186E-01 a       285     0    15     1     5
 -3.3669838871997780E-02 a       286     0    15     1     6
 -3.2985245711265571E-01 a       287     0    15     1     7
 -2.1151009648521291E-01 a       288     0    15     1     8
 -5.0322338282833079E-01 a       289     0    15     1     9
  1.0193308342072693E-01 a       290     0    15     1    10
 -2.1233781511249609E-02 a       291     0    15     1    11
  5.4008150269874586E-02 a       292     0    15     1    12
  1.5559446516421419E-01 a       293     0    15     1    13
  4.9691964057028559E-01 a       294     0    15     1    14
 -6.3229624060627029E-02 a       295     0    15     1    15
 -8.6823574856221372E-02 a       296     0    15     1    16
 -2.8314275273556688E-01 a       297     0    15     1    17
  7.5316530986831928E-02 a       298     0    15     1    18
 -5.4086898073860627E-02 a       299     0    15     1    19
 -5.1988238263377895E-01 a       300     0    15     1    20
 -2.4807638503664579E-02 a       301     0    16     1     1
 -3.2764823103602451E-02 a       302     0    16     1     2
  1.0301235212642776E-01 a       303     0    16     1     3
  2.8830951867743190E-02 a       304     0    16     1     4
  2.8842665843577526E-03 a       305     0    16     1     5
 -2.0636867347009902E-01 a       306     0    16     1     6
 -2.4359024177173255E-02 a       307     0    16     1     7
  3.6147591197016493E-02 a       308     0    16     1     8
 -1.2985894674569591E-02 a       309     0    16     1     9
  1.2458362807782740E-01 a       310     0    16     1    10
  1.6598739713340474E-01 a       311     0    16     1    11
  1.2229070788479576E-01 a       312     0    16     1    12
 -3.6962119289101194E-03 a       313     0    16     1    13
 -2.5354648091398535E-01 a       314     0    16     1    14
 -6.2263511163155039E-02 a       315     0    16     1    15
  3.2942699003986498E-02 a       316     0    16     1    16
 -9.2016244152874991E-03 a       317     0    16     1    17
  3.5675958171389119E-02 a       318     0    16     1    18
  5.6590122924507581E-02 a       319     0    16     1    19
 -1.0320068373823560E-01 a       320     0    16     1    20
 -5.6554751373488354E-01 a       321     0    17     1     1
  4.9052564830054227E-02 a       322     0    17     1     2
 -2.8892100510272339E-01 a       323     0    17     1     3
  1.9055207510791064E-01 a       324     0    17     1     4
 -2.0394744097957071E-01 a       325     0    17     1     5
  3.5588572002435009E-01 a       326     0    17     1     6
 -8.3511975825812657E-01 a       327     0    17     1     7
  1.2530846753979374E-01 a       328     0    17     1     8
  5.2685627788531364E-01 a       329     0    17     1     9
  1.1812930380628171E-01 a       330     0    17     1    10
  6.5855788023720704E-02 a       331     0    17     1    11
 -5.7097258841787790E-01 a       332     0    17     1    12
  1.6369966471366201E-01 a       333     0    17     1    13
  4.3147792146710578E-01 a       334     0    17     1    14
  2.6514865292633114E-02 a       335     0    17     1    15
  1.3713450256705861E-01 a       336     0    17     1    16
  8.5826558811055720E-02 a       337     0    17     1    17
 -1.6837790247405915E-01 a       338     0    17     1    18
  7.0298108570125473E-01 a       339     0    17     1    19
  2.4816853124903868E-02 a       340     0    17     1    20
  1.9068316695193083E-01 a       341     0    18     1     1
 -1.0100863125262136E-01 a       342     0    18     1     2
  2.8359283547695235E-02 a       343     0    18     1     3
 -3.8526021716306945E-02 a       344     0    18     1     4
  1.1424538045152476E-01 a       345     0    18     1     5
 -1.6382580971828412E-01 a       346     0    18     1     6
  1.9476628163769188E-01 a       347     0    18     1     7
 -2.0892810343974520E-02 a       348     0    18     1     8
 -2.1784578361374229E-01 a       349     0    18     1     9
 -2.1112486466413265E-02 a       350     0    18     1    10
  1.9102556530315010E-01 a       351     0    18     1    11
  1.4797768581601198E-01 a       352     0    18     1    12
  1.1521961083996078E-02 a       353     0    18     1    13
  3.9459956615071706E-02 a       354     0    18     1    14
  4.6923026501340719E-02 a       355     0    18     1    15
 -1.0524154169773903E-01 a       356     0    18     1    16
 -8.9540578649206698E-02 a       357     0    18     1    17
 -4.5911855392271703E-02 a       358     0    18     1    18
 -6.1610028933556243E-02 a       359     0    18     1    19
 -5.4817183317007134E-02 a       360     0    18     1    20
 -3.2386314258020542E-02 a       361     0    19     1     1
 -2.8631684426875381E-01 a       362     0    19     1     2
  8.1793886049751974E-01 a       363     0    19     1     3
  1.7849184191363970E-01 a       364     0    19     1     4
  2.0997298195050140E-02 a       365     0    19     1     5
  2.1267516069685155E-01 a       366     0    19     1     6
 -2.4305775149401701E-01 a       367     0    19     1     7
  2.5548954335942081E-01 a       368     0    19     1     8
  6.0431658490784768E-01 a       369     0    19     1     9
 -8.8751262621933683E-03 a       370     0    19     1    10
  9.0773187056524141E-01 a       371     0    19     1    11
  2.1698798539761949E-01 a       372     0    19     1    12
 -3.5194019537213195E-01 a       373     0    19     1    13
 -2.6057326568133315E-01 a       374     0    19     1    14
 -3.4816276099294902E-01 a       375     0    19     1    15
  6.3860168882721377E-02 a       376     0    19     1    16
  7.9084109777098580E-02 a       377     0    19     1    17
  4.9314044467489865E-01 a       378     0    19     1    18
 -1.8997117844970060E-01 a       379     0    19     1    19
  2.3073829334531154E-01 a       380     0    19     1    20
  3.3894276544165991E-01 a       381     0    20     1     1
 -1.2365183937982301E-02 a       382     0    20     1     2
 -2.6274156203840379E-02 a       383     0    20     1     3
 -5.1617136183497525E-01 a       384     0    20     1     4
 -1.3089339465245073E-01 a       385     0    20     1     5
 -3.7834611353105901E-01 a       386     0    20     1     6
  1.7452310808721683E-01 a       387     0    20     1     7
  6.6596573839642015E-01 a       388     0    20     1     8
 -2.0771232549823482E-01 a       389     0    20     1     9
 -1.3519218943097983E-01 a       390     0    20     1    10
  1.8976693567026506E-01 a       391     0    20     1    11
  2.3937068596124045E-01 a       392     0    20     1    12
  3.5711401498474754E-01 a       393     0    20     1    13
 -8.9205633286011499E-02 a       394     0    20     1    14
 -2.5969511376666787E-01 a       395     0    20     1    15
 -2.2005758623227026E-01 a       396     0    20     1    16
  2.1236004879206602E-01 a       397     0    20     1    17
 -4.8230098180825681E-01 a       398     0    20     1    18
  1.3878883832040340E-01 a       399     0    20     1    19
 -2.6118710416432039E-01 a       400     0    20     1    20
  5.0147749260217378E-01 a       401     0    21     1     1
  1.5622171506157042E-02 a       402     0    21     1     2
  8.6549954867761198E-03 a       403     0    21     1     3
 -1.1409298954706718E-02 a       404     0    21     1     4
  1.0725830231652406E-01 a       405     0    21     1     5
 -9.5178743838411003E-02 a       406     0    21     1     6
  4.6378807935423350E-01 a       407     0    21     1     7
  3.1976903671536777E-01 a       408     0    21     1     8
 -1.6224436855369945E-01 a       409     0    21     1     9
  3.8511310669294675E-02 a       410     0    21     1    10
 -6.1959823532978886E-01 a       411     0    21     1    11
 -2.9107756366273285E-01 a       412     0    21     1    12
 -2.1780678480231863E-01 a       413     0    21     1    13
  8.3401782288518213E-03 a       414     0    21     1    14
 -1.0205178329356319E-01 a       415     0    21     1    15
 -2.8582851908612553E-02 a       416     0    21     1    16
  1.8430775194879823E-01 a       417     0    21     1    17
 -1.3096773198160539E-02 a       418     0    21     1    18
 -1.4949595391675158E-01 a       419     0    21     1    19
  1.8156605114521124E-01 a       420     0    21     1    20
  1.4797645648979124E-01 a       421     0    22     1     1
  3.0779078373316271E-01 a       422     0    22     1     2
  1.0144324357663077E-01 a       423     0    22     1     3
  7.8159554390111505E-02 a       424     0    22     1     4
  1.7077307315874249E-01 a       425     0    22     1     5
 -2.6100658356282273E-02 a       426     0    22     1     6
  2.4280192565115658E-02 a       427     0    22     1     7
 -2.6973882277465316E-01 a       428     0    22     1     8
 -3.5348113217174910E-02 a       429     0    22     1     9
 -6.8851761972172909E-02 a       430     0    22     1    10
 -3.5765217313632092E-01 a       431     0    22     1    11
  1.0162435128862111E+00 a       432     0    22     1    12
  1.1551959355470295E-01 a       433     0    22     1    13
 -4.0630003135328191E-01 a       434     0    22     1    14
 -1.9204792242701407E-01 a       435     0    22     1    15
  1.0192893571240158E-01 a       436     0    22     1    16
  3.6875828903985830E-01 a       437     0    22     1    17
  6.9805659943360894E-04 a       438     0    22     1    18
 -4.4644070944092679E-01 a       439     0    22     1    19
 -4.2842603563707275E-02 a       440     0    22     1    20
 -2.6465096381723946E-01 a       441     0    23     1     1
 -8.2324233441063399E-01 a       442     0    23     1     2
  1.5241054254767195E-01 a       443     0    23     1     3
 -5.0363249900951690E-01 a       444     0    23     1     4
  1.4747826058893060E-01 a       445     0    23     1     5
  3.7902580803845726E-01 a       446     0    23     1     6
  6.1420255296082582E-01 a       447     0    23     1     7
 -2.9179943616549547E-01 a       448     0    23     1     8
 -4.7644387017508028E-01 a       449     0    23     1     9
  2.1386455050839992E-01 a       450     0    23     1    10
 -3.3807908183955981E-01 a       451     0    23     1    11
 -4.4535208817199845E-01 a       452     0    23     1    12
 -6.8016157945726852E-02 a       453     0    23     1    13
  4.7354281407160255E-02 a       454     0    23     1    14
 -9.7166755156942453E-03 a       455     0    23     1    15
 -2.7339907188694534E-01 a       456     0    23     1    16
  1.0907941548900207E-01 a       457     0    23     1    17
  5.2632555461762931E-01 a       458     0    23     1    18
  2.4041176176424390E-02 a       459     0    23     1    19
  3.0616721015348389E-02 a       460     0    23     1    20
  6.3377180527814292E-01 a       461     0    24     1     1
  1.8279997942843691E-02 a       462     0    24     1     2
  1.6928576877561743E-01 a       463     0    24     1     3
 -6.7446182611359651E-02 a       464     0    24     1     4
 -8.8890099226737782E-02 a       465     0    24     1     5
 -3.3939691113263504E-01 a       466     0    24     1     6
 -5.6694553400069359E-01 a       467     0    24     1     7
  6.2514830462651694E-01 a       468     0    24     1     8
  2.0015753160915664E-01 a       469     0    24     1     9
 -2.6228581422237784E-01 a       470     0    24     1    10
 -3.8989155828896525E-02 a       471     0    24     1    11
  8.8859189252298898E-01 a       472     0    24     1    12
  2.9616813846387324E-01 a       473     0    24     1    13
  8.6822976657671122E-02 a       474     0    24     1    14
  1.2376765112232059E-01 a       475     0    24     1    15
  1.7816762666399380E-01 a       476     0    24     1    16
 -7.3281104576334433E-01 a       477     0    24     1    17
 -2.0920387801784326E-01 a       478     0    24     1    18
 -2.3724786274205788E-02 a       479     0    24     1    19
 -1.0757653755517760E-01 a       480     0    24     1    20
 -5.8154590337351403E-02 a       481     0    25     1     1
 -3.3781329780061503E-01 a       482     0    25     1     2
  1.2939165984245288E-01 a       483     0    25     1     3
  6.4254873219715486E-02 a       484     0    25     1     4
  7.1453713301506655E-02 a       485     0    25     1     5
 -3.1169714232108892E-01 a       486     0    25     1     6
  9.0683386910979047E-02 a       487     0    25     1     7
 -1.9379612612237207E-01 a       488     0    25     1     8
 -1.7071257608841195E-01 a       489     0    25     1     9
  6.4875421343642660E-03 a       490     0    25     1    10
  5.2277197759852005E-02 a       491     0    25     1    11
 -2.0861013093447592E-01 a       492     0    25     1    12
 -1.4535009942775146E-01 a       493     0    25     1    13
  1.7322920205936529E-01 a       494     0    25     1    14
  5.2240968081462238E-02 a       495     0    25     1    15
  1.8828605774576426E-01 a       496     0    25     1    16
  2.4433797336275681E-01 a       497     0    25     1    17
 -8.2375429677837425E-02 a       498     0    25     1    18
  3.8137065609486681E-01 a       499     0    25     1    19
  5.4567394361932080E-02 a       500     0    25     1    20
  1.2074602289325626E-01 a       501     0    26     1     1
 -1.9759291763589440E-01 a       502     0    26     1     2
 -5.2833218169264590E-02 a       503     0    26     1     3
 -1.7933181620165556E-01 a       504     0    26     1     4
 -1.6103816493017539E-01 a       505     0    26     1     5
 -3.6872046747488157E-01 a       506     0    26     1     6
  4.1298084945305014E-01 a       507     0    26     1     7
 -4.2182131080109925E-01 a       508     0    26     1     8
 -3.5337959955647397E-01 a       509     0    26     1     9
 -4.8628016849962413E-01 a       510     0    26     1    10
 -1.2747058477853490E-01 a       511     0    26     1    11
  9.8352795781807278E-02 a       512     0    26     1    12
  4.8963922715500680E-01 a       513     0    26     1    13
 -7.9631037683345930E-03 a       514     0    26     1    14
  2.1202003910883715E-01 a       515     0    26     1    15
 -6.6661335539151789E-01 a       516     0    26     1    16
 -4.1900442025820134E-02 a       517     0    26     1    17
 -6.1269859240112655E-02 a       518     0    26     1    18
  1.8902185180574980E-02 a       519     0    26     1    19
 -4.0774301948067848E-01 a       520     0    26     1    20
  1.6717127667101930E-01 a       521     0    27     1     1
  1.1713992735980354E-01 a       522     0    27     1     2
 -7.0761063255929180E-01 a       523     0    27     1     3
 -8.2665502234638222E-01 a       524     0    27     1     4
  3.2749454929527627E-01 a       525     0    27     1     5
  6.1518714607632530E-01 a       526     0    27     1     6
  5.8917081016113204E-01 a       527     0    27     1     7
 -1.2974951690413890E+00 a       528     0    27     1     8
  4.5741489832736565E-01 a       529     0    27     1     9
  2.6768978884994465E-01 a       530     0    27     1    10
  1.1766787870117160E-01 a       531     0    27     1    11
 -4.1429310831394922E-02 a       532     0    27     1    12
 -6.0460127135276931E-02 a       533     0    27     1    13
  1.2983096230556432E-01 a       534     0    27     1    14
 -3.2286115145843830E-01 a       535     0    27     1    15
  1.0372026713747536E-02 a       536     0    27     1    16
 -2.3326813252221754E-01 a       537     0    27     1    17
  4.2442082504816070E-01 a       538     0    27     1    18
 -3.1758844560290928E-01 a       539     0    27     1    19
 -5.8797794490629041E-01 a       540     0    27     1    20
 -1.4819948170916711E-01 a       541     0    28     1     1
  1.9046597030055526E-01 a       542     0    28     1     2
  6.9383718586935594E-02 a       543     0    28     1     3
  3.6161224237287692E-01 a       544     0    28     1     4
  8.4133646872152940E-02 a       545     0    28     1     5
  1.3704441204785292E-01 a       546     0    28     1     6
 -2.8620785736887155E-01 a       547     0    28     1     7
 -1.6791825013737671E-01 a       548     0    28     1     8
  4.1661289521064430E-03 a       549     0    28     1     9
  2.0606748582980219E-01 a       550     0    28     1    10
 -3.8263330185086136E-01 a       551     0    28     1    11
  1.6419698823399148E-01 a       552     0    28     1    12
  4.3885851968520732E-02 a       553     0    28     1    13
 -2.5127654354546491E-01 a       554     0    28     1    14
  1.9550814182971518E-01 a       555     0    28     1    15
  9.8357312614515635E-02 a       556     0    28     1    16
 -9.6977584010892806E-02 a       557     0    28     1    17
  1.0345373498380411E-01 a       558     0    28     1    18
 -2.1945037717645835E-01 a       559     0    28     1    19
  1.6589866557470526E-01 a       560     0    28     1    20
 -5.2237959645632812E-02 a       561     0    29     1     1
 -2.9697278153606382E-01 a       562     0    29     1     2
  3.6097692797607933E-01 a       563     0    29     1     3
  2.3151349173979247E-01 a       564     0    29     1     4
 -3.6560371529184885E-02 a       565     0    29     1     5
  4.3232088140040670E-01 a       566     0    29     1     6
 -7.3954173741079376E-01 a       567     0    29     1     7
  3.1990410424604004E-01 a       568     0    29     1     8
 -1.3744616242740992E-01 a       569     0    29     1     9
 -1.9533960424377900E-01 a       570     0    29     1    10
  7.1047930292802919E-01 a       571     0    29     1    11
  1.6731432269830745E-01 a       572     0    29     1    12
 -6.1036825887171953E-01 a       573     0    29     1    13
 -6.3213972554855891E-01 a       574     0    29     1    14
  1.3058367945821941E-01 a       575     0    29     1    15
  5.7373894984169586E-03 a       576     0    29     1    16
 -1.7457206818163798E-01 a       577     0    29     1    17
 -5.0636771415848236E-01 a       578     0    29     1    18
  1.6685229082548741E-01 a       579     0    29     1    19
  3.2194329985858927E-01 a       580     0    29     1    20
 -9.5227755649744256E-02 a       581     0    30     1     1
 -2.2681061498792077E-01 a       582     0    30     1     2
  1.8006050862763226E-01 a       583     0    30     1     3
 -1.3028973668776897E-01 a       584     0    30     1     4
  1.8725953585866686E-01 a       585     0    30     1     5
  9.8226219003717807E-02 a       586     0    30     1     6
  5.9736711124694737E-03 a       587     0    30     1     7
  2.1255711303326061E-01 a       588     0    30     1     8
 -2.2783789539030011E-01 a       589     0    30     1     9
  1.9565560223605896E-01 a       590     0    30     1    10
  1.2722424978032743E+00 a       591     0    30     1    11
 -1.5543694490948959E-01 a       592     0    30     1    12
 -3.3049411198641387E-01 a       593     0    30     1    13
  5.7402139629138468E-03 a       594     0    30     1    14
  1.1855829172933853E-01 a       595     0    30     1    15
  1.5107923025015771E-01 a       596     0    30     1    16
 -3.7110284908882252E-01 a       597     0    30     1    17
 -4.3080070512094018E-02 a       598     0    30     1    18
  5.2563562100839636E-02 a       599     0    30     1    19
  3.6472344183000399E-01 a       600     0    30     1    20
 -1.0540871568931263E+00 b       601     1     1
  3.1027658316991819E-01 b       602     1     2
  7.2942186920642216E-01 b       603     1     3
 -4.4073304436036648E-01 b       604     1     4
  1.0377259348079610E+00 b       605     1     5
 -3.7272377728160139E-01 b       606     1     6
 -1.0222505526069703E+00 b       607     1     7
  4.5495424156123387E-01 b       608     1     8
 -6.7873160376702135E-01 b       609     1     9
  4.8277674252816943E-01 b       610     1    10
  1.0589185647548047E+00 b       611     1    11
 -1.3878263116162184E+00 b       612     1    12
 -7.3414393478508744E-01 b       613     1    13
  1.3275858921250494E+00 b       614     1    14
 -6.3107252189663576E-01 b       615     1    15
 -3.4855198335355086E-01 b       616     1    16
  3.9359096212260025E-01 b       617     1    17
  1.3741566414409219E+00 b       618     1    18
 -5.1649664643744271E-02 b       619     1    19
 -7.3442355939337389E-01 b       620     1    20
  4.6676772655608934E-01 a       621     1     1     2     1
 -3.9750083472150133E-01 a       622     1     1     2     2
  7.3495674921764009E-02 a       623     1     1     2     3
  6.4160768539653468E-01 a       624     1     1     2     4
  1.9285970723912788E-01 a       625     1     1     2     5
  5.4249549305720957E-01 a       626     1     1     2     6
  1.6354662665227945E-02 a       627     1     1     2     7
 -3.8292575824404007E-01 a       628     1     1     2     8
  8.1257891210801547E-01 a       629     1     1     2     9
  7.4901904621070980E-01 a       630     1     1     2    10
  2.4642583575507340E-01 a       631     1     1     2    11
 -1.9004106633487894E-01 a       632     1     1     2    12
  5.1516680619155075E-01 a       633     1     1     2    13
 -2.9320132615012345E-01 a       634     1     1     2    14
  1.6489847240244235E-01 a       635     1     1     2    15
 -4.7618760994168013E-01 a       636     1     1     2    16
 -6.1035053254706229E-01 a       637     1     1     2    17
 -4.8027278090031372E-01 a       638     1     1     2    18
 -8.0842436291960001E-02 a       639     1     1     2    19
  1.4994928498491725E-02 a       640     1     1     2    20
 -3.3271769325649031E-01 a       641     1     2     2     1
 -5.2023430620835298E-01 a       642     1     2     2     2
  6.0256600670372873E-01 a       643     1     2     2     3
  1.9923937645761280E-01 a       644     1     2     2     4
  5.1738476100287523E-01 a       645     1     2     2     5
  3.2436085054813130E-01 a       646     1     2     2     6
  1.2041099057206602E-01 a       647     1     2     2     7
 -3.9116349676355017E-01 a       648     1     2     2     8
 -1.8687535612046027E-01 a       649     1     2     2     9
 -1.2253610610784904E-01 a       650     1     2     2    10
 -3.5154973327770504E-02 a       651     1     2     2    11
  6.0327892141842587E-01 a       652     1     2     2    12
 -2.2923898280871577E-01 a       653     1     2     2    13
  1.8547129228252221E-01 a       654     1     2     2    14
 -2.6621665596662270E-01 a       655     1     2     2    15
  4.8714180417044917E-01 a       656     1     2     2    16
 -1.8421166080188425E-01 a       657     1     2     2    17
 -1.8231013733414844E-01 a       658     1     2     2    18
  2.2074875954285502E-02 a       659     1     2     2    19
  7.3300781753599964E-01 a       660     1     2     2    20
 -8.7380656479898444E-01 a       661     1     3     2     1
 -3.0680108981656762E-01 a       662     1     3     2     2
 -1.0265821118195164E+00 a       663     1     3     2     3
  2.4275476603568660E-01 a       664     1     3     2     4
  2.0529768638167906E-01 a       665     1     3     2     5
 -1.0856727814961523E-01 a       666     1     3     2     6
 -3.7352958628954391E-01 a       667     1     3     2     7
 -2.8651507960179828E-01 a       668     1     3     2     8
 -4.2308296021608360E-01 a       669     1     3     2     9
 -3.9083564838898521E-01 a       670     1     3     2    10
 -5.1897117546913440E-01 a       671     1     3     2    11
  5.4906992066816007E-01 a       672     1     3     2    12
  3.5925566967358347E-01 a       673     1     3     2    13
  6.0934616359700466E-01 a       674     1     3     2    14
 -4.5228664066515673E-01 a       675     1     3     2    15
 -4.9281335048065818E-02 a       676     1     3     2    16
 -2.9246730243268459E-01 a       677     1     3     2    17
 -1.2748577202625905E-01 a       678     1     3     2    18
  6.9470475628878037E-01 a       679     1     3     2    19
 -3.4275705664892980E-01 a       680     1     3     2    20
 -3.6068924936563429E-01 a       681     1     4     2     1
  1.2712425073478245E-01 a       682     1     4     2     2
  2.2841804645180686E-01 a       683     1     4     2     3
 -1.2706023558762602E-01 a       684     1     4     2     4
 -4.6270469811068687E-01 a       685     1     4     2     5
 -5.4163679855571700E-01 a       686     1     4     2     6
 -5.3808002387988019E-01 a       687     1     4     2     7
  4.9821342781640859E-01 a       688     1     4     2     8
  9.5905117472611301E-01 a       689     1     4     2     9
  3.8392603214057291E-01 a       690     1     4     2    10
 -4.5043416250127116E-01 a       691     1     4     2    11
  3.5291234574436298E-01 a       692     1     4     2    12
  3.0468285383996185E-01 a       693     1     4     2    13
  9.2798554790504931E-02 a       694     1     4     2    14
  5.8319693652774462E-01 a       695     1     4     2    15
  9.1818644207148969E-01 a       696     1     4     2    16
  8.0737684421597666E-01 a       697     1     4     2    17
  1.4550488051589283E-01 a       698     1     4     2    18
  6.3645372777804099E-01 a       699     1     4     2    19
 -5.0360339736006876E-01 a       700     1     4     2    20
 -5.9363142006695990E-01 a       701     1     5     2     1
 -1.4652166888307952E-01 a       702     1     5     2     2
  1.6264090123725958E-01 a       703     1     5     2     3
  3.3155510756257306E-01 a       704     1     5     2     4
  6.9336505496843115E-02 a       705     1     5     2     5
 -3.5933915344983308E-01 a       706     1     5     2     6
  5.9212800486660222E-01 a       707     1     5     2     7
  8.4010650444488022E-01 a       708     1     5     2     8
  3.3426412401359828E-01 a       709     1     5     2     9
 -5.3869145972944144E-01 a       710     1     5     2    10
 -2.9675808915323004E-01 a       711     1     5     2    11
 -2.0240568543167137E-01 a       712     1     5     2    12
  2.0557563682037813E-01 a       713     1     5     2    13
 -7.6978309994824218E-02 a       714     1     5     2    14
  2.0747549031378459E-01 a       715     1     5     2    15
 -1.8191893422991617E-01 a       716     1     5     2    16
 -6.4774044124487751E-01 a       717     1     5     2    17
  5.0906494668346602E-01 a       718     1     5     2    18
  4.7549195425842028E-01 a       719     1     5     2    19
  2.4596634430493985E-01 a       720     1     5     2    20
 -8.0385960948888469E-01 a       721     1     6     2     1
  7.8457930669940182E-02 a       722     1     6     2     2
  5.8820489956508260E-01 a       723     1     6     2     3
 -3.8903257188661700E-01 a       724     1     6     2     4
  1.1435073938319607E-01 a       725     1     6     2     5
 -8.4622927136104831E-01 a       726     1     6     2     6
  2.5485440857934732E-01 a       727     1     6     2     7
 -3.5858684567010291E-01 a       728     1     6     2     8
  4.0851209296815000E-01 a       729     1     6     2     9
  8.0109295786157919E-01 a       730     1     6     2    10
  4.1381340850216736E-01 a       731     1     6     2    11
  1.1052939665640768E-01 a       732     1     6     2    12
 -3.7706342698096446E-01 a       733     1     6     2    13
  4.1359596429104323E-01 a       734     1     6     2    14
  8.0419850385540018E-02 a       735     1     6     2    15
  3.8229841428502920E-01 a       736     1     6     2    16
  2.2901310109852602E-01 a       737     1     6     2    17
  2.1624903191592537E-01 a       738     1     6     2    18
  4.4191617681079370E-01 a       739     1     6     2    19
  1.1548554652302196E+00 a       740     1     6     2    20
 -2.2927183497944457E-02 a       741     1     7     2     1
  5.9541385548748449E-01 a       742     1     7     2     2
 -2.4417598503581963E-02 a       743     1     7     2     3
  8.9566796512901170E-02 a       744     1     7     2     4
 -4.3042727303781525E-01 a       745     1     7     2     5
 -1.3044504173324425E-01 a       746     1     7     2     6
 -1.0969706277251458E-01 a       747     1     7     2     7
 -7.7017803706864163E-01 a       748     1     7     2     8
 -1.6297587037471320E-01 a       749     1     7     2     9
  7.1895000068587234E-01 a       750     1     7     2    10
  1.9304333133309282E-01 a       751     1     7     2    11
 -4.8642019042554741E-01 a       752     1     7     2    12
  1.9045338900439773E-01 a       753     1     7     2    13
 -7.3532180652022980E-02 a       754     1     7     2    14
  3.9385310814608443E-01 a       755     1     7     2    15
 -1.0237231740988861E+00 a       756     1     7     2    16
 -2.1897628008677542E-01 a       757     1     7     2    17
  3.5152926922736255E-01 a       758     1     7     2    18
  1.7231970084479578E-01 a       759     1     7     2    19
  1.8733149997556271E-02 a       760     1     7     2    20
 -3.0001432436191411E-02 a       761     1     8     2     1
 -3.4243211625388187E-01 a       762     1     8     2     2
 -7.2985976264613406E-01 a       763     1     8     2     3
  5.1120841854311172E-01 a       764     1     8     2     4
 -2.4259732685298344E-01 a       765     1     8     2     5
  4.6332768043768319E-01 a       766     1     8     2     6
 -2.5021872081689167E-01 a       767     1     8     2     7
  1.4892595001182890E-01 a       768     1     8     2     8
  1.5780280059292995E-01 a       769     1     8     2     9
 -4.8368751435438520E-02 a       770     1     8     2    10
 -3.7257858908736169E-01 a       771     1     8     2    11
 -3.0092230674207704E-01 a       772     1     8     2    12
 -5.9172995997268052E-01 a       773     1     8     2    13
 -8.3600567656379091E-02 a       774     1     8     2    14
  2.0688730153574378E-01 a       775     1     8     2    15
 -1.6466345043781738E-01 a       776     1     8     2    16
 -4.1826324301180534E-01 a       777     1     8     2    17
 -5.0366346103325477E-01 a       778     1     8     2    18
 -3.5633289148359520E-01 a       779     1     8     2    19
 -5.1471474875501877E-01 a       780     1     8     2    20
  7.4316550990010477E-01 a       781     1     9     2     1
 -2.0749532489009961E-01 a       782     1     9     2     2
 -4.9707581193044609E-01 a       783     1     9     2     3
  6.7025094792582507E-01 a       784     1     9     2     4
  1.2209022396177148E-02 a       785     1     9     2     5
 -6.4142942815724496E-02 a       786     1     9     2     6
 -8.0558148272499935E-02 a       787     1     9     2     7
  1.8992908888386600E-01 a       788     1     9     2     8
  6.2564387262840537E-01 a       789     1     9     2     9
 -5.8524973848012300E-02 a       790     1     9     2    10
  7.5146217197481135E-01 a       791     1     9     2    11
 -1.5752462567607103E-01 a       792     1     9     2    12
 -4.0574828219029896E-01 a       793     1     9     2    13
  2.1972784271797035E-03 a       794     1     9     2    14
  5.6472418211462605E-01 a       795     1     9     2    15
 -1.6910326060761760E-02 a       796     1     9     2    16
 -1.3570212294088801E-01 a       797     1     9     2    17
  1.7000937753645701E-01 a       798     1     9     2    18
  4.3611686556129137E-01 a       799     1     9     2    19
  5.9341871424217973E-01 a       800     1     9     2    20
 -6.7348878548049967E-02 a       801     1    10     2     1
  2.1369449356763032E-01 a       802     1    10     2     2
  1.0045182279327762E-01 a       803     1    10     2     3
  1.5372564357670790E-01 a       804     1    10     2     4
 -1.7588914046175214E-01 a       805     1    10     2     5
 -3.4556522663027572E-01 a       806     1    10     2     6
 -2.5574214601909584E-01 a       807     1    10     2     7
 -4.9954110907610239E-01 a       808     1    10     2     8
 -5.3060284278549585E-01 a       809     1    10     2     9
 -5.1925129484957955E-01 a       810     1    10     2    10
  4.6791995432348066E-01 a       811     1    10     2    11
  1.0552810765762320E-01 a       812     1    10     2    12
  3.3859655509690845E-01 a       813     1    10     2    13
  3.9808103294102448E-01 a       814     1    10     2    14
  5.2154319571513574E-01 a       815     1    10     2    15
 -8.8815402341191715E-02 a       816     1    10     2    16
 -7.7646817919930433E-01 a       817     1    10     2    17
  5.1269221031774170E-01 a       818     1    10     2    18
  7.4840104185223091E-02 a       819     1    10     2    19
  2.8139572738209490E-01 a       820     1    10     2    20
 -5.6288665860150999E-01 a       821     1    11     2     1
 -2.8143004965896162E-01 a       822     1    11     2     2
 -3.6432537952647820E-01 a       823     1    11     2     3
 -3.5963543940009279E-01 a       824     1    11     2     4
  1.3843832806102124E-01 a       825     1    11     2     5
 -2.3303701105876287E-01 a       826     1    11     2     6
  1.9878344768436470E-02 a       827     1    11     2     7
  6.3950901798436310E-01 a       828     1    11     2     8
  9.9073219292723624E-01 a       829     1    11     2     9
 -3.6869367421029425E-01 a       830     1    11     2    10
  3.3584260021296863E-01 a       831     1    11     2    11
  3.8752349974108424E-01 a       832     1    11     2    12
  5.8316436082103039E-02 a       833     1    11     2    13
 -8.9750313645362758E-03 a       834     1    11     2    14
 -4.3989761987319409E-02 a       835     1    11     2    15
  9.6633174620027174E-01 a       836     1    11     2    16
 -3.4769676595262322E-01 a       837     1    11     2    17
  4.3536188466072934E-01 a       838     1    11     2    18
 -3.6856400499028519E-01 a       839     1    11     2    19
  6.4809279803732622E-01 a       840     1    11     2    20
 -1.6070146846705810E-03 a       841     1    12     2     1
 -4.6291302401112219E-02 a       842     1    12     2     2
  2.9383476203978776E-01 a       843     1    12     2     3
 -2.7819931281122734E-01 a       844     1    12     2     4
 -5.5519168255872697E-01 a       845     1    12     2     5
 -3.6572328906512847E-01 a       846     1    12     2     6
  6.9930905012875327E-02 a       847     1    12     2     7
 -1.4052003867515126E+00 a       848     1    12     2     8
  1.1730046892363737E+00 a       849     1    12     2     9
  4.4512073585915808E-02 a       850     1    12     2    10
  1.9324942090131910E-02 a       851     1    12     2    11
  1.1508560501291092E-01 a       852     1    12     2    12
 -1.5669212256637616E-01 a       853     1    12     2    13
  2.5674903740978250E-01 a       854     1    12     2    14
  4.2035639044638223E-01 a       855     1    12     2    15
  8.4361506352882132E-01 a       856     1    12     2    16
  9.9928888909278946E-01 a       857     1    12     2    17
 -4.8744764044279537E-01 a       858     1    12     2    18
  3.9809183369802553E-01 a       859     1    12     2    19
  9.2842084624608989E-01 a       860     1    12     2    20
 -2.7610316507228078E-01 a       861     1    13     2     1
  5.7237875709302477E-01 a       862     1    13     2     2
 -5.9623528748574972E-01 a       863     1    13     2     3
 -6.4209818420039722E-01 a       864     1    13     2     4
 -7.2493205053276588E-01 a       865     1    13     2     5
 -6.3736340073482334E-01 a       866     1    13     2     6
 -6.3738924463749469E-01 a       867     1    13     2     7
  8.1205858431213584E-01 a       868     1    13     2     8
 -6.3410921725762814E-01 a       869     1    13     2     9
 -6.3673659292491236E-01 a       870     1    13     2    10
  4.7624366920491684E-01 a       871     1    13     2    11
 -4.7279236175908973E-01 a       872     1    13     2    12
 -1.6267145009252047E-02 a       873     1    13     2    13
  3.2466806329033049E-01 a       874     1    13     2    14
 -5.7552471927852056E-01 a       875     1    13     2    15
 -3.5185123703040638E-02 a       876     1    13     2    16
 -1.3504546356344524E-01 a       877     1    13     2    17
 -1.4385259950618950E-01 a       878     1    13     2    18
 -4.7656004221084375E-01 a       879     1    13     2    19
 -1.8917755450820348E-01 a       880     1    13     2    20
 -2.6510271088774573E-01 a       881     1    14     2     1
 -1.1920160311718189E-01 a       882     1    14     2     2
  3.3134339674389385E-01 a       883     1    14     2     3
  4.0028742380293031E-01 a       884     1    14     2     4
  3.5547509476288303E-01 a       885     1    14     2     5
  4.2873785126347352E-01 a       886     1    14     2     6
  8.2316095863404914E-01 a       887     1    14     2     7
 -8.1390028876448806E-01 a       888     1    14     2     8
  1.5820893512729853E-01 a       889     1    14     2     9
 -2.6121054979562369E-01 a       890     1    14     2    10
 -1.2558600819954429E-02 a       891     1    14     2    11
  3.0854350793838542E-01 a       892     1    14     2    12
  2.0493891589167559E-01 a       893     1    14     2    13
  4.6781470921491750E-02 a       894     1    14     2    14
 -6.2120836913430122E-01 a       895     1    14     2    15
 -3.0209697899426441E-01 a       896     1    14     2    16
 -2.9859661969645912E-01 a       897     1    14     2    17
 -6.7027509743263824E-02 a       898     1    14     2    18
 -8.0628596748933246E-02 a       899     1    14     2    19
  8.3597735638069759E-01 a       900     1    14     2    20
  2.9858709218976404E-01 a       901     1    15     2     1
  3.2749012839128605E-01 a       902     1    15     2     2
 -1.5322460732081655E-01 a       903     1    15     2     3
  8.3213103976122571E-01 a       904     1    15     2     4
  3.3736767171894055E-01 a       905     1    15     2     5
  7.8520029321573859E-01 a       906     1    15     2     6
 -5.2297411005651684E-01 a       907     1    15     2     7
 -8.8014733752372487E-01 a       908     1    15     2     8
 -5.0588078790890800E-01 a       909     1    15     2     9
  3.0660113732160463E-02 a       910     1    15     2    10
  1.8683477902724152E-01 a       911     1    15     2    11
  1.4717788560305531E-01 a       912     1    15     2    12
 -7.9827365119123028E-01 a       913     1    15     2    13
 -4.2773013707633301E-01 a       914     1    15     2    14
  5.1217546008513815E-01 a       915     1    15     2    15
 -3.9899766211194461E-02 a       916     1    15     2    16
  4.3290229349102843E-01 a       917     1    15     2    17
 -2.8596958285653806E-01 a       918     1    15     2    18
  4.9593867472867553E-01 a       919     1    15     2    19
  6.4106647089763202E-01 a       920     1    15     2    20
  1.6341159957266363E-01 a       921     1    16     2     1
  7.9590866356487144E-01 a       922     1    16     2     2
  4.7704904011835586E-01 a       923     1    16     2     3
 -3.2206641099941857E-01 a       924     1    16     2     4
  2.8549746436966539E-01 a       925     1    16     2     5
  2.0288320175377814E-01 a       926     1    16     2     6
  3.6226880378638449E-01 a       927     1    16     2     7
  2.1912879504929816E-01 a       928     1    16     2     8
 -3.8447592797570644E-02 a       929     1    16     2     9
 -5.0882808112859645E-01 a       930     1    16     2    10
 -6.1198706415653670E-01 a       931     1    16     2    11
  3.7133515534994160E-01 a       932     1    16     2    12
 -4.4759416942104419E-01 a       933     1    16     2    13
  4.5027882374742617E-01 a       934     1    16     2    14
 -4.8168373265853326E-01 a       935     1    16     2    15
  6.5354517771089182E-01 a       936     1    16     2    16
 -2.6374332133768896E-01 a       937     1    16     2    17
 -1.1949920745699254E-01 a       938     1    16     2    18
 -5.4662483651335148E-01 a       939     1    16     2    19
  9.4337190066653753E-01 a       940     1    16     2    20
  5.1144231201360621E-02 a       941     1    17     2     1
 -2.0361256451663798E-01 a       942     1    17     2     2
 -5.8280238249318488E-02 a       943     1    17     2     3
  5.9328103409172995E-04 a       944     1    17     2     4
 -4.9432793830627673E-02 a       945     1    17     2     5
  5.0142748354432831E-01 a       946     1    17     2     6
  5.4543578800283921E-01 a       947     1    17     2     7
 -3.4698155684283138E-01 a       948     1    17     2     8
  1.5298178957550687E-01 a       949     1    17     2     9
 -1.9018715481198933E-02 a       950     1    17     2    10
  4.0185700790240121E-02 a       951     1    17     2    11
  1.2929826977716213E-01 a       952     1    17     2    12
  6.6418633640605407E-01 a       953     1    17     2    13
 -7.1446466257816910E-01 a       954     1    17     2    14
 -1.8835731201759479E-01 a       955     1    17     2    15
  7.9304228513670333E-02 a       956     1    17     2    16
 -4.1257643968823571E-01 a       957     1    17     2    17
  8.6094474074671357E-02 a       958     1    17     2    18
  9.1621811216358362E-01 a       959     1    17     2    19
 -5.2575103508049059E-01 a       960     1    17     2    20
 -5.9143379689133191E-02 a       961     1    18     2     1
 -2.0639879268703987E-01 a       962     1    18     2     2
 -7.1104839603874714E-01 a       963     1    18     2     3
  2.2503953688291312E-01 a       964     1    18     2     4
 -1.0264441684535547E-01 a       965     1    18     2     5
 -6.2661633889653834E-01 a       966     1    18     2     6
 -3.3139258335990462E-01 a       967     1    18     2     7
 -3.9236903439077614E-01 a       968     1    18     2     8
 -4.4083819849425987E-01 a       969     1    18     2     9
 -6.1714723900383606E-01 a       970     1    18     2    10
 -3.0723986419053861E-01 a       971     1    18     2    11
 -2.9658401408842205E-01 a       972     1    18     2    12
  4.6931499953192507E-01 a       973     1    18     2    13
  1.2497768301093209E-01 a       974     1    18     2    14
 -1.5285753672279487E-01 a       975     1    18     2    15
 -4.7274992523808478E-02 a       976     1    18     2    16
  6.4997673191360017E-02 a       977     1    18     2    17
 -3.3634889457911252E-02 a       978     1    18     2    18
 -3.5659386220941967E-02 a       979     1    18     2    19
  6.7281483035149303E-01 a       980     1    18     2    20
 -7.2988301878390227E-01 a       981     1    19     2     1
  7.3493330756355257E-01 a       982     1    19     2     2
  1.7637095682699086E-01 a       983     1    19     2     3
  5.1321218070502966E-02 a       984     1    19     2     4
  4.9685543627039658E-01 a       985     1    19     2     5
 -3.4364741705069290E-01 a       986     1    19     2     6
  2.1267462683757615E-01 a       987     1    19     2     7
 -5.1630245355043858E-01 a       988     1    19     2     8
  2.0862659418860960E-01 a       989     1    19     2     9
  1.3907396430555011E-01 a       990     1    19     2    10
  3.7530916618909976E-01 a       991     1    19     2    11
  4.7391752989708080E-01 a       992     1    19     2    12
  3.4423073077485722E-01 a       993     1    19     2    13
 -1.1255872432780449E-01 a       994     1    19     2    14
 -9.8031796868740043E-02 a       995     1    19     2    15
  5.0571927355054658E-01 a       996     1    19     2    16
 -2.1458335452479779E-01 a       997     1    19     2    17
  1.2790032510926061E-01 a       998     1    19     2    18
 -9.1160745371346007E-03 a       999     1    19     2    19
  4.0704501066086540E-01 a      1000     1    19     2    20
  1.6338058309996006E-01 a      1001     1    20     2     1
  2.2290346286506690E-01 a      1002     1    20     2     2
 -8.3133602174695176E-01 a      1003     1    20     2     3
 -2.4753285518431350E-01 a      1004     1    20     2     4
 -2.0190107411084129E-01 a      1005     1    20     2     5
  6.1745819838011735E-03 a      1006     1    20     2     6
  1.0155066885560188E-01 a      1007     1    20     2     7
  8.2100568238345994E-01 a      1008     1    20     2     8
  2.8298438204280157E-01 a      1009     1    20     2     9
  2.7781246048791652E-01 a      1010     1    20     2    10
  7.1622003194615258E-01 a      1011     1    20     2    11
 -2.8729978773910347E-01 a      1012     1    20     2    12
 -9.6069086751845356E-01 a      1013     1    20     2    13
  3.8201083012173148E-01 a      1014     1    20     2    14
  2.1805953933986150E-01 a      1015     1    20     2    15
 -1.9951440392777398E-01 a      1016     1    20     2    16
 -2.7933454300018989E-01 a      1017     1    20     2    17
  3.8285940844055733E-01 a      1018     1    20     2    18
 -1.1637534224011709E-01 a      1019     1    20     2    19
 -1.0067148009972795E+00 a      1020     1    20     2    20
  5.6264218969880009E-01 b      1021     2     1
 -1.5894340748730282E+00 b      1022     2     2
 -1.5547277013395673E+00 b      1023     2     3
  6.8086397103652296E-01 b      1024     2     4
 -1.6389134957213555E-03 b      1025     2     5
 -7.6388319609196217E-02 b      1026     2     6
  9.1585349305433228E-01 b      1027     2     7
  1.8232312371147416E-01 b      1028     2     8
  8.6004375225389940E-01 b      1029     2     9
 -4.1211714090427792E-01 b      1030     2    10
  9.7252723987245115E-01 b      1031     2    11
 -9.5303244297639134E-01 b      1032     2    12
  3.0826414883433606E-01 b      1033     2    13
  7.2971882043787817E-01 b      1034     2    14
 -7.7274747275223754E-01 b      1035     2    15
  3.3831970261983840E-02 b      1036     2    16
 -7.2056267939220486E-01 b      1037     2    17
 -9.8405087210696462E-01 b      1038     2    18
 -8.7718888842277309E-01 b      1039     2    19
  7.6068002150291181E-01 b      1040     2    20
 -5.8760155992565555E-01 a      1041     2     1     3     1
 -1.2173823583569121E+00 a      1042     2     2     3     1
 -1.5007755065285056E+00 a      1043     2     3     3     1
  3.4854159374242766E-01 a      1044     2     4     3     1
  1.1876967371534213E+00 a      1045     2     5     3     1
  9.2530813727802641E-02 a      1046     2     6     3     1
  7.3651097738143867E-01 a      1047     2     7     3     1
 -6.0761276230712358E-01 a      1048     2     8     3     1
  8.5014858510385011E-02 a      1049     2     9     3     1
 -1.8438347335434182E+00 a      1050     2    10     3     1
 -3.2575953093100507E-01 a      1051     2    11     3     1
 -7.1237894305579941E-01 a      1052     2    12     3     1
  3.1271303922987254E-01 a      1053     2    13     3     1
  3.8885549227639521E-01 a      1054     2    14     3     1
 -1.5886555154981692E+00 a      1055     2    15     3     1
  2.4992039593581150E-01 a      1056     2    16     3     1
 -1.6311258630069565E+00 a      1057     2    17     3     1
  4.0481355657953416E-01 a      1058     2    18     3     1
  4.2800496516436276E-02 a      1059     2    19     3     1
 -2.0497805482065271E-01 a      1060     2    20     3     1
  1.9529531067337431E+00 b      1061     3     1
