################################################################################
# Neural network connection values (weights and biases).
################################################################################
# Col  Name       Description
################################################################################
# 1    connection Neural network connection value.
# 2    t          Connection type (a = weight, b = bias).
# 3    index      Index enumerating weights.
# 4    l_s        Starting point layer (end point layer for biases).
# 5    n_s        Starting point neuron in starting layer (end point neuron for biases).
# 6    l_e        End point layer.
# 7    n_e        End point neuron in end layer.
################################################################################
#                      1 2         3     4     5     6     7
#             connection t     index   l_s   n_s   l_e   n_e
############################################################
 -2.8731723146454080E-01 a         1     0     1     1     1
 -1.0522990446035146E-02 a         2     0     1     1     2
 -9.7921604470111812E-01 a         3     0     1     1     3
 -1.1057448500924436E-01 a         4     0     1     1     4
  2.3356847717367157E-01 a         5     0     1     1     5
 -3.3655428040308161E-01 a         6     0     1     1     6
  2.7661273574156464E-01 a         7     0     1     1     7
  5.6436053996948377E-01 a         8     0     1     1     8
 -5.5124926263010199E-01 a         9     0     1     1     9
  1.0031900241655112E+00 a        10     0     1     1    10
  8.2287928176217606E-01 a        11     0     1     1    11
 -6.4556899873586662E-02 a        12     0     1     1    12
 -1.3477441017976622E-03 a        13     0     1     1    13
  2.9430992590954924E-01 a        14     0     1     1    14
  6.8048993179365458E-01 a        15     0     1     1    15
  4.3205050126019934E-01 a        16     0     1     1    16
 -9.2394299649485881E-02 a        17     0     1     1    17
 -4.9883175901435622E-01 a        18     0     1     1    18
 -6.0692238374359386E-02 a        19     0     1     1    19
  1.1049375142977826E-01 a        20     0     1     1    20
 -7.3340316956244406E-02 a        21     0     2     1     1
  3.7552320244151498E-02 a        22     0     2     1     2
  1.2313225368969432E+00 a        23     0     2     1     3
 -2.3687907859631491E-01 a        24     0     2     1     4
 -8.8362936740327036E-01 a        25     0     2     1     5
  1.7048465015289135E-01 a        26     0     2     1     6
 -3.7741860894659424E-01 a        27     0     2     1     7
 -2.2912337859421777E-01 a        28     0     2     1     8
  6.1446800517809452E-01 a        29     0     2     1     9
 -1.7604193760204963E+00 a        30     0     2     1    10
 -6.4600923292155354E-01 a        31     0     2     1    11
 -4.4113901740918671E-02 a        32     0     2     1    12
 -2.8988494873397580E-01 a        33     0     2     1    13
 -9.1513386744484881E-01 a        34     0     2     1    14
 -5.9430183707523465E-01 a        35     0     2     1    15
 -5.6725316934164383E-01 a        36     0     2     1    16
 -9.4635742674820875E-02 a        37     0     2     1    17
 -9.4673230707566031E-02 a        38     0     2     1    18
  3.1439809757537207E-01 a        39     0     2     1    19
 -2.8016758613042608E-01 a        40     0     2     1    20
  4.9929480712584851E-01 a        41     0     3     1     1
 -2.1538823144932179E-01 a        42     0     3     1     2
 -7.9548836439546855E-02 a        43     0     3     1     3
  3.7424392958084383E-02 a        44     0     3     1     4
  5.9784484398137716E-01 a        45     0     3     1     5
 -1.9019321435378328E-01 a        46     0     3     1     6
  4.8685317978381343E-01 a        47     0     3     1     7
 -2.2910036945347928E-01 a        48     0     3     1     8
  1.8959733030429715E-01 a        49     0     3     1     9
  2.8750628874921358E-01 a        50     0     3     1    10
 -7.2819504808679783E-02 a        51     0     3     1    11
  6.0914051225745780E-02 a        52     0     3     1    12
  1.5906729606796635E-01 a        53     0     3     1    13
  1.9146492723609360E-01 a        54     0     3     1    14
 -2.4392383518900340E-01 a        55     0     3     1    15
  1.7657851348723086E-01 a        56     0     3     1    16
 -2.2406470594428610E-01 a        57     0     3     1    17
 -5.6456829959798127E-01 a        58     0     3     1    18
  1.9124296701101126E-01 a        59     0     3     1    19
  3.0845058744531245E-01 a        60     0     3     1    20
 -1.7140271608473903E-01 a        61     0     4     1     1
  9.7802351950121547E-02 a        62     0     4     1     2
  5.6500809955265352E-01 a        63     0     4     1     3
  3.2334928359688825E-01 a        64     0     4     1     4
 -4.2388258658522232E-01 a        65     0     4     1     5
  8.2514453772321572E-01 a        66     0     4     1     6
 -5.6157251184181589E-01 a        67     0     4     1     7
  4.0160921841287317E-01 a        68     0     4     1     8
 -2.4230957825582469E-01 a        69     0     4     1     9
 -4.3638499731018250E-02 a        70     0     4     1    10
 -1.0918108086919537E-01 a        71     0     4     1    11
 -2.4082429911740011E-01 a        72     0     4     1    12
  1.7012820723305494E-01 a        73     0     4     1    13
  6.7343596467284017E-01 a        74     0     4     1    14
  3.3611717707350708E-01 a        75     0     4     1    15
 -2.8198856926106665E-02 a        76     0     4     1    16
 -2.4276713930588081E-01 a        77     0     4     1    17
  4.8742297419656533E-01 a        78     0     4     1    18
 -8.3112337078688175E-02 a        79     0     4     1    19
 -4.7698206932680165E-01 a        80     0     4     1    20
  5.3998668713077946E-01 a        81     0     5     1     1
  1.3599293624810410E-01 a        82     0     5     1     2
  7.1701918008161683E-02 a        83     0     5     1     3
 -4.0102001924253439E-01 a        84     0     5     1     4
  4.4538762265512954E-01 a        85     0     5     1     5
 -3.5081303323794777E-01 a        86     0     5     1     6
  2.0149227401175990E-01 a        87     0     5     1     7
 -1.7348075513958017E-01 a        88     0     5     1     8
  4.9072564782987732E-01 a        89     0     5     1     9
 -1.1278581492939876E-02 a        90     0     5     1    10
 -4.8981963019712604E-01 a        91     0     5     1    11
  2.0284129502140043E-02 a        92     0     5     1    12
  1.5620394213322325E-01 a        93     0     5     1    13
 -7.0061732556068013E-01 a        94     0     5     1    14
  2.6142383973116474E-02 a        95     0     5     1    15
 -1.5498668646101896E-01 a        96     0     5     1    16
  3.7821741070947951E-01 a        97     0     5     1    17
 -2.7222832517879136E-01 a        98     0     5     1    18
 -2.5023874552623637E-01 a        99     0     5     1    19
  2.9647293020360038E-01 a       100     0     5     1    20
 -8.9553957143323690E-03 a       101     0     6     1     1
 -1.5792710236341645E-01 a       102     0     6     1     2
  3.8397439516361626E-01 a       103     0     6     1     3
  1.0088008561804971E+00 a       104     0     6     1     4
  4.6452674929555182E-01 a       105     0     6     1     5
 -8.3265579784374030E-02 a       106     0     6     1     6
  3.7143556543143913E-02 a       107     0     6     1     7
 -2.4854830204215986E-01 a       108     0     6     1     8
 -1.8026812395623225E-02 a       109     0     6     1     9
  6.9238068305272316E-01 a       110     0     6     1    10
  1.4327088492103143E-01 a       111     0     6     1    11
  3.9984998689152235E-01 a       112     0     6     1    12
 -3.5033179869748887E-01 a       113     0     6     1    13
  5.3370581065599720E-01 a       114     0     6     1    14
  6.7574767410509037E-02 a       115     0     6     1    15
  4.3572566888452802E-01 a       116     0     6     1    16
 -2.8053585295242273E-01 a       117     0     6     1    17
  7.7719803241976793E-01 a       118     0     6     1    18
 -1.6852582286508030E-01 a       119     0     6     1    19
 -1.7759219926105192E-02 a       120     0     6     1    20
 -6.5976526407645730E-01 a       121     0     7     1     1
 -2.1302446994882726E-01 a       122     0     7     1     2
  2.3057375245136977E-01 a       123     0     7     1     3
  8.2372806826714148E-02 a       124     0     7     1     4
 -2.4432721010513178E-01 a       125     0     7     1     5
  2.5231012027249478E-01 a       126     0     7     1     6
 -1.7762415667487402E-01 a       127     0     7     1     7
 -2.1197362178281931E-01 a       128     0     7     1     8
 -4.9600415866263037E-01 a       129     0     7     1     9
 -3.2941189983413205E-01 a       130     0     7     1    10
 -2.9369062044953737E-01 a       131     0     7     1    11
 -3.4322178586367069E-01 a       132     0     7     1    12
 -2.4094181239682055E-01 a       133     0     7     1    13
  5.0811422993138056E-01 a       134     0     7     1    14
 -3.8440070302029111E-01 a       135     0     7     1    15
 -4.8142205252177647E-02 a       136     0     7     1    16
  2.3339982699481777E-02 a       137     0     7     1    17
 -3.2487790209251982E-01 a       138     0     7     1    18
  4.7625350475840968E-02 a       139     0     7     1    19
 -9.9870529117469325E-02 a       140     0     7     1    20
 -1.0461734318670984E-01 a       141     0     8     1     1
  4.4362563293444562E-01 a       142     0     8     1     2
 -6.7258136767145468E-02 a       143     0     8     1     3
 -4.2999363338945429E-01 a       144     0     8     1     4
  3.0148010023639527E-02 a       145     0     8     1     5
 -1.4242517461642795E-01 a       146     0     8     1     6
 -2.5040416040419977E-01 a       147     0     8     1     7
 -4.3644017077796587E-01 a       148     0     8     1     8
  2.5715091611014557E-01 a       149     0     8     1     9
 -1.9892978730332952E-01 a       150     0     8     1    10
  1.6414602175250221E-02 a       151     0     8     1    11
 -8.2667655639518645E-01 a       152     0     8     1    12
  5.5297472006121484E-01 a       153     0     8     1    13
 -7.3545153897398508E-01 a       154     0     8     1    14
  1.1958246547570960E-01 a       155     0     8     1    15
 -1.0587854810031871E+00 a       156     0     8     1    16
  6.9990844565627985E-01 a       157     0     8     1    17
 -4.0338518526569711E-01 a       158     0     8     1    18
  5.1914395257334967E-01 a       159     0     8     1    19
  1.9665033812863877E-01 a       160     0     8     1    20
 -2.6330797714844645E-01 a       161     0     9     1     1
 -1.0366058243621290E-01 a       162     0     9     1     2
  1.1078064606578508E-01 a       163     0     9     1     3
 -3.3165181912908043E-02 a       164     0     9     1     4
  8.4196220972224262E-02 a       165     0     9     1     5
  2.0366484874006818E-01 a       166     0     9     1     6
  2.7224396607701279E-01 a       167     0     9     1     7
 -2.9188352224580211E-01 a       168     0     9     1     8
  5.7227175322733947E-01 a       169     0     9     1     9
 -5.9718084710407981E-01 a       170     0     9     1    10
  1.8151235629049464E-01 a       171     0     9     1    11
  8.3943957819865511E-01 a       172     0     9     1    12
 -2.9589046290026211E-01 a       173     0     9     1    13
  4.0660635157494013E-01 a       174     0     9     1    14
 -9.3574934514201224E-04 a       175     0     9     1    15
 -3.8988063563777216E-02 a       176     0     9     1    16
  7.1315309930105819E-02 a       177     0     9     1    17
 -4.6304162585489783E-01 a       178     0     9     1    18
 -3.2082379690356988E-01 a       179     0     9     1    19
 -8.7846631956883381E-01 a       180     0     9     1    20
  3.2641930287104276E-01 a       181     0    10     1     1
  5.4834478724631486E-02 a       182     0    10     1     2
  6.7007314368061643E-01 a       183     0    10     1     3
 -7.7502250477030354E-02 a       184     0    10     1     4
  4.0136660057711998E-01 a       185     0    10     1     5
 -3.2484218367747136E-01 a       186     0    10     1     6
 -2.6537742522156083E-01 a       187     0    10     1     7
  4.3703173122861289E-01 a       188     0    10     1     8
  9.8239618196584041E-02 a       189     0    10     1     9
  3.8025986874397755E-01 a       190     0    10     1    10
  1.1741078235019252E-01 a       191     0    10     1    11
  4.2984727320455168E-01 a       192     0    10     1    12
  8.9456125133258263E-02 a       193     0    10     1    13
  1.0181836962747921E-02 a       194     0    10     1    14
  3.2241651189664972E-01 a       195     0    10     1    15
  1.9567611629460951E-01 a       196     0    10     1    16
 -3.5249101691837309E-01 a       197     0    10     1    17
  6.9144677596589144E-01 a       198     0    10     1    18
 -2.1782074238818611E-01 a       199     0    10     1    19
 -3.0675802090512883E-01 a       200     0    10     1    20
  2.9139663796387916E-01 a       201     0    11     1     1
  3.2206954185927245E-01 a       202     0    11     1     2
  5.1479134569793550E-01 a       203     0    11     1     3
  1.8865005824544281E-01 a       204     0    11     1     4
 -3.7952608730433346E-01 a       205     0    11     1     5
 -5.8610907579983684E-01 a       206     0    11     1     6
 -5.0402249621237472E-01 a       207     0    11     1     7
 -2.8898134877087978E-01 a       208     0    11     1     8
 -8.5757162759882821E-02 a       209     0    11     1     9
  5.1991293380870540E-01 a       210     0    11     1    10
 -6.5216504702698763E-01 a       211     0    11     1    11
 -2.9335123204076324E-01 a       212     0    11     1    12
  2.7150403488873637E-01 a       213     0    11     1    13
 -2.6906063477233035E-02 a       214     0    11     1    14
 -5.9171731884023848E-01 a       215     0    11     1    15
  1.3133485151544119E-01 a       216     0    11     1    16
 -3.5743791650010315E-01 a       217     0    11     1    17
  1.8049951634463116E-01 a       218     0    11     1    18
  4.4026824711846235E-01 a       219     0    11     1    19
 -3.2732188363395795E-02 a       220     0    11     1    20
  5.9086819785378684E-02 a       221     0    12     1     1
  2.4889389930694986E-01 a       222     0    12     1     2
 -1.8383521091531405E-01 a       223     0    12     1     3
  1.1696406743242517E-01 a       224     0    12     1     4
  4.5955458971787227E-01 a       225     0    12     1     5
  2.8049188243271156E-01 a       226     0    12     1     6
 -7.1625951204621757E-02 a       227     0    12     1     7
 -1.5288979828723215E-01 a       228     0    12     1     8
  2.1699430326748800E-02 a       229     0    12     1     9
 -1.8406837429731651E-01 a       230     0    12     1    10
  2.8486142805743270E-01 a       231     0    12     1    11
 -4.1009380806804457E-01 a       232     0    12     1    12
 -2.2161708707370978E-01 a       233     0    12     1    13
 -9.3373079697346581E-02 a       234     0    12     1    14
 -3.2778667572058229E-01 a       235     0    12     1    15
  4.6221357824396420E-01 a       236     0    12     1    16
  3.0825394543970663E-02 a       237     0    12     1    17
 -2.9090062078096474E-02 a       238     0    12     1    18
  1.0237634796381694E-01 a       239     0    12     1    19
 -3.2254008085570038E-02 a       240     0    12     1    20
 -5.4809205248997916E-01 a       241     0    13     1     1
 -8.0842144083141509E-01 a       242     0    13     1     2
  1.4387102206132393E-01 a       243     0    13     1     3
  1.6406421870161275E-01 a       244     0    13     1     4
 -3.2505909793578269E-01 a       245     0    13     1     5
  7.7807316355483908E-02 a       246     0    13     1     6
 -8.6581713094135759E-02 a       247     0    13     1     7
  3.1764443994213638E-02 a       248     0    13     1     8
  4.1429309193418895E-01 a       249     0    13     1     9
 -1.3016002289442347E-01 a       250     0    13     1    10
 -4.0810618153232514E-01 a       251     0    13     1    11
 -7.0351461961157669E-01 a       252     0    13     1    12
  7.7052223236252146E-02 a       253     0    13     1    13
  2.1636820032119466E-01 a       254     0    13     1    14
  1.0773756962612289E+00 a       255     0    13     1    15
  6.5689986444687176E-01 a       256     0    13     1    16
  6.0213189213222584E-01 a       257     0    13     1    17
 -8.4085616022242349E-02 a       258     0    13     1    18
 -1.3856672146457680E-01 a       259     0    13     1    19
  3.1968580843889788E-01 a       260     0    13     1    20
  6.6151541800107927E-01 a       261     0    14     1     1
 -5.3310785497809998E-01 a       262     0    14     1     2
  4.7466352614062596E-01 a       263     0    14     1     3
 -3.8354006249371658E-01 a       264     0    14     1     4
 -3.3554988957199433E-01 a       265     0    14     1     5
 -1.3595520387956500E-01 a       266     0    14     1     6
 -2.6517198697221828E-01 a       267     0    14     1     7
  2.8998985047067755E-01 a       268     0    14     1     8
  7.2034820607637073E-01 a       269     0    14     1     9
  2.0079139956279918E-01 a       270     0    14     1    10
 -7.1858112601679569E-01 a       271     0    14     1    11
  1.1098553887410048E-01 a       272     0    14     1    12
 -1.2522868606047594E-01 a       273     0    14     1    13
 -5.1585947221699104E-02 a       274     0    14     1    14
 -3.2872323664862568E-01 a       275     0    14     1    15
 -7.3288918687328031E-01 a       276     0    14     1    16
  2.0021806156531760E-01 a       277     0    14     1    17
  1.4792781003922278E-01 a       278     0    14     1    18
 -7.8961903945967393E-01 a       279     0    14     1    19
 -1.5859135877754091E-01 a       280     0    14     1    20
  1.0094089749673957E-01 a       281     0    15     1     1
 -1.6527288668580734E-01 a       282     0    15     1     2
  2.5157195485694467E-01 a       283     0    15     1     3
  2.2922432211404742E-01 a       284     0    15     1     4
  2.2975518778482348E-01 a       285     0    15     1     5
 -6.7375458753049067E-02 a       286     0    15     1     6
  2.4178955860546628E-01 a       287     0    15     1     7
  4.7010327613555236E-01 a       288     0    15     1     8
  9.9283135069978989E-02 a       289     0    15     1     9
 -1.2707688669625041E-02 a       290     0    15     1    10
 -2.8551838259008849E-01 a       291     0    15     1    11
  1.1507444604890084E-01 a       292     0    15     1    12
 -1.5039647680109078E+00 a       293     0    15     1    13
  2.7402994813855375E-01 a       294     0    15     1    14
  6.4329035556822189E-01 a       295     0    15     1    15
  2.8251152962651929E-02 a       296     0    15     1    16
 -5.1541508181588180E-01 a       297     0    15     1    17
  5.6972072260670903E-01 a       298     0    15     1    18
  4.4540767136297893E-01 a       299     0    15     1    19
  6.6214474736378981E-02 a       300     0    15     1    20
  1.8087809144689859E-01 a       301     0    16     1     1
 -3.3710338521790578E-01 a       302     0    16     1     2
  2.6555976599690168E-01 a       303     0    16     1     3
  2.9179680113081478E-02 a       304     0    16     1     4
  3.5852842581018618E-01 a       305     0    16     1     5
  3.4001325922235716E-03 a       306     0    16     1     6
  2.1487179996764999E-02 a       307     0    16     1     7
 -2.1004798060510788E-01 a       308     0    16     1     8
 -2.0942187275575366E-01 a       309     0    16     1     9
 -2.1843930866177313E-01 a       310     0    16     1    10
  3.5322684272764077E-01 a       311     0    16     1    11
 -4.7008273100119013E-01 a       312     0    16     1    12
  3.1687581472613066E-02 a       313     0    16     1    13
 -1.3584094153370596E-01 a       314     0    16     1    14
  1.6155125082147345E-01 a       315     0    16     1    15
  8.4820438153991018E-01 a       316     0    16     1    16
 -5.7813509778979899E-01 a       317     0    16     1    17
 -9.8590285175549353E-02 a       318     0    16     1    18
  1.3563348402724801E-01 a       319     0    16     1    19
  1.8764616369514264E-01 a       320     0    16     1    20
  1.6518367619056759E-01 a       321     0    17     1     1
 -2.6411590357310177E-01 a       322     0    17     1     2
 -2.9257210242870357E-01 a       323     0    17     1     3
 -1.7189528774310639E-01 a       324     0    17     1     4
 -2.8709654472343071E-01 a       325     0    17     1     5
  1.1980446493196151E-01 a       326     0    17     1     6
 -5.2791642513671147E-02 a       327     0    17     1     7
 -1.3081813202119552E-01 a       328     0    17     1     8
  2.2632576012608532E-01 a       329     0    17     1     9
 -2.4280847636317313E-01 a       330     0    17     1    10
 -3.5947556659481961E-01 a       331     0    17     1    11
 -1.5641273250823118E-01 a       332     0    17     1    12
 -6.7170346615363252E-02 a       333     0    17     1    13
 -1.9316281245937347E-01 a       334     0    17     1    14
  1.2752093075680349E-01 a       335     0    17     1    15
 -2.2686486354479288E-01 a       336     0    17     1    16
 -5.8772184302936425E-01 a       337     0    17     1    17
  3.4193353301868867E-01 a       338     0    17     1    18
 -2.7094322032282558E-01 a       339     0    17     1    19
 -1.3268690103669881E-01 a       340     0    17     1    20
  6.3182503087303526E-02 a       341     0    18     1     1
  1.1537533601209032E-01 a       342     0    18     1     2
 -4.9381778409100013E-01 a       343     0    18     1     3
 -9.6140226904342010E-03 a       344     0    18     1     4
  2.3588211312347362E-01 a       345     0    18     1     5
 -6.6908286105913178E-02 a       346     0    18     1     6
  3.1070280020213192E-01 a       347     0    18     1     7
 -5.8614187066867207E-01 a       348     0    18     1     8
  2.5576907456764997E-01 a       349     0    18     1     9
  2.8695891505101567E-01 a       350     0    18     1    10
 -3.8615013171833118E-01 a       351     0    18     1    11
 -8.8315667293652738E-03 a       352     0    18     1    12
  1.4491795985845013E-01 a       353     0    18     1    13
  3.4564185802333391E-02 a       354     0    18     1    14
 -1.2740951011265828E-01 a       355     0    18     1    15
 -5.4218831349865682E-01 a       356     0    18     1    16
 -1.7538742071465597E-02 a       357     0    18     1    17
  3.6017278046587187E-01 a       358     0    18     1    18
 -3.2464077842975131E-01 a       359     0    18     1    19
 -3.0409677531671819E-01 a       360     0    18     1    20
 -8.6112389908480913E-03 a       361     0    19     1     1
 -4.2917073053532942E-02 a       362     0    19     1     2
  4.6681368644649568E-01 a       363     0    19     1     3
  1.8592020559450878E-01 a       364     0    19     1     4
 -7.8092091645887610E-02 a       365     0    19     1     5
  2.6358138463987681E-02 a       366     0    19     1     6
  3.2127479238662793E-01 a       367     0    19     1     7
  6.6423032406301194E-02 a       368     0    19     1     8
 -8.1493720164665814E-02 a       369     0    19     1     9
  1.0115010004789866E-01 a       370     0    19     1    10
 -8.5188372270633278E-02 a       371     0    19     1    11
  2.1058017004794680E-01 a       372     0    19     1    12
  4.6687802364618919E-02 a       373     0    19     1    13
  1.1004346665757402E-01 a       374     0    19     1    14
  1.3632102443125430E-01 a       375     0    19     1    15
  6.3358256051336825E-02 a       376     0    19     1    16
  2.0195893967647105E-01 a       377     0    19     1    17
  2.7429850126632016E-01 a       378     0    19     1    18
  2.9534066285522359E-01 a       379     0    19     1    19
  2.1283487301559775E-01 a       380     0    19     1    20
 -1.9106858935322299E-01 a       381     0    20     1     1
 -2.8867056996937734E-01 a       382     0    20     1     2
  6.0140838796377202E-02 a       383     0    20     1     3
 -1.6282689835354239E-01 a       384     0    20     1     4
 -2.7338827375710173E-01 a       385     0    20     1     5
 -3.2611035855626908E-01 a       386     0    20     1     6
 -7.3519195096664580E-01 a       387     0    20     1     7
  7.6949016798067749E-01 a       388     0    20     1     8
  9.2766184418031861E-02 a       389     0    20     1     9
 -2.5490505366178734E-01 a       390     0    20     1    10
  1.7535710851496491E+00 a       391     0    20     1    11
  3.4501686515395530E-01 a       392     0    20     1    12
 -1.3808728259228548E-01 a       393     0    20     1    13
 -5.6963134372385135E-02 a       394     0    20     1    14
 -2.2031471249159873E-01 a       395     0    20     1    15
  1.2020011834308708E+00 a       396     0    20     1    16
  4.5877976493136718E-01 a       397     0    20     1    17
 -4.3215167846836838E-01 a       398     0    20     1    18
  2.3994264934949788E-01 a       399     0    20     1    19
  4.3821143158452106E-03 a       400     0    20     1    20
 -9.6127548897015261E-02 a       401     0    21     1     1
 -1.6237012297847667E-01 a       402     0    21     1     2
  1.6812265989388609E-02 a       403     0    21     1     3
  1.8958620165644352E-01 a       404     0    21     1     4
 -7.8579735783698246E-01 a       405     0    21     1     5
  3.5435924070046160E-01 a       406     0    21     1     6
  2.5986838850123606E-01 a       407     0    21     1     7
 -6.3977502309765710E-01 a       408     0    21     1     8
  7.9954544581615189E-02 a       409     0    21     1     9
 -6.9120783982083722E-01 a       410     0    21     1    10
 -1.8793471611904253E-01 a       411     0    21     1    11
  1.9507010100337208E-01 a       412     0    21     1    12
 -2.4909862515103870E-01 a       413     0    21     1    13
 -1.2110990634153890E-01 a       414     0    21     1    14
 -2.8520409169256800E-01 a       415     0    21     1    15
 -2.6272788782484163E-01 a       416     0    21     1    16
 -8.2966267131181951E-02 a       417     0    21     1    17
 -7.5116498808796769E-02 a       418     0    21     1    18
  1.9221605434315203E-01 a       419     0    21     1    19
  2.8593537378260092E-01 a       420     0    21     1    20
  9.8951976772872791E-02 a       421     0    22     1     1
  2.0045918272665250E-01 a       422     0    22     1     2
  1.2750261058922610E-01 a       423     0    22     1     3
  1.1521781366180656E-01 a       424     0    22     1     4
  7.0134350008869362E-02 a       425     0    22     1     5
 -2.5875005702597836E-01 a       426     0    22     1     6
 -7.0656559469852567E-02 a       427     0    22     1     7
  6.1728385776031991E-01 a       428     0    22     1     8
 -4.9348436291939513E-01 a       429     0    22     1     9
  6.2881123896354552E-01 a       430     0    22     1    10
  3.2952305403786758E-01 a       431     0    22     1    11
  3.0113121775351161E-02 a       432     0    22     1    12
 -1.5266747719897939E-02 a       433     0    22     1    13
  4.1324061603723139E-01 a       434     0    22     1    14
 -3.9807528984407708E-01 a       435     0    22     1    15
  9.4242351986396566E-01 a       436     0    22     1    16
 -4.0665132703952056E-01 a       437     0    22     1    17
 -2.0843492392875149E-01 a       438     0    22     1    18
 -1.4008451377113168E-01 a       439     0    22     1    19
  2.3829894475046648E-01 a       440     0    22     1    20
  2.3901210934142356E-02 a       441     0    23     1     1
  3.0777189421953360E-01 a       442     0    23     1     2
  1.1713053987696401E-01 a       443     0    23     1     3
  4.2640340025104012E-01 a       444     0    23     1     4
  5.0418304762578359E-01 a       445     0    23     1     5
  1.6342325287530954E-01 a       446     0    23     1     6
  1.6372754778539284E-01 a       447     0    23     1     7
  7.5502545991808045E-01 a       448     0    23     1     8
 -3.1655770640271708E-01 a       449     0    23     1     9
  5.3176847281622597E-01 a       450     0    23     1    10
 -3.8784996751173378E-01 a       451     0    23     1    11
 -4.2176805460019973E-01 a       452     0    23     1    12
  2.2498667264187505E-01 a       453     0    23     1    13
  1.2225330238782396E-01 a       454     0    23     1    14
  5.3984486267504384E-01 a       455     0    23     1    15
 -2.3233627969829992E-01 a       456     0    23     1    16
  3.4923274284644040E-01 a       457     0    23     1    17
 -2.5880107382689643E-01 a       458     0    23     1    18
  2.8895844193763615E-01 a       459     0    23     1    19
  3.2886415443910888E-01 a       460     0    23     1    20
 -1.2175916944779765E-02 a       461     0    24     1     1
 -1.9840001439335050E-02 a       462     0    24     1     2
 -3.5617469456331308E-01 a       463     0    24     1     3
 -4.0443426692646933E-01 a       464     0    24     1     4
  5.3028374055168546E-02 a       465     0    24     1     5
 -9.6108780268017099E-03 a       466     0    24     1     6
  1.4993771869696201E-01 a       467     0    24     1     7
 -1.8012428843969724E-01 a       468     0    24     1     8
 -1.8699036394381646E-01 a       469     0    24     1     9
 -2.8023130672018304E-01 a       470     0    24     1    10
 -2.4951156734409166E-01 a       471     0    24     1    11
  1.9614253066450066E-01 a       472     0    24     1    12
 -8.0745539564073793E-02 a       473     0    24     1    13
 -1.2510231356132751E-01 a       474     0    24     1    14
 -2.7489814972787023E-03 a       475     0    24     1    15
 -4.0597192269734801E-02 a       476     0    24     1    16
 -3.5717198430905445E-01 a       477     0    24     1    17
  4.0070865852274168E-01 a       478     0    24     1    18
 -3.3731304285681392E-02 a       479     0    24     1    19
 -2.1720165972571141E-02 a       480     0    24     1    20
 -2.3686113326427671E-02 a       481     0    25     1     1
 -3.4242549643071252E-01 a       482     0    25     1     2
  3.0228885767160291E-03 a       483     0    25     1     3
 -3.5841798965798102E-02 a       484     0    25     1     4
 -6.5356573886571363E-03 a       485     0    25     1     5
 -1.9708788019252144E-01 a       486     0    25     1     6
 -2.7833654348158715E-01 a       487     0    25     1     7
  1.0299352481409052E-01 a       488     0    25     1     8
 -7.5079653711045330E-02 a       489     0    25     1     9
  4.1280695566519876E-01 a       490     0    25     1    10
 -1.4144639334056828E-02 a       491     0    25     1    11
 -1.1369212244003094E-02 a       492     0    25     1    12
  1.2884855672843121E-01 a       493     0    25     1    13
 -1.8616118946254837E-01 a       494     0    25     1    14
  4.8915967660723031E-01 a       495     0    25     1    15
 -5.8344758233226823E-01 a       496     0    25     1    16
 -1.2236313481697350E-01 a       497     0    25     1    17
 -1.5035113034189032E-01 a       498     0    25     1    18
 -1.8451727345814040E-01 a       499     0    25     1    19
  7.2246096093273482E-02 a       500     0    25     1    20
 -1.0473078478159157E-02 a       501     0    26     1     1
  1.2306944517109879E-01 a       502     0    26     1     2
 -1.3679493945197124E-01 a       503     0    26     1     3
 -1.3643298099657902E-01 a       504     0    26     1     4
 -4.9056626251294932E-01 a       505     0    26     1     5
 -2.3264039802619602E-01 a       506     0    26     1     6
  5.6098385986037913E-01 a       507     0    26     1     7
 -3.3689593944112112E-01 a       508     0    26     1     8
  8.7510045673536652E-02 a       509     0    26     1     9
  2.0289627237711971E-01 a       510     0    26     1    10
  3.8617301131893600E-01 a       511     0    26     1    11
  1.5912557192785989E-01 a       512     0    26     1    12
  1.8442459771798236E-01 a       513     0    26     1    13
 -4.1799042006141277E-02 a       514     0    26     1    14
  2.0460588029212370E-01 a       515     0    26     1    15
 -2.5502967711616731E-01 a       516     0    26     1    16
  4.8138288825297004E-01 a       517     0    26     1    17
 -2.3528330250731741E-01 a       518     0    26     1    18
 -1.6201913956608843E-01 a       519     0    26     1    19
 -3.4274075142758420E-01 a       520     0    26     1    20
 -1.1377330102419192E-01 a       521     0    27     1     1
 -5.6888490839275208E-01 a       522     0    27     1     2
 -9.1769211054642919E-01 a       523     0    27     1     3
 -5.4425928250685651E-01 a       524     0    27     1     4
  1.2743420583222376E-01 a       525     0    27     1     5
  3.7210670199376417E-01 a       526     0    27     1     6
  3.3302310688529480E-03 a       527     0    27     1     7
  1.6076150745037909E-01 a       528     0    27     1     8
  5.8319839358062042E-01 a       529     0    27     1     9
  1.7575902910475139E-01 a       530     0    27     1    10
 -1.1970425957100456E-01 a       531     0    27     1    11
  6.3375367233661561E-01 a       532     0    27     1    12
 -3.5633039872115496E-01 a       533     0    27     1    13
 -4.0102381144905358E-01 a       534     0    27     1    14
 -8.9426146123557837E-01 a       535     0    27     1    15
  3.3659401600644490E-01 a       536     0    27     1    16
  3.3649586367035900E-01 a       537     0    27     1    17
 -4.4690299974735448E-01 a       538     0    27     1    18
  4.5829503368815493E-02 a       539     0    27     1    19
  3.4929612959835227E-01 a       540     0    27     1    20
  1.7881280073902424E+00 b       541     1     1
 -4.5153874665373206E-01 b       542     1     2
  1.2496590446346052E+00 b       543     1     3
  3.0074124387985995E-01 b       544     1     4
  1.1698035513100387E-01 b       545     1     5
 -6.4377831425561294E-01 b       546     1     6
  7.4626627213777233E-02 b       547     1     7
  1.1389347227252562E+00 b       548     1     8
  1.4455943240595897E+00 b       549     1     9
  1.1418223448261797E+00 b       550     1    10
 -1.4923319548388605E+00 b       551     1    11
 -2.7260444842618459E-01 b       552     1    12
  1.9819323886401068E+00 b       553     1    13
  2.0130030929167986E-03 b       554     1    14
  1.4817783061703245E+00 b       555     1    15
  1.2403641708287063E+00 b       556     1    16
 -1.4978732636035370E+00 b       557     1    17
 -1.0487355210475704E+00 b       558     1    18
  9.0470058458125102E-01 b       559     1    19
  1.0950004726480544E+00 b       560     1    20
 -2.7489569929245555E-01 a       561     1     1     2     1
  8.4341319525115033E-01 a       562     1     1     2     2
  5.4796683806399848E-01 a       563     1     1     2     3
  8.6319768324980539E-01 a       564     1     1     2     4
 -5.8779432846989044E-01 a       565     1     1     2     5
 -1.6762632636198563E-01 a       566     1     1     2     6
 -6.0215408621238198E-01 a       567     1     1     2     7
  6.9202822284853194E-01 a       568     1     1     2     8
  3.4530254588350751E-01 a       569     1     1     2     9
  6.4675604425598965E-01 a       570     1     1     2    10
 -7.8189986582696713E-01 a       571     1     1     2    11
 -1.2325774402710536E-01 a       572     1     1     2    12
  8.1607335596741382E-01 a       573     1     1     2    13
  6.7385652825888520E-01 a       574     1     1     2    14
 -5.8068598800102578E-01 a       575     1     1     2    15
 -1.8379179891598174E-01 a       576     1     1     2    16
  2.2430609997963868E-01 a       577     1     1     2    17
 -2.8063890227650927E-02 a       578     1     1     2    18
  2.6922778905161737E-01 a       579     1     1     2    19
  6.5486573288825023E-01 a       580     1     1     2    20
 -2.5536833706706674E-01 a       581     1     2     2     1
  3.6256121262689323E-01 a       582     1     2     2     2
  1.3107683592286876E-02 a       583     1     2     2     3
  3.3131292171698329E-01 a       584     1     2     2     4
 -4.7165420232823635E-01 a       585     1     2     2     5
 -2.0076663565942876E-01 a       586     1     2     2     6
 -3.0612580036295095E-01 a       587     1     2     2     7
  5.6976687471873810E-01 a       588     1     2     2     8
  3.7612864486152664E-01 a       589     1     2     2     9
 -4.1062814032657491E-01 a       590     1     2     2    10
  8.9316404018984241E-01 a       591     1     2     2    11
 -1.9721265647565167E-01 a       592     1     2     2    12
  7.2299375725451503E-02 a       593     1     2     2    13
 -4.3659859368897380E-01 a       594     1     2     2    14
  6.6525132506372886E-01 a       595     1     2     2    15
 -6.5420212307843129E-01 a       596     1     2     2    16
 -1.0815622932028519E-01 a       597     1     2     2    17
  5.7037177786159205E-03 a       598     1     2     2    18
  3.3354283290430420E-01 a       599     1     2     2    19
  1.7499343049410715E-01 a       600     1     2     2    20
 -2.2990373795140628E-02 a       601     1     3     2     1
 -3.6546830198298835E-01 a       602     1     3     2     2
 -4.1953478515569537E-01 a       603     1     3     2     3
  5.5548483818257055E-01 a       604     1     3     2     4
 -3.7047745936198062E-01 a       605     1     3     2     5
  9.2773202572239782E-02 a       606     1     3     2     6
  3.0600085046948283E-01 a       607     1     3     2     7
  2.4661016444674491E-01 a       608     1     3     2     8
  6.4137729585477099E-01 a       609     1     3     2     9
  3.0420004051561483E-01 a       610     1     3     2    10
 -1.2944894138714086E-01 a       611     1     3     2    11
  3.0113552430262164E-02 a       612     1     3     2    12
  6.6908605136338917E-01 a       613     1     3     2    13
  5.1432542328348860E-02 a       614     1     3     2    14
 -9.3472187479674382E-02 a       615     1     3     2    15
  9.5970300098600185E-03 a       616     1     3     2    16
 -3.5402419076760883E-01 a       617     1     3     2    17
 -7.7135488794575680E-01 a       618     1     3     2    18
  5.0250487893677176E-01 a       619     1     3     2    19
 -3.8037117835835521E-02 a       620     1     3     2    20
  1.3059615930061980E-01 a       621     1     4     2     1
  3.4369846745966581E-01 a       622     1     4     2     2
 -9.5859714503430185E-02 a       623     1     4     2     3
 -4.7764494884746617E-01 a       624     1     4     2     4
  3.3458378309072739E-01 a       625     1     4     2     5
  6.0682251924671760E-01 a       626     1     4     2     6
  7.8810870226684393E-01 a       627     1     4     2     7
 -6.5146484527114390E-01 a       628     1     4     2     8
  8.1394146838157891E-02 a       629     1     4     2     9
  1.7108248730596518E-01 a       630     1     4     2    10
  7.4673849328616452E-03 a       631     1     4     2    11
  6.9253519574816413E-01 a       632     1     4     2    12
 -4.1904289565995045E-01 a       633     1     4     2    13
 -3.9586715073021495E-01 a       634     1     4     2    14
 -6.9209967481156232E-01 a       635     1     4     2    15
 -1.2862786948157734E-01 a       636     1     4     2    16
  5.0906751967850628E-01 a       637     1     4     2    17
 -7.1139113747129545E-01 a       638     1     4     2    18
  4.7139785163949832E-01 a       639     1     4     2    19
 -3.4455192757449971E-01 a       640     1     4     2    20
  1.9437924393506481E-01 a       641     1     5     2     1
  3.2566991859348371E-01 a       642     1     5     2     2
  4.1542568995892887E-01 a       643     1     5     2     3
  1.3126842874974154E-01 a       644     1     5     2     4
  4.4791505105711604E-01 a       645     1     5     2     5
 -7.6310808146194536E-02 a       646     1     5     2     6
 -1.4930962351005658E-01 a       647     1     5     2     7
 -6.7025782840955250E-01 a       648     1     5     2     8
  1.1369277570164547E+00 a       649     1     5     2     9
 -6.9494878215035014E-02 a       650     1     5     2    10
  9.3100203135068574E-02 a       651     1     5     2    11
  9.9171063256008871E-02 a       652     1     5     2    12
  2.9221834000628916E-01 a       653     1     5     2    13
  1.4959589208835616E-02 a       654     1     5     2    14
 -2.1905037194826960E-01 a       655     1     5     2    15
 -2.2061825469164302E-03 a       656     1     5     2    16
  3.5893914212440692E-01 a       657     1     5     2    17
  4.6207049365458297E-01 a       658     1     5     2    18
 -6.3148338810163163E-01 a       659     1     5     2    19
 -2.4346010033770954E-01 a       660     1     5     2    20
 -6.3525497141937470E-01 a       661     1     6     2     1
 -4.1684780565666701E-01 a       662     1     6     2     2
  1.4780460895203157E-01 a       663     1     6     2     3
 -4.8207263697223313E-01 a       664     1     6     2     4
  7.8068679229686344E-01 a       665     1     6     2     5
  3.2337453611754780E-01 a       666     1     6     2     6
 -1.4073687434215871E-02 a       667     1     6     2     7
  1.2023731386766826E-03 a       668     1     6     2     8
  7.3875740886026253E-01 a       669     1     6     2     9
 -4.9764518426573423E-01 a       670     1     6     2    10
  6.7399271957509166E-01 a       671     1     6     2    11
 -3.0889089665613784E-01 a       672     1     6     2    12
 -6.1040773073282173E-01 a       673     1     6     2    13
  2.5957105127460006E-01 a       674     1     6     2    14
  1.1672668697850565E-01 a       675     1     6     2    15
  1.7496604895898119E-01 a       676     1     6     2    16
  4.6445189276793308E-01 a       677     1     6     2    17
 -8.1097043756111958E-02 a       678     1     6     2    18
  3.7577939864366255E-01 a       679     1     6     2    19
  5.3009238141632753E-01 a       680     1     6     2    20
  2.6206697744780194E-01 a       681     1     7     2     1
  4.4911941839136132E-01 a       682     1     7     2     2
 -6.7848276009152372E-02 a       683     1     7     2     3
  5.9707545072266957E-02 a       684     1     7     2     4
 -8.0031508974450619E-02 a       685     1     7     2     5
  1.9848437781203798E-01 a       686     1     7     2     6
  2.5614086982738093E-01 a       687     1     7     2     7
  1.1232467378623662E-01 a       688     1     7     2     8
  3.7903622347568888E-01 a       689     1     7     2     9
 -6.2213335924756995E-02 a       690     1     7     2    10
  5.3068809146098495E-01 a       691     1     7     2    11
  7.8570220855561790E-01 a       692     1     7     2    12
 -1.0708542161394276E-01 a       693     1     7     2    13
 -2.6881029964727715E-01 a       694     1     7     2    14
 -1.1566256656118985E+00 a       695     1     7     2    15
 -7.0894601357004161E-01 a       696     1     7     2    16
  3.9105279622038663E-02 a       697     1     7     2    17
 -2.1381379687079061E-01 a       698     1     7     2    18
 -5.0409098798982699E-01 a       699     1     7     2    19
  3.1066423294418039E-01 a       700     1     7     2    20
  9.0967862558580659E-01 a       701     1     8     2     1
  2.0439124834087791E-01 a       702     1     8     2     2
 -4.5955197674285680E-01 a       703     1     8     2     3
  7.9721004636207449E-01 a       704     1     8     2     4
  3.6941664071160352E-01 a       705     1     8     2     5
 -4.1246377546216034E-01 a       706     1     8     2     6
  1.3840622806756425E-01 a       707     1     8     2     7
 -3.5360059562024970E-01 a       708     1     8     2     8
  1.1329884087632186E-01 a       709     1     8     2     9
 -1.8837268952007220E-02 a       710     1     8     2    10
 -3.8449136037349274E-01 a       711     1     8     2    11
 -3.2721582877992983E-01 a       712     1     8     2    12
 -6.3348839025629447E-02 a       713     1     8     2    13
 -3.4183020058804714E-01 a       714     1     8     2    14
 -6.2853928189958763E-01 a       715     1     8     2    15
  4.8228886017739302E-02 a       716     1     8     2    16
 -1.6483553938140080E-01 a       717     1     8     2    17
 -2.4013774490779444E-01 a       718     1     8     2    18
 -2.7888676908538988E-02 a       719     1     8     2    19
  8.1834695083149567E-01 a       720     1     8     2    20
 -7.2779196493312337E-01 a       721     1     9     2     1
 -2.9123638506928484E-01 a       722     1     9     2     2
  5.2925026058552216E-01 a       723     1     9     2     3
 -5.8554386097001099E-01 a       724     1     9     2     4
  5.7645776383088543E-01 a       725     1     9     2     5
  4.4174847494885339E-01 a       726     1     9     2     6
 -5.5183864410676020E-01 a       727     1     9     2     7
  3.7589164711739481E-01 a       728     1     9     2     8
  1.7690847577978314E-01 a       729     1     9     2     9
  7.4969405856963944E-01 a       730     1     9     2    10
 -1.7274326156930600E-01 a       731     1     9     2    11
  4.4192116092493927E-01 a       732     1     9     2    12
  5.6241745355083339E-01 a       733     1     9     2    13
 -2.9066794969546290E-02 a       734     1     9     2    14
 -6.8870649120581662E-01 a       735     1     9     2    15
 -2.6200688883937118E-01 a       736     1     9     2    16
  5.2626188543895935E-01 a       737     1     9     2    17
  9.8102597752400017E-02 a       738     1     9     2    18
 -3.1670390206314275E-01 a       739     1     9     2    19
  2.9975053698548021E-01 a       740     1     9     2    20
  7.0239728617267894E-01 a       741     1    10     2     1
 -6.1980286130685880E-01 a       742     1    10     2     2
 -2.8649740804744128E-01 a       743     1    10     2     3
 -1.1428239084545273E-01 a       744     1    10     2     4
  9.9430887737295262E-02 a       745     1    10     2     5
  6.7789651794785077E-01 a       746     1    10     2     6
 -1.6351498030035982E-01 a       747     1    10     2     7
  1.8087278848782801E-01 a       748     1    10     2     8
  5.5303368552767317E-02 a       749     1    10     2     9
  6.0759448392478588E-01 a       750     1    10     2    10
  4.4031843222818690E-01 a       751     1    10     2    11
  9.8962845393005139E-01 a       752     1    10     2    12
 -1.7702393425065072E-01 a       753     1    10     2    13
 -4.9825048028492980E-01 a       754     1    10     2    14
 -8.0096713579178372E-02 a       755     1    10     2    15
  2.4032965111391197E-01 a       756     1    10     2    16
  4.7704933141206510E-02 a       757     1    10     2    17
  6.4473684220522343E-01 a       758     1    10     2    18
 -4.3358634699531562E-01 a       759     1    10     2    19
  1.7683369919842248E-01 a       760     1    10     2    20
  1.3992524630182698E-01 a       761     1    11     2     1
  4.2930473035538158E-01 a       762     1    11     2     2
  2.0028655260582445E-01 a       763     1    11     2     3
  2.8667846081574472E-01 a       764     1    11     2     4
 -3.3213672253237470E-01 a       765     1    11     2     5
  1.1839974012450658E-01 a       766     1    11     2     6
  6.9558593852071759E-01 a       767     1    11     2     7
 -8.5902720204134897E-01 a       768     1    11     2     8
  1.5875089911452489E-01 a       769     1    11     2     9
 -2.3831717848577402E-01 a       770     1    11     2    10
  2.8909390859236006E-01 a       771     1    11     2    11
 -1.7663954589305145E-01 a       772     1    11     2    12
 -2.5544658473860971E-01 a       773     1    11     2    13
  1.9914683373904984E-01 a       774     1    11     2    14
  3.2217113538741859E-01 a       775     1    11     2    15
 -3.6380486720429972E-01 a       776     1    11     2    16
 -2.7872283515970225E-01 a       777     1    11     2    17
 -9.4633667202179506E-01 a       778     1    11     2    18
 -4.8382086790430090E-01 a       779     1    11     2    19
 -4.3733684163823727E-01 a       780     1    11     2    20
 -4.1687460963335879E-02 a       781     1    12     2     1
 -6.7224206993971236E-01 a       782     1    12     2     2
 -2.2746527904076649E-01 a       783     1    12     2     3
  6.3035809862929770E-01 a       784     1    12     2     4
  5.7834258522246962E-01 a       785     1    12     2     5
  8.6471812588654259E-02 a       786     1    12     2     6
  1.4615171158304876E-02 a       787     1    12     2     7
 -6.9993120802276959E-02 a       788     1    12     2     8
 -2.9351663196903421E-01 a       789     1    12     2     9
 -5.8427980185910322E-01 a       790     1    12     2    10
  6.0318143592903295E-01 a       791     1    12     2    11
  3.2963284299838852E-01 a       792     1    12     2    12
  3.4098256752005679E-01 a       793     1    12     2    13
  2.9249221827646849E-01 a       794     1    12     2    14
  1.4397506586742367E-01 a       795     1    12     2    15
  6.3039585302276935E-01 a       796     1    12     2    16
  3.8425752945173547E-01 a       797     1    12     2    17
 -5.3438283744219806E-01 a       798     1    12     2    18
  5.1119401582672619E-01 a       799     1    12     2    19
 -4.1001096435820106E-01 a       800     1    12     2    20
 -1.8253554686112605E-01 a       801     1    13     2     1
 -9.1307704045256322E-01 a       802     1    13     2     2
  6.6466865520272045E-01 a       803     1    13     2     3
  1.1366589870481363E-01 a       804     1    13     2     4
  1.0200851037050274E+00 a       805     1    13     2     5
  3.1035983578102122E-01 a       806     1    13     2     6
 -5.2236444744968846E-01 a       807     1    13     2     7
 -2.7125691311181599E-01 a       808     1    13     2     8
  6.2355087930738973E-01 a       809     1    13     2     9
 -2.1248112699832408E-01 a       810     1    13     2    10
 -2.8578740802753605E-01 a       811     1    13     2    11
 -5.5443591266574654E-01 a       812     1    13     2    12
 -1.6262298691184306E-02 a       813     1    13     2    13
 -4.0184281606085788E-02 a       814     1    13     2    14
 -7.8413451675914425E-01 a       815     1    13     2    15
  2.3489564158134299E-01 a       816     1    13     2    16
  3.8221686128063520E-01 a       817     1    13     2    17
  4.0719831348118313E-01 a       818     1    13     2    18
  1.2218226335380213E+00 a       819     1    13     2    19
 -3.9653675402315364E-01 a       820     1    13     2    20
 -6.5583981675338399E-01 a       821     1    14     2     1
  6.1996355272986969E-01 a       822     1    14     2     2
  5.5498472118030195E-01 a       823     1    14     2     3
 -8.8966742524461601E-02 a       824     1    14     2     4
  7.2757474465868929E-02 a       825     1    14     2     5
 -2.6590031096253475E-01 a       826     1    14     2     6
 -2.6887265260431137E-01 a       827     1    14     2     7
 -1.2409942411064477E-01 a       828     1    14     2     8
  7.1666564513723718E-01 a       829     1    14     2     9
 -2.5742404232315796E-01 a       830     1    14     2    10
 -2.9208877393837190E-01 a       831     1    14     2    11
  3.6189086940131265E-01 a       832     1    14     2    12
 -4.3228362093097528E-01 a       833     1    14     2    13
  5.1691060163898483E-01 a       834     1    14     2    14
 -6.1987039251114651E-01 a       835     1    14     2    15
 -3.0728154740020946E-01 a       836     1    14     2    16
 -2.6057770785999218E-01 a       837     1    14     2    17
  3.8219288298696630E-01 a       838     1    14     2    18
 -3.6302208352053578E-01 a       839     1    14     2    19
 -3.4304562297227442E-01 a       840     1    14     2    20
 -3.0830913248577152E-01 a       841     1    15     2     1
  5.6862313602073189E-01 a       842     1    15     2     2
 -1.6937109825549684E-01 a       843     1    15     2     3
 -2.9777303044103159E-01 a       844     1    15     2     4
  5.2515189983323485E-01 a       845     1    15     2     5
 -3.1730329327964163E-01 a       846     1    15     2     6
 -2.2980984495221143E-01 a       847     1    15     2     7
 -8.5862213942712831E-02 a       848     1    15     2     8
 -5.1143570806339878E-01 a       849     1    15     2     9
  6.7949506583015318E-01 a       850     1    15     2    10
  4.2355491318713889E-01 a       851     1    15     2    11
  3.0338577231086844E-01 a       852     1    15     2    12
 -1.0308649521994756E-01 a       853     1    15     2    13
 -6.9508812898024686E-02 a       854     1    15     2    14
  5.9138145156244704E-01 a       855     1    15     2    15
  4.6321316546925173E-01 a       856     1    15     2    16
 -5.6799444653261255E-02 a       857     1    15     2    17
 -4.6779537815526039E-02 a       858     1    15     2    18
  1.3288052097903622E-01 a       859     1    15     2    19
 -3.3246483789628423E-01 a       860     1    15     2    20
  1.5129032140884097E-01 a       861     1    16     2     1
  5.4689057841666111E-01 a       862     1    16     2     2
  7.1021362418912326E-01 a       863     1    16     2     3
 -2.7981592423265972E-01 a       864     1    16     2     4
  3.0577163726841017E-01 a       865     1    16     2     5
  5.0969012847051276E-01 a       866     1    16     2     6
 -9.8845232500964608E-02 a       867     1    16     2     7
  2.6605905282168651E-01 a       868     1    16     2     8
  1.5483069127072197E-01 a       869     1    16     2     9
 -7.1095146985875435E-02 a       870     1    16     2    10
  3.5072271678838390E-01 a       871     1    16     2    11
  1.3492993952977680E-01 a       872     1    16     2    12
  6.4612430929466624E-01 a       873     1    16     2    13
 -6.2747895244416518E-01 a       874     1    16     2    14
  6.8577091946863386E-02 a       875     1    16     2    15
 -3.4609423351356244E-01 a       876     1    16     2    16
  6.3406304701840899E-01 a       877     1    16     2    17
  2.2650367616733605E-01 a       878     1    16     2    18
 -1.9478247837322893E-01 a       879     1    16     2    19
 -4.3036677550194408E-03 a       880     1    16     2    20
 -1.4379148605640205E-01 a       881     1    17     2     1
  5.6019804707257370E-01 a       882     1    17     2     2
 -5.8361181097042880E-01 a       883     1    17     2     3
  2.5686100603039608E-01 a       884     1    17     2     4
 -3.9697470187448869E-01 a       885     1    17     2     5
  2.6553018661223821E-01 a       886     1    17     2     6
  6.3895537426110449E-01 a       887     1    17     2     7
 -1.0926824909994473E-01 a       888     1    17     2     8
 -1.6956205242117627E-02 a       889     1    17     2     9
  1.1900157946653350E-01 a       890     1    17     2    10
 -1.3066054570307270E-01 a       891     1    17     2    11
 -5.2308952565349620E-01 a       892     1    17     2    12
 -5.1828089411935996E-01 a       893     1    17     2    13
 -2.1334562053095510E-01 a       894     1    17     2    14
  9.0660921164811434E-02 a       895     1    17     2    15
  5.0647729033542443E-01 a       896     1    17     2    16
 -3.0298488904280829E-01 a       897     1    17     2    17
 -5.4074185516468698E-02 a       898     1    17     2    18
  2.2055020316508880E-01 a       899     1    17     2    19
 -2.5797247482089530E-01 a       900     1    17     2    20
 -1.3788124034085777E-01 a       901     1    18     2     1
  1.6670528204189061E-01 a       902     1    18     2     2
  3.9593587829972193E-01 a       903     1    18     2     3
 -6.8661932512481227E-01 a       904     1    18     2     4
 -3.6019213858712368E-01 a       905     1    18     2     5
 -1.7182860947238002E-01 a       906     1    18     2     6
  2.7486412162259458E-02 a       907     1    18     2     7
  2.8445048975366294E-01 a       908     1    18     2     8
  5.6899498654727231E-02 a       909     1    18     2     9
 -3.8029355089480232E-01 a       910     1    18     2    10
 -4.6580055049677777E-01 a       911     1    18     2    11
 -5.2029154916940781E-02 a       912     1    18     2    12
 -6.4064682965031344E-02 a       913     1    18     2    13
 -2.4035795608604088E-01 a       914     1    18     2    14
 -1.6886582246311631E-02 a       915     1    18     2    15
  1.8198683326761772E-01 a       916     1    18     2    16
  1.9681622028895032E-01 a       917     1    18     2    17
 -3.8468931016186081E-01 a       918     1    18     2    18
  6.5720692563275873E-01 a       919     1    18     2    19
 -5.4325253120836881E-01 a       920     1    18     2    20
 -1.1150655795469464E-01 a       921     1    19     2     1
 -6.2439862116580003E-01 a       922     1    19     2     2
  1.2557432776463526E-01 a       923     1    19     2     3
 -2.0651825117183911E-01 a       924     1    19     2     4
 -7.6843345537320207E-01 a       925     1    19     2     5
  3.0615039430456997E-01 a       926     1    19     2     6
 -3.4574317288136114E-01 a       927     1    19     2     7
 -2.5889774569150958E-01 a       928     1    19     2     8
 -2.7794081109074337E-01 a       929     1    19     2     9
  1.7242066724391067E-01 a       930     1    19     2    10
  5.2200159736444651E-01 a       931     1    19     2    11
 -5.0442848962296816E-01 a       932     1    19     2    12
  3.3655290454334727E-02 a       933     1    19     2    13
  1.6716466381343026E-01 a       934     1    19     2    14
 -3.2541013696102400E-01 a       935     1    19     2    15
  2.6877918524262073E-01 a       936     1    19     2    16
 -5.1798589704151821E-01 a       937     1    19     2    17
  2.2155033972418756E-01 a       938     1    19     2    18
 -3.7351021502014897E-01 a       939     1    19     2    19
  1.1515047706700431E-01 a       940     1    19     2    20
  1.4231688286340266E-01 a       941     1    20     2     1
 -2.4279440434730275E-02 a       942     1    20     2     2
  2.6937177221418662E-01 a       943     1    20     2     3
  3.9397897215804301E-01 a       944     1    20     2     4
  9.8611915174500131E-02 a       945     1    20     2     5
  7.0113687670449276E-01 a       946     1    20     2     6
  4.4235522944774308E-01 a       947     1    20     2     7
  4.6842281531285873E-01 a       948     1    20     2     8
 -7.5500698733745972E-02 a       949     1    20     2     9
  2.6889204271350581E-01 a       950     1    20     2    10
  1.2924873151256813E-01 a       951     1    20     2    11
  6.5170278801169568E-01 a       952     1    20     2    12
  2.8514419200043967E-01 a       953     1    20     2    13
  2.0044554898470582E-01 a       954     1    20     2    14
 -3.2985899349082515E-01 a       955     1    20     2    15
 -7.7587612561298847E-01 a       956     1    20     2    16
 -5.2485368022351908E-01 a       957     1    20     2    17
 -2.6094645524354379E-02 a       958     1    20     2    18
  3.7247689583080484E-01 a       959     1    20     2    19
  2.8734616650392467E-02 a       960     1    20     2    20
  1.3525521496014756E+00 b       961     2     1
  7.2238337908544392E-02 b       962     2     2
  4.9013088638499186E-01 b       963     2     3
  1.6649875066103976E+00 b       964     2     4
 -1.0746903341792675E+00 b       965     2     5
  1.7270327414214282E+00 b       966     2     6
 -1.0960116227999035E+00 b       967     2     7
  1.5046176134386831E+00 b       968     2     8
 -1.5527586036780672E+00 b       969     2     9
  9.7451228891344532E-01 b       970     2    10
  5.4052594111621466E-01 b       971     2    11
  9.4263982765330434E-01 b       972     2    12
  5.1519367759195411E-01 b       973     2    13
  1.1511837740983626E+00 b       974     2    14
  5.2630189454996557E-01 b       975     2    15
 -1.5355265143682639E+00 b       976     2    16
  1.0634218320951153E-01 b       977     2    17
  9.6427547224659749E-01 b       978     2    18
 -4.8256001400579102E-01 b       979     2    19
 -5.7707430268944060E-01 b       980     2    20
  1.0637873558239166E+00 a       981     2     1     3     1
  5.1125310660286605E-01 a       982     2     2     3     1
  6.2286450088283540E-01 a       983     2     3     3     1
  1.9720729766471279E+00 a       984     2     4     3     1
 -6.7521834583481011E-01 a       985     2     5     3     1
  1.5980197903014335E+00 a       986     2     6     3     1
 -2.5925724090469164E+00 a       987     2     7     3     1
  2.4587437567289343E+00 a       988     2     8     3     1
  2.8471286229093874E-02 a       989     2     9     3     1
  2.5464057893550081E+00 a       990     2    10     3     1
  4.5700334806100432E-02 a       991     2    11     3     1
  1.4589047079583659E+00 a       992     2    12     3     1
  1.8834383030012207E+00 a       993     2    13     3     1
  1.3288878110939091E+00 a       994     2    14     3     1
 -2.6573624910147364E+00 a       995     2    15     3     1
 -1.2913937078432700E+00 a       996     2    16     3     1
  4.6873959876582477E-01 a       997     2    17     3     1
  1.5590582351211255E+00 a       998     2    18     3     1
  6.0101635653711204E-02 a       999     2    19     3     1
  1.2363132619366719E-01 a      1000     2    20     3     1
  1.9439148724950586E+00 b      1001     3     1
