################################################################################
# Neural network connection values (weights and biases).
################################################################################
# Col  Name       Description
################################################################################
# 1    connection Neural network connection value.
# 2    t          Connection type (a = weight, b = bias).
# 3    index      Index enumerating weights.
# 4    l_s        Starting point layer (end point layer for biases).
# 5    n_s        Starting point neuron in starting layer (end point neuron for biases).
# 6    l_e        End point layer.
# 7    n_e        End point neuron in end layer.
################################################################################
#                      1 2         3     4     5     6     7
#             connection t     index   l_s   n_s   l_e   n_e
############################################################
  1.4753501225754975E-01 a         1     0     1     1     1
 -4.6021976584380048E-01 a         2     0     1     1     2
  2.5309889451661205E-01 a         3     0     1     1     3
 -8.6974161371430425E-01 a         4     0     1     1     4
  1.2673587574100115E-01 a         5     0     1     1     5
  2.2283978479377708E-01 a         6     0     1     1     6
 -4.2131219116456703E-01 a         7     0     1     1     7
 -4.5484495863565971E-01 a         8     0     1     1     8
 -2.6393578988512434E-01 a         9     0     1     1     9
 -5.6362127991945073E-02 a        10     0     1     1    10
  7.7074060323905269E-01 a        11     0     1     1    11
  3.8778362405567252E-01 a        12     0     1     1    12
  8.4745078275280195E-01 a        13     0     1     1    13
  4.1686051192639056E-01 a        14     0     1     1    14
 -2.3636990830785822E+00 a        15     0     1     1    15
 -1.1589331354336203E+00 a        16     0     1     1    16
 -3.4796731890376054E-01 a        17     0     1     1    17
 -6.0853168999092044E-01 a        18     0     1     1    18
 -8.3755373115963527E-01 a        19     0     1     1    19
  4.6501667178961426E-01 a        20     0     1     1    20
 -7.5402899702793835E-01 a        21     0     2     1     1
  5.0859150615227877E-01 a        22     0     2     1     2
 -1.4936365690614293E-02 a        23     0     2     1     3
  4.8713297566111219E-01 a        24     0     2     1     4
 -4.4203596291407091E-02 a        25     0     2     1     5
  4.2743359884321325E-01 a        26     0     2     1     6
 -1.9876028849023281E-01 a        27     0     2     1     7
  5.3586118683799222E-01 a        28     0     2     1     8
  1.9387598868474795E-01 a        29     0     2     1     9
 -4.4356133264428432E-01 a        30     0     2     1    10
 -5.9687642845957534E-01 a        31     0     2     1    11
 -9.0211838784076903E-01 a        32     0     2     1    12
 -1.0181967349100247E+00 a        33     0     2     1    13
 -4.1654516931340452E-01 a        34     0     2     1    14
  1.8317225059443256E+00 a        35     0     2     1    15
  7.9758611496678766E-01 a        36     0     2     1    16
  1.0865661423087458E-01 a        37     0     2     1    17
  1.2419674304221091E-01 a        38     0     2     1    18
  1.0517629981902086E+00 a        39     0     2     1    19
 -6.0329464483884487E-01 a        40     0     2     1    20
  2.4753204802384698E-01 a        41     0     3     1     1
 -8.0615321586149521E-02 a        42     0     3     1     2
 -1.9813542560329814E-01 a        43     0     3     1     3
  3.8266932028308803E-01 a        44     0     3     1     4
  6.1733772179243640E-01 a        45     0     3     1     5
  2.9149555443664620E-02 a        46     0     3     1     6
  3.1366948917161498E-02 a        47     0     3     1     7
  1.9520529206377113E-01 a        48     0     3     1     8
 -1.8108298312906462E-01 a        49     0     3     1     9
 -9.0043234216604484E-02 a        50     0     3     1    10
  2.3950498173269327E-01 a        51     0     3     1    11
  1.6222808995237026E-01 a        52     0     3     1    12
  8.9645871167315860E-01 a        53     0     3     1    13
  1.9320456242926418E-01 a        54     0     3     1    14
 -1.2343306540410430E+00 a        55     0     3     1    15
  3.6308476166479337E-01 a        56     0     3     1    16
 -3.6195489063370773E-01 a        57     0     3     1    17
  1.2123986311295067E-01 a        58     0     3     1    18
 -7.1839922167152970E-01 a        59     0     3     1    19
 -1.3993757727889530E-01 a        60     0     3     1    20
  2.7377317013822633E-01 a        61     0     4     1     1
 -3.5704932663769812E-02 a        62     0     4     1     2
 -4.1016181199076476E-02 a        63     0     4     1     3
 -2.6595919673910895E-01 a        64     0     4     1     4
 -5.9544892688665918E-01 a        65     0     4     1     5
 -1.6852453738138792E-01 a        66     0     4     1     6
 -4.0561643636422151E-01 a        67     0     4     1     7
 -3.4608887595955767E-01 a        68     0     4     1     8
  1.6318380312630318E-01 a        69     0     4     1     9
  5.1065690095635863E-01 a        70     0     4     1    10
 -2.9593641152785594E-01 a        71     0     4     1    11
  3.0952746810284087E-01 a        72     0     4     1    12
 -1.1868278315850932E-01 a        73     0     4     1    13
  2.8672029485186351E-01 a        74     0     4     1    14
  8.2505509621635109E-01 a        75     0     4     1    15
  2.1146228351995097E-01 a        76     0     4     1    16
  5.0310513142961943E-01 a        77     0     4     1    17
  8.0695735596696516E-02 a        78     0     4     1    18
  2.6000491985152024E-01 a        79     0     4     1    19
  2.6837012132440670E-02 a        80     0     4     1    20
 -3.9111013065797945E-01 a        81     0     5     1     1
  3.4260195475432886E-01 a        82     0     5     1     2
 -5.2936954442190298E-01 a        83     0     5     1     3
 -4.1029225438030045E-02 a        84     0     5     1     4
 -1.8091471115167509E-01 a        85     0     5     1     5
 -3.6192127531305962E-01 a        86     0     5     1     6
 -5.0207709068035489E-01 a        87     0     5     1     7
  6.0618491337151803E-01 a        88     0     5     1     8
 -2.6282854432519448E-01 a        89     0     5     1     9
 -4.9498407099597863E-01 a        90     0     5     1    10
  3.4082015533720578E-01 a        91     0     5     1    11
 -1.4310042986650065E-01 a        92     0     5     1    12
  1.0994892347097492E-01 a        93     0     5     1    13
 -2.4076504937060261E-01 a        94     0     5     1    14
  4.5130726217870021E-01 a        95     0     5     1    15
  3.2819998447903886E-01 a        96     0     5     1    16
 -3.9490153127603028E-01 a        97     0     5     1    17
  4.6431583849860868E-02 a        98     0     5     1    18
  3.2283578363052101E-01 a        99     0     5     1    19
 -3.3246298332858543E-01 a       100     0     5     1    20
 -1.0600288280811544E-02 a       101     0     6     1     1
 -2.3124589901929219E-03 a       102     0     6     1     2
  5.8429363089656086E-02 a       103     0     6     1     3
  1.3152275308078154E-01 a       104     0     6     1     4
  9.1994993077745654E-02 a       105     0     6     1     5
 -3.5263285746084883E-01 a       106     0     6     1     6
  1.8638164485321204E-01 a       107     0     6     1     7
 -1.9764806235309887E-01 a       108     0     6     1     8
 -3.6113798421429055E-01 a       109     0     6     1     9
 -3.0945141875117554E-02 a       110     0     6     1    10
 -3.2577214047312092E-01 a       111     0     6     1    11
  6.7573609311715843E-01 a       112     0     6     1    12
  7.1267372391867878E-01 a       113     0     6     1    13
  6.6865222010609779E-02 a       114     0     6     1    14
 -5.1481483883049162E-01 a       115     0     6     1    15
 -5.1359321529798319E-01 a       116     0     6     1    16
  2.6024682985840053E-01 a       117     0     6     1    17
 -3.1962086661438981E-02 a       118     0     6     1    18
 -6.5665018365477856E-01 a       119     0     6     1    19
  6.4890270485548662E-01 a       120     0     6     1    20
 -8.5529819051728628E-02 a       121     0     7     1     1
 -6.8752184402771332E-01 a       122     0     7     1     2
  3.0274035206647054E-01 a       123     0     7     1     3
 -8.5951736372441179E-01 a       124     0     7     1     4
 -5.4044445195749879E-01 a       125     0     7     1     5
 -3.0273774249655300E-01 a       126     0     7     1     6
 -6.8099932084151646E-02 a       127     0     7     1     7
 -1.0555128991059813E-01 a       128     0     7     1     8
  3.0398049733913024E-01 a       129     0     7     1     9
  3.9077847763453138E-01 a       130     0     7     1    10
 -5.8028992612135211E-01 a       131     0     7     1    11
  2.6687738859649435E-01 a       132     0     7     1    12
 -1.0007699730525521E-01 a       133     0     7     1    13
  5.2379880567688919E-01 a       134     0     7     1    14
 -1.8108720463388131E-01 a       135     0     7     1    15
 -3.7390881206415821E-01 a       136     0     7     1    16
  4.8866318076788220E-02 a       137     0     7     1    17
 -2.3093584855020088E-01 a       138     0     7     1    18
 -3.0875458386480835E-02 a       139     0     7     1    19
  3.8264070910373466E-01 a       140     0     7     1    20
 -2.1441541959842850E-01 a       141     0     8     1     1
 -7.7550291763415463E-02 a       142     0     8     1     2
  1.7764141417979865E-01 a       143     0     8     1     3
  6.9727191399611677E-01 a       144     0     8     1     4
 -6.8934946252982923E-02 a       145     0     8     1     5
 -3.7317699390910286E-01 a       146     0     8     1     6
  2.5773035406454153E-01 a       147     0     8     1     7
  2.4594928926684946E-02 a       148     0     8     1     8
  4.0313528586697794E-01 a       149     0     8     1     9
  5.9650115189514068E-02 a       150     0     8     1    10
  8.0085016304765236E-02 a       151     0     8     1    11
 -5.1960129389019616E-01 a       152     0     8     1    12
 -2.3827917519711689E-01 a       153     0     8     1    13
 -1.7908381503706913E-01 a       154     0     8     1    14
 -5.6334082700970645E-01 a       155     0     8     1    15
 -7.0218594690553227E-01 a       156     0     8     1    16
  7.3727000643180618E-01 a       157     0     8     1    17
  2.8573256934490632E-01 a       158     0     8     1    18
 -2.6444348823575597E-01 a       159     0     8     1    19
 -7.8723029076383164E-02 a       160     0     8     1    20
 -1.3165121997076232E-01 a       161     0     9     1     1
  5.3086146343043306E-01 a       162     0     9     1     2
 -5.3471753236451136E-01 a       163     0     9     1     3
  1.7671307931758379E-01 a       164     0     9     1     4
  3.7732203828925259E-01 a       165     0     9     1     5
  1.2714737266933193E-01 a       166     0     9     1     6
 -1.0783702229117029E-01 a       167     0     9     1     7
 -2.3369748973224794E-01 a       168     0     9     1     8
 -3.8249655140833250E-01 a       169     0     9     1     9
 -2.4144606566348503E-01 a       170     0     9     1    10
 -9.0882563978801983E-02 a       171     0     9     1    11
  3.9369040366069663E-01 a       172     0     9     1    12
 -2.8478880257573541E-01 a       173     0     9     1    13
  2.4163209580256964E-01 a       174     0     9     1    14
  1.3581657194392818E-01 a       175     0     9     1    15
 -1.7561702720401592E-01 a       176     0     9     1    16
 -4.6499714329609609E-01 a       177     0     9     1    17
 -1.4629454085630567E-01 a       178     0     9     1    18
 -5.8997253092516279E-02 a       179     0     9     1    19
  5.9750626065978717E-02 a       180     0     9     1    20
  2.3230983776091882E-01 a       181     0    10     1     1
  3.2773123498220974E-01 a       182     0    10     1     2
 -1.9296393267110867E-01 a       183     0    10     1     3
 -4.0338010210814690E-01 a       184     0    10     1     4
  3.8252293487294947E-01 a       185     0    10     1     5
  3.8706430043542572E-01 a       186     0    10     1     6
  2.2462274641963029E-01 a       187     0    10     1     7
 -6.6887260867674811E-03 a       188     0    10     1     8
 -4.6848935445685369E-01 a       189     0    10     1     9
 -3.1027664675237265E-01 a       190     0    10     1    10
  5.6274114650560836E-01 a       191     0    10     1    11
 -3.7390388833321375E-01 a       192     0    10     1    12
  5.1225391887365752E-02 a       193     0    10     1    13
 -1.2245981067656909E-02 a       194     0    10     1    14
 -3.9668835061175067E-01 a       195     0    10     1    15
  1.3235774260634622E-01 a       196     0    10     1    16
 -9.0890675347707572E-01 a       197     0    10     1    17
  6.0448764573434377E-01 a       198     0    10     1    18
 -1.7929673319608216E-01 a       199     0    10     1    19
 -1.0830016325192486E+00 a       200     0    10     1    20
 -1.1965331220576038E-02 a       201     0    11     1     1
 -2.7706604949890590E-01 a       202     0    11     1     2
 -5.3882934600579961E-02 a       203     0    11     1     3
 -8.5159502020873662E-02 a       204     0    11     1     4
 -2.0798828048019580E-01 a       205     0    11     1     5
  1.9321248964633780E-01 a       206     0    11     1     6
  2.3248279858887830E-01 a       207     0    11     1     7
  1.3066909458132067E-01 a       208     0    11     1     8
  4.7106323653052916E-02 a       209     0    11     1     9
  8.6457365283540949E-02 a       210     0    11     1    10
 -2.6352987491639424E-01 a       211     0    11     1    11
  3.7263204728855936E-01 a       212     0    11     1    12
  5.8691162473071978E-01 a       213     0    11     1    13
  7.7342247956546956E-02 a       214     0    11     1    14
  6.7156118841904019E-02 a       215     0    11     1    15
  4.1181098113529956E-02 a       216     0    11     1    16
  1.5162148398921912E-01 a       217     0    11     1    17
 -3.4657616097704713E-01 a       218     0    11     1    18
  2.2984152769425448E-01 a       219     0    11     1    19
 -2.8015176052279800E-01 a       220     0    11     1    20
 -3.1404021805116944E-01 a       221     0    12     1     1
 -1.6159429418573204E-01 a       222     0    12     1     2
  5.7655493757498115E-02 a       223     0    12     1     3
 -9.0710179233652998E-03 a       224     0    12     1     4
 -1.5454189677042163E-01 a       225     0    12     1     5
  4.0366777729674197E-01 a       226     0    12     1     6
  1.9775895235025057E-01 a       227     0    12     1     7
  8.0511802967162052E-02 a       228     0    12     1     8
 -1.0427226143977929E-01 a       229     0    12     1     9
 -8.7327242408983402E-02 a       230     0    12     1    10
 -3.6416295950252964E-01 a       231     0    12     1    11
  3.9279234393840445E-01 a       232     0    12     1    12
  2.7106351967836606E-01 a       233     0    12     1    13
  1.0533829139452396E-01 a       234     0    12     1    14
  1.1075418467699974E-01 a       235     0    12     1    15
  1.4311695989868820E-01 a       236     0    12     1    16
  2.2610341571919659E-01 a       237     0    12     1    17
 -4.2855574790190941E-02 a       238     0    12     1    18
  3.1904950906832830E-01 a       239     0    12     1    19
  6.3664974873210589E-01 a       240     0    12     1    20
  4.5631079687189152E-01 a       241     0    13     1     1
  2.7953016387950275E-01 a       242     0    13     1     2
 -3.4905001001584790E-01 a       243     0    13     1     3
 -5.8960178685949749E-01 a       244     0    13     1     4
 -1.7503145025022088E-01 a       245     0    13     1     5
 -2.5214996077514035E-01 a       246     0    13     1     6
  2.8283159462622130E-02 a       247     0    13     1     7
 -2.4444214664351244E-01 a       248     0    13     1     8
 -2.0662156462173087E-01 a       249     0    13     1     9
  9.1614245358612456E-02 a       250     0    13     1    10
  2.2606242830294623E-01 a       251     0    13     1    11
 -1.1989239025409308E+00 a       252     0    13     1    12
 -1.9459948408112873E-01 a       253     0    13     1    13
  4.8053880482300265E-01 a       254     0    13     1    14
  2.6309942976717576E-01 a       255     0    13     1    15
 -2.5838412389687138E-01 a       256     0    13     1    16
 -7.3709947167781620E-02 a       257     0    13     1    17
 -4.4593771314667036E-01 a       258     0    13     1    18
 -2.6715658744164601E-03 a       259     0    13     1    19
 -1.0332626171709620E-01 a       260     0    13     1    20
  1.7384371437856877E-01 a       261     0    14     1     1
  8.6362994385369818E-02 a       262     0    14     1     2
 -8.4892638743517337E-02 a       263     0    14     1     3
 -7.5054980106541352E-02 a       264     0    14     1     4
 -3.4799491816813091E-02 a       265     0    14     1     5
  5.0105717111923048E-02 a       266     0    14     1     6
 -1.1648299536537482E-01 a       267     0    14     1     7
  1.3802790233193826E-01 a       268     0    14     1     8
 -1.3636968388001930E-01 a       269     0    14     1     9
  3.2202397318920750E-01 a       270     0    14     1    10
  2.3146744461832974E-01 a       271     0    14     1    11
 -1.5223187023132217E-01 a       272     0    14     1    12
 -1.7751035839816576E-01 a       273     0    14     1    13
  5.8195367958656305E-02 a       274     0    14     1    14
 -2.9751824960210925E-04 a       275     0    14     1    15
 -1.4323495007758352E-01 a       276     0    14     1    16
 -8.9877510703542773E-02 a       277     0    14     1    17
  6.8367106006479203E-02 a       278     0    14     1    18
  2.2310889102664105E-01 a       279     0    14     1    19
 -1.9891325262797593E-01 a       280     0    14     1    20
 -1.5117932211113663E-01 a       281     0    15     1     1
  4.3152965050691777E-01 a       282     0    15     1     2
  2.2614294245478346E-02 a       283     0    15     1     3
  1.4730984473498193E-01 a       284     0    15     1     4
  2.5957400947819859E-01 a       285     0    15     1     5
  1.8264691013786089E-01 a       286     0    15     1     6
  4.3868606709357177E-01 a       287     0    15     1     7
  1.5127425639974393E-01 a       288     0    15     1     8
  1.0380887959523416E-01 a       289     0    15     1     9
 -5.9805287854031286E-01 a       290     0    15     1    10
 -1.7988717939063766E-02 a       291     0    15     1    11
  5.0401795226955937E-01 a       292     0    15     1    12
  3.4298530057595372E-01 a       293     0    15     1    13
 -4.7975852134388486E-01 a       294     0    15     1    14
  1.5281243942066233E-01 a       295     0    15     1    15
  6.1401215509203233E-01 a       296     0    15     1    16
  1.8401112866061442E-01 a       297     0    15     1    17
  3.6767212237913777E-01 a       298     0    15     1    18
 -3.7896052531386221E-01 a       299     0    15     1    19
 -1.1678977292716622E-01 a       300     0    15     1    20
  1.8985098233988633E-02 a       301     0    16     1     1
 -2.2774085690940454E-02 a       302     0    16     1     2
  2.0724509936182973E-02 a       303     0    16     1     3
 -7.7143544703547262E-03 a       304     0    16     1     4
  1.0878649900576274E-02 a       305     0    16     1     5
 -4.2161690495625672E-03 a       306     0    16     1     6
  6.7319896793910594E-02 a       307     0    16     1     7
 -8.1217226245142632E-02 a       308     0    16     1     8
  1.7454786260957678E-01 a       309     0    16     1     9
 -7.8918585652640177E-02 a       310     0    16     1    10
 -1.8546754862164550E-02 a       311     0    16     1    11
 -1.4005272437097214E-03 a       312     0    16     1    12
  2.8264973129024751E-02 a       313     0    16     1    13
  1.6998420711358819E-02 a       314     0    16     1    14
 -3.1714250695465053E-02 a       315     0    16     1    15
 -7.7536794375140938E-03 a       316     0    16     1    16
  1.9491602272655274E-02 a       317     0    16     1    17
  1.6826307258950482E-01 a       318     0    16     1    18
 -5.0491366557709284E-02 a       319     0    16     1    19
  9.3891996193015220E-02 a       320     0    16     1    20
 -2.9035668227264128E-02 a       321     0    17     1     1
 -7.2647903348591530E-02 a       322     0    17     1     2
  1.8197042813563080E-01 a       323     0    17     1     3
 -3.8025814515274137E-01 a       324     0    17     1     4
  2.2713634293948576E-01 a       325     0    17     1     5
  2.0183477814371081E-01 a       326     0    17     1     6
 -1.6173022935164791E-01 a       327     0    17     1     7
 -2.9111173526662582E-01 a       328     0    17     1     8
 -3.3757398691764839E-01 a       329     0    17     1     9
 -3.4658397636185251E-01 a       330     0    17     1    10
 -2.3294340732315491E-01 a       331     0    17     1    11
  1.7346069800634945E-01 a       332     0    17     1    12
 -5.7380432074052556E-01 a       333     0    17     1    13
 -1.3439228243293505E-01 a       334     0    17     1    14
 -1.7309369561251498E-01 a       335     0    17     1    15
  2.2563815234792545E-01 a       336     0    17     1    16
 -3.5734002075935956E-01 a       337     0    17     1    17
 -5.1566925389912976E-01 a       338     0    17     1    18
 -2.3775087909740578E-01 a       339     0    17     1    19
  2.3828511139994654E-01 a       340     0    17     1    20
  9.6207304548727293E-02 a       341     0    18     1     1
 -1.0572141440342525E-01 a       342     0    18     1     2
 -3.0979079946733015E-02 a       343     0    18     1     3
  3.7637781584764531E-03 a       344     0    18     1     4
  4.5794906151789334E-02 a       345     0    18     1     5
 -1.3980837420791947E-01 a       346     0    18     1     6
  2.6797858687836401E-01 a       347     0    18     1     7
 -8.9470538132981656E-02 a       348     0    18     1     8
  1.4226245293227094E-01 a       349     0    18     1     9
 -7.1105987846661750E-02 a       350     0    18     1    10
 -2.1247342460602056E-01 a       351     0    18     1    11
 -3.1732419770787753E-03 a       352     0    18     1    12
  6.2816919429565660E-03 a       353     0    18     1    13
 -1.1747770233270807E-02 a       354     0    18     1    14
  7.9982213316147327E-02 a       355     0    18     1    15
 -1.1881382869561402E-01 a       356     0    18     1    16
 -4.8601003478172172E-02 a       357     0    18     1    17
  3.1801617153142764E-01 a       358     0    18     1    18
 -1.5763552789019677E-01 a       359     0    18     1    19
 -2.2988869472771820E-02 a       360     0    18     1    20
  2.4350541938640691E-01 a       361     0    19     1     1
 -5.4471298115769906E-01 a       362     0    19     1     2
  1.2260766254438274E-01 a       363     0    19     1     3
 -2.1240332112657803E-01 a       364     0    19     1     4
 -1.2295668188317042E-01 a       365     0    19     1     5
 -4.1648272805172337E-01 a       366     0    19     1     6
  3.3384756505953878E-01 a       367     0    19     1     7
  8.3288070284183752E-02 a       368     0    19     1     8
  1.6510577659511211E-01 a       369     0    19     1     9
  2.8466019149624289E-01 a       370     0    19     1    10
 -3.5715504732510861E-01 a       371     0    19     1    11
 -7.9458408401680808E-02 a       372     0    19     1    12
 -6.1177670830565667E-01 a       373     0    19     1    13
 -1.0372718684999687E-02 a       374     0    19     1    14
  3.3852420872792616E-01 a       375     0    19     1    15
  7.4501158747732727E-04 a       376     0    19     1    16
 -1.2294410658200626E-02 a       377     0    19     1    17
 -3.2955475262498735E-01 a       378     0    19     1    18
  2.4090086786282050E-01 a       379     0    19     1    19
  2.2230546730345016E-01 a       380     0    19     1    20
  2.4016251168763499E-02 a       381     0    20     1     1
  1.0065084412891163E-01 a       382     0    20     1     2
  3.8489329046672696E-02 a       383     0    20     1     3
  2.4875277969471346E-01 a       384     0    20     1     4
  1.3271583861105976E-01 a       385     0    20     1     5
  2.0337964888402146E-01 a       386     0    20     1     6
 -1.8273830380961711E-02 a       387     0    20     1     7
  4.1732030149646421E-01 a       388     0    20     1     8
 -1.7784844787950585E-01 a       389     0    20     1     9
  1.7101387821591141E-01 a       390     0    20     1    10
  3.2677616670002202E-01 a       391     0    20     1    11
 -3.8413152955429464E-02 a       392     0    20     1    12
 -1.4046246149358130E-01 a       393     0    20     1    13
  1.6108649169806635E-01 a       394     0    20     1    14
  1.8097597158554804E-01 a       395     0    20     1    15
 -1.3097979237367227E-01 a       396     0    20     1    16
  2.5756670960463374E-01 a       397     0    20     1    17
  4.7045628188800015E-01 a       398     0    20     1    18
 -9.7945951222514094E-02 a       399     0    20     1    19
  2.1111072815530788E-01 a       400     0    20     1    20
  1.3369391068257644E-01 a       401     0    21     1     1
  2.0091517315992435E-01 a       402     0    21     1     2
 -2.0738165118640445E-01 a       403     0    21     1     3
  2.8257626248119444E-01 a       404     0    21     1     4
 -1.3297920398840629E-01 a       405     0    21     1     5
 -1.3884258387884835E-01 a       406     0    21     1     6
  1.5171956067018208E-01 a       407     0    21     1     7
  2.8529322055168671E-01 a       408     0    21     1     8
  4.6360185032598332E-02 a       409     0    21     1     9
  6.1784152191045735E-03 a       410     0    21     1    10
  4.4541270626761187E-01 a       411     0    21     1    11
 -2.3367225049945300E-01 a       412     0    21     1    12
  5.9859366394250058E-01 a       413     0    21     1    13
 -2.7070775828849404E-02 a       414     0    21     1    14
 -6.4707753802091109E-02 a       415     0    21     1    15
 -2.7880289697384175E-01 a       416     0    21     1    16
  2.9072655335829084E-01 a       417     0    21     1    17
  5.8429647007577701E-01 a       418     0    21     1    18
  2.8250536578417351E-01 a       419     0    21     1    19
 -1.5563265906459185E-02 a       420     0    21     1    20
  4.0691577991260903E-03 a       421     0    22     1     1
  3.6674263576083993E-01 a       422     0    22     1     2
 -1.2223274005091046E-01 a       423     0    22     1     3
  4.7995534608630500E-02 a       424     0    22     1     4
 -1.3908166298795421E-01 a       425     0    22     1     5
  1.1079824856576660E-01 a       426     0    22     1     6
  2.2276529732500269E-01 a       427     0    22     1     7
 -4.8631001855489386E-01 a       428     0    22     1     8
  6.3268403297093323E-02 a       429     0    22     1     9
  8.0911236400686162E-02 a       430     0    22     1    10
 -1.1739535936169782E-01 a       431     0    22     1    11
  1.5311383895047465E-01 a       432     0    22     1    12
 -2.1393998511868344E-02 a       433     0    22     1    13
 -1.7526043290727691E-01 a       434     0    22     1    14
  3.2992983163947820E-01 a       435     0    22     1    15
  1.8185581471940584E-01 a       436     0    22     1    16
  3.3686866880098115E-02 a       437     0    22     1    17
 -2.6067213624760558E-02 a       438     0    22     1    18
  4.7544315988078417E-01 a       439     0    22     1    19
 -2.8754705256952273E-01 a       440     0    22     1    20
  1.2571349954293976E-01 a       441     0    23     1     1
 -2.3718732110422691E-02 a       442     0    23     1     2
  2.2094781370967165E-01 a       443     0    23     1     3
  3.0713361105284526E-01 a       444     0    23     1     4
  2.5638855822306472E-01 a       445     0    23     1     5
  3.6912076606248390E-01 a       446     0    23     1     6
  6.4020834705156549E-01 a       447     0    23     1     7
  1.2438250807760953E-01 a       448     0    23     1     8
  9.2891794228172425E-02 a       449     0    23     1     9
  1.9354647368383138E-01 a       450     0    23     1    10
 -1.2084592852826612E-01 a       451     0    23     1    11
 -3.5163280683748177E-01 a       452     0    23     1    12
  2.1725918050701545E-01 a       453     0    23     1    13
  1.6266998878398484E-01 a       454     0    23     1    14
 -3.8170452881866790E-01 a       455     0    23     1    15
 -1.2826135045881146E-01 a       456     0    23     1    16
  4.4115993255307706E-01 a       457     0    23     1    17
  2.0421209080551073E-01 a       458     0    23     1    18
  8.8145751841116615E-02 a       459     0    23     1    19
 -4.4508902614581108E-01 a       460     0    23     1    20
 -1.3220446362083332E-01 a       461     0    24     1     1
  4.2956903796445778E-01 a       462     0    24     1     2
 -1.9130187927193068E-01 a       463     0    24     1     3
 -2.1135677260219685E-01 a       464     0    24     1     4
 -5.0787947376150999E-01 a       465     0    24     1     5
 -1.4396129228363741E-01 a       466     0    24     1     6
  4.9766777599906969E-02 a       467     0    24     1     7
 -3.4352655654242992E-01 a       468     0    24     1     8
  2.7081810737990553E-01 a       469     0    24     1     9
  2.0845563230746728E-01 a       470     0    24     1    10
  3.0130776095586531E-01 a       471     0    24     1    11
  5.2658561101429213E-01 a       472     0    24     1    12
 -2.0928114667428177E-01 a       473     0    24     1    13
 -1.1031146494124600E-01 a       474     0    24     1    14
  5.1399515650964001E-01 a       475     0    24     1    15
  4.7522320676497903E-01 a       476     0    24     1    16
  3.8047143698660059E-02 a       477     0    24     1    17
  1.8214765389472528E-02 a       478     0    24     1    18
  5.2275256087593328E-02 a       479     0    24     1    19
 -1.1134748760687391E-01 a       480     0    24     1    20
 -1.0395076510859180E-01 a       481     0    25     1     1
  2.2100013151950043E-01 a       482     0    25     1     2
 -1.8045624607206653E-01 a       483     0    25     1     3
  9.7188520736914807E-02 a       484     0    25     1     4
  1.0130065486401410E-01 a       485     0    25     1     5
  1.7059957404944420E-01 a       486     0    25     1     6
  1.4191077318802270E-01 a       487     0    25     1     7
 -1.6489812801144557E-01 a       488     0    25     1     8
 -1.8283172167772568E-01 a       489     0    25     1     9
  8.2726549103023572E-02 a       490     0    25     1    10
 -1.9328730313915218E-01 a       491     0    25     1    11
 -1.4277542532513582E-01 a       492     0    25     1    12
 -5.7053998262801024E-03 a       493     0    25     1    13
  1.0234467630338333E-01 a       494     0    25     1    14
  2.5406126032469872E-01 a       495     0    25     1    15
 -2.4427874651817413E-01 a       496     0    25     1    16
  1.1724543670382490E-01 a       497     0    25     1    17
  2.4181309609402113E-01 a       498     0    25     1    18
  4.7747921330499259E-02 a       499     0    25     1    19
 -6.6493691900903927E-03 a       500     0    25     1    20
 -2.1505203257685820E-01 a       501     0    26     1     1
  1.1379874167294018E-01 a       502     0    26     1     2
  3.9299530936941857E-02 a       503     0    26     1     3
  1.5277754280503597E-01 a       504     0    26     1     4
  2.3067551292662072E-01 a       505     0    26     1     5
  7.5691927745342058E-02 a       506     0    26     1     6
  3.9961986106304981E-01 a       507     0    26     1     7
 -2.2795645355265884E-01 a       508     0    26     1     8
  4.8589569177156944E-01 a       509     0    26     1     9
  2.0722413031994312E-02 a       510     0    26     1    10
 -1.2301919920693478E-01 a       511     0    26     1    11
  1.8824352945382197E-01 a       512     0    26     1    12
  2.3025089676326257E-02 a       513     0    26     1    13
 -4.3141066883502383E-01 a       514     0    26     1    14
 -4.1893561979127064E-01 a       515     0    26     1    15
  4.0200260892456312E-02 a       516     0    26     1    16
 -1.0075767495916307E-01 a       517     0    26     1    17
  1.9072724798529958E-01 a       518     0    26     1    18
  8.9735928712402602E-02 a       519     0    26     1    19
 -1.4751297440984270E-02 a       520     0    26     1    20
  7.4937911319653061E-01 a       521     0    27     1     1
 -4.0973547464902765E-01 a       522     0    27     1     2
  3.7915446716511153E-01 a       523     0    27     1     3
  4.5037309897545874E-01 a       524     0    27     1     4
  8.1444779631861808E-01 a       525     0    27     1     5
  1.1376031557260308E-01 a       526     0    27     1     6
 -3.7485769540780789E-01 a       527     0    27     1     7
  4.2875440136395260E-01 a       528     0    27     1     8
  4.3893822396846410E-01 a       529     0    27     1     9
 -6.1255873987245624E-01 a       530     0    27     1    10
 -3.1193736458232862E-01 a       531     0    27     1    11
 -3.4167249109324149E-01 a       532     0    27     1    12
 -4.7381637985950886E-01 a       533     0    27     1    13
 -1.2747399074979099E-01 a       534     0    27     1    14
  5.1993647511944852E-01 a       535     0    27     1    15
  3.2932932590635988E-01 a       536     0    27     1    16
 -2.9833364722071504E-01 a       537     0    27     1    17
 -2.3151514728717984E-01 a       538     0    27     1    18
 -7.8799556727334408E-02 a       539     0    27     1    19
 -1.5715323630161038E-02 a       540     0    27     1    20
  7.0939296812427999E-02 a       541     0    28     1     1
 -2.0891867841384349E-02 a       542     0    28     1     2
 -4.0690590030472852E-02 a       543     0    28     1     3
 -2.3844942147776457E-01 a       544     0    28     1     4
 -2.9602048024355221E-01 a       545     0    28     1     5
 -2.9711802045899643E-01 a       546     0    28     1     6
 -8.0223497785669978E-02 a       547     0    28     1     7
 -2.0399455910645461E-01 a       548     0    28     1     8
 -4.7846166397159030E-02 a       549     0    28     1     9
 -4.4782666352912032E-02 a       550     0    28     1    10
  1.7515885262726102E-01 a       551     0    28     1    11
  7.2517716118378553E-02 a       552     0    28     1    12
  2.1850728612492529E-01 a       553     0    28     1    13
 -1.0349106793872097E-01 a       554     0    28     1    14
 -2.5504868860287455E-01 a       555     0    28     1    15
 -1.3622604951428342E-02 a       556     0    28     1    16
 -1.0662867276620117E-01 a       557     0    28     1    17
 -1.7998614960719539E-01 a       558     0    28     1    18
 -2.4113430399317969E-02 a       559     0    28     1    19
 -5.2854731174779082E-02 a       560     0    28     1    20
 -3.2736784475592740E-01 a       561     0    29     1     1
  1.2593865696030057E-01 a       562     0    29     1     2
 -1.7539827641957943E-02 a       563     0    29     1     3
 -8.7058877205361734E-02 a       564     0    29     1     4
  1.4340032597598064E-02 a       565     0    29     1     5
 -2.5645521672688631E-01 a       566     0    29     1     6
 -5.5654979195231180E-01 a       567     0    29     1     7
  1.0604148067893608E-01 a       568     0    29     1     8
  3.3566200149221764E-01 a       569     0    29     1     9
  2.6997955522722999E-01 a       570     0    29     1    10
  6.3021312234072135E-01 a       571     0    29     1    11
 -6.2308885180050744E-01 a       572     0    29     1    12
  3.6769588911947947E-02 a       573     0    29     1    13
 -3.8681277389969670E-01 a       574     0    29     1    14
 -5.6015638643446865E-02 a       575     0    29     1    15
  1.5986110175244000E-01 a       576     0    29     1    16
 -1.0051435226734003E-01 a       577     0    29     1    17
 -9.3946885892521842E-02 a       578     0    29     1    18
  1.5132922403373791E-01 a       579     0    29     1    19
  5.1196274446011802E-01 a       580     0    29     1    20
 -4.7833669568384946E-02 a       581     0    30     1     1
 -6.5769617665664293E-01 a       582     0    30     1     2
  2.9553007771737017E-01 a       583     0    30     1     3
 -1.1316808080030055E-01 a       584     0    30     1     4
  9.9116302254367069E-03 a       585     0    30     1     5
 -3.2459635098559969E-01 a       586     0    30     1     6
 -1.5854784867479163E-01 a       587     0    30     1     7
  6.3550677965031810E-01 a       588     0    30     1     8
 -1.7517611711790432E-01 a       589     0    30     1     9
  3.4531737666589218E-01 a       590     0    30     1    10
  3.0906191674478362E-01 a       591     0    30     1    11
 -1.5314144590552489E-01 a       592     0    30     1    12
 -8.5773504973578371E-02 a       593     0    30     1    13
  3.0958651792470238E-01 a       594     0    30     1    14
  9.8972152888436679E-02 a       595     0    30     1    15
  5.7982730635856669E-02 a       596     0    30     1    16
  1.8524559644876476E-01 a       597     0    30     1    17
 -4.2897810246391305E-01 a       598     0    30     1    18
 -3.5688727603398707E-01 a       599     0    30     1    19
  1.7670581077654937E-01 a       600     0    30     1    20
 -5.9921590122997115E-01 b       601     1     1
  9.1277844782078588E-01 b       602     1     2
  1.3419512597947123E+00 b       603     1     3
  5.0840013858628941E-01 b       604     1     4
  2.8982749972760996E-01 b       605     1     5
 -1.3752911764076645E+00 b       606     1     6
 -1.1583161322963011E+00 b       607     1     7
 -1.1795899679486068E+00 b       608     1     8
 -1.4268693243018500E+00 b       609     1     9
 -2.3015038212960104E-01 b       610     1    10
 -3.1466633773758429E-01 b       611     1    11
 -7.8616466435171328E-01 b       612     1    12
 -1.0244334574022409E+00 b       613     1    13
  3.5024029719342442E-01 b       614     1    14
 -1.5050338763373896E+00 b       615     1    15
  7.8048854672205537E-01 b       616     1    16
  1.7151623548084760E-01 b       617     1    17
 -9.9263649960854405E-01 b       618     1    18
 -6.5118541958232612E-01 b       619     1    19
 -7.0268264832395544E-01 b       620     1    20
 -8.2640817314244241E-01 a       621     1     1     2     1
 -1.5368618830288697E-01 a       622     1     1     2     2
  2.4179248886280297E-01 a       623     1     1     2     3
 -4.2107936533782914E-01 a       624     1     1     2     4
  4.7982155933387949E-01 a       625     1     1     2     5
 -7.1424894659191185E-01 a       626     1     1     2     6
 -8.0774743166485341E-01 a       627     1     1     2     7
 -7.2212402040816348E-01 a       628     1     1     2     8
  3.4212963219272713E-01 a       629     1     1     2     9
 -6.6106926414039335E-01 a       630     1     1     2    10
  1.1422754444148091E-03 a       631     1     1     2    11
 -3.4561834529422419E-01 a       632     1     1     2    12
  3.1359984807220875E-01 a       633     1     1     2    13
 -5.1585422709590101E-01 a       634     1     1     2    14
  2.8971700044426740E-01 a       635     1     1     2    15
  3.6772820056122146E-01 a       636     1     1     2    16
 -4.0939468802495443E-01 a       637     1     1     2    17
 -1.8812083200866653E-02 a       638     1     1     2    18
 -8.0188679616430766E-02 a       639     1     1     2    19
 -2.3607924002143238E-01 a       640     1     1     2    20
 -4.0491938560763774E-01 a       641     1     2     2     1
 -1.6093475187795059E-01 a       642     1     2     2     2
 -2.8246378474970768E-01 a       643     1     2     2     3
  3.4198949279122753E-01 a       644     1     2     2     4
 -2.1363801932878207E-01 a       645     1     2     2     5
  1.9214552176530508E-01 a       646     1     2     2     6
 -2.5386695881946758E-01 a       647     1     2     2     7
 -6.5549802504469756E-01 a       648     1     2     2     8
 -4.2370110095575847E-01 a       649     1     2     2     9
 -3.9130410466326937E-01 a       650     1     2     2    10
  3.6874364009258931E-01 a       651     1     2     2    11
  4.5794041496785115E-01 a       652     1     2     2    12
 -3.5491177323739791E-02 a       653     1     2     2    13
 -1.6835152937481945E-01 a       654     1     2     2    14
 -2.4747101185301262E-01 a       655     1     2     2    15
  5.2619322491493348E-01 a       656     1     2     2    16
 -2.2309109406756733E-01 a       657     1     2     2    17
  2.9158151507007712E-01 a       658     1     2     2    18
 -7.0307259366748753E-01 a       659     1     2     2    19
  1.6103482201570951E-01 a       660     1     2     2    20
  4.1838754366563030E-01 a       661     1     3     2     1
  6.1387383955787833E-01 a       662     1     3     2     2
 -6.2100842925360422E-01 a       663     1     3     2     3
  7.4269112724177699E-01 a       664     1     3     2     4
 -5.1350936057205265E-01 a       665     1     3     2     5
  6.1037782798652196E-01 a       666     1     3     2     6
 -1.2737322213364177E-01 a       667     1     3     2     7
  6.5493178593506618E-01 a       668     1     3     2     8
 -4.3398355051465748E-01 a       669     1     3     2     9
  1.5050582496551088E-01 a       670     1     3     2    10
 -4.3695390779097459E-01 a       671     1     3     2    11
  3.9574358760914546E-01 a       672     1     3     2    12
 -4.7849066035899154E-02 a       673     1     3     2    13
  5.8048492019147979E-01 a       674     1     3     2    14
  5.3477827731526195E-01 a       675     1     3     2    15
 -5.8620903842489269E-01 a       676     1     3     2    16
  2.0670097008230109E-01 a       677     1     3     2    17
  3.2333569661396044E-01 a       678     1     3     2    18
 -5.6088426883826714E-01 a       679     1     3     2    19
  2.6827027821852723E-01 a       680     1     3     2    20
  5.4514139060797862E-01 a       681     1     4     2     1
 -3.8098155361992214E-01 a       682     1     4     2     2
 -1.1673764614348128E-01 a       683     1     4     2     3
  5.7963287574327238E-01 a       684     1     4     2     4
 -2.4581904019898046E-01 a       685     1     4     2     5
  2.0608150341627990E-01 a       686     1     4     2     6
 -2.1603008565310836E-01 a       687     1     4     2     7
 -5.1861507319754574E-01 a       688     1     4     2     8
 -2.0679051316481184E-01 a       689     1     4     2     9
 -7.5397183485562980E-01 a       690     1     4     2    10
  3.0406227980057515E-01 a       691     1     4     2    11
  3.8913492899460383E-01 a       692     1     4     2    12
  5.4075753760263301E-01 a       693     1     4     2    13
  2.1036194098986377E-01 a       694     1     4     2    14
 -4.5986863008283640E-01 a       695     1     4     2    15
  1.2846666287250194E-01 a       696     1     4     2    16
 -8.5934860348645004E-01 a       697     1     4     2    17
 -5.7811059406741472E-01 a       698     1     4     2    18
  1.3417600800014776E-01 a       699     1     4     2    19
 -4.0791011691038249E-02 a       700     1     4     2    20
  4.1942913637841928E-01 a       701     1     5     2     1
 -1.0977125951767923E-01 a       702     1     5     2     2
 -9.0209427901065623E-03 a       703     1     5     2     3
  5.5577688266443681E-01 a       704     1     5     2     4
  2.3842503335472526E-01 a       705     1     5     2     5
 -1.3567720499844163E-01 a       706     1     5     2     6
 -2.5500667411894778E-01 a       707     1     5     2     7
  4.3974647120460608E-01 a       708     1     5     2     8
 -2.6549152092521924E-02 a       709     1     5     2     9
 -8.1502498056021644E-01 a       710     1     5     2    10
  4.6452073230262142E-01 a       711     1     5     2    11
 -3.9983394940025535E-01 a       712     1     5     2    12
 -7.1194276860579964E-01 a       713     1     5     2    13
  3.1609648098206744E-01 a       714     1     5     2    14
  2.2033904404547477E-01 a       715     1     5     2    15
 -5.4269444691361302E-01 a       716     1     5     2    16
 -4.4558347989072083E-01 a       717     1     5     2    17
 -1.0739234870473631E+00 a       718     1     5     2    18
 -1.2530060729693202E-01 a       719     1     5     2    19
  4.9821108237682349E-01 a       720     1     5     2    20
  3.8622683740582031E-01 a       721     1     6     2     1
  2.9514626647341413E-01 a       722     1     6     2     2
 -3.2465690864415264E-01 a       723     1     6     2     3
 -5.9148557944127866E-01 a       724     1     6     2     4
 -1.8137046998970155E-01 a       725     1     6     2     5
 -2.9643437428670791E-02 a       726     1     6     2     6
  1.8262856640393826E-01 a       727     1     6     2     7
 -2.8625666584949122E-01 a       728     1     6     2     8
  7.8933329130399876E-01 a       729     1     6     2     9
 -8.0151937217520852E-01 a       730     1     6     2    10
  3.3399286001799761E-01 a       731     1     6     2    11
  1.9864788878839648E-01 a       732     1     6     2    12
 -4.5159575165169941E-01 a       733     1     6     2    13
 -4.5998488856667707E-01 a       734     1     6     2    14
 -1.4964225696345793E-01 a       735     1     6     2    15
  6.2646532500720309E-01 a       736     1     6     2    16
  2.0079679524518168E-01 a       737     1     6     2    17
 -1.0065461900911653E-01 a       738     1     6     2    18
 -1.0600445325898324E-01 a       739     1     6     2    19
 -3.1183204093418054E-01 a       740     1     6     2    20
 -4.7539924262565270E-01 a       741     1     7     2     1
 -1.5353469727358945E-01 a       742     1     7     2     2
  8.0916417512832739E-01 a       743     1     7     2     3
 -5.9224544466393259E-01 a       744     1     7     2     4
 -5.0602056525789241E-01 a       745     1     7     2     5
  2.3936312328231532E-01 a       746     1     7     2     6
  2.9332593355348241E-01 a       747     1     7     2     7
 -2.4542147674417464E-01 a       748     1     7     2     8
 -4.2347342158960988E-01 a       749     1     7     2     9
 -1.1417770262794076E-01 a       750     1     7     2    10
 -7.0676869319085470E-02 a       751     1     7     2    11
 -2.4442949190040028E-01 a       752     1     7     2    12
  5.0435217529247300E-01 a       753     1     7     2    13
  1.3813249094421051E-01 a       754     1     7     2    14
 -9.9330009234864791E-02 a       755     1     7     2    15
 -4.0129224552160231E-01 a       756     1     7     2    16
 -2.2605645375690742E-01 a       757     1     7     2    17
  7.7301667223142884E-02 a       758     1     7     2    18
  2.4818069200621243E-01 a       759     1     7     2    19
  2.7483983096294412E-01 a       760     1     7     2    20
  6.3734844071237640E-01 a       761     1     8     2     1
 -6.0691784845380692E-01 a       762     1     8     2     2
 -3.0852529857479510E-01 a       763     1     8     2     3
 -2.2098696432031434E-01 a       764     1     8     2     4
 -2.9425711937302427E-02 a       765     1     8     2     5
 -2.4427856581863752E-01 a       766     1     8     2     6
 -1.4095542146940107E-01 a       767     1     8     2     7
  4.0140986050975125E-01 a       768     1     8     2     8
 -3.6681402874631286E-01 a       769     1     8     2     9
 -8.3297698531427022E-01 a       770     1     8     2    10
 -3.0914916116627067E-01 a       771     1     8     2    11
 -5.9423978656277265E-01 a       772     1     8     2    12
  1.0069069359471401E+00 a       773     1     8     2    13
 -5.2856799071377392E-01 a       774     1     8     2    14
  7.1929482482266688E-02 a       775     1     8     2    15
  5.9944953347197649E-01 a       776     1     8     2    16
  2.4611244685131980E-01 a       777     1     8     2    17
 -2.4826406480988147E-02 a       778     1     8     2    18
  2.1914325750480798E-01 a       779     1     8     2    19
 -9.5094336211554131E-01 a       780     1     8     2    20
  6.0911846997571517E-01 a       781     1     9     2     1
 -6.2952367495986228E-01 a       782     1     9     2     2
 -1.4915183041700469E-01 a       783     1     9     2     3
  3.9650972653638650E-01 a       784     1     9     2     4
 -5.0094873351616644E-02 a       785     1     9     2     5
 -3.9525314228442288E-01 a       786     1     9     2     6
  2.4387384978329760E-01 a       787     1     9     2     7
  6.2549398538527901E-01 a       788     1     9     2     8
  1.8700485555427371E-01 a       789     1     9     2     9
 -5.7164249771857523E-02 a       790     1     9     2    10
  4.5642344865025203E-01 a       791     1     9     2    11
 -1.6957518033846658E-01 a       792     1     9     2    12
  8.5707131491305058E-02 a       793     1     9     2    13
 -4.8214794984689729E-01 a       794     1     9     2    14
  2.2610096500242326E-02 a       795     1     9     2    15
  1.3355360322737861E-01 a       796     1     9     2    16
 -5.9823133264495433E-02 a       797     1     9     2    17
  5.7483906591975686E-01 a       798     1     9     2    18
  3.8632427385681734E-01 a       799     1     9     2    19
 -5.5531697467427865E-02 a       800     1     9     2    20
  1.3466267813471736E-01 a       801     1    10     2     1
 -2.8867057050451483E-01 a       802     1    10     2     2
  1.2638813500338758E-01 a       803     1    10     2     3
  4.2449761066480052E-01 a       804     1    10     2     4
  2.4262957765655516E-01 a       805     1    10     2     5
 -1.6551119251358573E-01 a       806     1    10     2     6
  4.2956400705565709E-02 a       807     1    10     2     7
  1.1894479744000599E-01 a       808     1    10     2     8
 -2.8246321450024048E-01 a       809     1    10     2     9
  7.2162135720749920E-01 a       810     1    10     2    10
  6.1763565152670852E-01 a       811     1    10     2    11
 -4.5012579052582058E-01 a       812     1    10     2    12
  5.8016587555890964E-01 a       813     1    10     2    13
  5.7031581528054785E-02 a       814     1    10     2    14
  2.1290655373386136E-01 a       815     1    10     2    15
 -1.5962195153071176E-01 a       816     1    10     2    16
  5.8189387567517648E-01 a       817     1    10     2    17
  3.5577362388913687E-02 a       818     1    10     2    18
  2.6840707300541522E-01 a       819     1    10     2    19
  4.5826394421484845E-01 a       820     1    10     2    20
  5.6557704708234158E-01 a       821     1    11     2     1
 -4.4696315848959174E-02 a       822     1    11     2     2
  1.6853625707008615E-01 a       823     1    11     2     3
  1.7552441172774644E-02 a       824     1    11     2     4
 -6.1812360464255089E-02 a       825     1    11     2     5
 -2.3819587709881607E-01 a       826     1    11     2     6
 -4.8107667366894918E-01 a       827     1    11     2     7
 -1.0608409264278652E-01 a       828     1    11     2     8
  6.5198384613905452E-02 a       829     1    11     2     9
 -9.2704441779581995E-03 a       830     1    11     2    10
  2.1097008051383817E-01 a       831     1    11     2    11
  8.1297562316432026E-01 a       832     1    11     2    12
 -3.8042916096228013E-01 a       833     1    11     2    13
  5.1662590786188256E-01 a       834     1    11     2    14
 -6.5590769660476955E-03 a       835     1    11     2    15
 -4.1892772330646122E-01 a       836     1    11     2    16
 -5.1935593726300644E-01 a       837     1    11     2    17
  3.8074765583137660E-01 a       838     1    11     2    18
  4.5598661644555755E-01 a       839     1    11     2    19
 -6.3675566837932174E-01 a       840     1    11     2    20
 -7.8992686631733533E-02 a       841     1    12     2     1
 -4.3594235143585702E-01 a       842     1    12     2     2
  6.1654383884539909E-01 a       843     1    12     2     3
 -5.4579083665747619E-01 a       844     1    12     2     4
 -1.5025904094857159E-01 a       845     1    12     2     5
 -1.4199857685142125E-01 a       846     1    12     2     6
 -4.5757986434456027E-01 a       847     1    12     2     7
  3.0047169605937446E-01 a       848     1    12     2     8
 -7.8781573403160265E-01 a       849     1    12     2     9
  1.0027273758270607E+00 a       850     1    12     2    10
  6.9654681912299654E-01 a       851     1    12     2    11
  3.6729183232686885E-01 a       852     1    12     2    12
  1.5454908764396794E-01 a       853     1    12     2    13
 -4.1880306743608259E-01 a       854     1    12     2    14
 -3.3337227643332979E-03 a       855     1    12     2    15
  3.7922406753320215E-01 a       856     1    12     2    16
  6.4092326330937574E-02 a       857     1    12     2    17
 -7.8829654121325976E-02 a       858     1    12     2    18
  2.0702424139876611E-02 a       859     1    12     2    19
 -1.1274904014427459E-01 a       860     1    12     2    20
 -6.0625621587720030E-02 a       861     1    13     2     1
 -4.8443309026513232E-01 a       862     1    13     2     2
 -2.2352770655778401E-01 a       863     1    13     2     3
 -2.2160422778800359E-01 a       864     1    13     2     4
 -1.7275496929025566E-02 a       865     1    13     2     5
  3.9396351829949400E-01 a       866     1    13     2     6
 -2.9058685751271718E-01 a       867     1    13     2     7
  1.1469302966184204E-01 a       868     1    13     2     8
  2.4044482728969432E-01 a       869     1    13     2     9
  2.0213033471730169E-01 a       870     1    13     2    10
 -1.7942738095158828E-01 a       871     1    13     2    11
  1.0663034246317205E-02 a       872     1    13     2    12
 -8.8534644223771619E-01 a       873     1    13     2    13
  1.5986670067792122E-01 a       874     1    13     2    14
  8.0854212182666016E-02 a       875     1    13     2    15
 -8.8788604243229610E-02 a       876     1    13     2    16
 -4.6063078891744447E-01 a       877     1    13     2    17
 -4.1260156610635801E-01 a       878     1    13     2    18
  2.9859328758947284E-01 a       879     1    13     2    19
  9.4766485018488861E-03 a       880     1    13     2    20
  1.2160448320155041E-01 a       881     1    14     2     1
  9.9746896522359494E-03 a       882     1    14     2     2
  7.7636557980880816E-01 a       883     1    14     2     3
  3.7881194210632674E-01 a       884     1    14     2     4
 -7.3043701400134053E-01 a       885     1    14     2     5
  3.1908873424080675E-01 a       886     1    14     2     6
  3.7375314929476593E-02 a       887     1    14     2     7
 -6.2794344681415770E-01 a       888     1    14     2     8
 -3.4531859483695987E-01 a       889     1    14     2     9
 -1.5420986633409922E-01 a       890     1    14     2    10
 -7.0744097648606830E-01 a       891     1    14     2    11
 -1.1122145454325308E-02 a       892     1    14     2    12
 -2.6810623475601125E-01 a       893     1    14     2    13
  2.7411186766098411E-01 a       894     1    14     2    14
 -4.3209579824522842E-01 a       895     1    14     2    15
 -3.6748529598766089E-01 a       896     1    14     2    16
 -3.1643408696126712E-01 a       897     1    14     2    17
 -5.2231766037115719E-02 a       898     1    14     2    18
  3.6152317661249039E-01 a       899     1    14     2    19
 -4.1321527454258500E-01 a       900     1    14     2    20
  1.0771582350689229E-01 a       901     1    15     2     1
 -3.7441772991364008E-01 a       902     1    15     2     2
 -1.0593769651886860E+00 a       903     1    15     2     3
 -3.6423891281709680E-01 a       904     1    15     2     4
  2.4305921600391442E-01 a       905     1    15     2     5
 -5.2028369169180466E-01 a       906     1    15     2     6
  9.3897800617155314E-01 a       907     1    15     2     7
  2.6094588876018548E-01 a       908     1    15     2     8
 -2.3659641690719480E-01 a       909     1    15     2     9
  6.0629393320456293E-01 a       910     1    15     2    10
  4.2341767474456990E-02 a       911     1    15     2    11
 -5.6984871406150384E-01 a       912     1    15     2    12
 -2.5213948104806033E-01 a       913     1    15     2    13
 -1.3107834788384082E-01 a       914     1    15     2    14
  1.3200426788085654E-01 a       915     1    15     2    15
 -1.3261028343779263E-01 a       916     1    15     2    16
 -1.2937049214984603E-01 a       917     1    15     2    17
 -2.7195116791895230E-01 a       918     1    15     2    18
  5.4793708939374974E-01 a       919     1    15     2    19
  1.7663273212097010E+00 a       920     1    15     2    20
 -2.5265842174834224E-01 a       921     1    16     2     1
 -4.4486269189941009E-02 a       922     1    16     2     2
 -3.6698220630632838E-01 a       923     1    16     2     3
 -1.2324894277662771E-01 a       924     1    16     2     4
 -3.8235979168839551E-01 a       925     1    16     2     5
 -1.3358227667402386E-01 a       926     1    16     2     6
  4.3299372987282936E-01 a       927     1    16     2     7
 -7.5457154510415159E-01 a       928     1    16     2     8
  6.2921926140177542E-01 a       929     1    16     2     9
 -5.0403681902359965E-01 a       930     1    16     2    10
 -5.6105892606639862E-01 a       931     1    16     2    11
  4.9501302391556333E-02 a       932     1    16     2    12
 -3.6779287985401515E-01 a       933     1    16     2    13
  3.7291057761671620E-01 a       934     1    16     2    14
 -2.0215518278695604E-01 a       935     1    16     2    15
 -5.1442762789701313E-01 a       936     1    16     2    16
 -8.1610276373599272E-02 a       937     1    16     2    17
 -2.1406401487889620E-01 a       938     1    16     2    18
  1.0189771814315304E-01 a       939     1    16     2    19
  6.2560414048313506E-01 a       940     1    16     2    20
 -4.0208774385564683E-01 a       941     1    17     2     1
  5.2776944259123926E-01 a       942     1    17     2     2
  1.4592243898811724E-02 a       943     1    17     2     3
  3.4994083624114170E-01 a       944     1    17     2     4
 -1.0129548690081097E-01 a       945     1    17     2     5
 -3.8182260569447868E-01 a       946     1    17     2     6
 -3.7832573921038209E-01 a       947     1    17     2     7
  8.9873812691340194E-01 a       948     1    17     2     8
  2.1461037506654732E-01 a       949     1    17     2     9
  3.4196838465368246E-01 a       950     1    17     2    10
  1.2662738517251074E-01 a       951     1    17     2    11
  3.6957601180476163E-01 a       952     1    17     2    12
  3.0721165469768146E-02 a       953     1    17     2    13
 -5.4390678619192079E-01 a       954     1    17     2    14
  3.9107707341579545E-01 a       955     1    17     2    15
 -2.8334484319356666E-02 a       956     1    17     2    16
  9.2872997147272776E-02 a       957     1    17     2    17
  6.3802601778365123E-02 a       958     1    17     2    18
 -5.4043191385140821E-01 a       959     1    17     2    19
  8.1075438632418806E-01 a       960     1    17     2    20
  5.0698366984638095E-02 a       961     1    18     2     1
  1.9025425554710845E-02 a       962     1    18     2     2
 -8.3011183830787261E-01 a       963     1    18     2     3
  2.8401172078505893E-01 a       964     1    18     2     4
 -2.8424745121518197E-01 a       965     1    18     2     5
 -3.7101503943637310E-01 a       966     1    18     2     6
 -1.2882583608521206E-01 a       967     1    18     2     7
  3.9869480547466113E-01 a       968     1    18     2     8
 -4.3285094505454522E-02 a       969     1    18     2     9
 -2.8382243457461070E-01 a       970     1    18     2    10
 -3.2634200549658671E-01 a       971     1    18     2    11
  5.7914264961581274E-01 a       972     1    18     2    12
  2.4128430783085097E-01 a       973     1    18     2    13
 -1.3878917568553878E-01 a       974     1    18     2    14
 -1.3264831964032370E-01 a       975     1    18     2    15
 -4.9629880397780496E-01 a       976     1    18     2    16
  4.1239692253379556E-01 a       977     1    18     2    17
 -3.3519171458886349E-01 a       978     1    18     2    18
  5.2561395562147839E-01 a       979     1    18     2    19
 -2.9595758918626630E-01 a       980     1    18     2    20
  4.6612160991379437E-02 a       981     1    19     2     1
  3.0241791119146377E-01 a       982     1    19     2     2
 -3.6446249747560489E-01 a       983     1    19     2     3
 -5.0639370137496253E-01 a       984     1    19     2     4
 -4.9166625841913003E-01 a       985     1    19     2     5
  3.8829344120306741E-01 a       986     1    19     2     6
  5.9760877765928466E-01 a       987     1    19     2     7
  9.1489144101497699E-01 a       988     1    19     2     8
  5.1767548140059538E-01 a       989     1    19     2     9
  3.5678640831622310E-01 a       990     1    19     2    10
  2.9192720332426947E-01 a       991     1    19     2    11
  5.4742348557509002E-01 a       992     1    19     2    12
  3.2158892577050811E-02 a       993     1    19     2    13
 -4.0630546949176932E-01 a       994     1    19     2    14
 -1.1119653896609155E-01 a       995     1    19     2    15
  5.1079411549000886E-01 a       996     1    19     2    16
 -2.3413728591491492E-01 a       997     1    19     2    17
 -1.4934812983837994E-02 a       998     1    19     2    18
  6.0684389206925549E-01 a       999     1    19     2    19
  9.3720124776023117E-01 a      1000     1    19     2    20
  3.0165453120918173E-01 a      1001     1    20     2     1
  3.7929780939227448E-01 a      1002     1    20     2     2
 -2.6368038721729781E-01 a      1003     1    20     2     3
 -3.6834723152999786E-02 a      1004     1    20     2     4
 -3.1014374704520359E-01 a      1005     1    20     2     5
  3.0126415008416813E-01 a      1006     1    20     2     6
 -4.8637929383130002E-01 a      1007     1    20     2     7
  7.5026592722328617E-02 a      1008     1    20     2     8
 -6.1459096510710376E-01 a      1009     1    20     2     9
  1.3317397555776758E+00 a      1010     1    20     2    10
  4.1095602242195349E-02 a      1011     1    20     2    11
 -4.6062073431673017E-01 a      1012     1    20     2    12
  8.9154759112446835E-01 a      1013     1    20     2    13
 -6.2416235196175181E-02 a      1014     1    20     2    14
 -2.5051926736616237E-01 a      1015     1    20     2    15
  4.9089907853821108E-01 a      1016     1    20     2    16
  3.3901639664693695E-01 a      1017     1    20     2    17
 -1.6044374740815207E-01 a      1018     1    20     2    18
 -1.7677365206715512E-01 a      1019     1    20     2    19
 -2.4426896698720008E-01 a      1020     1    20     2    20
 -1.2771137931570362E+00 b      1021     2     1
  7.7148655571525360E-01 b      1022     2     2
  6.0037708906321363E-01 b      1023     2     3
 -7.0340548731635244E-01 b      1024     2     4
 -1.0237615536188078E+00 b      1025     2     5
  1.6245720296543562E+00 b      1026     2     6
  5.3147114580555793E-02 b      1027     2     7
  1.3094288345474447E+00 b      1028     2     8
  1.1492517615503712E+00 b      1029     2     9
  7.1569677686483812E-02 b      1030     2    10
 -3.0983085216479650E-01 b      1031     2    11
  1.2259386987839376E+00 b      1032     2    12
 -4.9453561997102424E-01 b      1033     2    13
  1.6096813251054478E+00 b      1034     2    14
 -2.0375615584719911E-02 b      1035     2    15
  8.7064929840245009E-01 b      1036     2    16
 -6.2132039145559237E-01 b      1037     2    17
 -1.7054292248442515E+00 b      1038     2    18
 -2.3306339186148725E-01 b      1039     2    19
 -6.8074353286937173E-01 b      1040     2    20
 -1.0754218651970728E+00 a      1041     2     1     3     1
  7.0343541547765354E-01 a      1042     2     2     3     1
 -2.4953621404142382E-01 a      1043     2     3     3     1
  1.2902906233922560E+00 a      1044     2     4     3     1
 -1.1633774054156485E+00 a      1045     2     5     3     1
  1.7335827706582669E+00 a      1046     2     6     3     1
  4.2110396044430282E-01 a      1047     2     7     3     1
  3.6724268716407377E-01 a      1048     2     8     3     1
 -2.3749513251055687E-01 a      1049     2     9     3     1
  4.4012578553559167E-01 a      1050     2    10     3     1
 -6.4348494349482255E-01 a      1051     2    11     3     1
  1.2439140988638269E+00 a      1052     2    12     3     1
 -9.5177926500074572E-01 a      1053     2    13     3     1
  1.3518555815463835E+00 a      1054     2    14     3     1
  1.5267249112627199E+00 a      1055     2    15     3     1
 -1.4841218071235968E-01 a      1056     2    16     3     1
 -9.2291793625856922E-01 a      1057     2    17     3     1
 -5.2535871777111420E-01 a      1058     2    18     3     1
 -6.6494295368601297E-01 a      1059     2    19     3     1
 -2.6068697573138150E-01 a      1060     2    20     3     1
  2.3462567403000464E-01 b      1061     3     1
