################################################################################
# Neural network connection values (weights and biases).
################################################################################
# Col  Name       Description
################################################################################
# 1    connection Neural network connection value.
# 2    t          Connection type (a = weight, b = bias).
# 3    index      Index enumerating weights.
# 4    l_s        Starting point layer (end point layer for biases).
# 5    n_s        Starting point neuron in starting layer (end point neuron for biases).
# 6    l_e        End point layer.
# 7    n_e        End point neuron in end layer.
################################################################################
#                      1 2         3     4     5     6     7
#             connection t     index   l_s   n_s   l_e   n_e
############################################################
  1.9939116955050514E-02 a         1     0     1     1     1
 -6.7633048546568808E-01 a         2     0     1     1     2
 -2.9036207473936471E-01 a         3     0     1     1     3
  3.8766136642368693E-01 a         4     0     1     1     4
 -2.9303198364976867E-02 a         5     0     1     1     5
  1.0397434371340351E-01 a         6     0     1     1     6
 -3.0621558856746471E+00 a         7     0     1     1     7
  1.7497668547869757E-01 a         8     0     1     1     8
 -2.0534966133490237E-01 a         9     0     1     1     9
 -7.8241936239172782E-01 a        10     0     1     1    10
  1.2938939023000570E-01 a        11     0     1     1    11
  9.9436601103927602E-01 a        12     0     1     1    12
 -1.0438571972877950E+00 a        13     0     1     1    13
  1.1117365494564073E+00 a        14     0     1     1    14
 -5.3562072226275648E-01 a        15     0     1     1    15
  7.5736518333534253E-01 a        16     0     1     1    16
  6.4133311184631403E-01 a        17     0     1     1    17
  3.5712597499097620E-01 a        18     0     1     1    18
 -3.4447418362033949E-01 a        19     0     1     1    19
  4.3248187932802051E-01 a        20     0     1     1    20
 -1.5809578295625076E-01 a        21     0     2     1     1
  7.6699940112637255E-01 a        22     0     2     1     2
  2.8419267511442603E-01 a        23     0     2     1     3
 -5.3416801468583841E-01 a        24     0     2     1     4
  1.7735812626066055E-01 a        25     0     2     1     5
  4.0430641391115640E-01 a        26     0     2     1     6
  2.7409719517744580E+00 a        27     0     2     1     7
 -2.6647948599118731E-01 a        28     0     2     1     8
  7.4460917502300694E-01 a        29     0     2     1     9
  5.7618347614698451E-01 a        30     0     2     1    10
 -2.4209324449373759E-01 a        31     0     2     1    11
 -3.0544622468874161E-01 a        32     0     2     1    12
  6.6748673450999374E-01 a        33     0     2     1    13
 -9.3656511863815028E-01 a        34     0     2     1    14
  9.1532304536906961E-01 a        35     0     2     1    15
 -2.5613763429031416E-01 a        36     0     2     1    16
 -1.1122140185775142E+00 a        37     0     2     1    17
 -3.0612092848507422E-01 a        38     0     2     1    18
 -1.7364806789986742E-01 a        39     0     2     1    19
 -5.6531111906513754E-01 a        40     0     2     1    20
  3.2543529677051980E-01 a        41     0     3     1     1
 -2.1760443199764462E-01 a        42     0     3     1     2
 -2.7119726293669055E-01 a        43     0     3     1     3
  6.1224421044650323E-01 a        44     0     3     1     4
 -2.3020257574943020E-01 a        45     0     3     1     5
  2.9744799329378659E-02 a        46     0     3     1     6
 -2.0073285996429605E-02 a        47     0     3     1     7
 -3.4431158608848178E-01 a        48     0     3     1     8
 -4.3694628909447303E-01 a        49     0     3     1     9
 -2.6597405889736192E-01 a        50     0     3     1    10
 -3.2573576793453729E-01 a        51     0     3     1    11
  1.2292319836068404E+00 a        52     0     3     1    12
 -1.1948357878746527E+00 a        53     0     3     1    13
  1.9824273830581474E-03 a        54     0     3     1    14
 -2.1813486406782007E-01 a        55     0     3     1    15
  2.0458034239819403E-01 a        56     0     3     1    16
  1.3657465461252766E-01 a        57     0     3     1    17
 -5.6745699516300818E-01 a        58     0     3     1    18
 -3.0145323852061140E-01 a        59     0     3     1    19
  2.1649457181930792E-01 a        60     0     3     1    20
 -1.6544088374709232E-01 a        61     0     4     1     1
  9.2265574621118368E-02 a        62     0     4     1     2
 -1.1837770364861420E-01 a        63     0     4     1     3
 -1.1572670208657447E-01 a        64     0     4     1     4
 -1.5290448160572440E-01 a        65     0     4     1     5
 -2.4147453799912205E-02 a        66     0     4     1     6
  4.1061848766895150E-03 a        67     0     4     1     7
  3.9217703503476264E-01 a        68     0     4     1     8
  1.7812732234257755E-01 a        69     0     4     1     9
 -1.5535111959912470E-01 a        70     0     4     1    10
  2.0062726905618605E-01 a        71     0     4     1    11
 -6.9393411453060871E-01 a        72     0     4     1    12
  7.8472245722480449E-01 a        73     0     4     1    13
  2.7294588480680476E-01 a        74     0     4     1    14
  2.3051110440683115E-01 a        75     0     4     1    15
 -2.0562019381210478E-01 a        76     0     4     1    16
  5.4898862335605336E-01 a        77     0     4     1    17
  6.4807735390843568E-01 a        78     0     4     1    18
  3.4879240857801130E-01 a        79     0     4     1    19
 -1.3383470930304511E-01 a        80     0     4     1    20
 -7.5985181820503900E-01 a        81     0     5     1     1
  2.9325036613203842E-01 a        82     0     5     1     2
  4.7734662042716419E-01 a        83     0     5     1     3
 -4.4819118420571076E-02 a        84     0     5     1     4
 -1.3424431916914709E-01 a        85     0     5     1     5
 -7.4859695092002840E-02 a        86     0     5     1     6
  1.1211337112755797E+00 a        87     0     5     1     7
  5.6326125583361442E-01 a        88     0     5     1     8
  9.4885504761952108E-02 a        89     0     5     1     9
  3.9573229541914179E-01 a        90     0     5     1    10
 -5.0947224571957495E-01 a        91     0     5     1    11
  1.3274023081883915E-01 a        92     0     5     1    12
 -1.3072704470886590E-01 a        93     0     5     1    13
 -1.3361458387169950E-01 a        94     0     5     1    14
  8.2789402095111569E-02 a        95     0     5     1    15
 -5.2720173423038308E-02 a        96     0     5     1    16
 -3.2409851650796789E-01 a        97     0     5     1    17
 -1.6614682604904121E-01 a        98     0     5     1    18
 -1.2353980844090751E-01 a        99     0     5     1    19
  3.6047260055563757E-01 a       100     0     5     1    20
  2.9079626600390757E-01 a       101     0     6     1     1
  1.1933031104214972E-01 a       102     0     6     1     2
  1.9839144512943616E-01 a       103     0     6     1     3
  1.4731835939721344E-01 a       104     0     6     1     4
  7.4320858804747769E-01 a       105     0     6     1     5
  2.7564648542720765E-01 a       106     0     6     1     6
 -1.3947650707969708E+00 a       107     0     6     1     7
  1.4534389873437867E-01 a       108     0     6     1     8
  4.4808244338091080E-01 a       109     0     6     1     9
  2.0547949631962287E-01 a       110     0     6     1    10
 -6.0250902887873360E-02 a       111     0     6     1    11
  1.9306046406682673E-01 a       112     0     6     1    12
 -8.6360212575533071E-02 a       113     0     6     1    13
  4.5246160311604844E-01 a       114     0     6     1    14
  2.8556705805002941E-01 a       115     0     6     1    15
 -6.5853614357708523E-01 a       116     0     6     1    16
  5.0638411045404552E-01 a       117     0     6     1    17
 -1.8774748482096992E-01 a       118     0     6     1    18
  3.1206166925077877E-01 a       119     0     6     1    19
  5.4540191186827802E-01 a       120     0     6     1    20
 -8.9864346548546747E-01 a       121     0     7     1     1
  5.3969644859106036E-01 a       122     0     7     1     2
 -2.1855274949345119E-01 a       123     0     7     1     3
 -4.1745993494059816E-02 a       124     0     7     1     4
 -2.0698754803837366E-01 a       125     0     7     1     5
  1.1944487808208849E-01 a       126     0     7     1     6
 -1.1249912678705503E+00 a       127     0     7     1     7
  7.8901621288307883E-02 a       128     0     7     1     8
 -2.3966544524579178E-01 a       129     0     7     1     9
  5.1011385686871258E-01 a       130     0     7     1    10
  4.6725243350816148E-01 a       131     0     7     1    11
  9.3432869412455141E-02 a       132     0     7     1    12
 -1.5184462230924492E-01 a       133     0     7     1    13
 -7.5716505648459206E-02 a       134     0     7     1    14
  5.2319855429939699E-01 a       135     0     7     1    15
  2.2251940368578405E-01 a       136     0     7     1    16
 -6.9125793004219693E-01 a       137     0     7     1    17
  9.2067489467062960E-02 a       138     0     7     1    18
  1.0279334348353089E-02 a       139     0     7     1    19
 -1.2225327178324665E+00 a       140     0     7     1    20
  1.0308697781075238E+00 a       141     0     8     1     1
 -2.6650366148766352E-01 a       142     0     8     1     2
 -3.4058346002076473E-01 a       143     0     8     1     3
 -5.6962431640679712E-01 a       144     0     8     1     4
 -9.2195037309294736E-02 a       145     0     8     1     5
  9.7915138199535547E-03 a       146     0     8     1     6
 -8.9894292990317493E-01 a       147     0     8     1     7
 -3.0993261271980807E-02 a       148     0     8     1     8
 -3.8498337384497115E-02 a       149     0     8     1     9
 -3.7996134478736864E-02 a       150     0     8     1    10
  8.8114014712309097E-01 a       151     0     8     1    11
  4.1507729499123243E-02 a       152     0     8     1    12
 -5.7403616086195819E-01 a       153     0     8     1    13
  1.5795532202018195E-01 a       154     0     8     1    14
 -2.2802665303358072E-01 a       155     0     8     1    15
  1.7571179540191334E-01 a       156     0     8     1    16
 -4.6937354140555491E-02 a       157     0     8     1    17
 -3.9140631517322577E-01 a       158     0     8     1    18
  1.9882271676418509E-01 a       159     0     8     1    19
 -2.6384926578438139E-01 a       160     0     8     1    20
 -8.2611715088041138E-01 a       161     0     9     1     1
 -4.1878732095554549E-01 a       162     0     9     1     2
 -2.9229288796930097E-01 a       163     0     9     1     3
 -4.6343420288773654E-02 a       164     0     9     1     4
 -2.8096071215197010E-01 a       165     0     9     1     5
  4.0374301778741052E-02 a       166     0     9     1     6
  1.2563762163481557E-01 a       167     0     9     1     7
 -1.2406342694775969E-01 a       168     0     9     1     8
 -2.9893783231961294E-02 a       169     0     9     1     9
 -5.2033956202775844E-01 a       170     0     9     1    10
  3.7158735199249157E-02 a       171     0     9     1    11
  5.8194157438219341E-01 a       172     0     9     1    12
 -5.8125462934289185E-01 a       173     0     9     1    13
  2.0080659390576935E-01 a       174     0     9     1    14
 -3.0597507630682130E-01 a       175     0     9     1    15
  2.0355177815171541E-01 a       176     0     9     1    16
 -8.0458806036740587E-03 a       177     0     9     1    17
 -3.3790734793706650E-01 a       178     0     9     1    18
 -5.6268167738701547E-01 a       179     0     9     1    19
  4.5926000089704634E-02 a       180     0     9     1    20
  1.3154428604244223E-01 a       181     0    10     1     1
  1.0460344664043947E-01 a       182     0    10     1     2
  3.6137795334815831E-01 a       183     0    10     1     3
 -6.2091666559399594E-01 a       184     0    10     1     4
 -1.4716360832285355E-01 a       185     0    10     1     5
  1.4421707758095906E-02 a       186     0    10     1     6
  4.3451846083282059E-01 a       187     0    10     1     7
  1.6949502572215416E-01 a       188     0    10     1     8
  1.6522570397124003E-01 a       189     0    10     1     9
 -4.8548205293191266E-01 a       190     0    10     1    10
 -7.2293309519576598E-01 a       191     0    10     1    11
  2.7222885175075884E-01 a       192     0    10     1    12
 -1.4146083607196136E-02 a       193     0    10     1    13
 -6.1137846420917130E-01 a       194     0    10     1    14
 -2.4113278191120513E-01 a       195     0    10     1    15
  5.7309444128844000E-01 a       196     0    10     1    16
  2.8792722576371943E-02 a       197     0    10     1    17
 -2.4640075543565156E-02 a       198     0    10     1    18
 -2.8269989112468630E-02 a       199     0    10     1    19
  4.1075227282340021E-01 a       200     0    10     1    20
 -1.4032571034542315E-01 a       201     0    11     1     1
  1.0926281966001251E-01 a       202     0    11     1     2
  3.8432206562653948E-01 a       203     0    11     1     3
  8.5258957779560801E-02 a       204     0    11     1     4
  2.4249158545384031E-01 a       205     0    11     1     5
 -1.8049231421372672E-01 a       206     0    11     1     6
 -5.5234461557557035E-01 a       207     0    11     1     7
 -1.9980554556828620E-01 a       208     0    11     1     8
 -1.0285042679649350E-01 a       209     0    11     1     9
  1.2468752826980216E-01 a       210     0    11     1    10
 -2.4554739080615609E-01 a       211     0    11     1    11
 -2.2874104790992156E-01 a       212     0    11     1    12
 -2.1478762622994871E-01 a       213     0    11     1    13
  1.7489171632827813E-01 a       214     0    11     1    14
 -2.0412097612702365E-01 a       215     0    11     1    15
 -4.2359030358595084E-01 a       216     0    11     1    16
 -2.2600088354447917E-01 a       217     0    11     1    17
 -8.1904170902386630E-01 a       218     0    11     1    18
 -6.6324300793973640E-02 a       219     0    11     1    19
 -2.4762780911242302E-01 a       220     0    11     1    20
 -3.4874854362549723E-01 a       221     0    12     1     1
  3.8882419207316116E-01 a       222     0    12     1     2
  2.6859062767460590E-01 a       223     0    12     1     3
 -8.8658552207923416E-03 a       224     0    12     1     4
  2.4775945764639645E-01 a       225     0    12     1     5
  3.5577648297925807E-01 a       226     0    12     1     6
  7.8162072039105010E-02 a       227     0    12     1     7
  2.0584951460131862E-01 a       228     0    12     1     8
 -4.2659834487424692E-01 a       229     0    12     1     9
  7.2733289683588109E-01 a       230     0    12     1    10
 -4.7121943086629792E-01 a       231     0    12     1    11
 -2.1921283429902069E-01 a       232     0    12     1    12
  2.4058534892550852E-02 a       233     0    12     1    13
  2.7543077156797208E-01 a       234     0    12     1    14
  4.6337495753096147E-01 a       235     0    12     1    15
 -4.2236743926928977E-01 a       236     0    12     1    16
  9.3485657582536116E-02 a       237     0    12     1    17
  1.0249873076925273E-01 a       238     0    12     1    18
 -5.2780262835088065E-01 a       239     0    12     1    19
  1.0071739869571424E-01 a       240     0    12     1    20
 -4.2191743296022999E-01 a       241     0    13     1     1
  5.1394804854711491E-02 a       242     0    13     1     2
  3.5910850332385291E-01 a       243     0    13     1     3
  6.1743062235059792E-02 a       244     0    13     1     4
 -1.7994844990677539E-01 a       245     0    13     1     5
 -1.0021645463936889E-01 a       246     0    13     1     6
  2.6655545750683007E-01 a       247     0    13     1     7
  1.9069273357129107E-01 a       248     0    13     1     8
 -6.6727698160575677E-01 a       249     0    13     1     9
  9.3254602104887608E-03 a       250     0    13     1    10
  5.0952530467258428E-01 a       251     0    13     1    11
  1.4605932042209716E-01 a       252     0    13     1    12
  1.1978132443633402E+00 a       253     0    13     1    13
  2.2042131396071685E-01 a       254     0    13     1    14
  1.0538525677262850E-02 a       255     0    13     1    15
 -3.4271854332428636E-01 a       256     0    13     1    16
 -2.4918676768828815E-01 a       257     0    13     1    17
  2.5191319621445962E-01 a       258     0    13     1    18
 -3.0085435125096216E-01 a       259     0    13     1    19
 -4.8057905842012599E-01 a       260     0    13     1    20
  1.7753627697646845E-01 a       261     0    14     1     1
 -1.1688723751388239E-01 a       262     0    14     1     2
  3.9818085655088897E-01 a       263     0    14     1     3
  1.1737091764320974E-01 a       264     0    14     1     4
 -5.8962344365896695E-02 a       265     0    14     1     5
  3.2577931017307010E-01 a       266     0    14     1     6
 -2.0872093644633516E-01 a       267     0    14     1     7
  3.0754513202466194E-02 a       268     0    14     1     8
  4.2492540733475753E-01 a       269     0    14     1     9
 -2.1473796366455113E-02 a       270     0    14     1    10
 -9.8855331298860455E-02 a       271     0    14     1    11
  4.7916511156938769E-02 a       272     0    14     1    12
 -1.1017308406423901E-01 a       273     0    14     1    13
 -3.0584612061841343E-01 a       274     0    14     1    14
 -3.8215070982779203E-01 a       275     0    14     1    15
 -1.7680688037072751E-02 a       276     0    14     1    16
 -2.3075420133317978E-01 a       277     0    14     1    17
  5.9124864658303168E-02 a       278     0    14     1    18
 -1.1510016178895185E-01 a       279     0    14     1    19
  2.5284831539791042E-02 a       280     0    14     1    20
  3.5177644013064069E-01 a       281     0    15     1     1
 -3.0439229169104676E-01 a       282     0    15     1     2
  1.8024853601383689E-01 a       283     0    15     1     3
  1.7502092807210365E-01 a       284     0    15     1     4
 -6.8779817710478575E-01 a       285     0    15     1     5
 -1.6806561311286322E-01 a       286     0    15     1     6
  4.1036329341962213E-01 a       287     0    15     1     7
 -7.3726471976532315E-02 a       288     0    15     1     8
  3.0028865188752940E-01 a       289     0    15     1     9
  1.1524049951479711E-02 a       290     0    15     1    10
 -2.4662987151896923E-01 a       291     0    15     1    11
 -2.4369960466380899E-01 a       292     0    15     1    12
 -4.5780165929918570E-01 a       293     0    15     1    13
 -7.4617646194070830E-01 a       294     0    15     1    14
 -2.0929577836690957E-01 a       295     0    15     1    15
 -8.6424647181143233E-02 a       296     0    15     1    16
  4.9110024323729479E-01 a       297     0    15     1    17
  1.1391765756795732E-02 a       298     0    15     1    18
 -3.2457940811014308E-01 a       299     0    15     1    19
  8.8531482341575574E-01 a       300     0    15     1    20
  1.3916636712632371E-01 a       301     0    16     1     1
  4.3738729943119548E-03 a       302     0    16     1     2
 -4.8196663689905911E-02 a       303     0    16     1     3
 -5.4055915801181846E-02 a       304     0    16     1     4
  1.6459491639820928E-01 a       305     0    16     1     5
 -3.6986111539227601E-01 a       306     0    16     1     6
  2.3080548764768786E-02 a       307     0    16     1     7
  1.6402614379917915E-01 a       308     0    16     1     8
 -1.4631434451594538E-01 a       309     0    16     1     9
  1.8576249711907855E-01 a       310     0    16     1    10
 -6.6537993389573918E-02 a       311     0    16     1    11
 -2.1560134858014565E-01 a       312     0    16     1    12
 -4.1820205914247663E-02 a       313     0    16     1    13
  2.1241952403780934E-02 a       314     0    16     1    14
  3.4341501088452397E-01 a       315     0    16     1    15
 -3.0755735287077209E-02 a       316     0    16     1    16
  1.5555309591627900E-01 a       317     0    16     1    17
  1.3787001410087363E-01 a       318     0    16     1    18
  1.2202087452635456E-01 a       319     0    16     1    19
  1.6083165054060455E-01 a       320     0    16     1    20
 -8.3984255132197716E-01 a       321     0    17     1     1
 -8.4857489686963727E-03 a       322     0    17     1     2
 -1.3882633764597041E-01 a       323     0    17     1     3
 -1.1761228509689872E-01 a       324     0    17     1     4
 -9.9661614683588237E-02 a       325     0    17     1     5
  1.3305708615492812E-01 a       326     0    17     1     6
  4.0171187218707588E-01 a       327     0    17     1     7
 -1.2877887845786432E-01 a       328     0    17     1     8
 -9.8780585135001611E-03 a       329     0    17     1     9
 -1.6721655774150007E-01 a       330     0    17     1    10
  4.0430648208839692E-01 a       331     0    17     1    11
  6.2568023794818795E-01 a       332     0    17     1    12
  1.6169922923234586E-01 a       333     0    17     1    13
 -6.8955561052881476E-02 a       334     0    17     1    14
 -5.3754319413089224E-01 a       335     0    17     1    15
  4.4893080094946258E-01 a       336     0    17     1    16
 -2.2254495887257228E-01 a       337     0    17     1    17
  3.8451197454289288E-01 a       338     0    17     1    18
 -1.1495895833092141E-02 a       339     0    17     1    19
 -7.4411004616744353E-02 a       340     0    17     1    20
  3.2178014069183747E-01 a       341     0    18     1     1
  7.4433835665915549E-02 a       342     0    18     1     2
  7.9226358206552615E-03 a       343     0    18     1     3
  1.8728926174144910E-02 a       344     0    18     1     4
  2.8517034332100746E-02 a       345     0    18     1     5
 -3.7610506326772369E-01 a       346     0    18     1     6
 -6.8183076373973597E-02 a       347     0    18     1     7
  1.5471953616871997E-01 a       348     0    18     1     8
 -2.1276134701722845E-02 a       349     0    18     1     9
  1.5836041983130714E-01 a       350     0    18     1    10
 -1.7188785214293853E-01 a       351     0    18     1    11
 -1.9444180039734435E-01 a       352     0    18     1    12
  7.2257644484537101E-02 a       353     0    18     1    13
  1.2704686680859326E-01 a       354     0    18     1    14
  1.1838344627993620E-01 a       355     0    18     1    15
 -1.1914212463247699E-01 a       356     0    18     1    16
  9.7189559594804770E-02 a       357     0    18     1    17
  2.6279286540602437E-02 a       358     0    18     1    18
 -3.2964060626060547E-02 a       359     0    18     1    19
  3.1575154279255474E-02 a       360     0    18     1    20
  2.6425602198210607E-01 a       361     0    19     1     1
 -5.2461449509413649E-01 a       362     0    19     1     2
  5.7192691804523466E-01 a       363     0    19     1     3
  2.0931211331556684E-01 a       364     0    19     1     4
 -5.9049276172087231E-02 a       365     0    19     1     5
  4.2867106455094456E-01 a       366     0    19     1     6
  2.8292843893315567E-01 a       367     0    19     1     7
 -1.8894752770377065E-02 a       368     0    19     1     8
 -3.0845562170715313E-01 a       369     0    19     1     9
  2.3904237912895671E-01 a       370     0    19     1    10
 -3.6326763476663769E-02 a       371     0    19     1    11
 -8.4402468306937195E-01 a       372     0    19     1    12
  5.1679300179208174E-02 a       373     0    19     1    13
  2.3054688098141765E-01 a       374     0    19     1    14
  1.5643809078585924E-01 a       375     0    19     1    15
 -2.4497342403987235E-01 a       376     0    19     1    16
  2.1931979192693812E-01 a       377     0    19     1    17
 -7.1275286540346552E-02 a       378     0    19     1    18
 -7.9671725814423236E-02 a       379     0    19     1    19
 -4.6827988977021057E-01 a       380     0    19     1    20
  1.0913640144119163E-01 a       381     0    20     1     1
 -3.5408693009451882E-02 a       382     0    20     1     2
 -1.9570851598561217E-01 a       383     0    20     1     3
  1.5122680017119297E-02 a       384     0    20     1     4
 -1.8486993517092690E-01 a       385     0    20     1     5
  6.9836542149396136E-02 a       386     0    20     1     6
 -4.1784835733030545E-02 a       387     0    20     1     7
 -1.4653726011024373E-01 a       388     0    20     1     8
  2.5630254375586231E-01 a       389     0    20     1     9
 -1.0497660729974072E-01 a       390     0    20     1    10
  9.4322906937854487E-02 a       391     0    20     1    11
 -1.3687466468686408E-02 a       392     0    20     1    12
  1.1435622701314374E-01 a       393     0    20     1    13
 -2.1618969623838388E-01 a       394     0    20     1    14
  2.0563654288026198E-01 a       395     0    20     1    15
  1.0019937557127628E-01 a       396     0    20     1    16
 -1.1003794439270408E-01 a       397     0    20     1    17
 -6.2321538939965768E-02 a       398     0    20     1    18
 -1.7640926533636803E-01 a       399     0    20     1    19
 -7.1677509925153204E-02 a       400     0    20     1    20
  8.9286567123286364E-01 a       401     0    21     1     1
 -1.7875980981331896E-01 a       402     0    21     1     2
 -8.1977692335868463E-02 a       403     0    21     1     3
  2.7473515164896959E-03 a       404     0    21     1     4
  1.0300356166998161E-01 a       405     0    21     1     5
  5.3864455058808569E-01 a       406     0    21     1     6
 -4.2599790128541315E-01 a       407     0    21     1     7
 -1.8043823953570146E-01 a       408     0    21     1     8
  1.3198564599424858E-01 a       409     0    21     1     9
 -1.3273492984316215E-02 a       410     0    21     1    10
 -7.4019830814061727E-01 a       411     0    21     1    11
 -8.1340844434663190E-02 a       412     0    21     1    12
 -3.1325744725046578E-01 a       413     0    21     1    13
  5.3708771619153765E-02 a       414     0    21     1    14
  4.7258567963355486E-01 a       415     0    21     1    15
 -2.6795820113462510E-01 a       416     0    21     1    16
  9.4197234718658901E-02 a       417     0    21     1    17
 -1.2496974897754887E-01 a       418     0    21     1    18
  3.3465622621649857E-02 a       419     0    21     1    19
  3.0927585412504949E-01 a       420     0    21     1    20
 -2.8282058494966389E-01 a       421     0    22     1     1
  2.4269265742726720E-01 a       422     0    22     1     2
 -2.7618343637418047E-01 a       423     0    22     1     3
 -1.9750285066518916E-01 a       424     0    22     1     4
  3.1356712684490445E-01 a       425     0    22     1     5
 -1.8627920569816100E-01 a       426     0    22     1     6
  1.9319511333159298E-01 a       427     0    22     1     7
  2.7758363309929179E-01 a       428     0    22     1     8
  8.5091109274716858E-02 a       429     0    22     1     9
  2.8179469603674651E-01 a       430     0    22     1    10
 -5.3506421803795621E-03 a       431     0    22     1    11
  3.6362791073224765E-02 a       432     0    22     1    12
  5.2081415670311515E-01 a       433     0    22     1    13
 -1.6880809299136312E-01 a       434     0    22     1    14
 -6.4785548138900484E-01 a       435     0    22     1    15
 -1.9451765177939598E-01 a       436     0    22     1    16
 -4.0669558523857258E-01 a       437     0    22     1    17
 -7.2800225841702620E-02 a       438     0    22     1    18
 -8.6332121702510672E-02 a       439     0    22     1    19
  2.1141547904209637E-01 a       440     0    22     1    20
  1.0725310850162013E+00 a       441     0    23     1     1
 -2.7460949630296622E-01 a       442     0    23     1     2
  4.9019521014075162E-01 a       443     0    23     1     3
 -1.8854299934087251E-01 a       444     0    23     1     4
 -4.0279336523564901E-01 a       445     0    23     1     5
  1.1463887284584263E-01 a       446     0    23     1     6
 -3.2913140884407449E-01 a       447     0    23     1     7
 -8.0288777427566860E-04 a       448     0    23     1     8
  1.3496937708318693E-01 a       449     0    23     1     9
  5.1811801104711459E-02 a       450     0    23     1    10
 -3.9241740506119678E-02 a       451     0    23     1    11
 -1.0980752959907780E-01 a       452     0    23     1    12
  6.5637940217372370E-01 a       453     0    23     1    13
  3.5198873982207540E-01 a       454     0    23     1    14
 -4.7210664799544291E-02 a       455     0    23     1    15
 -5.7904386951237297E-01 a       456     0    23     1    16
  1.9929342292554794E-01 a       457     0    23     1    17
 -3.7073703105337330E-01 a       458     0    23     1    18
 -2.6355902592741548E-01 a       459     0    23     1    19
  4.7204964703127683E-01 a       460     0    23     1    20
 -6.3072813141634598E-01 a       461     0    24     1     1
  1.9207583710347451E-01 a       462     0    24     1     2
  2.6613363524231659E-01 a       463     0    24     1     3
 -4.3161675561480116E-02 a       464     0    24     1     4
  3.6652377630281113E-01 a       465     0    24     1     5
 -3.9380420986997072E-01 a       466     0    24     1     6
  6.6368802997046916E-01 a       467     0    24     1     7
 -2.3500383903997668E-01 a       468     0    24     1     8
  4.8521202658990736E-01 a       469     0    24     1     9
  1.0580445980085190E-01 a       470     0    24     1    10
 -2.0909053276198358E-01 a       471     0    24     1    11
 -1.5790786989228617E-01 a       472     0    24     1    12
  6.1114675732143475E-01 a       473     0    24     1    13
  2.5968562081999630E-01 a       474     0    24     1    14
  3.6453882698601381E-01 a       475     0    24     1    15
  2.5723893226794153E-01 a       476     0    24     1    16
  7.9309646451695387E-02 a       477     0    24     1    17
 -1.7947930899605874E-01 a       478     0    24     1    18
  3.6129806326701353E-01 a       479     0    24     1    19
 -6.8285862733049457E-02 a       480     0    24     1    20
 -9.2894335343655779E-02 a       481     0    25     1     1
  8.9292602915667929E-02 a       482     0    25     1     2
 -3.7239400679194284E-01 a       483     0    25     1     3
 -2.8499706011891238E-02 a       484     0    25     1     4
 -3.6354551825332876E-01 a       485     0    25     1     5
 -3.9914145111156013E-01 a       486     0    25     1     6
 -1.1917927081559242E-01 a       487     0    25     1     7
  1.6178327791707930E-01 a       488     0    25     1     8
 -2.1390566485053925E-01 a       489     0    25     1     9
 -1.1760815603131433E-02 a       490     0    25     1    10
  1.3289126331178036E-01 a       491     0    25     1    11
 -1.0555571194743148E-01 a       492     0    25     1    12
  2.7485709230664834E-01 a       493     0    25     1    13
 -2.3245690783301021E-01 a       494     0    25     1    14
  2.6274537296014217E-01 a       495     0    25     1    15
 -1.7847519274693532E-01 a       496     0    25     1    16
 -5.8413133908761250E-01 a       497     0    25     1    17
  8.9533760167214510E-02 a       498     0    25     1    18
 -1.3636432030159049E-02 a       499     0    25     1    19
  1.3446375060313909E-01 a       500     0    25     1    20
  5.5413220840742039E-01 a       501     0    26     1     1
 -1.6654090066405480E-01 a       502     0    26     1     2
 -3.9779186892889218E-01 a       503     0    26     1     3
  7.1062853110912427E-01 a       504     0    26     1     4
 -1.5156146331530876E-01 a       505     0    26     1     5
 -1.7565918699392724E-01 a       506     0    26     1     6
 -3.1902000913706645E-02 a       507     0    26     1     7
 -2.6376251884912510E-01 a       508     0    26     1     8
  6.4252507312284865E-02 a       509     0    26     1     9
 -5.4452768900534143E-01 a       510     0    26     1    10
  1.5208030035382769E-01 a       511     0    26     1    11
 -6.7112577479235391E-01 a       512     0    26     1    12
  1.8827372791187541E-01 a       513     0    26     1    13
 -3.3218669079456231E-01 a       514     0    26     1    14
 -1.8506001379186210E-01 a       515     0    26     1    15
 -5.2410250908479705E-03 a       516     0    26     1    16
 -2.2348109443435696E-01 a       517     0    26     1    17
  6.5504920826990287E-01 a       518     0    26     1    18
  6.7561873954266971E-01 a       519     0    26     1    19
  2.1673741002450198E-01 a       520     0    26     1    20
  3.6555045816797704E-01 a       521     0    27     1     1
 -1.9037947900173488E-01 a       522     0    27     1     2
 -5.6257734054741437E-01 a       523     0    27     1     3
 -6.2003169240532452E-01 a       524     0    27     1     4
  1.2961133874842776E-01 a       525     0    27     1     5
  4.8600578842806198E-02 a       526     0    27     1     6
  9.5223999668464132E-01 a       527     0    27     1     7
  7.8086843474577297E-02 a       528     0    27     1     8
 -6.2723838937661403E-01 a       529     0    27     1     9
 -8.1677276577613389E-01 a       530     0    27     1    10
  4.5706370426703902E-01 a       531     0    27     1    11
  1.1502424766798029E-01 a       532     0    27     1    12
 -8.4804510915142989E-02 a       533     0    27     1    13
 -1.0634041416841198E+00 a       534     0    27     1    14
 -6.8398570268381431E-01 a       535     0    27     1    15
 -1.7112566192831941E-01 a       536     0    27     1    16
  3.7984934479018528E-01 a       537     0    27     1    17
  1.4270644454985371E-01 a       538     0    27     1    18
 -1.0057091929238032E-01 a       539     0    27     1    19
 -7.4181219401053144E-01 a       540     0    27     1    20
 -2.6027890426567230E-01 a       541     0    28     1     1
  8.6844169521090309E-02 a       542     0    28     1     2
  5.8556103139684790E-01 a       543     0    28     1     3
 -1.2681177675331043E-01 a       544     0    28     1     4
 -1.5992682390751653E-01 a       545     0    28     1     5
  9.9196514323493509E-02 a       546     0    28     1     6
 -1.5422651658378350E-01 a       547     0    28     1     7
  7.1545178817291472E-02 a       548     0    28     1     8
 -5.8003594352559573E-01 a       549     0    28     1     9
  3.7435957941411752E-01 a       550     0    28     1    10
 -2.0890772523823095E-01 a       551     0    28     1    11
  3.6075181046670429E-01 a       552     0    28     1    12
 -3.6565501166866715E-01 a       553     0    28     1    13
  6.0062464769826207E-01 a       554     0    28     1    14
 -3.4054996437038459E-01 a       555     0    28     1    15
  1.9318659991834744E-01 a       556     0    28     1    16
  4.4909976850141164E-01 a       557     0    28     1    17
 -1.4129232830956626E-01 a       558     0    28     1    18
  1.8298699824401399E-01 a       559     0    28     1    19
  1.7396722570014270E-01 a       560     0    28     1    20
 -2.1696130419437393E-01 a       561     0    29     1     1
  3.0553691035536140E-01 a       562     0    29     1     2
 -2.5897867402399827E-01 a       563     0    29     1     3
  4.3508320658512395E-01 a       564     0    29     1     4
  7.0161748611270336E-02 a       565     0    29     1     5
 -5.8209308171637490E-02 a       566     0    29     1     6
  4.1572567554877127E-01 a       567     0    29     1     7
 -1.8525226484676208E-01 a       568     0    29     1     8
  1.0207418916781482E-02 a       569     0    29     1     9
 -2.4654072674542812E-01 a       570     0    29     1    10
  3.3845266783001449E-01 a       571     0    29     1    11
  4.9837940048195617E-01 a       572     0    29     1    12
  2.9981843470355390E-01 a       573     0    29     1    13
  1.3270649667433573E-01 a       574     0    29     1    14
  2.2753276123466934E-01 a       575     0    29     1    15
  4.2301986611413617E-01 a       576     0    29     1    16
 -3.6156293482070312E-01 a       577     0    29     1    17
  6.4599521463662413E-01 a       578     0    29     1    18
 -4.2397663452342299E-01 a       579     0    29     1    19
  4.5186171111896573E-02 a       580     0    29     1    20
 -3.5924294942528534E-01 a       581     0    30     1     1
  8.2069142610880094E-02 a       582     0    30     1     2
 -1.3572122763025693E-01 a       583     0    30     1     3
  9.8023778766731323E-02 a       584     0    30     1     4
  1.1762378459323761E-01 a       585     0    30     1     5
 -1.7843023472413014E-02 a       586     0    30     1     6
 -2.4725656284361533E-01 a       587     0    30     1     7
 -4.0479137905689455E-01 a       588     0    30     1     8
 -7.3590430323388481E-02 a       589     0    30     1     9
 -5.2588998926092229E-02 a       590     0    30     1    10
  3.6489083976281478E-01 a       591     0    30     1    11
  3.1191414256822692E-01 a       592     0    30     1    12
 -2.7232939827546931E-01 a       593     0    30     1    13
  2.6578947679167608E-01 a       594     0    30     1    14
  2.5182617213215663E-01 a       595     0    30     1    15
  9.0992068869971868E-02 a       596     0    30     1    16
  2.0113660310216847E-01 a       597     0    30     1    17
 -3.7444164853802092E-01 a       598     0    30     1    18
 -3.3572373053103816E-01 a       599     0    30     1    19
 -6.5971629854657343E-01 a       600     0    30     1    20
 -1.2971465756961227E+00 b       601     1     1
 -5.4496729831496737E-01 b       602     1     2
 -1.2776380335506894E+00 b       603     1     3
  1.3012995794498934E+00 b       604     1     4
 -1.4722136501794822E+00 b       605     1     5
 -1.3137078808299274E+00 b       606     1     6
 -9.1207507516657760E-01 b       607     1     7
 -2.3495668827275465E-01 b       608     1     8
 -1.7094150416502267E+00 b       609     1     9
  4.9018004132788312E-01 b       610     1    10
  2.0937852154347649E-02 b       611     1    11
  1.0512733201882518E+00 b       612     1    12
  4.7602306372226866E-01 b       613     1    13
 -8.4748655017101315E-01 b       614     1    14
 -1.6579981056359585E+00 b       615     1    15
  1.5667672982828570E-01 b       616     1    16
 -7.6041574154012592E-01 b       617     1    17
 -1.0965141068151598E+00 b       618     1    18
 -7.6725151383661416E-01 b       619     1    19
 -1.0847866332168534E+00 b       620     1    20
 -3.8296800652460977E-01 a       621     1     1     2     1
 -4.4138766587738343E-01 a       622     1     1     2     2
 -4.4629247301388042E-01 a       623     1     1     2     3
 -7.2343201215350217E-01 a       624     1     1     2     4
 -1.9114649685663671E-01 a       625     1     1     2     5
 -5.2673735029587521E-01 a       626     1     1     2     6
 -5.6084710979232866E-01 a       627     1     1     2     7
  2.3451071954841213E-01 a       628     1     1     2     8
  1.7981901264408545E-01 a       629     1     1     2     9
  2.2394846529717427E-01 a       630     1     1     2    10
 -2.2393126334761768E-01 a       631     1     1     2    11
 -4.7716932159083220E-01 a       632     1     1     2    12
 -7.5633305857913113E-01 a       633     1     1     2    13
 -6.6065154465420906E-01 a       634     1     1     2    14
 -9.7876664718399689E-02 a       635     1     1     2    15
 -7.2333533072757833E-02 a       636     1     1     2    16
 -6.5199737606480357E-01 a       637     1     1     2    17
 -1.9668848154311391E-01 a       638     1     1     2    18
 -5.4966369205238252E-01 a       639     1     1     2    19
  3.5017510771517446E-01 a       640     1     1     2    20
 -6.0921472807065880E-01 a       641     1     2     2     1
 -2.0356887828417872E-01 a       642     1     2     2     2
 -1.7858288946638745E-01 a       643     1     2     2     3
  4.2984838217447868E-01 a       644     1     2     2     4
 -5.2181320281817212E-01 a       645     1     2     2     5
 -1.6817897529043171E-01 a       646     1     2     2     6
 -4.2803729722342382E-01 a       647     1     2     2     7
  3.8608500080575853E-01 a       648     1     2     2     8
 -5.6244178586998250E-01 a       649     1     2     2     9
  1.4358957868238723E-02 a       650     1     2     2    10
 -5.7526216369274033E-02 a       651     1     2     2    11
 -6.1447831594220514E-01 a       652     1     2     2    12
 -5.3991585207661985E-01 a       653     1     2     2    13
 -3.9950691638689234E-01 a       654     1     2     2    14
  2.9744711436174903E-01 a       655     1     2     2    15
  2.3262329789705544E-01 a       656     1     2     2    16
 -7.0379164169408559E-01 a       657     1     2     2    17
  4.4213239448316677E-01 a       658     1     2     2    18
 -5.8675460779434863E-01 a       659     1     2     2    19
 -5.7777056781896574E-01 a       660     1     2     2    20
  3.0639295361153462E-01 a       661     1     3     2     1
 -6.5576946007532644E-01 a       662     1     3     2     2
 -3.4994473123327691E-01 a       663     1     3     2     3
 -3.8062135821682924E-01 a       664     1     3     2     4
 -2.5477591044752823E-01 a       665     1     3     2     5
  2.3382876772144320E-01 a       666     1     3     2     6
  6.1065331703515607E-02 a       667     1     3     2     7
 -4.6751226387150896E-01 a       668     1     3     2     8
 -2.7964674400799938E-01 a       669     1     3     2     9
  2.8124617322072887E-01 a       670     1     3     2    10
  2.0396941228721338E-01 a       671     1     3     2    11
  1.3179456661909214E-01 a       672     1     3     2    12
 -5.1160701466407810E-01 a       673     1     3     2    13
  4.1793633107434924E-01 a       674     1     3     2    14
  7.9939090966989174E-02 a       675     1     3     2    15
 -2.7795009692095118E-01 a       676     1     3     2    16
 -6.0643808145380940E-01 a       677     1     3     2    17
 -3.2807215549945196E-01 a       678     1     3     2    18
 -4.8052392489789880E-01 a       679     1     3     2    19
 -4.6635692952526020E-01 a       680     1     3     2    20
 -4.4816489457848901E-01 a       681     1     4     2     1
 -1.9311019142978663E-03 a       682     1     4     2     2
 -6.0608147764135967E-01 a       683     1     4     2     3
  7.1588404467884184E-02 a       684     1     4     2     4
  7.5402253434626421E-02 a       685     1     4     2     5
  6.0266993468318952E-01 a       686     1     4     2     6
  5.2680391380564506E-01 a       687     1     4     2     7
  1.3714670180241978E-01 a       688     1     4     2     8
  5.0349117573105617E-01 a       689     1     4     2     9
  8.2334254414300992E-02 a       690     1     4     2    10
  2.5969490589128025E-01 a       691     1     4     2    11
  7.1191226310417979E-02 a       692     1     4     2    12
  3.0073005695048766E-01 a       693     1     4     2    13
 -4.9385860081321464E-01 a       694     1     4     2    14
  4.2617282414981522E-01 a       695     1     4     2    15
  2.2665037581774475E-01 a       696     1     4     2    16
  3.9018471680345113E-01 a       697     1     4     2    17
 -2.1000364196178828E-01 a       698     1     4     2    18
  3.0714786372614739E-01 a       699     1     4     2    19
 -2.3340640262048015E-01 a       700     1     4     2    20
 -1.6100122639658121E-01 a       701     1     5     2     1
  6.5742965319315616E-01 a       702     1     5     2     2
 -6.1652099431387486E-01 a       703     1     5     2     3
 -3.0312865801882849E-01 a       704     1     5     2     4
  4.2846090971844678E-02 a       705     1     5     2     5
  1.6381956014844645E-01 a       706     1     5     2     6
  3.7699656597419567E-01 a       707     1     5     2     7
 -6.8912012160094893E-01 a       708     1     5     2     8
 -5.2559423056358678E-01 a       709     1     5     2     9
  1.6357480080745791E-04 a       710     1     5     2    10
 -3.4259635027613067E-01 a       711     1     5     2    11
  3.5962642467197709E-01 a       712     1     5     2    12
  3.2274508033901061E-01 a       713     1     5     2    13
  6.4526203309545704E-01 a       714     1     5     2    14
 -3.5727616239253324E-01 a       715     1     5     2    15
 -3.5618593913461055E-01 a       716     1     5     2    16
 -4.8959125917429308E-01 a       717     1     5     2    17
 -6.8112947319731298E-01 a       718     1     5     2    18
  1.2365228992035290E-01 a       719     1     5     2    19
  5.8593175029118494E-01 a       720     1     5     2    20
 -3.1058886755572679E-01 a       721     1     6     2     1
  1.0837962056705959E-01 a       722     1     6     2     2
  1.9422676695722074E-01 a       723     1     6     2     3
 -4.4884426658848797E-01 a       724     1     6     2     4
  4.9426474491565958E-01 a       725     1     6     2     5
  7.9670927760505605E-02 a       726     1     6     2     6
 -3.1878613102473213E-01 a       727     1     6     2     7
 -4.0322435531011358E-01 a       728     1     6     2     8
 -1.7022950643108048E-01 a       729     1     6     2     9
  5.1684497786040151E-01 a       730     1     6     2    10
 -7.5418866037033505E-01 a       731     1     6     2    11
 -1.3320032629799278E-01 a       732     1     6     2    12
  1.9468879251086507E-01 a       733     1     6     2    13
 -2.4316598055008057E-01 a       734     1     6     2    14
 -5.9944370581775086E-01 a       735     1     6     2    15
 -4.1570195609669636E-01 a       736     1     6     2    16
 -8.4508913483250203E-01 a       737     1     6     2    17
 -4.9207594292319123E-01 a       738     1     6     2    18
  8.8476327015646287E-03 a       739     1     6     2    19
 -4.7756233863594488E-01 a       740     1     6     2    20
 -1.0750106437635665E+00 a       741     1     7     2     1
 -7.1177606305722629E-01 a       742     1     7     2     2
 -1.6869886508457856E-02 a       743     1     7     2     3
  2.0610955384351401E-01 a       744     1     7     2     4
 -2.3384137497054100E-01 a       745     1     7     2     5
 -5.6338297211504829E-01 a       746     1     7     2     6
  3.6366991038849890E-02 a       747     1     7     2     7
  1.9633572518388234E-01 a       748     1     7     2     8
 -5.5189970418473788E-01 a       749     1     7     2     9
 -6.5451289878158558E-01 a       750     1     7     2    10
 -1.8745372075708505E-01 a       751     1     7     2    11
 -1.1945956180639228E+00 a       752     1     7     2    12
 -6.5651150802064262E-01 a       753     1     7     2    13
 -3.3100165739276777E-01 a       754     1     7     2    14
 -5.8911837515461007E-01 a       755     1     7     2    15
  1.4718005121706823E-01 a       756     1     7     2    16
 -3.8998055682184807E-01 a       757     1     7     2    17
 -4.0119910205631670E-01 a       758     1     7     2    18
 -7.5007164587448927E-01 a       759     1     7     2    19
  4.5454274541834261E-01 a       760     1     7     2    20
 -4.8127868028176074E-01 a       761     1     8     2     1
  3.4094657720717553E-01 a       762     1     8     2     2
  3.4641501233273397E-01 a       763     1     8     2     3
 -1.2531975752539118E-01 a       764     1     8     2     4
  3.6905927496632296E-01 a       765     1     8     2     5
 -6.3148145534692934E-01 a       766     1     8     2     6
  4.6648931586804093E-01 a       767     1     8     2     7
 -2.0774645972717040E-02 a       768     1     8     2     8
 -7.3992996963774288E-02 a       769     1     8     2     9
  1.9250732653505168E-01 a       770     1     8     2    10
 -2.9277168152418753E-01 a       771     1     8     2    11
  1.6377796672013287E-01 a       772     1     8     2    12
 -5.7028803225082336E-01 a       773     1     8     2    13
  3.7914613136521484E-03 a       774     1     8     2    14
 -2.3401608458398382E-01 a       775     1     8     2    15
  4.5846589187326292E-01 a       776     1     8     2    16
  1.7496982662652406E-03 a       777     1     8     2    17
 -8.8118814375400846E-03 a       778     1     8     2    18
 -4.2859050162723289E-02 a       779     1     8     2    19
 -2.3468383579306443E-01 a       780     1     8     2    20
  3.3612892041598408E-01 a       781     1     9     2     1
 -3.9797899040487794E-01 a       782     1     9     2     2
 -4.6890462951714024E-01 a       783     1     9     2     3
  1.7693669037358425E-01 a       784     1     9     2     4
  3.4542553046219521E-01 a       785     1     9     2     5
 -4.0270693942054003E-01 a       786     1     9     2     6
  1.0713946524843065E-01 a       787     1     9     2     7
 -5.5186187906069084E-01 a       788     1     9     2     8
 -9.6471838776448327E-02 a       789     1     9     2     9
  4.4610184793454150E-01 a       790     1     9     2    10
  2.9077948794406105E-01 a       791     1     9     2    11
  2.8144054674705254E-01 a       792     1     9     2    12
 -5.2359979252542221E-01 a       793     1     9     2    13
  6.2689252782631844E-01 a       794     1     9     2    14
 -2.2856446179524087E-01 a       795     1     9     2    15
 -7.1643199502095090E-01 a       796     1     9     2    16
 -3.3956205246216720E-01 a       797     1     9     2    17
 -4.1658262338183305E-01 a       798     1     9     2    18
 -3.1165757278460438E-01 a       799     1     9     2    19
 -4.1898775658858717E-01 a       800     1     9     2    20
  4.1327261484367817E-01 a       801     1    10     2     1
 -3.3064667757017624E-01 a       802     1    10     2     2
 -8.5076966355180461E-01 a       803     1    10     2     3
 -1.0831304818067843E-01 a       804     1    10     2     4
 -5.3011019895443690E-01 a       805     1    10     2     5
  3.8433548271518259E-01 a       806     1    10     2     6
 -1.3945978016881977E-01 a       807     1    10     2     7
 -4.0252367621303592E-01 a       808     1    10     2     8
 -2.6130246965794363E-01 a       809     1    10     2     9
 -6.6871177188836872E-01 a       810     1    10     2    10
  2.7862806001737961E-01 a       811     1    10     2    11
 -1.7624942171667768E-01 a       812     1    10     2    12
  5.9470875120404210E-01 a       813     1    10     2    13
 -1.1306449329772097E-01 a       814     1    10     2    14
  3.3397580885187367E-01 a       815     1    10     2    15
  3.0827612663052356E-01 a       816     1    10     2    16
  2.6603256997974739E-01 a       817     1    10     2    17
 -7.1706793271704428E-01 a       818     1    10     2    18
  1.9534726556025023E-01 a       819     1    10     2    19
 -8.9404041218054800E-02 a       820     1    10     2    20
  2.2338839330065513E-01 a       821     1    11     2     1
 -4.8547080888266453E-01 a       822     1    11     2     2
 -4.8530556688026849E-01 a       823     1    11     2     3
 -3.0001323777473371E-01 a       824     1    11     2     4
  2.9288596414610496E-01 a       825     1    11     2     5
 -7.8472230471858570E-02 a       826     1    11     2     6
  1.3008379466553804E-01 a       827     1    11     2     7
  6.3644155756665144E-01 a       828     1    11     2     8
  1.6785642083739459E-03 a       829     1    11     2     9
  2.3464384032372754E-01 a       830     1    11     2    10
 -8.8665759198757776E-01 a       831     1    11     2    11
 -5.6507679759609727E-02 a       832     1    11     2    12
  1.1242186843224179E-01 a       833     1    11     2    13
 -4.5646097417489756E-01 a       834     1    11     2    14
 -2.0933653358410845E-01 a       835     1    11     2    15
  3.3699035410903067E-01 a       836     1    11     2    16
  3.4771516926672952E-01 a       837     1    11     2    17
 -1.5580799398113176E-01 a       838     1    11     2    18
 -3.7980987299897789E-01 a       839     1    11     2    19
 -2.2437226224458676E-01 a       840     1    11     2    20
 -4.6669225435862544E-01 a       841     1    12     2     1
 -2.3344312381994875E-01 a       842     1    12     2     2
 -6.4429131912805471E-01 a       843     1    12     2     3
 -3.1243486718133978E-01 a       844     1    12     2     4
 -7.2367722421258096E-01 a       845     1    12     2     5
 -2.6097678217047826E-01 a       846     1    12     2     6
  5.9347892368194899E-01 a       847     1    12     2     7
  6.1301695271034928E-01 a       848     1    12     2     8
 -2.3069594088831336E-01 a       849     1    12     2     9
 -9.7573186798000611E-01 a       850     1    12     2    10
  2.3373198628017033E-01 a       851     1    12     2    11
  1.1299859480438514E+00 a       852     1    12     2    12
 -2.3965706300457604E-01 a       853     1    12     2    13
  1.9875685757469785E-01 a       854     1    12     2    14
 -1.9760392069972507E-01 a       855     1    12     2    15
  3.8383166684462844E-01 a       856     1    12     2    16
  1.8969812207969197E-01 a       857     1    12     2    17
  2.2625013672837374E-01 a       858     1    12     2    18
 -2.8617038689352226E-01 a       859     1    12     2    19
  6.1424042525905531E-01 a       860     1    12     2    20
  3.5417057761454895E-01 a       861     1    13     2     1
  2.5058531706866973E-02 a       862     1    13     2     2
 -1.2358301813081941E-01 a       863     1    13     2     3
 -2.2915239320851141E-01 a       864     1    13     2     4
  9.6885471244550403E-01 a       865     1    13     2     5
  8.1927112303829386E-01 a       866     1    13     2     6
 -1.1302669818882234E-01 a       867     1    13     2     7
 -1.9427648843416573E-01 a       868     1    13     2     8
  6.9511705009583657E-01 a       869     1    13     2     9
 -2.6550506121069806E-01 a       870     1    13     2    10
  1.3309609046000176E-01 a       871     1    13     2    11
  1.1078028233334793E+00 a       872     1    13     2    12
  1.3532949981275863E-01 a       873     1    13     2    13
  4.2668104935518436E-01 a       874     1    13     2    14
  2.5254604810348004E-02 a       875     1    13     2    15
 -2.2660229830932740E-01 a       876     1    13     2    16
  1.4746324227791577E-01 a       877     1    13     2    17
  2.2363506148539980E-01 a       878     1    13     2    18
 -2.2511143722868943E-01 a       879     1    13     2    19
 -3.0833523737617302E-01 a       880     1    13     2    20
  2.7206616307667841E-01 a       881     1    14     2     1
 -1.9073917347474892E-01 a       882     1    14     2     2
 -7.8852065222853440E-03 a       883     1    14     2     3
 -1.6497589420536166E-01 a       884     1    14     2     4
  3.2528176150032639E-01 a       885     1    14     2     5
 -7.4443305385108383E-01 a       886     1    14     2     6
 -7.0169832620563621E-01 a       887     1    14     2     7
 -1.0269360093738454E-01 a       888     1    14     2     8
 -6.2932656958775268E-01 a       889     1    14     2     9
 -1.6933932522168738E-01 a       890     1    14     2    10
  2.7425269787014656E-01 a       891     1    14     2    11
 -7.6257793786091876E-01 a       892     1    14     2    12
  1.5255823773996746E-01 a       893     1    14     2    13
 -1.8444707632616517E-01 a       894     1    14     2    14
  5.7853773398000619E-01 a       895     1    14     2    15
 -1.9187527846422922E-01 a       896     1    14     2    16
  2.0664844142426952E-01 a       897     1    14     2    17
 -8.6452013166632680E-01 a       898     1    14     2    18
 -5.7631642146882889E-01 a       899     1    14     2    19
  1.0663382138724623E-02 a       900     1    14     2    20
 -3.4095673687220163E-01 a       901     1    15     2     1
 -2.6681879846508794E-01 a       902     1    15     2     2
 -7.5756324274552822E-01 a       903     1    15     2     3
  3.7172048403341935E-02 a       904     1    15     2     4
  5.4254274607599529E-01 a       905     1    15     2     5
  9.2164390856690231E-02 a       906     1    15     2     6
 -5.3228141575096610E-01 a       907     1    15     2     7
 -6.0179877169914098E-01 a       908     1    15     2     8
 -1.2263636028659454E-01 a       909     1    15     2     9
  4.2013263031359377E-01 a       910     1    15     2    10
  5.6417646671718114E-02 a       911     1    15     2    11
 -2.6046589097522683E-02 a       912     1    15     2    12
 -3.3614577175119936E-01 a       913     1    15     2    13
 -3.1360943811385544E-01 a       914     1    15     2    14
 -1.2036112544331887E-01 a       915     1    15     2    15
 -4.0126373870041127E-01 a       916     1    15     2    16
 -3.9018985685968471E-01 a       917     1    15     2    17
  4.4821783078600969E-01 a       918     1    15     2    18
 -1.3421254664082963E-01 a       919     1    15     2    19
 -6.0639924547663948E-01 a       920     1    15     2    20
 -7.4297848060251270E-01 a       921     1    16     2     1
 -5.6531175168720016E-01 a       922     1    16     2     2
  3.6183243621599631E-01 a       923     1    16     2     3
  3.6758834839391652E-01 a       924     1    16     2     4
  6.8396960241216401E-02 a       925     1    16     2     5
 -4.9635776808785320E-01 a       926     1    16     2     6
  1.9940197359868844E-01 a       927     1    16     2     7
 -4.6170222134852046E-01 a       928     1    16     2     8
  1.6287886514041150E-01 a       929     1    16     2     9
  2.4971384177309927E-01 a       930     1    16     2    10
  7.3668946082924713E-01 a       931     1    16     2    11
  3.7326819439840597E-01 a       932     1    16     2    12
  8.1343514996794175E-01 a       933     1    16     2    13
 -4.7431174914194552E-01 a       934     1    16     2    14
 -6.7877254885367522E-01 a       935     1    16     2    15
 -7.3363421685645680E-01 a       936     1    16     2    16
 -4.5755599648990525E-01 a       937     1    16     2    17
 -1.4321839911214701E-01 a       938     1    16     2    18
 -7.5319333405075939E-01 a       939     1    16     2    19
 -4.0850221333015568E-01 a       940     1    16     2    20
 -1.7847601751798964E-02 a       941     1    17     2     1
  8.1307157676717112E-01 a       942     1    17     2     2
  9.3774033187209144E-02 a       943     1    17     2     3
 -6.4277206184362345E-01 a       944     1    17     2     4
  8.1014018151366263E-01 a       945     1    17     2     5
 -2.2724711801739181E-01 a       946     1    17     2     6
 -1.0827910154399167E-01 a       947     1    17     2     7
 -5.2385201473563758E-01 a       948     1    17     2     8
  2.8332274802071250E-01 a       949     1    17     2     9
 -6.7949055100671985E-01 a       950     1    17     2    10
 -8.2896025040420956E-02 a       951     1    17     2    11
  9.5932197621205739E-01 a       952     1    17     2    12
 -2.0345613877710964E-01 a       953     1    17     2    13
  1.9049219500873987E-02 a       954     1    17     2    14
 -4.6623214667093560E-01 a       955     1    17     2    15
  2.8815517369623256E-01 a       956     1    17     2    16
 -1.0788076653956070E-01 a       957     1    17     2    17
 -4.0123608457496751E-01 a       958     1    17     2    18
 -1.3122590373464249E-01 a       959     1    17     2    19
  1.2785665354810571E-01 a       960     1    17     2    20
 -6.1801074962792345E-03 a       961     1    18     2     1
  4.5024883354380330E-01 a       962     1    18     2     2
 -1.6970649270541036E-01 a       963     1    18     2     3
  7.4465463466333093E-02 a       964     1    18     2     4
  3.9525321252778906E-01 a       965     1    18     2     5
  3.5713104509481713E-01 a       966     1    18     2     6
  2.9646645062028559E-01 a       967     1    18     2     7
 -3.2770631839843817E-01 a       968     1    18     2     8
 -1.1198824168637347E-01 a       969     1    18     2     9
  3.6055327373104606E-01 a       970     1    18     2    10
 -6.3014777189501114E-01 a       971     1    18     2    11
  9.2528312036375404E-01 a       972     1    18     2    12
  3.8732799802560203E-01 a       973     1    18     2    13
 -2.2356823914368851E-01 a       974     1    18     2    14
  9.1960116318104430E-03 a       975     1    18     2    15
 -5.0992005051616651E-01 a       976     1    18     2    16
  3.7421651211321388E-01 a       977     1    18     2    17
  2.5598814258372654E-01 a       978     1    18     2    18
 -5.7208753363275500E-01 a       979     1    18     2    19
  5.1221425394602860E-01 a       980     1    18     2    20
 -2.3540563222306723E-01 a       981     1    19     2     1
 -1.9678916721747017E-01 a       982     1    19     2     2
  1.2139489902705419E-01 a       983     1    19     2     3
  2.2759052024743071E-01 a       984     1    19     2     4
 -1.7252327884060916E-02 a       985     1    19     2     5
 -5.5795232028094621E-01 a       986     1    19     2     6
  3.6908917371096822E-01 a       987     1    19     2     7
  1.2725683952330125E-01 a       988     1    19     2     8
 -6.8798768620289308E-01 a       989     1    19     2     9
 -2.6230110337676477E-01 a       990     1    19     2    10
  4.5184443355576936E-01 a       991     1    19     2    11
 -1.4203827580058856E-01 a       992     1    19     2    12
  3.4846285175173825E-01 a       993     1    19     2    13
  4.1223587675446666E-01 a       994     1    19     2    14
  3.7075698870451440E-01 a       995     1    19     2    15
  2.1610548523770851E-01 a       996     1    19     2    16
  1.3693524458239612E-01 a       997     1    19     2    17
  2.9055799233596008E-01 a       998     1    19     2    18
 -6.4786549223088286E-01 a       999     1    19     2    19
 -3.7668634739598993E-02 a      1000     1    19     2    20
 -2.5608691789916743E-01 a      1001     1    20     2     1
  2.4737837789576864E-01 a      1002     1    20     2     2
 -1.4026684179198309E-01 a      1003     1    20     2     3
 -4.7250886427141597E-01 a      1004     1    20     2     4
  3.8125244147880560E-01 a      1005     1    20     2     5
 -3.6978486776720260E-01 a      1006     1    20     2     6
 -6.9795783865985184E-01 a      1007     1    20     2     7
  8.8119206683124340E-01 a      1008     1    20     2     8
 -6.5208411849796388E-01 a      1009     1    20     2     9
  6.1759224938697643E-01 a      1010     1    20     2    10
 -3.8751953389869981E-01 a      1011     1    20     2    11
  1.9907415741447179E-01 a      1012     1    20     2    12
  3.0315385776407772E-01 a      1013     1    20     2    13
 -1.4904222598860928E-02 a      1014     1    20     2    14
 -5.8246798499511898E-01 a      1015     1    20     2    15
 -2.9648666819762720E-01 a      1016     1    20     2    16
  6.4626574660869007E-01 a      1017     1    20     2    17
 -2.5120499348708186E-01 a      1018     1    20     2    18
 -3.4740099095179461E-01 a      1019     1    20     2    19
 -3.2361180487616825E-01 a      1020     1    20     2    20
  1.4021816011095429E+00 b      1021     2     1
 -1.7936362071863317E+00 b      1022     2     2
  1.2618194391636370E-01 b      1023     2     3
 -1.5491868425440734E+00 b      1024     2     4
 -7.1003065470242599E-01 b      1025     2     5
  1.2735765076509376E+00 b      1026     2     6
  5.5124243230651393E-01 b      1027     2     7
  3.7247305891439936E-01 b      1028     2     8
  5.9544197658687703E-01 b      1029     2     9
  4.7528401461957337E-01 b      1030     2    10
  6.0935235396459131E-01 b      1031     2    11
 -5.0253233564588784E-01 b      1032     2    12
  1.2816877689497073E+00 b      1033     2    13
  1.7067649827191909E+00 b      1034     2    14
 -1.5861243471325694E+00 b      1035     2    15
  8.1061503677157132E-01 b      1036     2    16
 -5.2881562564909046E-01 b      1037     2    17
  6.0164256489044210E-01 b      1038     2    18
 -4.7750504641462044E-01 b      1039     2    19
  1.1709898915407992E+00 b      1040     2    20
  7.0648094637051340E-01 a      1041     2     1     3     1
 -6.9398476237606654E-01 a      1042     2     2     3     1
  2.4318969686558486E-01 a      1043     2     3     3     1
 -4.4830681859462285E-01 a      1044     2     4     3     1
 -1.7159039584003055E+00 a      1045     2     5     3     1
  8.4247037017472448E-01 a      1046     2     6     3     1
  5.9682270813803362E-01 a      1047     2     7     3     1
  1.5109429599465725E+00 a      1048     2     8     3     1
  7.2129304162686414E-01 a      1049     2     9     3     1
 -6.9793957000411100E-01 a      1050     2    10     3     1
  5.3984554716653177E-01 a      1051     2    11     3     1
 -3.5839153176184813E-01 a      1052     2    12     3     1
  8.0486925327217018E-01 a      1053     2    13     3     1
  5.5282325762970719E-01 a      1054     2    14     3     1
 -9.9123078801834907E-02 a      1055     2    15     3     1
  1.3382272889475006E+00 a      1056     2    16     3     1
  6.5999010330084451E-01 a      1057     2    17     3     1
  8.4911946834057273E-01 a      1058     2    18     3     1
  2.7264606995617574E-01 a      1059     2    19     3     1
  1.2857406798877484E+00 a      1060     2    20     3     1
  1.3565030444125989E-01 b      1061     3     1
