     -0.7585054632
      3.7989526664
     -2.8116005929
      0.9604599007
      1.2909409662
      0.0259162783
     -0.8564072678
      0.8484974515
     -0.8387029205
      1.3382144082
     -0.4428979956
     -4.7254069969
      0.1470637208
     -1.6635299826
      1.8304214713
     -0.7479133007
      0.8053112885
     -1.1463902796
      1.6725529229
      1.6920687922
     -0.5444750498
      1.4832471506
     -0.0159574577
     -1.6887052271
     -0.5568351174
     -0.8714713548
      1.7950453750
     -0.5868359040
      1.4070731828
      0.9949787334
     -0.5528249924
     -0.0673506315
      1.0293888040
     -0.4608414140
      0.4928300445
     -1.5347865587
     -1.1634778214
     -0.7938734187
     -0.4796332671
      0.8037235509
     -0.6032514299
      0.8122962893
     -0.8517840493
      0.7724590506
      0.6499403391
     -0.3336868356
      1.0878915410
      1.0109766849
     -2.1582985022
     -1.8403470193
      0.4754506422
     -0.9189280068
      1.6350045691
     -0.3279246407
      0.0827230830
     -0.4432342033
      1.6092937871
     -0.2811145632
     -0.2371031542
     -1.1581052488
      0.0714462610
      3.1849801893
      1.7403034689
      0.3110933051
     -2.1299855797
     -0.6344464403
     -0.3060070951
     -1.0748663480
     -1.3924207088
     -1.4588385731
      0.4987747763
      0.1243210833
     -1.4034739010
      0.9101651818
      0.3380719553
      3.0724761579
     -3.9932716942
      4.6112923907
     -1.4996529903
     -3.3091474915
     -1.7037495701
      2.3879227616
     -1.4885979444
      0.8911427857
     -2.6444905598
      2.7714827705
      6.8662735566
      2.0727653990
      0.4168749136
     -3.3453214464
     -0.8467757066
     -1.4621662641
     -0.1917088476
     -3.3705046679
     -2.2231744312
     -0.3342873217
      0.6928652434
      1.0306811920
      5.0648410111
      1.3894005110
      0.2374455283
      0.1700290352
     -2.5157479823
     -1.6786962599
      1.7170723476
      0.4863930016
      1.0397446421
     -1.1283230220
     -1.6704131277
     -0.5897179203
     -0.5482479431
     -3.0458065431
     -3.0177839527
      1.4540917717
      3.1938944807
      1.7855274502
      0.5719620625
      2.0902511932
      1.3601531793
      2.8606648855
     -0.4660194046
      2.1604835491
     -1.5402230392
     -2.0078861729
      1.1583878191
     -0.5486427215
     -0.1303223772
      0.4387346949
      0.5031664915
     -0.3903342169
      0.2712566622
     -0.9164392587
      0.7804570298
      0.1981497683
      0.5931907328
      0.1876406647
      0.2347525310
      0.5378074642
     -0.3417918018
     -0.4623060626
      0.0490570110
     -0.4163484694
      0.2156866849
      0.1941720769
     -0.8094101104
      0.2286850891
     -1.0726107932
      0.4008264056
      0.2833669534
     -0.6013715711
      0.4125889479
     -0.4466826793
      0.6771662900
     -0.6692967687
     -0.7504803244
     -0.4260731273
     -0.1891073339
      0.1593726234
     -0.4266529170
      0.1624111478
      0.7923169477
     -0.5551484189
     -1.1093018974
     -0.4009602590
      2.4172710837
      0.3966124371
     -0.5980016847
      0.2651018034
      1.9031149728
     -0.6706383378
      0.0620937239
      0.0385410062
     -1.9476732175
     -0.3812103719
     -1.4213921458
     -0.9568283942
     -1.9929146702
      1.9836822303
     -0.4096052862
      1.0944145266
      0.7739461462
     -1.2290342499
      1.8468798134
      0.7016895696
     -0.5860500115
      1.2515461812
      0.9034743574
     -0.8846102799
      0.6432067859
     -1.2864494134
      0.1124449312
      1.7016660838
     -0.7797684868
     -0.8805621122
     -0.6460608145
     -1.0529175988
     -0.8303775003
     -0.9824820329
      0.5405964631
      1.1403052143
     -0.3542605071
     -0.5705942100
     -0.7818870420
     -0.0612865496
     -1.5103853784
     -0.3719348854
      1.0240554682
     -0.4268086806
      1.3933158725
      1.3266573207
     -0.9416243296
      0.6069372169
     -0.3894946171
      0.8656342052
      0.4658017357
      1.1127756194
     -1.9019397696
     -0.7087220379
      2.3370942909
      0.2194979558
      1.5057343249
     -2.1591310864
      0.5845485975
     -1.6114647147
     -0.5943160956
     -0.8448519824
     -0.1133567689
      0.7891498367
     -0.1236441640
      1.2584406695
      0.4414591442
     -1.7434082492
      0.2923907161
     -0.6051456856
     -0.2209501435
      0.4319911306
      0.1779662261
     -0.4281235785
     -1.3750747041
      0.9609919962
     -0.5610179445
      0.2862069785
      0.4670637098
     -0.7471992067
      0.2993510937
     -1.0106363679
      1.7278687369
     -1.4197573495
      1.6046012362
      0.0528062281
     -0.1920123700
     -0.1876084449
     -0.2001881898
     -0.4580460769
      0.5085756600
      0.1338986253
     -0.2517895509
      0.1055642765
      0.8731098582
     -0.4184836509
     -1.0749388628
      0.3165462615
      0.6243386982
      1.3580123751
     -0.6463067146
      0.0885731678
      0.3017975641
     -0.7542801493
      0.5135609869
      0.5658900574
      0.7316026969
     -0.7326712678
     -0.4452809670
     -0.4683671942
     -0.4249385244
     -1.7284790047
     -0.2635344235
      0.7306817078
      0.9737071992
      0.8542372299
      1.1129749041
     -3.1974855281
      0.4372980925
      1.1303142749
      1.4799625293
      0.3527927510
     -1.8495631207
     -0.0939697502
      0.3756199220
     -1.3687734714
      0.2051454233
      1.5714806692
     -0.3662799989
      0.0886981438
     -1.0799327805
     -0.9751810411
     -2.8069184284
      0.8030101304
     -0.0265309988
      0.2043054781
     -0.4873923396
     -0.7434497196
      0.3861398611
      0.1752313045
      0.0911198039
      0.0843221862
     -1.1854365521
      0.4775042979
      0.7615453258
      0.4873296041
     -0.4657252183
     -0.9778672959
     -0.5944011865
     -0.1536883950
      0.1713969547
      0.5198889037
      0.2953509339
      0.4617149890
      0.3830442756
     -1.1894927088
     -0.2919383844
     -0.4853523233
      0.1935552496
     -0.0634788621
      0.1855427159
      0.3646041959
     -0.4121831335
      0.0368755835
     -0.2476398532
      0.2740003599
      0.2013924820
      0.2168762768
     -0.0795893849
      0.8480125980
     -0.0202623670
      0.2262724511
      0.4709516587
      1.3045001116
      0.3771781063
     -0.2406990160
      0.3482625569
     -0.2671097306
     -0.6763324350
     -0.0074221233
      0.4511796691
     -0.1786642230
     -0.8182497836
     -0.0957709688
     -0.2972757482
     -0.0310579295
      0.2424397847
      2.4535387950
     -1.9818443809
      0.9444998342
      0.5503568965
     -1.3371033095
      1.5591144177
     -2.4348199036
      0.6975100928
     -0.3399386159
     -1.9187706010
      2.2605893718
      1.0630573031
     -0.6279270513
      0.4112725918
     -2.1736256445
     -0.7435272983
      1.0183479388
     -1.6818877959
      0.5681257153
      0.3286779446
      1.6831231798
      0.0162066305
      1.1097398346
      1.9962567496
      0.1631292238
      0.6571170716
     -0.9988397341
      0.3670189289
      1.2488670113
     -0.0782775325
      0.2496786144
     -3.2177129293
      0.8100435978
     -0.1139456848
     -1.3803332720
      2.0982127135
      1.6291069037
     -0.8751835730
      0.6368285129
     -0.8452349932
      0.1725924392
      0.3917803811
     -1.1623132912
      1.3457531714
     -0.4963533788
      1.7600126183
      0.1247590616
      0.1847327995
      0.9294589399
      0.2757701003
     -0.7407829736
      0.1096080779
     -0.1911348118
     -0.0608561805
      0.4217548408
      0.1488264997
     -0.3365465271
      0.2595725806
     -1.7569542338
     -0.0426723939
     -0.2138246558
      0.5323406147
      0.3133649601
      0.6037386633
      0.3666101040
     -0.4971658180
      0.6421213214
     -1.2450696257
     -0.0915795359
      0.0210717241
     -0.1381327727
      0.6967575859
      0.8434168978
     -0.3253989501
      0.5067087157
     -0.0550425048
     -0.0788678772
     -0.4935133191
      0.0994930638
      0.3174487551
     -0.3447304209
      0.4315230755
     -0.4333214585
     -0.3340982942
      0.1876958183
      0.6032479029
      0.0835292999
     -0.6370082661
      0.2275757379
     -0.3315292650
     -0.1989726826
     -0.0195071129
      0.2753308189
     -0.6041976368
      0.1026535612
     -1.1086545218
     -0.5078661950
     -0.1115766396
      0.0900122390
     -0.7155303103
      0.5388396538
      0.3771700207
     -0.4519814073
     -0.4856394135
     -0.3334530791
     -0.9359305089
     -0.9859956220
     -1.3407842235
     -0.5914013011
      0.0312297252
     -1.2967084562
      0.5347835345
     -0.3106220156
     -1.1648719155
     -0.3123280844
     -0.4347757568
     -0.2807293181
     -0.0019263908
     -0.3354411430
     -0.9451352079
      1.2645728568
      2.0284878424
      0.4105986486
     -0.8755642516
      0.7593463963
      0.4086976996
      2.2022270955
     -0.2494509942
     -0.2703094926
      1.6034704660
      0.1475799545
      2.4689996607
     -0.7895544821
      0.0061856168
     -1.0733917298
     -1.6263848706
      2.3619122001
      1.3591019252
      0.8397639708
      0.5397929134
      0.0216736335
     -0.0261320130
     -0.2149356918
     -0.2865174541
     -0.7609050467
      0.3057206415
     -0.0974844008
      0.4111282405
     -0.1675567113
     -0.1895183325
      0.6395267767
     -1.9093379095
     -0.6817066137
     -0.0010482544
     -1.4602903980
     -0.0739923282
     -0.3171061575
      0.6750315678
      0.5013710095
     -0.2465896305
     -2.9716390026
     -0.7309525866
     -1.8972995714
      1.6748767261
     -0.2397399359
     -0.2310540428
      0.8283391996
     -0.6031204074
     -0.0307518550
      0.1590382210
      0.0290029840
     -0.2401285933
      0.2904266756
      0.9732412677
      1.4994638213
     -0.4974141169
      0.8818874400
     -0.0927021624
      0.2856438444
     -0.3958087405
     -1.3216875333
     -0.1992619756
     -1.1463469632
      0.5837861112
     -0.6375473887
     -0.5504032798
      0.0059873849
     -1.0603170334
      0.4380406493
      1.2840440218
     -0.8099996260
     -0.6683731871
     -0.8478475625
     -0.8392997633
      0.6956019977
      0.0982507865
     -0.9635846157
      0.0897334028
     -0.2153478590
     -0.3415561305
      0.5839262415
     -1.1753402375
     -0.7862706407
      0.1408280284
     -0.2925753849
      1.2830758565
     -0.8773299418
     -0.9652326220
      1.4887796323
      0.2013629597
      1.2331338676
      1.2174040351
      0.5529136952
      0.5126207754
     -2.6235397069
      1.1843916724
     -1.2638695643
      0.3969608092
     -0.4425714901
     -0.6416162159
     -1.1605275629
      0.3469550485
     -0.1115835559
     -0.1289995856
     -1.5030113669
      0.2139474257
     -2.0980239425
      0.4961849428
      0.6227714516
     -0.6364035780
      0.8224275768
      0.4685672091
     -0.2345497693
     -0.3222176056
      0.6041225529
     -1.1710199137
     -0.8943836485
     -0.7446415899
      1.1538010608
      0.2424459515
     -1.1194500958
      0.8434211942
      2.2692307227
     -0.4028542274
     -0.3675646346
     -0.9776290689
     -0.1652631795
     -0.2849548590
      0.0760797004
      0.7603139685
      1.5329414855
      2.7584418326
      0.1060428062
      0.8405747168
      0.5506426811
      0.7343342710
      1.0559535209
      0.0718684067
      1.4201084442
      1.4677430114
     -1.4600318969
      0.4363408119
      0.0376048277
     -0.1978071131
      0.1338753120
      0.4850811879
      0.6089228547
     -2.7464391650
      0.2785447879
     -0.2932740645
      0.0277107397
     -0.4753451707
      1.8514077162
     -0.0508361015
     -0.1371907264
      1.0892881222
     -1.8832914293
     -0.9652245991
      1.0826106376
      0.5256133612
      1.0989164275
      1.7954233437
      0.7291293932
      0.5159865132
      1.2858732954
     -1.2690289713
      0.0579609665
     -1.1139056155
      0.5396107412
      1.1017984124
      0.1015144949
      0.1706607477
      2.2907421936
     -0.5877120758
      0.1901310165
     -0.2930760222
     -0.6678695753
     -1.0293878206
      0.3645388652
      0.0164036507
      0.4401084071
     -3.2611307548
     -0.8032725660
      0.4310054676
     -0.9280806503
      0.8694777690
      1.9150693226
     -0.6821029696
     -0.2185008205
     -0.8835372963
     -0.6605693706
      1.1452442963
     -0.0179892421
      0.4414621502
      1.0038499515
      0.5000196283
      0.8024135886
     -0.1472111437
      0.0266607588
     -0.0600118972
      0.0537843167
     -0.5619488513
      0.0610556906
      1.2701738723
      0.0315923637
     -0.0147940623
     -1.6807367359
     -0.2841238443
     -0.4539422151
     -0.1771881422
     -1.4029287528
      0.8367259065
     -0.3052875925
     -0.5446231643
     -0.2405596154
      4.1578030202
     -1.0500828286
     -3.0085417114
     -3.2528583451
      0.5109868397
      0.3163536196
     -0.2410773710
      0.3655781823
      0.7877961814
      0.0179447334
     -0.3610945802
      0.1981178825
      0.2846426083
      0.2504422322
      0.1648516148
      0.0069914235
      1.2596637119
     -0.2280505640
     -0.0394717740
      2.4130667686
     -1.1150155851
     -0.0572664970
      0.3986095875
     -1.7829932947
      0.3339122380
     -0.8697622329
      0.1706452050
      0.4421492427
      0.3174488698
     -0.2680435739
     -2.2648325239
     -0.1549464784
      0.3086862398
      0.3245737953
      0.0282692680
     -0.2828645119
     -0.1920642882
     -0.7676248164
      0.7070556142
     -0.9070049775
     -0.2394570885
     -0.4645009195
      0.7606755334
     -0.7427306572
     -2.6222302174
     -0.5801092698
     -1.5617683819
      1.7047570990
     -0.9696778742
      0.0882483524
      1.2565045982
     -1.3417941584
      3.0348756111
     -1.4436358986
     -0.8065419695
      0.3184897251
      0.1843686909
      0.7545090211
      1.8137919569
     -0.4833364127
     -0.1407672660
      1.1784212114
     -0.3619139430
     -0.6168206529
     -0.0498683674
     -0.6635709428
      2.9559246768
     -1.5986142498
      0.0415918710
     -1.0556287901
     -0.4062561848
      1.6298711234
      1.7902315445
     -0.3454182764
      0.2215851162
     -1.0832299604
      0.4922760367
      0.8856059384
      1.3550967223
      1.5452880059
     -0.1363719926
     -0.0235831578
     -0.8165969221
      0.6187202793
      0.6447666024
     -0.0913164443
      0.9062879570
     -0.1656589950
     -0.7398587105
     -0.1842566671
     -0.4389236489
      0.9543360863
     -1.1150537600
     -0.3789340235
      1.4647791658
      0.8541462856
      0.4012504075
     -0.5344430318
      0.7532027810
     -0.1405716935
      1.8496436250
      0.3656596561
     -2.5274035625
     -0.8413311882
      0.2835566440
     -0.6096734427
      0.2630377107
     -1.4247149407
     -0.1297646990
     -0.0020566358
      0.1960542919
     -0.7783934162
     -0.0777454113
      0.1261276646
      0.5790644988
      0.0628589079
      2.5006730697
      0.2374604265
     -0.1950103934
     -1.5650980852
      0.0996216966
      0.2167734962
      0.0322296618
      0.5917420838
     -0.3090193690
     -2.4774975053
     -0.5231947385
      4.2284328542
      0.2003751870
      0.8682332955
      0.1035368078
     -0.6092074383
     -1.8690305813
     -0.1366659808
      0.2838398370
      0.2440075061
      0.1699955053
      1.2390978506
     -0.5658940654
     -0.9913050795
      0.2199368282
     -1.6437384599
     -0.2738434493
     -0.6493827718
      0.6225380132
      0.6445741296
      0.1584372958
     -0.5922501709
      0.0208131662
      0.4466365364
      1.9351877019
     -0.7233390922
     -0.9832668885
      0.7489559538
     -0.8143631491
      0.9008598352
     -0.4037533043
      0.5867071630
      0.5244234143
     -0.3980955386
     -0.7877099076
     -0.0550687424
      0.2389061667
      0.7213886647
      0.1079276392
      0.3362873029
     -0.0650173689
     -0.3109746654
      0.4086445905
      0.1778245322
      0.2779589914
      0.5403283871
     -0.9975069691
      0.3618938923
     -0.1614597647
      2.5130304434
      0.2156014444
     -1.6112702240
      0.4412186862
     -0.6093620931
      0.1537961826
     -0.3241420768
      0.4493080502
     -0.0477859340
      0.1659210904
     -0.2254377884
     -0.0887489332
     -0.9506431941
      0.9673681905
      0.1348600304
      0.4297506681
      3.0518993273
     -1.5452395949
      0.0781315565
     -2.1373895327
     -0.2185269119
     -0.0749302612
      0.0168850500
     -0.0175249355
     -0.0575091308
      4.4480283188
      0.8070961281
     -1.4281877609
     -1.1398856340
      0.6623363211
     -0.3899141701
      0.0143163942
     -0.4838898469
      0.5874269170
      0.3689739304
      0.2454059288
     -0.6352690443
     -0.3243889470
     -0.1031045036
      0.4294372363
     -0.0276249553
      0.4185740056
     -0.6594117094
      0.1836564264
     -0.7312893747
     -0.6417254985
      0.3636914647
     -0.0874805068
     -0.1059200593
     -0.3319833856
      1.4544042554
      0.5400202351
     -1.6524488494
     -0.3096266149
      0.5659314057
     -0.5921707640
      0.7506031550
     -1.2743575077
      0.2825790175
     -0.1472644010
      0.2379579568
      0.2111365212
      0.5844044094
     -0.5694849045
      0.5220512862
      0.5716988974
     -0.8284473993
     -0.2675095216
     -0.4162653337
      0.0010887428
      2.3561462290
      0.5164831724
     -0.8898120829
      2.0004762448
      0.5757977138
     -1.7256557590
      0.4312316917
     -0.6079341760
     -0.3593071817
      0.7015405082
      0.7253162581
      0.2735239497
     -1.1662764769
      0.1526862298
      0.1965958329
     -0.3302039095
     -0.3636488263
      1.3386698052
     -0.7005156521
      0.9876805329
     -0.3519737126
     -2.6890163623
     -0.4637859159
     -0.4170395037
      1.1639000756
     -0.8900411921
     -0.2565647368
      1.4574336989
      0.2968621011
     -0.0754782113
      0.2406370074
      0.8845807561
     -0.7350205524
     -0.0686524020
     -1.1000527819
      0.1490544919
     -0.5195713140
      0.3513390425
     -0.2468123377
     -0.3647105764
     -0.5135888183
     -0.0837125349
     -1.3935061134
     -0.0349077813
      0.4544619251
     -0.5562367170
      1.6333749220
     -0.7683464277
     -0.6867651913
      0.5505487464
     -2.2792746227
      1.0530205878
      0.6203946590
      0.7037171473
      0.0467663452
      0.8720151489
     -1.5154012056
      1.1820867460
      0.6266792164
      1.1690687991
     -0.3504068045
      0.2750823995
     -0.9471448025
      0.5719803469
      0.5222091318
     -0.2344564455
      0.0407747076
     -0.3418303125
      0.0665188746
     -0.0640882821
     -0.0745819611
      2.3797383024
      0.2913969629
     -0.4595078705
      0.4628744651
     -0.0568472243
      2.4093589492
      0.2587239756
     -0.0979748670
     -0.1473843293
      0.2425944915
     -0.0848054436
      2.0537181775
      0.5487246723
      1.8252945151
     -0.2376630592
      0.1069905764
     -0.9064712329
      0.3897596199
     -0.3273477312
     -0.2053636170
     -0.3344990416
      0.9991330644
     -0.3723086019
      0.8582269474
      0.5184739771
      1.5158609775
     -1.7456561506
      0.1284916897
      0.8526015906
     -0.1939195297
      0.8094987146
     -0.7453592991
      1.5558012593
      1.3855923735
      0.8995123264
      1.3410485008
      0.8709374164
     -0.0794102283
      1.0363841606
     -0.3091837036
      0.7600137662
     -0.5909723710
     -0.2072288724
     -1.0292436606
      0.8963895852
      0.4145883071
      1.6235076147
      0.6729655982
      1.1367575047
     -0.2372630640
      0.9695440854
      0.3176722752
     -1.0375183698
     -3.4676633754
      1.1970416425
     -0.4375947393
      0.1015361055
      1.0302270097
      0.7058158899
     -0.3220193177
      0.0775394177
     -0.0891863978
     -0.7205265321
     -0.9696988998
     -1.0346284379
     -0.3187212867
     -1.1178039859
      0.2952755451
      0.6265010654
     -0.8672678606
     -0.6533529277
      0.9616369699
      0.1329196027
      0.5303698076
     -0.8879843277
      2.1032929657
      0.8219707348
     -0.8919371549
      0.5031551166
      1.2777079953
      1.3559685574
     -0.8559206646
      0.2021145980
      0.0422156316
      0.1787211721
     -0.1025574726
     -0.8723853946
     -2.1704997125
     -0.5123816367
     -1.0303018497
     -0.3170643858
     -1.7171179107
      1.0499121625
     -0.2110386478
     -0.2280296553
     -0.4873856517
      0.7207404890
      1.0449530954
     -2.0393883429
      0.4468069439
     -0.7202183735
     -0.1921883597
      0.6580358207
     -1.4834387662
     -0.1820076751
      0.3668198210
     -2.1630633957
     -0.8880123820
     -0.7590871719
     -0.4149940139
      1.4746492397
     -1.2945216843
     -1.3037821382
     -2.8517718108
     -0.5116937189
      0.0781424684
      2.6913173066
      0.8318029409
     -0.0368700634
     -2.4879919307
      0.0868235187
     -4.3041715508
      1.8476232535
     -0.0006527718
     -0.0005179464
      0.0000822559
      0.0010544961
      0.0014005841
      0.0000217943
      0.0002447760
     -0.0026995741
     -0.0008176389
     -0.0008393517
     -0.0008302657
     -0.0000246492
     -0.0002904551
     -0.0000368991
     -0.0001005209
      0.0003824639
     -0.0005224729
     -0.0004540406
      0.0001238933
     -0.0008073461
      0.0012594764
     -0.0008072768
     -0.0008165347
      0.0005172865
     -0.0006189768
     -0.0035430777
