################################################################################
# Neural network connection values (weights and biases).
################################################################################
# Col  Name       Description
################################################################################
# 1    connection Neural network connection value.
# 2    t          Connection type (a = weight, b = bias).
# 3    index      Index enumerating weights.
# 4    l_s        Starting point layer (end point layer for biases).
# 5    n_s        Starting point neuron in starting layer (end point neuron for biases).
# 6    l_e        End point layer.
# 7    n_e        End point neuron in end layer.
################################################################################
#                      1 2         3     4     5     6     7
#             connection t     index   l_s   n_s   l_e   n_e
############################################################
 -1.3038140739910720E-01 a         1     0     1     1     1
  1.0472839054750449E+00 a         2     0     1     1     2
  5.8140883971874273E-03 a         3     0     1     1     3
 -3.0674831457110485E-01 a         4     0     1     1     4
  2.1282631675590077E-01 a         5     0     1     1     5
  1.8521274690376824E-01 a         6     0     1     1     6
 -4.4931354773742903E-02 a         7     0     1     1     7
  3.3287620655478284E-01 a         8     0     1     1     8
 -2.0219275640637641E-01 a         9     0     1     1     9
 -8.0054703617500522E-01 a        10     0     1     1    10
 -5.6433313007833341E-01 a        11     0     1     1    11
  1.6357731062463510E+00 a        12     0     1     1    12
  1.6971746752824826E-01 a        13     0     1     1    13
 -1.5427723401905108E-01 a        14     0     1     1    14
 -3.5688853627583832E-02 a        15     0     1     1    15
 -6.0948887251223313E-02 a        16     0     1     1    16
 -1.5894169587118412E-01 a        17     0     1     1    17
  2.5707057081759249E-01 a        18     0     1     1    18
 -1.6254854532162902E-01 a        19     0     1     1    19
 -2.5333149482631140E-01 a        20     0     1     1    20
  7.3802794272025229E-01 a        21     0     2     1     1
 -1.5915591119546351E+00 a        22     0     2     1     2
  2.5051053161721631E-01 a        23     0     2     1     3
  7.8358705073079626E-01 a        24     0     2     1     4
 -4.4869702134890993E-01 a        25     0     2     1     5
 -1.8754034970034514E-01 a        26     0     2     1     6
  1.5656160779648140E-01 a        27     0     2     1     7
 -2.3410948181292679E-01 a        28     0     2     1     8
 -1.4957952415696574E-01 a        29     0     2     1     9
  6.5528735330970422E-01 a        30     0     2     1    10
  8.0504139331644620E-01 a        31     0     2     1    11
 -2.0657022550458399E+00 a        32     0     2     1    12
  6.6509133904715287E-02 a        33     0     2     1    13
 -4.9129185879356024E-01 a        34     0     2     1    14
  7.9281012074615043E-01 a        35     0     2     1    15
  4.8526761722501244E-01 a        36     0     2     1    16
 -2.0883732838484764E-01 a        37     0     2     1    17
  8.7421139965856834E-02 a        38     0     2     1    18
  4.7866726693339856E-01 a        39     0     2     1    19
  3.4911694577594998E-01 a        40     0     2     1    20
 -5.4108364958432542E-01 a        41     0     3     1     1
 -8.3926229212313408E-02 a        42     0     3     1     2
 -7.8118231550905262E-02 a        43     0     3     1     3
 -2.2799828246724843E-02 a        44     0     3     1     4
  3.0701151761285100E-01 a        45     0     3     1     5
  4.1816050226371532E-01 a        46     0     3     1     6
 -2.1032292667784108E-01 a        47     0     3     1     7
 -6.7929948437288654E-02 a        48     0     3     1     8
 -4.6600213612048980E-01 a        49     0     3     1     9
  2.4059109396724346E-01 a        50     0     3     1    10
 -7.9080343260794252E-03 a        51     0     3     1    11
 -2.7673073562187900E-01 a        52     0     3     1    12
  5.9217326359341092E-02 a        53     0     3     1    13
 -4.5258601109632556E-02 a        54     0     3     1    14
 -5.5870837074669645E-02 a        55     0     3     1    15
 -2.3403799558445532E-01 a        56     0     3     1    16
  2.3782668023195166E-01 a        57     0     3     1    17
  4.9694812281535339E-01 a        58     0     3     1    18
 -1.3229997742166683E-01 a        59     0     3     1    19
  9.3585264564333234E-02 a        60     0     3     1    20
 -7.0258460071218554E-02 a        61     0     4     1     1
  5.4238592391348506E-01 a        62     0     4     1     2
  9.1162490384417288E-02 a        63     0     4     1     3
 -1.6249539224650697E-01 a        64     0     4     1     4
 -1.8899617927365692E-01 a        65     0     4     1     5
  6.0034524923610200E-01 a        66     0     4     1     6
  4.5054932798366659E-01 a        67     0     4     1     7
 -2.0123898815899929E-01 a        68     0     4     1     8
  4.3211193428322836E-01 a        69     0     4     1     9
 -4.7817365984344962E-01 a        70     0     4     1    10
  2.0624466663574442E-01 a        71     0     4     1    11
  8.3424628615900824E-03 a        72     0     4     1    12
 -2.5606085638982967E-01 a        73     0     4     1    13
  2.0175250499348191E-01 a        74     0     4     1    14
  2.4828397714967762E-01 a        75     0     4     1    15
 -7.5320168647542995E-01 a        76     0     4     1    16
 -2.8298671617817089E-01 a        77     0     4     1    17
 -8.4215946429106481E-01 a        78     0     4     1    18
 -1.6072280184094651E-01 a        79     0     4     1    19
  1.5911293683162353E-01 a        80     0     4     1    20
  2.5345606962078238E-01 a        81     0     5     1     1
 -3.2760781348470736E-01 a        82     0     5     1     2
 -3.6464265024703413E-01 a        83     0     5     1     3
  3.6340692993872784E-02 a        84     0     5     1     4
 -2.8135513124724365E-01 a        85     0     5     1     5
 -5.2258814076976134E-01 a        86     0     5     1     6
 -2.9560185230965375E-02 a        87     0     5     1     7
 -2.0671040637346411E-01 a        88     0     5     1     8
  3.9597804202988679E-01 a        89     0     5     1     9
  3.4656616736362972E-01 a        90     0     5     1    10
 -4.6802758706027639E-02 a        91     0     5     1    11
  6.7006736094089164E-02 a        92     0     5     1    12
 -3.1956602031597342E-01 a        93     0     5     1    13
 -6.2569994636747861E-01 a        94     0     5     1    14
  1.3763868672645377E-01 a        95     0     5     1    15
  4.2201380106421843E-01 a        96     0     5     1    16
 -2.3210097559425788E-01 a        97     0     5     1    17
  3.8740828288264534E-01 a        98     0     5     1    18
  3.9240041526413882E-01 a        99     0     5     1    19
  4.3239650655487660E-01 a       100     0     5     1    20
  2.1962796921790900E-01 a       101     0     6     1     1
  3.1240614946582629E-01 a       102     0     6     1     2
 -2.8614392003852096E-01 a       103     0     6     1     3
 -3.6235138772530084E-01 a       104     0     6     1     4
  1.1060735130319437E-01 a       105     0     6     1     5
 -3.6727304803877225E-01 a       106     0     6     1     6
 -3.3638996973971891E-01 a       107     0     6     1     7
  4.4261095360097624E-01 a       108     0     6     1     8
 -4.7213423222919271E-01 a       109     0     6     1     9
 -1.1005397296715617E-01 a       110     0     6     1    10
 -1.2324563064655154E-01 a       111     0     6     1    11
  4.9859017156639268E-01 a       112     0     6     1    12
  5.8305316128684094E-02 a       113     0     6     1    13
  5.0309012556140864E-01 a       114     0     6     1    14
 -4.2726944486333190E-01 a       115     0     6     1    15
  2.3584112026787565E-01 a       116     0     6     1    16
  2.2164015721909891E-01 a       117     0     6     1    17
 -1.6213212692320214E-01 a       118     0     6     1    18
  8.7204859808778026E-02 a       119     0     6     1    19
 -5.7960892112409934E-01 a       120     0     6     1    20
  4.1582477246351175E-02 a       121     0     7     1     1
  2.8520707792357835E-02 a       122     0     7     1     2
  1.4430521522241543E-01 a       123     0     7     1     3
  2.6042240251458193E-01 a       124     0     7     1     4
 -1.8366945553148864E-01 a       125     0     7     1     5
  5.8167810971587397E-01 a       126     0     7     1     6
  2.5894840858763585E-01 a       127     0     7     1     7
  3.4324706602331206E-01 a       128     0     7     1     8
 -2.4565360229468375E-01 a       129     0     7     1     9
 -3.0144240332047845E-01 a       130     0     7     1    10
 -8.0022583472901879E-02 a       131     0     7     1    11
 -3.0406990950514545E-01 a       132     0     7     1    12
  4.7082757385782670E-01 a       133     0     7     1    13
 -3.2834896760167230E-02 a       134     0     7     1    14
  2.2304610847264142E-01 a       135     0     7     1    15
 -4.9373260379842765E-01 a       136     0     7     1    16
  4.4872100928438435E-01 a       137     0     7     1    17
 -5.3179792601453291E-01 a       138     0     7     1    18
  1.0156109189974781E-01 a       139     0     7     1    19
  1.0943792111447515E-01 a       140     0     7     1    20
 -3.0523097312840160E-03 a       141     0     8     1     1
 -7.7897644482860962E-02 a       142     0     8     1     2
 -2.8808190101663633E-01 a       143     0     8     1     3
  3.0134138860966120E-01 a       144     0     8     1     4
 -9.7263107749816488E-02 a       145     0     8     1     5
 -2.3579705785056557E-01 a       146     0     8     1     6
 -2.3705029478240675E-01 a       147     0     8     1     7
  9.0173428008799100E-02 a       148     0     8     1     8
  2.8695016509121166E-02 a       149     0     8     1     9
 -9.1447837186240631E-03 a       150     0     8     1    10
 -2.3366792120798649E-01 a       151     0     8     1    11
 -3.9517783218968383E-01 a       152     0     8     1    12
  2.9721378792195563E-01 a       153     0     8     1    13
 -6.0206778179953335E-01 a       154     0     8     1    14
 -4.6149891345369265E-01 a       155     0     8     1    15
 -2.9067888613242854E-01 a       156     0     8     1    16
  4.6128174345311773E-01 a       157     0     8     1    17
  7.2581626430640023E-01 a       158     0     8     1    18
 -1.3538661208959241E-01 a       159     0     8     1    19
 -1.0654910330490157E-01 a       160     0     8     1    20
  3.1025955874389682E-01 a       161     0     9     1     1
 -2.0113853871835935E-01 a       162     0     9     1     2
  1.3788923470078548E-01 a       163     0     9     1     3
  2.3688824106278922E-01 a       164     0     9     1     4
  2.9622511234174592E-01 a       165     0     9     1     5
  1.2225179471687402E-01 a       166     0     9     1     6
  1.8769977749656741E-01 a       167     0     9     1     7
  2.0713367943075695E-01 a       168     0     9     1     8
  1.2648039477745565E-02 a       169     0     9     1     9
  4.6745655346012278E-02 a       170     0     9     1    10
  3.5627851333610067E-01 a       171     0     9     1    11
 -3.2718723206753630E-01 a       172     0     9     1    12
  2.3995964087938831E-02 a       173     0     9     1    13
  9.5085357844667664E-02 a       174     0     9     1    14
  6.8569715452915481E-01 a       175     0     9     1    15
  9.3426690337054002E-02 a       176     0     9     1    16
 -2.0765940341146455E-01 a       177     0     9     1    17
 -6.1496334829146215E-01 a       178     0     9     1    18
 -3.8146251850036807E-03 a       179     0     9     1    19
  2.1243125772935609E-01 a       180     0     9     1    20
  2.3616545600286756E-01 a       181     0    10     1     1
  3.8262774909696229E-01 a       182     0    10     1     2
 -2.6359035985128926E-02 a       183     0    10     1     3
 -2.6864496554464856E-01 a       184     0    10     1     4
 -7.5507801870834682E-02 a       185     0    10     1     5
  2.5039164042402834E-01 a       186     0    10     1     6
  1.5006336947110505E-01 a       187     0    10     1     7
 -3.8928491404091714E-01 a       188     0    10     1     8
 -6.1943010372057239E-01 a       189     0    10     1     9
 -4.4255458130596725E-02 a       190     0    10     1    10
 -1.0468171107578303E-01 a       191     0    10     1    11
  8.0028044596529596E-02 a       192     0    10     1    12
  7.1152130952180403E-04 a       193     0    10     1    13
  2.0146830038209082E-01 a       194     0    10     1    14
  2.3843518414682549E-01 a       195     0    10     1    15
  1.9927424469122676E-01 a       196     0    10     1    16
  2.4454143011888196E-01 a       197     0    10     1    17
  7.2177632968594224E-02 a       198     0    10     1    18
  2.0771693857066928E-01 a       199     0    10     1    19
  1.4081189243300118E-01 a       200     0    10     1    20
  1.5263731102494621E-01 a       201     0    11     1     1
 -2.5553231101778662E-01 a       202     0    11     1     2
 -2.3324746488802811E-01 a       203     0    11     1     3
  5.7449337121667873E-02 a       204     0    11     1     4
  3.2877719286056473E-01 a       205     0    11     1     5
 -2.1992534037424355E-01 a       206     0    11     1     6
  1.1583949810199889E-01 a       207     0    11     1     7
  1.1794748045894874E+00 a       208     0    11     1     8
  5.1385822146073984E-02 a       209     0    11     1     9
  1.0837439001939553E-01 a       210     0    11     1    10
 -1.1187367729542255E-01 a       211     0    11     1    11
 -2.1945089767857318E-01 a       212     0    11     1    12
 -4.7870357236749733E-01 a       213     0    11     1    13
 -5.1180917589870933E-01 a       214     0    11     1    14
 -1.8691562572964152E-01 a       215     0    11     1    15
  3.0309232486543037E-02 a       216     0    11     1    16
  1.7848302706694921E-01 a       217     0    11     1    17
 -3.3071578443110594E-01 a       218     0    11     1    18
  2.4714781858950605E-01 a       219     0    11     1    19
  1.9755610385097028E-01 a       220     0    11     1    20
 -2.3634446811732938E-02 a       221     0    12     1     1
 -1.6841739999274516E-01 a       222     0    12     1     2
  5.4812288837627052E-02 a       223     0    12     1     3
 -2.3477321443833171E-01 a       224     0    12     1     4
  4.4880352852973175E-03 a       225     0    12     1     5
 -4.8021763497617792E-01 a       226     0    12     1     6
  4.6705716902133057E-02 a       227     0    12     1     7
 -2.5891171797218299E-01 a       228     0    12     1     8
  2.2948124041569214E-02 a       229     0    12     1     9
 -1.5105954359010557E-01 a       230     0    12     1    10
 -6.0979294097603817E-02 a       231     0    12     1    11
  1.5241222674624097E-02 a       232     0    12     1    12
 -5.2117254359928622E-01 a       233     0    12     1    13
  2.0502281671770378E-01 a       234     0    12     1    14
 -7.5044438118572754E-02 a       235     0    12     1    15
 -3.1353343552600221E-01 a       236     0    12     1    16
 -3.4925933756891758E-01 a       237     0    12     1    17
  8.3791641748734103E-02 a       238     0    12     1    18
  2.8823608394813077E-01 a       239     0    12     1    19
  6.8213158970833188E-02 a       240     0    12     1    20
 -2.6718009229874279E-01 a       241     0    13     1     1
  2.5599443369477681E-01 a       242     0    13     1     2
 -1.0836863791073584E-01 a       243     0    13     1     3
  4.2832198838415908E-01 a       244     0    13     1     4
  3.5490487291391482E-01 a       245     0    13     1     5
  1.9489611433299611E-01 a       246     0    13     1     6
 -1.0429704561971187E-01 a       247     0    13     1     7
 -1.4811161470897500E+00 a       248     0    13     1     8
 -1.5376380635379658E-01 a       249     0    13     1     9
  1.0261947846102283E-01 a       250     0    13     1    10
 -2.0945961914543956E-01 a       251     0    13     1    11
  1.3765204337243220E-01 a       252     0    13     1    12
  1.9437829295659170E-01 a       253     0    13     1    13
  1.0576395569574688E-01 a       254     0    13     1    14
 -1.0890129713023983E-01 a       255     0    13     1    15
  9.8357808192403223E-02 a       256     0    13     1    16
  1.0180176632270058E-01 a       257     0    13     1    17
  3.1330016546672623E-01 a       258     0    13     1    18
 -3.6180176094581346E-01 a       259     0    13     1    19
 -2.3288425251144576E-01 a       260     0    13     1    20
 -1.8139136712208184E-01 a       261     0    14     1     1
  8.2355068452012536E-01 a       262     0    14     1     2
 -6.5225688380314473E-01 a       263     0    14     1     3
  2.9132314929562741E-01 a       264     0    14     1     4
 -6.4410996011197919E-01 a       265     0    14     1     5
  9.9276282086576173E-01 a       266     0    14     1     6
  2.9928994080781857E-01 a       267     0    14     1     7
  2.8351653030297136E-01 a       268     0    14     1     8
 -3.5109732550408118E-01 a       269     0    14     1     9
  1.6142571245855008E-02 a       270     0    14     1    10
 -2.8178486694864152E-01 a       271     0    14     1    11
 -6.0672393740475117E-01 a       272     0    14     1    12
  7.4006781451015091E-01 a       273     0    14     1    13
  1.4862413443660455E-01 a       274     0    14     1    14
  3.8848240522283761E-01 a       275     0    14     1    15
 -2.2551967852070787E-01 a       276     0    14     1    16
  1.1513538603812858E+00 a       277     0    14     1    17
 -1.5120280590192123E-01 a       278     0    14     1    18
  1.8557226301485201E-02 a       279     0    14     1    19
  1.1198738403933173E+00 a       280     0    14     1    20
  9.6514284053967184E-02 a       281     0    15     1     1
  1.8559959826303360E-01 a       282     0    15     1     2
  9.5732201042519019E-02 a       283     0    15     1     3
  1.8665250203557801E-01 a       284     0    15     1     4
 -5.8263663208284722E-01 a       285     0    15     1     5
 -4.6646929967473810E-01 a       286     0    15     1     6
  1.3720563434392461E+00 a       287     0    15     1     7
 -3.6886614060830408E-01 a       288     0    15     1     8
  1.8976764620537409E-01 a       289     0    15     1     9
 -4.2696048164738681E-01 a       290     0    15     1    10
 -2.8673324461577587E-01 a       291     0    15     1    11
  9.2580011803840812E-01 a       292     0    15     1    12
 -4.1869929831763025E-01 a       293     0    15     1    13
  3.8264071549728704E-02 a       294     0    15     1    14
 -3.1511569361658671E-02 a       295     0    15     1    15
  4.7245075651144081E-01 a       296     0    15     1    16
  6.7255974176339453E-02 a       297     0    15     1    17
 -3.7948999115990528E-01 a       298     0    15     1    18
 -4.5310872393461882E-01 a       299     0    15     1    19
 -1.3246006335171620E-01 a       300     0    15     1    20
 -6.7599137107979865E-02 a       301     0    16     1     1
 -2.6665733991519353E-01 a       302     0    16     1     2
 -4.1390352793773050E-01 a       303     0    16     1     3
 -4.0052279340880209E-01 a       304     0    16     1     4
 -1.4464524974261214E-01 a       305     0    16     1     5
  3.5854700240095243E-03 a       306     0    16     1     6
  1.1717920798376935E-01 a       307     0    16     1     7
 -2.3785969957892075E-01 a       308     0    16     1     8
  1.1133989430051730E-01 a       309     0    16     1     9
  1.0875438022905479E-01 a       310     0    16     1    10
 -2.0270474264720831E-01 a       311     0    16     1    11
  3.6157543848405815E-01 a       312     0    16     1    12
 -5.9118451067691602E-01 a       313     0    16     1    13
 -2.3333268419396841E-01 a       314     0    16     1    14
  3.1463384590553328E-01 a       315     0    16     1    15
  6.0579352065386262E-02 a       316     0    16     1    16
 -3.8579238446116837E-01 a       317     0    16     1    17
 -7.5025000072412237E-02 a       318     0    16     1    18
  3.1064807220223983E-01 a       319     0    16     1    19
  8.4457230013152737E-02 a       320     0    16     1    20
  1.3625803148336851E-01 a       321     0    17     1     1
 -1.4522473811187808E-01 a       322     0    17     1     2
 -4.0157243168030721E-01 a       323     0    17     1     3
 -3.2762945559877854E-02 a       324     0    17     1     4
 -4.7955378152849809E-01 a       325     0    17     1     5
  3.8927104376921158E-02 a       326     0    17     1     6
  1.2204289549924958E-01 a       327     0    17     1     7
 -3.4438196932900894E-01 a       328     0    17     1     8
  1.3758128807756204E-01 a       329     0    17     1     9
  3.4467077863562007E-01 a       330     0    17     1    10
 -1.3458982659999678E-02 a       331     0    17     1    11
 -1.2729843672216221E-01 a       332     0    17     1    12
 -9.7771469971218144E-03 a       333     0    17     1    13
  1.2785123667897400E-01 a       334     0    17     1    14
 -1.3784254811329036E-02 a       335     0    17     1    15
  1.0907187421469992E-01 a       336     0    17     1    16
  6.4617021376960543E-02 a       337     0    17     1    17
 -2.1475448159669872E-01 a       338     0    17     1    18
  1.9570270517632821E-01 a       339     0    17     1    19
  2.0033514117023257E-01 a       340     0    17     1    20
 -9.1262325979150002E-02 a       341     0    18     1     1
  1.6904080771345159E-01 a       342     0    18     1     2
  4.7205001895702710E-02 a       343     0    18     1     3
  1.9782465807748329E-02 a       344     0    18     1     4
  1.9975577408229891E-01 a       345     0    18     1     5
  2.6177838545610285E-02 a       346     0    18     1     6
 -2.8251004177473876E-01 a       347     0    18     1     7
 -6.0265554721845298E-02 a       348     0    18     1     8
  2.4637585592489214E-01 a       349     0    18     1     9
  1.0247213524607852E-01 a       350     0    18     1    10
 -1.8141928377297406E-01 a       351     0    18     1    11
  1.0215808082596291E-01 a       352     0    18     1    12
  2.4444418812874483E-01 a       353     0    18     1    13
 -1.7959325873334042E-01 a       354     0    18     1    14
 -2.7124406935877121E-01 a       355     0    18     1    15
 -2.7920693699762807E-02 a       356     0    18     1    16
  4.0219925150885255E-01 a       357     0    18     1    17
 -5.8834845474359599E-03 a       358     0    18     1    18
 -7.5865999137126411E-02 a       359     0    18     1    19
 -2.1788257115384602E-01 a       360     0    18     1    20
  6.8890264874813825E-02 a       361     0    19     1     1
 -4.2227635203327195E-02 a       362     0    19     1     2
  2.3652705305520724E-01 a       363     0    19     1     3
  6.1903243486160532E-03 a       364     0    19     1     4
 -2.2093417363123080E-01 a       365     0    19     1     5
  1.7009533719520187E-01 a       366     0    19     1     6
 -2.7697506445470661E-02 a       367     0    19     1     7
  1.7754656553075396E-01 a       368     0    19     1     8
 -7.8790948551214574E-02 a       369     0    19     1     9
 -1.1712709845930902E-01 a       370     0    19     1    10
  3.2396145990233743E-01 a       371     0    19     1    11
 -2.3734183204548004E-01 a       372     0    19     1    12
  2.0965026844716439E-01 a       373     0    19     1    13
  1.3542821702557784E-01 a       374     0    19     1    14
 -2.3342823205983040E-01 a       375     0    19     1    15
  1.5353787462787633E-01 a       376     0    19     1    16
  1.4848175870498057E-01 a       377     0    19     1    17
 -5.0349601806627189E-02 a       378     0    19     1    18
 -1.5805706917558179E-01 a       379     0    19     1    19
 -3.5741769857466127E-01 a       380     0    19     1    20
 -6.1146713941299602E-01 a       381     0    20     1     1
 -1.0650284010717079E-01 a       382     0    20     1     2
  1.6820109261723104E-01 a       383     0    20     1     3
 -3.4790947289051033E-01 a       384     0    20     1     4
  3.5432070382444547E-01 a       385     0    20     1     5
 -3.1080004162634373E-01 a       386     0    20     1     6
  2.9305852032817792E-01 a       387     0    20     1     7
  2.8705844005473652E-01 a       388     0    20     1     8
 -2.7059851601378238E-01 a       389     0    20     1     9
 -2.9649652955177463E-01 a       390     0    20     1    10
  1.4108654820145214E-01 a       391     0    20     1    11
  4.4800389675987795E-01 a       392     0    20     1    12
 -5.1985536619355421E-01 a       393     0    20     1    13
  4.2566272812138489E-01 a       394     0    20     1    14
  1.9865380852993117E-01 a       395     0    20     1    15
 -2.5774966237872482E-01 a       396     0    20     1    16
 -1.1446461743541376E+00 a       397     0    20     1    17
  1.7643178977172527E-01 a       398     0    20     1    18
 -1.8308770048451037E-01 a       399     0    20     1    19
 -5.2678771631620047E-01 a       400     0    20     1    20
  1.5692264825765131E-01 a       401     0    21     1     1
 -3.6126292892999362E-01 a       402     0    21     1     2
 -7.0289413203939530E-03 a       403     0    21     1     3
 -2.9350056782173178E-01 a       404     0    21     1     4
  3.7452363123985299E-01 a       405     0    21     1     5
 -2.1045053310805106E-01 a       406     0    21     1     6
 -3.4706273412163251E-02 a       407     0    21     1     7
  3.8821162667022568E-01 a       408     0    21     1     8
  2.1403418788295167E-01 a       409     0    21     1     9
 -3.8599938270060780E-02 a       410     0    21     1    10
  4.8708177322883073E-01 a       411     0    21     1    11
 -6.3603745370659681E-01 a       412     0    21     1    12
  1.5798478181158072E-02 a       413     0    21     1    13
  1.0754324742065041E-01 a       414     0    21     1    14
 -1.4777735789410825E-02 a       415     0    21     1    15
 -1.2281300959031723E-01 a       416     0    21     1    16
  3.1191387469548010E-01 a       417     0    21     1    17
 -9.5715959971854739E-02 a       418     0    21     1    18
 -2.1332826049335785E-01 a       419     0    21     1    19
 -1.8628621822049984E-01 a       420     0    21     1    20
 -1.1277184733262764E-01 a       421     0    22     1     1
  2.7207815011851882E-01 a       422     0    22     1     2
  5.2276396825090610E-01 a       423     0    22     1     3
 -2.2523729808545481E-01 a       424     0    22     1     4
  1.2512023594560956E-01 a       425     0    22     1     5
  2.5258806267968481E-01 a       426     0    22     1     6
  6.7076845574826363E-02 a       427     0    22     1     7
  6.3905809677873876E-02 a       428     0    22     1     8
 -3.8210802973615188E-01 a       429     0    22     1     9
 -1.7963998157730840E-01 a       430     0    22     1    10
 -1.9100891332743669E-01 a       431     0    22     1    11
  9.3896143523417441E-01 a       432     0    22     1    12
 -1.7844131483951878E-01 a       433     0    22     1    13
  9.0495423562710925E-02 a       434     0    22     1    14
 -1.1403439669463204E-01 a       435     0    22     1    15
  1.5918716275079020E-01 a       436     0    22     1    16
 -4.5607038164684904E-01 a       437     0    22     1    17
  1.7828956003365667E-01 a       438     0    22     1    18
  1.0739950444222172E-01 a       439     0    22     1    19
  2.3879954051303820E-01 a       440     0    22     1    20
  2.8525620222723624E-01 a       441     0    23     1     1
  2.4746631676897970E-01 a       442     0    23     1     2
 -2.1329649787630117E-01 a       443     0    23     1     3
  4.9931360808908049E-01 a       444     0    23     1     4
  7.7782782363847837E-03 a       445     0    23     1     5
  3.5550664696584362E-03 a       446     0    23     1     6
 -1.7906532339923689E-01 a       447     0    23     1     7
 -5.5353078565894265E-01 a       448     0    23     1     8
  2.6987429797854756E-01 a       449     0    23     1     9
  2.8128207264730060E-01 a       450     0    23     1    10
 -2.7840932054963530E-01 a       451     0    23     1    11
  3.1748385430526432E-01 a       452     0    23     1    12
  2.6497791285852984E-01 a       453     0    23     1    13
  5.3984552232595087E-02 a       454     0    23     1    14
 -5.6272617357382559E-01 a       455     0    23     1    15
  4.0588812894731996E-01 a       456     0    23     1    16
  8.0941197744914553E-02 a       457     0    23     1    17
 -9.5257926472152393E-02 a       458     0    23     1    18
 -1.3944452609421457E-01 a       459     0    23     1    19
  2.7408983120513369E-01 a       460     0    23     1    20
 -6.7928399222381738E-02 a       461     0    24     1     1
 -1.2566234468378706E-01 a       462     0    24     1     2
  1.1444728506236503E-01 a       463     0    24     1     3
 -1.7915488528846338E-03 a       464     0    24     1     4
 -2.2639207497401176E-01 a       465     0    24     1     5
 -2.5816793783282521E-01 a       466     0    24     1     6
  7.2169121613402137E-02 a       467     0    24     1     7
 -1.3128353207352353E-01 a       468     0    24     1     8
  2.5265536751644657E-01 a       469     0    24     1     9
  1.4099958538289759E-01 a       470     0    24     1    10
 -4.6030090927845428E-02 a       471     0    24     1    11
 -1.7103140032030997E-01 a       472     0    24     1    12
 -2.1733834057176185E-01 a       473     0    24     1    13
  8.9513279868271775E-02 a       474     0    24     1    14
  1.3155006818943035E-01 a       475     0    24     1    15
 -4.3498275254147817E-02 a       476     0    24     1    16
  1.7737340810312710E-01 a       477     0    24     1    17
 -2.8149412302333005E-01 a       478     0    24     1    18
  3.6369442935326930E-03 a       479     0    24     1    19
  3.8474274361789634E-01 a       480     0    24     1    20
  1.4782081825500787E-01 a       481     0    25     1     1
 -4.1329917846058606E-02 a       482     0    25     1     2
  3.4663092857446770E-01 a       483     0    25     1     3
  1.8732764121921150E-01 a       484     0    25     1     4
 -4.9937945401372780E-01 a       485     0    25     1     5
  1.7843977288632445E-01 a       486     0    25     1     6
 -1.7681013581887420E-01 a       487     0    25     1     7
 -4.6887922561403859E-02 a       488     0    25     1     8
  2.4907826350426376E-02 a       489     0    25     1     9
  1.6071379711117081E-01 a       490     0    25     1    10
 -9.6694679608128383E-03 a       491     0    25     1    11
  1.9189424756104964E-01 a       492     0    25     1    12
  2.8315032325361306E-01 a       493     0    25     1    13
 -5.7857634523544021E-01 a       494     0    25     1    14
 -7.1333711523786911E-02 a       495     0    25     1    15
  1.5974489419097679E-01 a       496     0    25     1    16
 -1.8282849088100359E-01 a       497     0    25     1    17
  8.1774981392586626E-02 a       498     0    25     1    18
 -9.3962762569193226E-02 a       499     0    25     1    19
 -4.9647131324608595E-01 a       500     0    25     1    20
 -1.8766958605470421E-02 a       501     0    26     1     1
 -9.8954280152834015E-02 a       502     0    26     1     2
 -7.1653887021815230E-02 a       503     0    26     1     3
  2.5380333469910078E-02 a       504     0    26     1     4
 -9.3044345114970256E-02 a       505     0    26     1     5
  3.7326912018170993E-01 a       506     0    26     1     6
 -2.1093722995781033E-01 a       507     0    26     1     7
  1.8907626933515412E-01 a       508     0    26     1     8
 -6.9005494060750128E-02 a       509     0    26     1     9
 -1.8158352575775688E-01 a       510     0    26     1    10
  1.6500102740590114E-01 a       511     0    26     1    11
  2.7474486426619044E-01 a       512     0    26     1    12
  1.7825384040559994E-01 a       513     0    26     1    13
 -4.5175186345030188E-01 a       514     0    26     1    14
  2.2832326138866238E-01 a       515     0    26     1    15
  4.4718063229349875E-02 a       516     0    26     1    16
 -5.1141711837530371E-02 a       517     0    26     1    17
  5.3252263243999964E-01 a       518     0    26     1    18
  4.8665362165655583E-02 a       519     0    26     1    19
 -7.2127913717772940E-01 a       520     0    26     1    20
  1.1711336372401132E-01 a       521     0    27     1     1
  1.4197193162235666E-01 a       522     0    27     1     2
 -1.2669952000394444E-01 a       523     0    27     1     3
 -3.0336748297966826E-01 a       524     0    27     1     4
  3.6757694133144675E-01 a       525     0    27     1     5
  5.1335381075002108E-02 a       526     0    27     1     6
  1.9165786676245469E-01 a       527     0    27     1     7
  9.4797888844567979E-01 a       528     0    27     1     8
  4.7371799742388955E-02 a       529     0    27     1     9
  7.2688194473744916E-01 a       530     0    27     1    10
  2.1847181165693200E-01 a       531     0    27     1    11
 -6.2066013700712508E-01 a       532     0    27     1    12
  3.3982007461131852E-01 a       533     0    27     1    13
  4.2159330126653155E-01 a       534     0    27     1    14
  1.6067556853264015E-01 a       535     0    27     1    15
  3.6505961386323182E-01 a       536     0    27     1    16
  1.2683386178274653E-01 a       537     0    27     1    17
 -2.1308267864031261E-01 a       538     0    27     1    18
 -2.9983737182355025E-01 a       539     0    27     1    19
 -2.6842289607239761E-01 a       540     0    27     1    20
  3.4236388443378601E-01 b       541     1     1
  8.8827805223157574E-01 b       542     1     2
  1.7678988297354270E+00 b       543     1     3
  6.3224151658551053E-01 b       544     1     4
 -1.0773372958436400E+00 b       545     1     5
  1.5258414658920932E-01 b       546     1     6
 -1.9048950383825218E+00 b       547     1     7
 -1.7297457362964841E+00 b       548     1     8
 -3.1079659848270363E-01 b       549     1     9
  7.2089230898096068E-01 b       550     1    10
 -9.2117966606475754E-01 b       551     1    11
 -1.2784392122799104E+00 b       552     1    12
 -7.6959570014559664E-01 b       553     1    13
 -1.4931514838134086E-01 b       554     1    14
 -8.0359653435061695E-01 b       555     1    15
  3.0147318436364778E-01 b       556     1    16
 -3.5663937681009250E-01 b       557     1    17
  1.3781373764659781E+00 b       558     1    18
 -5.5664276636469175E-02 b       559     1    19
  1.2921287728903939E+00 b       560     1    20
 -4.0524695497031371E-01 a       561     1     1     2     1
  2.6305137115574934E-01 a       562     1     1     2     2
 -6.6075623515900517E-01 a       563     1     1     2     3
  6.9970642346578249E-01 a       564     1     1     2     4
 -1.0140497057587942E-01 a       565     1     1     2     5
 -3.3731986637492406E-01 a       566     1     1     2     6
 -6.2918592239995474E-01 a       567     1     1     2     7
  2.6284072339674891E-01 a       568     1     1     2     8
 -2.9448344863069043E-01 a       569     1     1     2     9
 -2.4917233335314970E-01 a       570     1     1     2    10
  3.1480143288820672E-01 a       571     1     1     2    11
 -2.8831972425272023E-02 a       572     1     1     2    12
  3.8946126244211393E-01 a       573     1     1     2    13
 -1.9816348341904688E-01 a       574     1     1     2    14
 -2.6925643653052367E-01 a       575     1     1     2    15
  3.7298381490020316E-01 a       576     1     1     2    16
 -4.9162752357674966E-01 a       577     1     1     2    17
 -2.2351013486652582E-01 a       578     1     1     2    18
  1.3233562885959549E-01 a       579     1     1     2    19
 -5.2161818658268078E-01 a       580     1     1     2    20
 -2.5948989311250940E-02 a       581     1     2     2     1
 -3.9954922125662301E-01 a       582     1     2     2     2
  2.8341244802552579E-01 a       583     1     2     2     3
  4.6203659534706537E-01 a       584     1     2     2     4
  6.5907351143855541E-01 a       585     1     2     2     5
  1.1588268767392526E-01 a       586     1     2     2     6
  3.7934025457194714E-01 a       587     1     2     2     7
  1.4739252881946324E-01 a       588     1     2     2     8
  5.4697707248837790E-01 a       589     1     2     2     9
 -1.4918335285146514E-01 a       590     1     2     2    10
 -6.3204047023885745E-01 a       591     1     2     2    11
  4.1660425447292643E-03 a       592     1     2     2    12
 -1.1813470759081951E-01 a       593     1     2     2    13
 -3.4949491836835755E-01 a       594     1     2     2    14
 -3.6095688569522616E-01 a       595     1     2     2    15
  6.1507191180972094E-02 a       596     1     2     2    16
  2.0752389798721911E-02 a       597     1     2     2    17
 -6.4172761996828598E-01 a       598     1     2     2    18
 -9.6129359210661103E-01 a       599     1     2     2    19
  1.3530973434401886E-01 a       600     1     2     2    20
 -6.1222234907855763E-02 a       601     1     3     2     1
 -7.0967520664436023E-01 a       602     1     3     2     2
  4.9046416991849134E-01 a       603     1     3     2     3
 -4.5468404830983244E-01 a       604     1     3     2     4
 -6.1216105055543391E-01 a       605     1     3     2     5
 -3.1524817866660515E-01 a       606     1     3     2     6
 -5.7056398052614365E-01 a       607     1     3     2     7
  7.3833973437107914E-01 a       608     1     3     2     8
  1.1135027036790263E-01 a       609     1     3     2     9
  8.9991867106097204E-02 a       610     1     3     2    10
  1.3609667881653562E-01 a       611     1     3     2    11
  8.7032857176768053E-01 a       612     1     3     2    12
  6.2329361929478611E-01 a       613     1     3     2    13
  7.2714320324278950E-02 a       614     1     3     2    14
 -1.5071401645576710E-01 a       615     1     3     2    15
  2.1781855310807011E-01 a       616     1     3     2    16
 -2.1205367317954180E-01 a       617     1     3     2    17
  4.5198898525817693E-01 a       618     1     3     2    18
 -3.4966315443062451E-01 a       619     1     3     2    19
 -4.5056176873509574E-01 a       620     1     3     2    20
  3.0773738774424308E-01 a       621     1     4     2     1
  5.7614141939690366E-01 a       622     1     4     2     2
 -4.4268073157924054E-01 a       623     1     4     2     3
  8.5135745923506045E-01 a       624     1     4     2     4
  3.0622166735857237E-01 a       625     1     4     2     5
  1.0864933983406172E-03 a       626     1     4     2     6
 -4.1644119828437243E-02 a       627     1     4     2     7
 -3.4044259143713518E-01 a       628     1     4     2     8
  3.3375711598783731E-01 a       629     1     4     2     9
 -8.8444372413052710E-02 a       630     1     4     2    10
  3.6497972051509625E-01 a       631     1     4     2    11
 -1.2739052595344328E-02 a       632     1     4     2    12
  6.2059046445421573E-01 a       633     1     4     2    13
 -2.2363913846099845E-01 a       634     1     4     2    14
 -7.5486355827660545E-01 a       635     1     4     2    15
 -5.1632230392873135E-01 a       636     1     4     2    16
 -1.1483996650239274E+00 a       637     1     4     2    17
 -8.9302037637120912E-01 a       638     1     4     2    18
  1.0978567036205261E-01 a       639     1     4     2    19
 -2.5245130782576608E-01 a       640     1     4     2    20
 -3.6672964548098841E-01 a       641     1     5     2     1
 -2.3686496131189524E-01 a       642     1     5     2     2
 -4.8409494674637449E-01 a       643     1     5     2     3
 -2.6700358724706397E-01 a       644     1     5     2     4
 -6.8791143318519488E-01 a       645     1     5     2     5
 -4.3624307790356559E-01 a       646     1     5     2     6
 -2.7640179471930476E-01 a       647     1     5     2     7
  6.1329839995359708E-02 a       648     1     5     2     8
  3.7498573922790529E-01 a       649     1     5     2     9
  2.2131965133037224E-01 a       650     1     5     2    10
 -1.7318471201766580E-01 a       651     1     5     2    11
 -7.8584202819972609E-02 a       652     1     5     2    12
 -6.1542093635409512E-01 a       653     1     5     2    13
  7.4567581681595352E-01 a       654     1     5     2    14
 -3.6778847407650347E-02 a       655     1     5     2    15
  1.9472216264528538E-01 a       656     1     5     2    16
  6.3883449338557841E-01 a       657     1     5     2    17
 -1.8554368850337760E-01 a       658     1     5     2    18
  1.3280570767465774E-01 a       659     1     5     2    19
 -2.6470232504990393E-01 a       660     1     5     2    20
  2.0538442191038495E-01 a       661     1     6     2     1
  4.4995791282814118E-01 a       662     1     6     2     2
 -2.9798790883903525E-01 a       663     1     6     2     3
 -2.7475979294612646E-01 a       664     1     6     2     4
 -1.0775121430234437E-01 a       665     1     6     2     5
  1.0212477935451440E-01 a       666     1     6     2     6
 -3.7467130857976011E-01 a       667     1     6     2     7
  3.6368478888657441E-01 a       668     1     6     2     8
  3.9205836263250593E-01 a       669     1     6     2     9
  2.5783707059454475E-01 a       670     1     6     2    10
  7.1088727623310222E-01 a       671     1     6     2    11
  2.4637190252706467E-01 a       672     1     6     2    12
 -4.7810548269265235E-01 a       673     1     6     2    13
 -3.3831074745297063E-01 a       674     1     6     2    14
  7.9822522395745901E-02 a       675     1     6     2    15
  3.9795371644935945E-01 a       676     1     6     2    16
  2.5212924373135986E-01 a       677     1     6     2    17
  1.6948474116315732E-01 a       678     1     6     2    18
 -6.7952029724342644E-01 a       679     1     6     2    19
 -4.9716964274100918E-02 a       680     1     6     2    20
 -2.5952298431358479E-02 a       681     1     7     2     1
 -2.4623489417595446E-01 a       682     1     7     2     2
 -4.8825694397814166E-02 a       683     1     7     2     3
  6.0936488682840506E-01 a       684     1     7     2     4
 -1.1125384729666641E+00 a       685     1     7     2     5
 -3.7497418032446578E-01 a       686     1     7     2     6
 -6.6971505645800156E-01 a       687     1     7     2     7
  4.9112954634264006E-01 a       688     1     7     2     8
 -2.8080252537915668E-01 a       689     1     7     2     9
  4.1275029814778930E-01 a       690     1     7     2    10
  3.0081915099016776E-01 a       691     1     7     2    11
 -3.0984836200740794E-02 a       692     1     7     2    12
 -9.0454654148551850E-01 a       693     1     7     2    13
 -3.0427559909953006E-01 a       694     1     7     2    14
  7.0589382473060414E-01 a       695     1     7     2    15
  7.1501596923646982E-01 a       696     1     7     2    16
  3.2687335702731440E-01 a       697     1     7     2    17
  3.9076543438793282E-01 a       698     1     7     2    18
  1.1842403134938036E-01 a       699     1     7     2    19
  6.4054155535001833E-01 a       700     1     7     2    20
  7.4455887834935630E-01 a       701     1     8     2     1
  6.9924351226956205E-01 a       702     1     8     2     2
  7.3138284500155498E-02 a       703     1     8     2     3
  4.2541066604844041E-01 a       704     1     8     2     4
  3.6192396415733699E-02 a       705     1     8     2     5
  1.1595222549392853E-01 a       706     1     8     2     6
  1.6298713098385703E-01 a       707     1     8     2     7
 -3.3418915976106306E-01 a       708     1     8     2     8
 -3.7257156720925239E-01 a       709     1     8     2     9
 -4.1131410063785900E-02 a       710     1     8     2    10
 -6.9185555332335824E-01 a       711     1     8     2    11
 -1.3240421400742819E-01 a       712     1     8     2    12
 -1.8346343201757370E-01 a       713     1     8     2    13
  7.0080002759032600E-01 a       714     1     8     2    14
  2.7159740433430422E-02 a       715     1     8     2    15
 -3.3954892635604539E-01 a       716     1     8     2    16
 -5.7463907999854280E-01 a       717     1     8     2    17
 -8.7515595926548873E-01 a       718     1     8     2    18
 -7.0725043707614610E-01 a       719     1     8     2    19
  3.1968547908400446E-01 a       720     1     8     2    20
 -5.0965434209090188E-03 a       721     1     9     2     1
 -2.5448261307270903E-01 a       722     1     9     2     2
  2.0929904026125434E-03 a       723     1     9     2     3
  1.0735749432878132E-01 a       724     1     9     2     4
 -5.5070727745931791E-01 a       725     1     9     2     5
 -7.3703304152251770E-01 a       726     1     9     2     6
 -2.1259105875615542E-01 a       727     1     9     2     7
  3.3850160203269392E-01 a       728     1     9     2     8
 -1.4339862340292736E-01 a       729     1     9     2     9
  1.5439620045129884E-01 a       730     1     9     2    10
 -6.4722591309523042E-02 a       731     1     9     2    11
  3.2679561260049832E-02 a       732     1     9     2    12
  4.4401749935611923E-01 a       733     1     9     2    13
 -2.1754954964408560E-01 a       734     1     9     2    14
 -5.7104462235610109E-01 a       735     1     9     2    15
  3.5357660016278086E-01 a       736     1     9     2    16
 -5.3067832101433388E-01 a       737     1     9     2    17
 -3.8466480056965346E-01 a       738     1     9     2    18
  5.1001986831783575E-01 a       739     1     9     2    19
 -2.3820214217077731E-01 a       740     1     9     2    20
  2.9582485299409295E-02 a       741     1    10     2     1
 -2.7076439966277915E-01 a       742     1    10     2     2
 -1.5637765617182967E-01 a       743     1    10     2     3
  2.3258147774713068E-02 a       744     1    10     2     4
  3.0973585461694819E-01 a       745     1    10     2     5
 -6.5037974027850687E-01 a       746     1    10     2     6
  2.4226893047396461E-01 a       747     1    10     2     7
 -2.2424306820975315E-01 a       748     1    10     2     8
  1.2954560444012189E-01 a       749     1    10     2     9
 -3.3492087262314590E-01 a       750     1    10     2    10
  1.8753299398231300E-02 a       751     1    10     2    11
  1.0005076075769245E-01 a       752     1    10     2    12
  4.4063548802152830E-01 a       753     1    10     2    13
 -3.2765426881602328E-01 a       754     1    10     2    14
 -1.0069806391721590E-01 a       755     1    10     2    15
  7.6500301296195727E-02 a       756     1    10     2    16
 -6.2743595241393824E-01 a       757     1    10     2    17
 -9.3788154644970881E-02 a       758     1    10     2    18
  6.4540196046163856E-01 a       759     1    10     2    19
  9.6178463384476387E-02 a       760     1    10     2    20
  1.0748803045258085E-02 a       761     1    11     2     1
 -8.7925871751295803E-01 a       762     1    11     2     2
  7.0286791079024774E-02 a       763     1    11     2     3
 -1.0637923594059996E-01 a       764     1    11     2     4
 -3.0557333507723970E-02 a       765     1    11     2     5
 -2.9964908917654024E-02 a       766     1    11     2     6
 -8.6931146406228843E-02 a       767     1    11     2     7
 -8.5873670249688083E-01 a       768     1    11     2     8
  1.4653136661948604E-01 a       769     1    11     2     9
 -6.6859399936774899E-01 a       770     1    11     2    10
  3.2633818369936507E-01 a       771     1    11     2    11
 -5.8622637118367127E-01 a       772     1    11     2    12
 -5.8568529160841820E-01 a       773     1    11     2    13
  3.4966641304280946E-03 a       774     1    11     2    14
  2.2098659939106582E-01 a       775     1    11     2    15
 -2.7103604973100281E-01 a       776     1    11     2    16
  5.9341528950866151E-01 a       777     1    11     2    17
  5.1410481374196726E-01 a       778     1    11     2    18
  4.9868281189828673E-01 a       779     1    11     2    19
  1.8101559719821114E-01 a       780     1    11     2    20
 -4.0810819439714124E-01 a       781     1    12     2     1
  3.4415570745846064E-01 a       782     1    12     2     2
 -2.8827312926792781E-01 a       783     1    12     2     3
 -1.2096975479575320E+00 a       784     1    12     2     4
 -2.3646188604188448E-01 a       785     1    12     2     5
 -3.5421157977543694E-01 a       786     1    12     2     6
 -4.2352991197572964E-02 a       787     1    12     2     7
 -1.7696209138160421E-01 a       788     1    12     2     8
 -8.2282572478784854E-01 a       789     1    12     2     9
 -8.1363282623427569E-01 a       790     1    12     2    10
 -6.4216862771432598E-02 a       791     1    12     2    11
 -1.9360433610149186E-01 a       792     1    12     2    12
  1.4536858444200609E-01 a       793     1    12     2    13
  3.5321586688952439E-01 a       794     1    12     2    14
  2.4041193384582757E-01 a       795     1    12     2    15
 -2.3780290152507302E-01 a       796     1    12     2    16
  1.5260939279614158E-01 a       797     1    12     2    17
 -3.8022752838980833E-01 a       798     1    12     2    18
  6.9113573558006347E-02 a       799     1    12     2    19
  2.9532858391317285E-01 a       800     1    12     2    20
  6.1293479477590596E-01 a       801     1    13     2     1
  2.4236161870146042E-01 a       802     1    13     2     2
  5.4043583716564276E-03 a       803     1    13     2     3
 -1.9996814658955184E-01 a       804     1    13     2     4
 -1.3502708469774830E-01 a       805     1    13     2     5
 -3.5764250616869248E-02 a       806     1    13     2     6
 -1.1714816756236279E-01 a       807     1    13     2     7
 -6.7533341945586661E-02 a       808     1    13     2     8
 -6.8751307511879844E-01 a       809     1    13     2     9
  2.8900780007547644E-01 a       810     1    13     2    10
  1.4243515545469079E-01 a       811     1    13     2    11
 -6.2323393933785484E-04 a       812     1    13     2    12
 -8.1832652816757917E-02 a       813     1    13     2    13
  4.0568029481989017E-02 a       814     1    13     2    14
  2.3221753735196779E-01 a       815     1    13     2    15
 -1.1725507619296043E+00 a       816     1    13     2    16
  8.4439196710680314E-02 a       817     1    13     2    17
 -6.0991903783503665E-01 a       818     1    13     2    18
 -3.7996374103001856E-01 a       819     1    13     2    19
  1.0606865929369900E+00 a       820     1    13     2    20
 -1.1208496814028698E-01 a       821     1    14     2     1
  3.6231540997586298E-01 a       822     1    14     2     2
 -7.1253545134126031E-02 a       823     1    14     2     3
 -6.9157387183921060E-01 a       824     1    14     2     4
  2.9503418609945853E-01 a       825     1    14     2     5
  2.8307189674371436E-01 a       826     1    14     2     6
  2.3354723989666762E-01 a       827     1    14     2     7
 -9.6581324878234634E-02 a       828     1    14     2     8
 -1.3685875360573088E-01 a       829     1    14     2     9
 -2.8049020219920218E-02 a       830     1    14     2    10
 -4.6923934280859775E-01 a       831     1    14     2    11
  2.2855613308619754E-01 a       832     1    14     2    12
  2.4732314229306576E-01 a       833     1    14     2    13
 -8.9994214260308480E-01 a       834     1    14     2    14
  6.3235696150056009E-01 a       835     1    14     2    15
 -1.9646617058549479E-01 a       836     1    14     2    16
 -2.8944387035412417E-01 a       837     1    14     2    17
 -6.4080214557689896E-01 a       838     1    14     2    18
  3.1976862779529991E-01 a       839     1    14     2    19
 -2.8372579228729172E-01 a       840     1    14     2    20
 -4.3118930087733742E-01 a       841     1    15     2     1
  6.0968473474346363E-01 a       842     1    15     2     2
  3.1701703417013649E-01 a       843     1    15     2     3
 -3.2596627405543688E-01 a       844     1    15     2     4
  3.7692602632312161E-01 a       845     1    15     2     5
 -2.5521481171012766E-01 a       846     1    15     2     6
 -2.7196762919631756E-01 a       847     1    15     2     7
  4.6184134615358224E-02 a       848     1    15     2     8
 -3.9916818443816243E-01 a       849     1    15     2     9
 -3.4712896592556652E-01 a       850     1    15     2    10
 -3.3009133284288822E-01 a       851     1    15     2    11
  1.6420398419675511E-01 a       852     1    15     2    12
  5.1399638302661865E-01 a       853     1    15     2    13
 -1.1378260805101476E-01 a       854     1    15     2    14
  6.7009029795356079E-01 a       855     1    15     2    15
  3.5235026725385965E-01 a       856     1    15     2    16
 -5.7730036056193734E-01 a       857     1    15     2    17
 -5.3996941390338349E-01 a       858     1    15     2    18
 -5.1952872958858021E-01 a       859     1    15     2    19
 -3.8192034639385253E-01 a       860     1    15     2    20
 -3.2755557469343904E-01 a       861     1    16     2     1
 -3.4051302618363882E-01 a       862     1    16     2     2
  9.4746721863364680E-01 a       863     1    16     2     3
 -6.4431796021001159E-02 a       864     1    16     2     4
  1.4178710874780867E-01 a       865     1    16     2     5
  1.7981356761336414E-01 a       866     1    16     2     6
  1.1090207286932242E-01 a       867     1    16     2     7
 -2.9618887034241892E-01 a       868     1    16     2     8
  3.3280742624657039E-01 a       869     1    16     2     9
  4.2839591330336502E-01 a       870     1    16     2    10
 -3.6694471328682254E-02 a       871     1    16     2    11
 -4.6081883759567821E-01 a       872     1    16     2    12
 -6.0382927453057123E-02 a       873     1    16     2    13
  2.5368484191740581E-01 a       874     1    16     2    14
  4.1843897644249456E-01 a       875     1    16     2    15
 -5.1540926786961605E-01 a       876     1    16     2    16
 -2.9363607526642399E-01 a       877     1    16     2    17
  1.4553354211191016E-01 a       878     1    16     2    18
  7.5419598818532399E-02 a       879     1    16     2    19
  8.0669281474631427E-02 a       880     1    16     2    20
 -7.1999075914954658E-01 a       881     1    17     2     1
  1.0939417139886862E-01 a       882     1    17     2     2
  1.8142648598192962E-01 a       883     1    17     2     3
  2.1707181231610126E-01 a       884     1    17     2     4
 -4.1874274573479614E-01 a       885     1    17     2     5
  1.0728019265228805E+00 a       886     1    17     2     6
 -2.2027277612468410E-01 a       887     1    17     2     7
  3.9691479159253135E-01 a       888     1    17     2     8
  1.5326303594705107E-01 a       889     1    17     2     9
  2.1135616637448847E-02 a       890     1    17     2    10
 -4.6001686534526193E-01 a       891     1    17     2    11
  2.7135497759720933E-01 a       892     1    17     2    12
 -2.7046964503551246E-01 a       893     1    17     2    13
  4.0239679808250445E-01 a       894     1    17     2    14
 -4.1537916092197213E-01 a       895     1    17     2    15
  2.7598370560864821E-01 a       896     1    17     2    16
  1.9389932557732489E-01 a       897     1    17     2    17
  6.5222729657686884E-02 a       898     1    17     2    18
 -1.5161551646983146E-01 a       899     1    17     2    19
 -2.6729547015599403E-01 a       900     1    17     2    20
  7.3107171759706391E-01 a       901     1    18     2     1
  2.9738582214577119E-01 a       902     1    18     2     2
  7.8796988441211568E-01 a       903     1    18     2     3
 -5.1278495103788191E-01 a       904     1    18     2     4
 -9.9536773115882118E-02 a       905     1    18     2     5
  3.3059674028796393E-01 a       906     1    18     2     6
  3.4896764224638283E-01 a       907     1    18     2     7
 -1.3933884494258816E-01 a       908     1    18     2     8
 -7.6315014333817632E-01 a       909     1    18     2     9
 -1.4579432028635011E-02 a       910     1    18     2    10
  7.6852704969374200E-02 a       911     1    18     2    11
 -4.0641199474396483E-01 a       912     1    18     2    12
  2.3543405537630901E-01 a       913     1    18     2    13
  7.4197984465466955E-03 a       914     1    18     2    14
 -2.7224777521461391E-01 a       915     1    18     2    15
  3.4880235455348746E-01 a       916     1    18     2    16
 -1.3245002306180850E-01 a       917     1    18     2    17
  9.3252694408229453E-01 a       918     1    18     2    18
  3.7077892351309055E-01 a       919     1    18     2    19
 -6.5936456013821609E-01 a       920     1    18     2    20
  5.5986632196929426E-02 a       921     1    19     2     1
 -8.0153860082023265E-01 a       922     1    19     2     2
  7.7844811844214068E-01 a       923     1    19     2     3
 -5.7357576956851108E-01 a       924     1    19     2     4
 -3.8128374036413892E-01 a       925     1    19     2     5
 -6.5371292645574808E-01 a       926     1    19     2     6
 -4.0175859702735622E-01 a       927     1    19     2     7
 -1.0510117537344847E-02 a       928     1    19     2     8
  2.4671957273804543E-01 a       929     1    19     2     9
  3.7144974081010851E-01 a       930     1    19     2    10
 -5.7892358875970984E-01 a       931     1    19     2    11
  1.3881061210944812E-01 a       932     1    19     2    12
 -1.8411408667233040E-01 a       933     1    19     2    13
 -3.6013832938080492E-01 a       934     1    19     2    14
 -5.4981384371078368E-01 a       935     1    19     2    15
 -3.7438229113038757E-01 a       936     1    19     2    16
  5.6587596541345035E-02 a       937     1    19     2    17
 -6.2897779087930716E-01 a       938     1    19     2    18
  1.6939589146070222E-01 a       939     1    19     2    19
  7.7466611572209923E-02 a       940     1    19     2    20
 -2.7625736693269665E-01 a       941     1    20     2     1
  6.2835168718895362E-01 a       942     1    20     2     2
  1.4496111409398002E-01 a       943     1    20     2     3
  1.1301028365298071E+00 a       944     1    20     2     4
 -8.0600267963542357E-03 a       945     1    20     2     5
 -3.1031362456357064E-01 a       946     1    20     2     6
 -3.5218294948542916E-01 a       947     1    20     2     7
  6.2040044682421946E-01 a       948     1    20     2     8
 -8.9867652288569355E-01 a       949     1    20     2     9
 -3.9947201685071410E-01 a       950     1    20     2    10
  3.7646113151626026E-01 a       951     1    20     2    11
 -5.8755034683788165E-01 a       952     1    20     2    12
 -4.2770406262630664E-02 a       953     1    20     2    13
  1.7600670084730485E-01 a       954     1    20     2    14
  3.1714488964143589E-01 a       955     1    20     2    15
  4.5911826113175636E-01 a       956     1    20     2    16
  4.2850421815433692E-01 a       957     1    20     2    17
  9.3132118700746214E-01 a       958     1    20     2    18
  1.3370725098147465E-01 a       959     1    20     2    19
  4.8743660091745045E-01 a       960     1    20     2    20
 -1.4057374000734293E-01 b       961     2     1
  1.2371410847091522E+00 b       962     2     2
 -1.9951372792745023E-01 b       963     2     3
 -6.7928981821863021E-01 b       964     2     4
 -1.4124420746227910E+00 b       965     2     5
  1.9903267713222677E+00 b       966     2     6
  1.5993182987869357E+00 b       967     2     7
 -1.2313855064772785E+00 b       968     2     8
 -5.6704552123982299E-01 b       969     2     9
  1.3341030865916783E+00 b       970     2    10
  1.4338738578276893E+00 b       971     2    11
  1.1710362447719569E+00 b       972     2    12
 -4.9987792738323778E-03 b       973     2    13
 -1.4471403918256895E+00 b       974     2    14
 -1.0759678668981187E+00 b       975     2    15
  8.7521014851402457E-01 b       976     2    16
 -1.2501879802145297E+00 b       977     2    17
 -6.3883364744719062E-01 b       978     2    18
  1.4831767348946398E-01 b       979     2    19
  1.0674779891758190E-01 b       980     2    20
 -1.5914161353487472E-01 a       981     2     1     3     1
  5.6207159524594641E-01 a       982     2     2     3     1
  5.3001938339601551E-01 a       983     2     3     3     1
 -1.7369059211621218E-01 a       984     2     4     3     1
 -8.0138756296950664E-01 a       985     2     5     3     1
  1.4018667922679049E+00 a       986     2     6     3     1
  2.0259048683567911E+00 a       987     2     7     3     1
 -4.3373724841740080E-01 a       988     2     8     3     1
 -6.9315128886501098E-01 a       989     2     9     3     1
  2.0833800223565171E+00 a       990     2    10     3     1
  1.8351798437788684E+00 a       991     2    11     3     1
  1.9642637072126430E+00 a       992     2    12     3     1
  1.0434821870963187E+00 a       993     2    13     3     1
 -2.9811572293280486E+00 a       994     2    14     3     1
 -2.2581312925905457E+00 a       995     2    15     3     1
  8.9831301394410146E-01 a       996     2    16     3     1
 -2.2603885664902696E+00 a       997     2    17     3     1
  1.1140531527607695E+00 a       998     2    18     3     1
 -3.9157711826185763E-02 a       999     2    19     3     1
 -1.1669685630668523E+00 a      1000     2    20     3     1
  2.1786598051914057E+00 b      1001     3     1
