################################################################################
# Neural network connection values (weights and biases).
################################################################################
# Col  Name       Description
################################################################################
# 1    connection Neural network connection value.
# 2    t          Connection type (a = weight, b = bias).
# 3    index      Index enumerating weights.
# 4    l_s        Starting point layer (end point layer for biases).
# 5    n_s        Starting point neuron in starting layer (end point neuron for biases).
# 6    l_e        End point layer.
# 7    n_e        End point neuron in end layer.
################################################################################
#                      1 2         3     4     5     6     7
#             connection t     index   l_s   n_s   l_e   n_e
############################################################
  1.5700763992594330E-01 a         1     0     1     1     1
 -3.0039187063903833E-01 a         2     0     1     1     2
 -1.5532617441752145E-01 a         3     0     1     1     3
 -1.0672713546407759E+00 a         4     0     1     1     4
  1.3403900556060153E+00 a         5     0     1     1     5
  1.9351774342979591E-01 a         6     0     1     1     6
  1.1207875363401691E+00 a         7     0     1     1     7
 -5.0035819664949521E-01 a         8     0     1     1     8
  1.7198897992229634E+00 a         9     0     1     1     9
  5.8881211514216804E-02 a        10     0     1     1    10
  4.2229830201436230E-01 a        11     0     1     1    11
 -3.4332403293196073E-01 a        12     0     1     1    12
  6.2042203384725791E-01 a        13     0     1     1    13
 -1.1570305932666116E+00 a        14     0     1     1    14
  9.5215535700837628E-01 a        15     0     1     1    15
  5.2192325314094490E-01 a        16     0     1     1    16
 -4.9982173948090575E-01 a        17     0     1     1    17
  1.3213869144530954E-01 a        18     0     1     1    18
  4.1455116472397974E-01 a        19     0     1     1    19
 -5.6459766567741032E-01 a        20     0     1     1    20
 -5.3558094889569574E-01 a        21     0     2     1     1
  2.2235065444963958E-01 a        22     0     2     1     2
  3.9952309336660508E-01 a        23     0     2     1     3
  1.0302149111945560E+00 a        24     0     2     1     4
 -9.9464204757687280E-01 a        25     0     2     1     5
  1.0859852025929575E+00 a        26     0     2     1     6
 -1.1053790622262099E+00 a        27     0     2     1     7
  6.5140909810754419E-02 a        28     0     2     1     8
 -1.1205051462316307E+00 a        29     0     2     1     9
  3.3643783232527363E-01 a        30     0     2     1    10
 -5.9289249855653681E-01 a        31     0     2     1    11
  3.5234763696380861E-01 a        32     0     2     1    12
 -1.3708774618351238E+00 a        33     0     2     1    13
  4.5211794275652478E-01 a        34     0     2     1    14
 -9.8038289335395035E-01 a        35     0     2     1    15
 -5.8496829911494042E-01 a        36     0     2     1    16
  5.1211518255640320E-01 a        37     0     2     1    17
 -3.9857852446733899E-01 a        38     0     2     1    18
 -4.9893662223069823E-01 a        39     0     2     1    19
  9.5962378160913395E-02 a        40     0     2     1    20
 -2.3221304003772977E-02 a        41     0     3     1     1
  8.9188247194602199E-01 a        42     0     3     1     2
  3.8301179474349960E-02 a        43     0     3     1     3
  1.6290373433795205E-01 a        44     0     3     1     4
  8.0105112894981578E-01 a        45     0     3     1     5
 -5.6140785047631270E-01 a        46     0     3     1     6
 -6.8426893779797071E-01 a        47     0     3     1     7
  4.7731762790802920E-02 a        48     0     3     1     8
  2.7232288484447886E-01 a        49     0     3     1     9
 -1.0723896166994691E-01 a        50     0     3     1    10
  3.2458548277782262E-01 a        51     0     3     1    11
  1.1083265513682404E-01 a        52     0     3     1    12
 -6.2975020295039088E-03 a        53     0     3     1    13
  1.7645384135670847E-01 a        54     0     3     1    14
  1.1770112369301511E-01 a        55     0     3     1    15
  2.1330812734300914E-01 a        56     0     3     1    16
 -9.9114293116838004E-02 a        57     0     3     1    17
  1.9302713041151454E-01 a        58     0     3     1    18
  5.9438107503404036E-01 a        59     0     3     1    19
 -1.9002427316092690E-01 a        60     0     3     1    20
  4.9748400602440163E-01 a        61     0     4     1     1
 -3.7450786880129783E-01 a        62     0     4     1     2
 -2.0641183335025126E-01 a        63     0     4     1     3
 -7.7865262307880778E-01 a        64     0     4     1     4
 -1.1176425105383311E-01 a        65     0     4     1     5
  8.7236754130315369E-02 a        66     0     4     1     6
  3.3653264776913533E-01 a        67     0     4     1     7
 -1.3325103771548732E-01 a        68     0     4     1     8
 -3.8293636819696675E-01 a        69     0     4     1     9
 -3.8385956818911859E-01 a        70     0     4     1    10
  4.1800324916173574E-02 a        71     0     4     1    11
 -2.9442898486776118E-02 a        72     0     4     1    12
  4.0054698081013036E-02 a        73     0     4     1    13
  2.9892622784486872E-01 a        74     0     4     1    14
 -4.8570722860862323E-02 a        75     0     4     1    15
  3.9501871959517286E-02 a        76     0     4     1    16
 -2.0853465513903416E-01 a        77     0     4     1    17
  4.8514889955140984E-03 a        78     0     4     1    18
  3.1297539094097671E-01 a        79     0     4     1    19
  2.4201925458337153E-01 a        80     0     4     1    20
 -3.6251615122013164E-01 a        81     0     5     1     1
  1.0628909855509008E+00 a        82     0     5     1     2
 -2.7706567108083047E-01 a        83     0     5     1     3
  1.1942379117996931E+00 a        84     0     5     1     4
 -1.2954688956669327E-01 a        85     0     5     1     5
 -3.6641678200619704E-01 a        86     0     5     1     6
 -5.9181194117768443E-01 a        87     0     5     1     7
 -4.2636076078887336E-01 a        88     0     5     1     8
  2.5807640938546500E-01 a        89     0     5     1     9
  1.8001382878772060E-01 a        90     0     5     1    10
 -1.0220954745505079E-01 a        91     0     5     1    11
 -5.7327391551316463E-02 a        92     0     5     1    12
 -1.7273292934371065E-01 a        93     0     5     1    13
  7.0287082303765780E-01 a        94     0     5     1    14
 -7.6017631309383149E-01 a        95     0     5     1    15
 -4.9130970272375790E-01 a        96     0     5     1    16
 -1.2036837374657408E-01 a        97     0     5     1    17
 -4.7366291038847264E-01 a        98     0     5     1    18
  4.1420951155542346E-01 a        99     0     5     1    19
  4.5606109925699773E-01 a       100     0     5     1    20
  5.6107501021584238E-01 a       101     0     6     1     1
 -5.4902518063224970E-01 a       102     0     6     1     2
  5.8937512677337690E-02 a       103     0     6     1     3
 -1.1659356551964504E+00 a       104     0     6     1     4
  1.4560602895425775E-01 a       105     0     6     1     5
  5.5725615241414783E-01 a       106     0     6     1     6
  8.0891432574771283E-01 a       107     0     6     1     7
  1.8269033579122362E-01 a       108     0     6     1     8
  8.3735252004233041E-01 a       109     0     6     1     9
 -3.5625503036065015E-01 a       110     0     6     1    10
  5.4978677821048716E-01 a       111     0     6     1    11
  6.2089270235725380E-01 a       112     0     6     1    12
  5.1678049191184150E-01 a       113     0     6     1    13
 -3.1841480035688169E-01 a       114     0     6     1    14
  1.4068179367150307E-01 a       115     0     6     1    15
  8.0758324960342220E-01 a       116     0     6     1    16
 -8.2970502041171119E-04 a       117     0     6     1    17
  7.4933288721425628E-02 a       118     0     6     1    18
  2.5074612007577374E-01 a       119     0     6     1    19
  4.5636860139420332E-01 a       120     0     6     1    20
  8.7725358192297020E-01 a       121     0     7     1     1
 -5.4312803173594293E-01 a       122     0     7     1     2
  6.2811170998436217E-01 a       123     0     7     1     3
 -4.3499108223223942E-01 a       124     0     7     1     4
  1.2378131631338349E-01 a       125     0     7     1     5
 -4.3998922200220919E-01 a       126     0     7     1     6
  5.1444676219269747E-01 a       127     0     7     1     7
  2.8629047157827653E-01 a       128     0     7     1     8
  6.4307276978329386E-01 a       129     0     7     1     9
  3.2805446183911852E-01 a       130     0     7     1    10
 -3.4480878676725646E-01 a       131     0     7     1    11
 -1.1506506140840064E-01 a       132     0     7     1    12
  4.7975785865164572E-01 a       133     0     7     1    13
 -5.8486862864127165E-01 a       134     0     7     1    14
  1.4274234169931818E-01 a       135     0     7     1    15
 -8.9207688173436009E-02 a       136     0     7     1    16
 -1.9440373166600869E-01 a       137     0     7     1    17
 -1.7152864134479343E-01 a       138     0     7     1    18
  1.7695862116464137E-01 a       139     0     7     1    19
  1.3291941205921570E-01 a       140     0     7     1    20
 -3.3483680370562036E-01 a       141     0     8     1     1
  3.6269790038957855E-01 a       142     0     8     1     2
 -3.0652094982284378E-01 a       143     0     8     1     3
 -4.2801134982689665E-01 a       144     0     8     1     4
 -1.4689096841162422E-01 a       145     0     8     1     5
 -1.0617937609561828E-01 a       146     0     8     1     6
 -1.3630837037125054E-01 a       147     0     8     1     7
 -4.0218952536037753E-03 a       148     0     8     1     8
  1.2223760507080857E-01 a       149     0     8     1     9
 -4.7893797306849067E-01 a       150     0     8     1    10
 -2.2972786368455081E-01 a       151     0     8     1    11
  3.6931225971272491E-01 a       152     0     8     1    12
  2.5391608386942949E-01 a       153     0     8     1    13
 -1.1263177674958746E+00 a       154     0     8     1    14
  1.0142959985709241E+00 a       155     0     8     1    15
 -7.4700243661972010E-01 a       156     0     8     1    16
  2.9177860630145264E-01 a       157     0     8     1    17
  1.4630410275233680E-01 a       158     0     8     1    18
  2.0334516508015148E-02 a       159     0     8     1    19
 -4.4957185002701838E-01 a       160     0     8     1    20
 -2.0922628183971234E-01 a       161     0     9     1     1
 -4.7591314201597945E-01 a       162     0     9     1     2
  1.7952485601769058E-01 a       163     0     9     1     3
  8.8895793052485371E-05 a       164     0     9     1     4
  3.4929166603835859E-01 a       165     0     9     1     5
  2.5932711431064548E-01 a       166     0     9     1     6
 -9.8454238882830947E-01 a       167     0     9     1     7
 -3.8772260631211464E-01 a       168     0     9     1     8
  9.2023891811694014E-02 a       169     0     9     1     9
  5.8397546411202081E-02 a       170     0     9     1    10
  2.6713097794832226E-02 a       171     0     9     1    11
  1.2029809276975920E-01 a       172     0     9     1    12
 -2.1414862276946077E-02 a       173     0     9     1    13
  3.9259650908358401E-01 a       174     0     9     1    14
 -1.2872987353610846E-01 a       175     0     9     1    15
  3.6650785391413421E-01 a       176     0     9     1    16
 -3.5430215207994181E-01 a       177     0     9     1    17
 -3.2064737379931832E-02 a       178     0     9     1    18
  3.3331076043550595E-01 a       179     0     9     1    19
 -3.8958916971358526E-01 a       180     0     9     1    20
 -3.4860670944943523E-01 a       181     0    10     1     1
  6.7244020925896253E-01 a       182     0    10     1     2
 -3.1099817838950444E-01 a       183     0    10     1     3
  9.9807339508725501E-01 a       184     0    10     1     4
  2.8376296161107195E-01 a       185     0    10     1     5
  2.5194800591993839E-02 a       186     0    10     1     6
 -1.3813932527566278E-01 a       187     0    10     1     7
  4.8246962374835972E-01 a       188     0    10     1     8
 -1.7069071122600227E-01 a       189     0    10     1     9
 -2.8609728429045456E-01 a       190     0    10     1    10
  3.1655180851143550E-02 a       191     0    10     1    11
 -1.9272064969497502E-01 a       192     0    10     1    12
 -8.8238495085168234E-01 a       193     0    10     1    13
  1.6343871805097543E-01 a       194     0    10     1    14
 -1.9551308532634412E-01 a       195     0    10     1    15
  1.9075516101556778E-02 a       196     0    10     1    16
 -2.9533601393076536E-01 a       197     0    10     1    17
  2.1485361931103478E-01 a       198     0    10     1    18
 -7.9211508656144447E-01 a       199     0    10     1    19
 -2.0855571498553915E-01 a       200     0    10     1    20
  3.0754377110197928E-01 a       201     0    11     1     1
  1.4527885012756073E-01 a       202     0    11     1     2
  1.4201826406850776E-01 a       203     0    11     1     3
 -9.4371942276492393E-01 a       204     0    11     1     4
 -1.1433050034838035E-01 a       205     0    11     1     5
 -1.1782292141691515E-01 a       206     0    11     1     6
 -1.1197295746577757E-01 a       207     0    11     1     7
  2.4593437857950529E-01 a       208     0    11     1     8
 -1.8056719146369152E-01 a       209     0    11     1     9
 -4.4756066146314710E-01 a       210     0    11     1    10
 -3.9662079825473973E-01 a       211     0    11     1    11
 -1.6695640029170761E-01 a       212     0    11     1    12
  1.8604842398598159E-01 a       213     0    11     1    13
 -6.5636808285219769E-02 a       214     0    11     1    14
 -1.0013722464995041E-01 a       215     0    11     1    15
  5.3089894083184014E-02 a       216     0    11     1    16
  1.0810458768556486E-01 a       217     0    11     1    17
 -3.1977055459321724E-01 a       218     0    11     1    18
 -4.0870132690870177E-02 a       219     0    11     1    19
 -2.9807067974239709E-01 a       220     0    11     1    20
  5.6031623979874035E-01 a       221     0    12     1     1
 -3.7406314916990896E-01 a       222     0    12     1     2
  2.1309789133207063E-01 a       223     0    12     1     3
 -2.0158055718229212E-01 a       224     0    12     1     4
  2.5340434130444739E-01 a       225     0    12     1     5
 -1.1913477522138091E-01 a       226     0    12     1     6
  1.7058411427339581E-01 a       227     0    12     1     7
 -2.6109424614606519E-01 a       228     0    12     1     8
  3.1656514622583447E-02 a       229     0    12     1     9
 -1.0465942978994981E-01 a       230     0    12     1    10
 -2.0679652898768816E-01 a       231     0    12     1    11
 -2.2752007464553720E-01 a       232     0    12     1    12
  2.6782454715564619E-02 a       233     0    12     1    13
  1.5229913236304623E-02 a       234     0    12     1    14
 -4.6520956020454857E-01 a       235     0    12     1    15
 -2.8624115301521813E-01 a       236     0    12     1    16
  1.0839696925858137E-01 a       237     0    12     1    17
 -6.2839763310265262E-01 a       238     0    12     1    18
  7.9854889364726388E-04 a       239     0    12     1    19
  5.2469856616527616E-02 a       240     0    12     1    20
  1.3651772684153327E-01 a       241     0    13     1     1
  3.6055129587712853E-01 a       242     0    13     1     2
 -1.7515146133284484E-01 a       243     0    13     1     3
  6.7909834971276484E-01 a       244     0    13     1     4
 -3.7112760334076406E-01 a       245     0    13     1     5
 -5.6124551973762293E-01 a       246     0    13     1     6
  6.2726119135920133E-01 a       247     0    13     1     7
 -2.9406989453200233E-01 a       248     0    13     1     8
 -2.6598466401821652E-01 a       249     0    13     1     9
  9.7367512725695149E-01 a       250     0    13     1    10
  1.4174575011284196E-01 a       251     0    13     1    11
  4.8107716626879277E-01 a       252     0    13     1    12
  2.0444601096070724E-02 a       253     0    13     1    13
 -1.7473081491263773E-01 a       254     0    13     1    14
 -5.2102228071379353E-01 a       255     0    13     1    15
  2.7447227277664299E-01 a       256     0    13     1    16
  3.2506037523292464E-01 a       257     0    13     1    17
  1.2202483045604524E-01 a       258     0    13     1    18
 -3.4217727581508553E-02 a       259     0    13     1    19
  8.8274857286857383E-02 a       260     0    13     1    20
 -1.4207093247909361E-01 a       261     0    14     1     1
  2.3736902831817749E-01 a       262     0    14     1     2
 -8.2544107452760945E-02 a       263     0    14     1     3
 -1.0745346480630064E-01 a       264     0    14     1     4
 -6.7507813029676234E-02 a       265     0    14     1     5
 -5.0229546558204685E-01 a       266     0    14     1     6
  1.0752376109410995E-02 a       267     0    14     1     7
  1.3808025763328549E-01 a       268     0    14     1     8
 -4.6305006609168170E-02 a       269     0    14     1     9
  5.1717402968250961E-02 a       270     0    14     1    10
  4.0906058844121596E-01 a       271     0    14     1    11
  5.0626003489521981E-02 a       272     0    14     1    12
  3.3812157452305300E-02 a       273     0    14     1    13
 -1.3756269785224759E-01 a       274     0    14     1    14
 -6.0767926922860080E-02 a       275     0    14     1    15
 -2.4112405000162432E-01 a       276     0    14     1    16
 -2.0029221185986247E-02 a       277     0    14     1    17
 -2.0680505906655409E-02 a       278     0    14     1    18
 -2.4960190164880139E-01 a       279     0    14     1    19
  1.2759377596761687E-01 a       280     0    14     1    20
 -1.0580621970821488E-01 a       281     0    15     1     1
 -2.7519737205994449E-01 a       282     0    15     1     2
  3.0916222652975511E-01 a       283     0    15     1     3
  7.1365845649067727E-02 a       284     0    15     1     4
  2.3699303006281985E-01 a       285     0    15     1     5
  1.6922819897477304E-01 a       286     0    15     1     6
 -4.2980576371834023E-01 a       287     0    15     1     7
  1.8701757268408992E-01 a       288     0    15     1     8
 -1.8975573273795374E-01 a       289     0    15     1     9
 -4.6555150995523603E-01 a       290     0    15     1    10
  2.1292263936146927E-01 a       291     0    15     1    11
 -3.5559914355546013E-01 a       292     0    15     1    12
 -1.5094214087530344E-01 a       293     0    15     1    13
  3.1058301052762083E-01 a       294     0    15     1    14
  2.2467504360954327E-01 a       295     0    15     1    15
 -6.2641155274739971E-02 a       296     0    15     1    16
  2.1285907704923451E-01 a       297     0    15     1    17
  8.2576085431634993E-01 a       298     0    15     1    18
  5.4865156829737652E-02 a       299     0    15     1    19
 -4.9806396122100072E-01 a       300     0    15     1    20
  9.4194560822077320E-02 a       301     0    16     1     1
 -2.3820107774929264E-01 a       302     0    16     1     2
 -2.0299642091233749E-02 a       303     0    16     1     3
 -6.8516045017611354E-02 a       304     0    16     1     4
  8.6533972528912304E-02 a       305     0    16     1     5
 -2.4937572013721893E-01 a       306     0    16     1     6
 -1.7094652449111639E-01 a       307     0    16     1     7
  9.3836041118714741E-02 a       308     0    16     1     8
  2.0231155847485305E-02 a       309     0    16     1     9
  2.8599290709166891E-02 a       310     0    16     1    10
 -5.8837082252338808E-02 a       311     0    16     1    11
 -7.2375238668439063E-02 a       312     0    16     1    12
 -1.6004657863013780E-01 a       313     0    16     1    13
  1.9931285966800567E-02 a       314     0    16     1    14
  6.4786427335098012E-03 a       315     0    16     1    15
 -1.6496919142945349E-01 a       316     0    16     1    16
  4.3966499282698706E-03 a       317     0    16     1    17
  4.8016632814254584E-02 a       318     0    16     1    18
  2.1496886190838227E-01 a       319     0    16     1    19
 -1.1109255199286719E-01 a       320     0    16     1    20
 -2.6660254497945607E-01 a       321     0    17     1     1
  3.7539130532113724E-01 a       322     0    17     1     2
 -3.1609796958763253E-01 a       323     0    17     1     3
  2.8583529155486959E-01 a       324     0    17     1     4
 -2.0390128904688409E-01 a       325     0    17     1     5
 -7.8165200049888223E-02 a       326     0    17     1     6
  1.9913340319071984E-01 a       327     0    17     1     7
 -7.0397572666774411E-01 a       328     0    17     1     8
 -1.1382024690387861E-01 a       329     0    17     1     9
  1.2267574640727257E-01 a       330     0    17     1    10
  4.1398454465616685E-01 a       331     0    17     1    11
 -7.9464991632953508E-02 a       332     0    17     1    12
  2.8524326079315215E-01 a       333     0    17     1    13
 -2.9478886449716324E-01 a       334     0    17     1    14
 -7.7977117697742182E-01 a       335     0    17     1    15
  4.1699031944711917E-02 a       336     0    17     1    16
 -3.1981555069051204E-01 a       337     0    17     1    17
  3.7465340159017302E-01 a       338     0    17     1    18
 -7.2450497001994307E-01 a       339     0    17     1    19
  2.3401443698299637E-01 a       340     0    17     1    20
  1.0721372167059749E-01 a       341     0    18     1     1
 -8.5605897311331697E-02 a       342     0    18     1     2
 -3.0888202942616967E-02 a       343     0    18     1     3
  3.8197644771033407E-02 a       344     0    18     1     4
  7.9965864162141909E-02 a       345     0    18     1     5
  3.4306432672379156E-01 a       346     0    18     1     6
  6.4700103937888722E-03 a       347     0    18     1     7
  1.2473419576321305E-01 a       348     0    18     1     8
 -2.3072787609535687E-02 a       349     0    18     1     9
 -1.9616384393656594E-02 a       350     0    18     1    10
  4.7290566949258116E-02 a       351     0    18     1    11
 -9.1392374368240575E-02 a       352     0    18     1    12
  1.1025167156913591E-01 a       353     0    18     1    13
  4.1582994272441762E-02 a       354     0    18     1    14
  1.8250208378920507E-01 a       355     0    18     1    15
 -9.5775886994109147E-02 a       356     0    18     1    16
  7.6937476000862995E-02 a       357     0    18     1    17
 -6.3993496993217464E-02 a       358     0    18     1    18
  6.1424297505544545E-01 a       359     0    18     1    19
 -1.4687891562380986E-01 a       360     0    18     1    20
  1.5677660772545871E-01 a       361     0    19     1     1
 -2.4393100944349641E-01 a       362     0    19     1     2
  1.2489851008159936E-01 a       363     0    19     1     3
 -7.0881712566653349E-02 a       364     0    19     1     4
 -2.1463823375281232E-01 a       365     0    19     1     5
 -2.4539229324127607E-01 a       366     0    19     1     6
  4.4308814157377152E-01 a       367     0    19     1     7
  3.1857869604071781E-01 a       368     0    19     1     8
 -5.4607029568868071E-01 a       369     0    19     1     9
  6.1413611267248502E-01 a       370     0    19     1    10
 -3.9932953614336386E-01 a       371     0    19     1    11
 -3.2389417813438026E-01 a       372     0    19     1    12
  3.5894030119992544E-02 a       373     0    19     1    13
 -1.3890192824936437E-01 a       374     0    19     1    14
 -2.7688585191211340E-01 a       375     0    19     1    15
 -3.5420317336454943E-01 a       376     0    19     1    16
  7.7824843626600915E-01 a       377     0    19     1    17
 -7.7831431998596345E-01 a       378     0    19     1    18
  3.3488549016103153E-01 a       379     0    19     1    19
 -1.0929867559319144E-01 a       380     0    19     1    20
  1.7223321332957335E-02 a       381     0    20     1     1
 -3.2364378005400568E-01 a       382     0    20     1     2
  7.1556447595647221E-02 a       383     0    20     1     3
  1.1748372782835742E-01 a       384     0    20     1     4
  1.7971650736188591E-01 a       385     0    20     1     5
 -2.7612044188147089E-01 a       386     0    20     1     6
 -1.8661290454435744E-01 a       387     0    20     1     7
  1.0130151126738245E-01 a       388     0    20     1     8
  9.6774168360029944E-02 a       389     0    20     1     9
 -1.1779428563699110E-02 a       390     0    20     1    10
  3.1387875429530027E-01 a       391     0    20     1    11
 -1.6610020385783315E-02 a       392     0    20     1    12
  1.8997676074904157E-01 a       393     0    20     1    13
  1.0735963301458516E-01 a       394     0    20     1    14
  3.8133086973032315E-01 a       395     0    20     1    15
 -2.5481755676809698E-01 a       396     0    20     1    16
 -1.8891449710932146E-01 a       397     0    20     1    17
  4.1240935068268464E-01 a       398     0    20     1    18
 -2.6617250316108088E-01 a       399     0    20     1    19
  2.7444681064308701E-01 a       400     0    20     1    20
  3.0625397609819927E-01 a       401     0    21     1     1
 -9.0824899905836809E-02 a       402     0    21     1     2
  1.6114541622203049E-01 a       403     0    21     1     3
  7.5995516249897269E-02 a       404     0    21     1     4
  3.0284061867870771E-01 a       405     0    21     1     5
  7.0357378762734898E-03 a       406     0    21     1     6
  8.6637624759312498E-02 a       407     0    21     1     7
  2.9140987800620827E-01 a       408     0    21     1     8
  1.2627996765703515E-02 a       409     0    21     1     9
  1.6078114005598337E-01 a       410     0    21     1    10
  3.0273468399013459E-01 a       411     0    21     1    11
 -6.8285859135978361E-03 a       412     0    21     1    12
  5.7074681901247780E-02 a       413     0    21     1    13
  1.8089395853877593E-01 a       414     0    21     1    14
  8.5693032455756069E-01 a       415     0    21     1    15
  6.3393066611751141E-03 a       416     0    21     1    16
  2.3000239168793651E-01 a       417     0    21     1    17
 -4.7204365050630231E-01 a       418     0    21     1    18
  8.9168879933664274E-03 a       419     0    21     1    19
 -3.6000569031019343E-02 a       420     0    21     1    20
 -1.7760255945394329E-01 a       421     0    22     1     1
 -7.4554990155525580E-02 a       422     0    22     1     2
  2.4511703890023456E-01 a       423     0    22     1     3
  2.7709851623851724E-02 a       424     0    22     1     4
 -1.1567884706936800E-01 a       425     0    22     1     5
 -1.2793294794968886E-02 a       426     0    22     1     6
 -2.6315670658886237E-01 a       427     0    22     1     7
  1.3781643989940986E-01 a       428     0    22     1     8
 -3.8607803234485050E-01 a       429     0    22     1     9
 -9.0337502436363890E-02 a       430     0    22     1    10
 -2.1995115149867683E-01 a       431     0    22     1    11
 -1.3159233817396310E-01 a       432     0    22     1    12
  3.2251690744240086E-01 a       433     0    22     1    13
  2.6876407909650901E-01 a       434     0    22     1    14
 -1.3934113275146703E-01 a       435     0    22     1    15
  1.6885276295945498E-01 a       436     0    22     1    16
  7.7117075350677479E-03 a       437     0    22     1    17
  1.5388307923787797E-01 a       438     0    22     1    18
  2.5495262999188514E-02 a       439     0    22     1    19
 -2.1528107834961674E-01 a       440     0    22     1    20
 -4.6444763009198275E-01 a       441     0    23     1     1
 -2.8920300825302375E-02 a       442     0    23     1     2
  2.6295151125269994E-01 a       443     0    23     1     3
  9.7750391455442689E-02 a       444     0    23     1     4
 -1.0497613987755670E-01 a       445     0    23     1     5
  1.9937129170976195E-01 a       446     0    23     1     6
  4.8949868204751118E-01 a       447     0    23     1     7
  2.1912209487744924E-01 a       448     0    23     1     8
 -7.5153797520316937E-02 a       449     0    23     1     9
  4.9483944352514131E-02 a       450     0    23     1    10
 -2.5766081649620026E-01 a       451     0    23     1    11
  1.4938869287754121E-02 a       452     0    23     1    12
  8.0255198676247683E-02 a       453     0    23     1    13
 -5.0743261616453517E-01 a       454     0    23     1    14
  5.4173163309179473E-01 a       455     0    23     1    15
  8.0947700054081695E-02 a       456     0    23     1    16
  7.3121953196429113E-01 a       457     0    23     1    17
 -1.2177149969934364E-02 a       458     0    23     1    18
 -2.7520955250586432E-01 a       459     0    23     1    19
 -1.4715327217172869E-01 a       460     0    23     1    20
  4.2924065923276217E-01 a       461     0    24     1     1
 -2.1525543950941906E-01 a       462     0    24     1     2
 -2.9364158159014481E-01 a       463     0    24     1     3
 -2.5856898388207350E-01 a       464     0    24     1     4
 -1.2792461117140783E-01 a       465     0    24     1     5
  3.4005265225284137E-01 a       466     0    24     1     6
  6.9887646810547405E-02 a       467     0    24     1     7
  2.4398169917794429E-01 a       468     0    24     1     8
 -7.3934464917145681E-01 a       469     0    24     1     9
 -2.6479261461467762E-01 a       470     0    24     1    10
 -3.0752533272074722E-01 a       471     0    24     1    11
 -9.7793630534806900E-02 a       472     0    24     1    12
 -5.3217986019532974E-02 a       473     0    24     1    13
  8.1562626298272978E-01 a       474     0    24     1    14
 -4.3860247355695975E-01 a       475     0    24     1    15
  1.3212440714948412E-01 a       476     0    24     1    16
 -4.2939608300014781E-01 a       477     0    24     1    17
  6.5377690138267419E-01 a       478     0    24     1    18
 -5.0775488499746146E-01 a       479     0    24     1    19
  6.2275886348675580E-01 a       480     0    24     1    20
 -8.4953167080862327E-02 a       481     0    25     1     1
 -3.2212247048854870E-01 a       482     0    25     1     2
 -9.1748862447459653E-02 a       483     0    25     1     3
  6.2912787706527126E-02 a       484     0    25     1     4
 -1.1920126953128194E-03 a       485     0    25     1     5
  1.3878619920383486E-01 a       486     0    25     1     6
 -1.9720792006183743E-01 a       487     0    25     1     7
 -1.4343102789948009E-01 a       488     0    25     1     8
  2.5550557940352239E-02 a       489     0    25     1     9
  3.2828116654092562E-02 a       490     0    25     1    10
  3.8230145662508380E-01 a       491     0    25     1    11
  1.0878015389816227E-02 a       492     0    25     1    12
  1.3878656067772385E-01 a       493     0    25     1    13
 -2.9911938844017255E-01 a       494     0    25     1    14
  8.3306642247000004E-02 a       495     0    25     1    15
  3.9670304672533914E-02 a       496     0    25     1    16
  3.2578906750290994E-02 a       497     0    25     1    17
 -2.7585885666721094E-01 a       498     0    25     1    18
  5.2103859532267238E-01 a       499     0    25     1    19
  1.1175122378296588E-02 a       500     0    25     1    20
 -3.2184894566443734E-01 a       501     0    26     1     1
 -3.1201587829371308E-01 a       502     0    26     1     2
 -8.3108441049569459E-01 a       503     0    26     1     3
 -1.5408387849928151E-02 a       504     0    26     1     4
 -3.8150177164944887E-01 a       505     0    26     1     5
  3.9598367834173767E-02 a       506     0    26     1     6
  4.1941302891617344E-01 a       507     0    26     1     7
  4.6146234177521289E-01 a       508     0    26     1     8
 -4.9129854694029168E-01 a       509     0    26     1     9
 -1.3011682259417143E-01 a       510     0    26     1    10
  2.1200406447927747E-01 a       511     0    26     1    11
 -1.1322331857762197E-01 a       512     0    26     1    12
 -4.6077784074075846E-02 a       513     0    26     1    13
  4.1897571972118125E-01 a       514     0    26     1    14
  4.6256407281315071E-01 a       515     0    26     1    15
  8.7318286767671047E-02 a       516     0    26     1    16
 -3.0903665149227877E-01 a       517     0    26     1    17
 -5.0232696947699086E-02 a       518     0    26     1    18
 -1.5409123366796487E-01 a       519     0    26     1    19
 -2.6108253806296078E-01 a       520     0    26     1    20
 -9.3434727622578861E-01 a       521     0    27     1     1
  5.8601962036761801E-01 a       522     0    27     1     2
  6.5141044244948509E-01 a       523     0    27     1     3
  8.7975072032039425E-01 a       524     0    27     1     4
 -4.0190883186553655E-01 a       525     0    27     1     5
 -1.2953667493753804E-01 a       526     0    27     1     6
 -1.0862238454653963E+00 a       527     0    27     1     7
 -3.0847591940141067E-01 a       528     0    27     1     8
  6.3393579860673654E-01 a       529     0    27     1     9
  6.3723647424364516E-01 a       530     0    27     1    10
 -2.7242022278876105E-01 a       531     0    27     1    11
 -1.6267058299643947E-01 a       532     0    27     1    12
 -2.9027921351940836E-02 a       533     0    27     1    13
 -4.4303089258412703E-01 a       534     0    27     1    14
 -1.9429276236460832E-01 a       535     0    27     1    15
  9.0901807205136065E-01 a       536     0    27     1    16
  3.5000444690267962E-01 a       537     0    27     1    17
  7.2272186218915324E-01 a       538     0    27     1    18
  3.8070790174379233E-02 a       539     0    27     1    19
 -2.0808196029498519E-01 a       540     0    27     1    20
  9.5322437930424636E-02 a       541     0    28     1     1
  2.4956695920664745E-01 a       542     0    28     1     2
 -5.7632088523091089E-02 a       543     0    28     1     3
 -1.5954506861174167E-01 a       544     0    28     1     4
  6.4780059107887200E-02 a       545     0    28     1     5
 -1.2230556926523525E-01 a       546     0    28     1     6
  3.1609338074662280E-01 a       547     0    28     1     7
  1.1320090316422594E-01 a       548     0    28     1     8
 -1.9102675920084028E-01 a       549     0    28     1     9
 -3.6016973973907150E-02 a       550     0    28     1    10
 -2.6373027863089965E-01 a       551     0    28     1    11
  1.4350807425306705E-01 a       552     0    28     1    12
 -2.6940302697233938E-03 a       553     0    28     1    13
  5.2495125845404403E-02 a       554     0    28     1    14
 -1.4273391030319019E-01 a       555     0    28     1    15
 -1.4413435306226250E-02 a       556     0    28     1    16
 -2.1787760045780532E-02 a       557     0    28     1    17
 -2.5455495609177661E-02 a       558     0    28     1    18
 -3.3577252937455282E-02 a       559     0    28     1    19
 -2.3006439634982467E-01 a       560     0    28     1    20
 -3.6377188518850351E-01 a       561     0    29     1     1
  1.0263197759657172E-01 a       562     0    29     1     2
  3.1783178910575804E-01 a       563     0    29     1     3
  4.7109081269280212E-04 a       564     0    29     1     4
  1.3289505016580003E-01 a       565     0    29     1     5
  2.8846479785042495E-01 a       566     0    29     1     6
 -4.0093682058222391E-02 a       567     0    29     1     7
 -3.7413697436582716E-01 a       568     0    29     1     8
  2.3857386860507881E-01 a       569     0    29     1     9
 -7.5429004891010384E-02 a       570     0    29     1    10
  3.5781282462740882E-01 a       571     0    29     1    11
  5.2045402488611603E-01 a       572     0    29     1    12
 -1.2365363353984946E-01 a       573     0    29     1    13
  3.0094229842644177E-01 a       574     0    29     1    14
 -3.6129850701943622E-01 a       575     0    29     1    15
 -4.1095226910339971E-01 a       576     0    29     1    16
 -1.1746107973303722E-01 a       577     0    29     1    17
 -2.8276064334853324E-01 a       578     0    29     1    18
 -1.0733893890770763E-01 a       579     0    29     1    19
  4.9620483003119248E-01 a       580     0    29     1    20
  1.4147627815557515E-01 a       581     0    30     1     1
  1.5543704118230878E-01 a       582     0    30     1     2
  4.0260727898063881E-01 a       583     0    30     1     3
 -1.9561530685984391E-01 a       584     0    30     1     4
  2.2587339332264114E-01 a       585     0    30     1     5
 -4.7291412852031499E-02 a       586     0    30     1     6
  1.7639764320169199E-01 a       587     0    30     1     7
 -2.8168528394503028E-01 a       588     0    30     1     8
  1.7132070933585403E-01 a       589     0    30     1     9
  2.5894626375935803E-01 a       590     0    30     1    10
 -4.0149065220798391E-02 a       591     0    30     1    11
  5.3019039648925692E-01 a       592     0    30     1    12
  1.5095058301130648E-02 a       593     0    30     1    13
 -1.5342613784459508E-01 a       594     0    30     1    14
 -6.3585278293691108E-03 a       595     0    30     1    15
 -2.4162657461851828E-01 a       596     0    30     1    16
  1.9130389773247211E-01 a       597     0    30     1    17
 -1.9085366747670146E-01 a       598     0    30     1    18
 -9.8247643778639704E-02 a       599     0    30     1    19
  2.1842768136651722E-01 a       600     0    30     1    20
 -1.4544926366827620E+00 b       601     1     1
 -9.1141089408910314E-01 b       602     1     2
 -1.5482189445518342E+00 b       603     1     3
  1.0223681736045249E+00 b       604     1     4
  7.9361661557310625E-01 b       605     1     5
  1.4659942094112730E+00 b       606     1     6
  2.0041222834268094E-01 b       607     1     7
 -1.2280884972919812E+00 b       608     1     8
  1.2822185112004185E+00 b       609     1     9
 -6.8696595994198806E-01 b       610     1    10
 -5.6119552461214239E-01 b       611     1    11
  1.2937797438997916E+00 b       612     1    12
  7.4886409135490453E-02 b       613     1    13
 -7.7964744539899433E-01 b       614     1    14
 -5.3340201011419253E-01 b       615     1    15
 -7.7580279494115201E-01 b       616     1    16
  3.4305349774867816E-01 b       617     1    17
 -6.3459825921761270E-01 b       618     1    18
  4.4611839285876786E-01 b       619     1    19
 -1.5741701078182890E+00 b       620     1    20
  2.9523110028231164E-01 a       621     1     1     2     1
 -2.0122082964532501E-01 a       622     1     1     2     2
 -4.3466448892227222E-01 a       623     1     1     2     3
  3.5375657743087946E-01 a       624     1     1     2     4
  2.1709915377269481E-01 a       625     1     1     2     5
  3.3329099074280266E-01 a       626     1     1     2     6
 -1.0641128098426236E-01 a       627     1     1     2     7
 -4.7514354347288701E-01 a       628     1     1     2     8
 -7.9650238711832566E-01 a       629     1     1     2     9
 -9.3142165145372616E-02 a       630     1     1     2    10
  3.8974976533597827E-01 a       631     1     1     2    11
 -3.1394251873871215E-01 a       632     1     1     2    12
  1.0371824547670591E-02 a       633     1     1     2    13
 -1.6136010338630563E-01 a       634     1     1     2    14
  2.1076340644380892E-01 a       635     1     1     2    15
 -1.9109106966003811E-01 a       636     1     1     2    16
 -8.1960685080141853E-03 a       637     1     1     2    17
 -7.1410705438628694E-02 a       638     1     1     2    18
 -4.9328443811018474E-01 a       639     1     1     2    19
  1.3541478044335267E-01 a       640     1     1     2    20
  2.1569294773623491E-02 a       641     1     2     2     1
  6.5260001308933058E-01 a       642     1     2     2     2
 -2.0456988764417264E-01 a       643     1     2     2     3
 -3.0582000349742171E-02 a       644     1     2     2     4
 -4.1722307281069421E-01 a       645     1     2     2     5
 -1.2018943682281889E-01 a       646     1     2     2     6
  2.7759412256368893E-01 a       647     1     2     2     7
  3.2393835506240160E-01 a       648     1     2     2     8
  6.1632675586174934E-01 a       649     1     2     2     9
  3.7208492540324578E-01 a       650     1     2     2    10
  3.0408700911992453E-01 a       651     1     2     2    11
 -4.1773267910005196E-01 a       652     1     2     2    12
  1.0227515801818954E+00 a       653     1     2     2    13
 -6.1113954408266469E-01 a       654     1     2     2    14
 -1.5401901406248869E-01 a       655     1     2     2    15
 -2.6212920958965646E-01 a       656     1     2     2    16
 -4.5266829113793355E-01 a       657     1     2     2    17
  6.4303582993000574E-01 a       658     1     2     2    18
  2.8132819021189687E-01 a       659     1     2     2    19
  5.0714774629858350E-01 a       660     1     2     2    20
  5.3851928428134321E-01 a       661     1     3     2     1
  3.9202891036650384E-01 a       662     1     3     2     2
  1.0080603484477176E-01 a       663     1     3     2     3
 -6.9849108784229433E-03 a       664     1     3     2     4
  6.8629289155486128E-01 a       665     1     3     2     5
 -5.6547100587910992E-01 a       666     1     3     2     6
  1.8794819140124794E-01 a       667     1     3     2     7
 -3.1927688622570227E-01 a       668     1     3     2     8
  2.0553961809942672E-01 a       669     1     3     2     9
 -1.7969266695011984E-01 a       670     1     3     2    10
  1.7211133208967330E-02 a       671     1     3     2    11
  5.0050639626984944E-02 a       672     1     3     2    12
  3.5189041090857590E-02 a       673     1     3     2    13
 -2.2444087813471292E-01 a       674     1     3     2    14
  1.0567373996661729E-01 a       675     1     3     2    15
  2.8538203226521008E-01 a       676     1     3     2    16
  6.5169194732899149E-01 a       677     1     3     2    17
  3.6498066039330318E-01 a       678     1     3     2    18
  7.0650582026471742E-01 a       679     1     3     2    19
  6.4132757568422616E-01 a       680     1     3     2    20
  2.9581194747345158E-01 a       681     1     4     2     1
  1.2269755625466774E-01 a       682     1     4     2     2
 -5.7035845453577305E-01 a       683     1     4     2     3
 -4.4260688595225452E-02 a       684     1     4     2     4
 -4.8862212741451588E-01 a       685     1     4     2     5
  1.8421752727871057E-01 a       686     1     4     2     6
 -4.8744336185938902E-01 a       687     1     4     2     7
  3.4959071260867219E-01 a       688     1     4     2     8
  6.0072042248260993E-01 a       689     1     4     2     9
 -5.6979454967197629E-01 a       690     1     4     2    10
 -1.0669337387710447E-01 a       691     1     4     2    11
 -1.6571522697784294E-01 a       692     1     4     2    12
  4.4655371421045270E-01 a       693     1     4     2    13
 -3.3567184596952043E-01 a       694     1     4     2    14
 -2.4788242554724926E-01 a       695     1     4     2    15
 -7.2812653038635033E-01 a       696     1     4     2    16
  4.2582500488510655E-01 a       697     1     4     2    17
  5.0120322667187400E-01 a       698     1     4     2    18
 -2.8963178428926373E-01 a       699     1     4     2    19
 -2.3245434781340635E-01 a       700     1     4     2    20
  4.1593867981557470E-01 a       701     1     5     2     1
  8.8406143977206707E-03 a       702     1     5     2     2
 -2.0630659348241931E-03 a       703     1     5     2     3
  7.5972667174617967E-02 a       704     1     5     2     4
 -5.8657237400995536E-02 a       705     1     5     2     5
  3.7584063555376573E-01 a       706     1     5     2     6
  3.7751857790532789E-01 a       707     1     5     2     7
  1.8412567892641316E-01 a       708     1     5     2     8
 -2.6493590437557796E-01 a       709     1     5     2     9
 -4.2763720268391252E-02 a       710     1     5     2    10
 -3.1440213613062507E-01 a       711     1     5     2    11
  2.2878611387917991E-01 a       712     1     5     2    12
  5.1324693381569003E-02 a       713     1     5     2    13
  8.7859344581169696E-01 a       714     1     5     2    14
  3.9266751052421645E-01 a       715     1     5     2    15
  4.9898754760550257E-01 a       716     1     5     2    16
  6.6812017685806024E-02 a       717     1     5     2    17
 -5.3352306293017382E-01 a       718     1     5     2    18
 -3.1878174803003134E-01 a       719     1     5     2    19
  2.0824833332451112E-01 a       720     1     5     2    20
 -8.6710124526661847E-01 a       721     1     6     2     1
 -7.8421205179320252E-01 a       722     1     6     2     2
 -6.8288064555133116E-02 a       723     1     6     2     3
 -1.7160884671262203E-01 a       724     1     6     2     4
 -4.0474123143775909E-01 a       725     1     6     2     5
 -4.0120322289464672E-01 a       726     1     6     2     6
  2.2402019980648663E-01 a       727     1     6     2     7
 -7.3720601576015315E-02 a       728     1     6     2     8
  2.2275237086156657E-01 a       729     1     6     2     9
 -8.0591692187872432E-01 a       730     1     6     2    10
 -1.8228820655835329E-01 a       731     1     6     2    11
  2.9920266725107419E-01 a       732     1     6     2    12
 -6.1021361844357513E-01 a       733     1     6     2    13
 -7.0309575687571416E-02 a       734     1     6     2    14
  5.7840264915730577E-01 a       735     1     6     2    15
 -3.4824326396775540E-01 a       736     1     6     2    16
 -6.9343464852919612E-01 a       737     1     6     2    17
 -4.3301989471551927E-01 a       738     1     6     2    18
 -5.3173939094003775E-01 a       739     1     6     2    19
 -6.4950206997046567E-01 a       740     1     6     2    20
  1.5081359183496146E-01 a       741     1     7     2     1
 -2.5132322161352208E-02 a       742     1     7     2     2
  3.5785896953197749E-01 a       743     1     7     2     3
 -3.1088870241299843E-01 a       744     1     7     2     4
 -6.2791098752383323E-01 a       745     1     7     2     5
 -3.8243070156837727E-01 a       746     1     7     2     6
 -4.0151280093677338E-01 a       747     1     7     2     7
  7.7249364885092611E-02 a       748     1     7     2     8
 -5.9501363541170793E-01 a       749     1     7     2     9
  6.8007099583589292E-01 a       750     1     7     2    10
 -3.3002859572890608E-01 a       751     1     7     2    11
  5.3035337372131119E-01 a       752     1     7     2    12
 -5.7911152782726993E-01 a       753     1     7     2    13
 -2.6974815096893112E-01 a       754     1     7     2    14
  8.4876774984000192E-01 a       755     1     7     2    15
  4.0054523687950072E-01 a       756     1     7     2    16
  1.7871340536648014E-01 a       757     1     7     2    17
  1.4241095966717007E-01 a       758     1     7     2    18
  6.9715595004904610E-02 a       759     1     7     2    19
 -1.1822829023339325E-01 a       760     1     7     2    20
 -9.4371824209062627E-01 a       761     1     8     2     1
  2.3923928135906003E-01 a       762     1     8     2     2
  1.2673124683649215E-01 a       763     1     8     2     3
  1.6814749893300490E-01 a       764     1     8     2     4
 -3.9130006213873086E-01 a       765     1     8     2     5
  8.9901687786295398E-02 a       766     1     8     2     6
  2.3466713980993598E-01 a       767     1     8     2     7
 -5.0061595280170712E-01 a       768     1     8     2     8
  7.6021007421218723E-01 a       769     1     8     2     9
  3.4745394160939996E-01 a       770     1     8     2    10
  5.7596647197462270E-01 a       771     1     8     2    11
 -1.7868504231967247E-01 a       772     1     8     2    12
  5.5812947436234817E-01 a       773     1     8     2    13
  1.9913535382285269E-01 a       774     1     8     2    14
  2.1499881763735681E-01 a       775     1     8     2    15
 -1.3844578984351641E-01 a       776     1     8     2    16
  6.0737137268363217E-01 a       777     1     8     2    17
 -6.8744959030681374E-01 a       778     1     8     2    18
  2.7216448742018540E-01 a       779     1     8     2    19
  3.8724763047262001E-01 a       780     1     8     2    20
 -1.1877337991833656E-01 a       781     1     9     2     1
  2.0214992093188616E-01 a       782     1     9     2     2
 -5.5023951096064450E-01 a       783     1     9     2     3
 -5.2891423851711340E-02 a       784     1     9     2     4
  1.4661926253380977E-01 a       785     1     9     2     5
 -4.7370692662824826E-01 a       786     1     9     2     6
 -3.9786590605395861E-01 a       787     1     9     2     7
 -9.6856712923210214E-02 a       788     1     9     2     8
 -1.1975685175445487E+00 a       789     1     9     2     9
  5.4526689806790940E-01 a       790     1     9     2    10
  1.3857977289786916E-01 a       791     1     9     2    11
  4.9310960338238530E-01 a       792     1     9     2    12
 -1.0350468516292759E+00 a       793     1     9     2    13
 -4.5173575596631910E-01 a       794     1     9     2    14
  6.0127153806843314E-01 a       795     1     9     2    15
  3.6296674886095048E-01 a       796     1     9     2    16
 -6.6845932800150631E-01 a       797     1     9     2    17
 -3.1352293582895491E-01 a       798     1     9     2    18
 -1.6079282800553737E-01 a       799     1     9     2    19
 -4.8386626123234960E-01 a       800     1     9     2    20
  4.9593541202401648E-01 a       801     1    10     2     1
 -3.8633438553695898E-01 a       802     1    10     2     2
 -8.4405952973090628E-02 a       803     1    10     2     3
  1.5809994334614250E-01 a       804     1    10     2     4
  1.0008980526551195E-01 a       805     1    10     2     5
  6.9620721800934426E-01 a       806     1    10     2     6
  2.0589215559776029E-02 a       807     1    10     2     7
 -7.3270104008950210E-01 a       808     1    10     2     8
  6.0265342507711032E-02 a       809     1    10     2     9
  4.6408701941568509E-01 a       810     1    10     2    10
 -5.3302152199218789E-01 a       811     1    10     2    11
  3.3359973825345562E-01 a       812     1    10     2    12
 -2.9949507674579584E-01 a       813     1    10     2    13
 -5.0808161639557081E-01 a       814     1    10     2    14
 -5.7310003878031135E-01 a       815     1    10     2    15
 -1.3177343461898353E-01 a       816     1    10     2    16
  9.6591848583546122E-02 a       817     1    10     2    17
 -4.4384665388612388E-01 a       818     1    10     2    18
  4.3136731185718813E-01 a       819     1    10     2    19
 -2.4197370612251878E-01 a       820     1    10     2    20
 -5.6410979661709681E-01 a       821     1    11     2     1
  4.2223792501601498E-01 a       822     1    11     2     2
 -3.2482834398145677E-01 a       823     1    11     2     3
 -5.7833156219235771E-01 a       824     1    11     2     4
 -2.6903940452235880E-01 a       825     1    11     2     5
 -1.9072281880821160E-01 a       826     1    11     2     6
 -3.6011883509188453E-01 a       827     1    11     2     7
 -4.2428883600153122E-01 a       828     1    11     2     8
 -7.3600200306819727E-02 a       829     1    11     2     9
  2.9689959753715905E-01 a       830     1    11     2    10
 -3.8781333510877419E-01 a       831     1    11     2    11
 -2.4769950992640785E-01 a       832     1    11     2    12
 -2.6670271392068888E-03 a       833     1    11     2    13
 -4.7998914160496459E-01 a       834     1    11     2    14
 -2.2700674410249574E-01 a       835     1    11     2    15
  1.9182092012970312E-01 a       836     1    11     2    16
 -3.1109762303668576E-01 a       837     1    11     2    17
  4.4850453960308206E-01 a       838     1    11     2    18
 -1.0137218147460265E-01 a       839     1    11     2    19
 -6.8208216586578982E-02 a       840     1    11     2    20
  5.1057542890002872E-01 a       841     1    12     2     1
  4.1347164022124988E-01 a       842     1    12     2     2
  4.9209061304385199E-01 a       843     1    12     2     3
  3.4046568487187501E-01 a       844     1    12     2     4
 -6.8474959055907803E-01 a       845     1    12     2     5
 -1.7475592740281329E-01 a       846     1    12     2     6
 -5.5603869441121063E-02 a       847     1    12     2     7
 -3.5102184265295244E-01 a       848     1    12     2     8
 -1.5515535671053832E-01 a       849     1    12     2     9
  1.6008674160454583E-01 a       850     1    12     2    10
 -2.9162469537614760E-01 a       851     1    12     2    11
  6.1116599893470079E-04 a       852     1    12     2    12
  1.8957985000323854E-01 a       853     1    12     2    13
 -2.8409607619075190E-02 a       854     1    12     2    14
  4.2932406337473961E-01 a       855     1    12     2    15
  1.0595723167658427E-02 a       856     1    12     2    16
 -7.3792468490934782E-01 a       857     1    12     2    17
 -2.5807932980440174E-01 a       858     1    12     2    18
  2.0440296275936434E-01 a       859     1    12     2    19
  3.7537652552025386E-01 a       860     1    12     2    20
 -1.1332335082175266E-01 a       861     1    13     2     1
 -3.6448607997234106E-01 a       862     1    13     2     2
 -1.2284599924234328E-01 a       863     1    13     2     3
  2.3988556503090755E-01 a       864     1    13     2     4
 -1.2226175463743217E-03 a       865     1    13     2     5
 -5.1334486538018043E-01 a       866     1    13     2     6
 -4.6123533557623564E-01 a       867     1    13     2     7
  4.5468759840131567E-01 a       868     1    13     2     8
 -4.5921317600985934E-01 a       869     1    13     2     9
  1.1336234454612919E-01 a       870     1    13     2    10
  3.9219213931782221E-01 a       871     1    13     2    11
  6.2040712542287835E-01 a       872     1    13     2    12
 -5.0524356556450611E-01 a       873     1    13     2    13
 -1.4286835094357855E-01 a       874     1    13     2    14
 -4.8670504549658283E-01 a       875     1    13     2    15
  7.6103567888542584E-02 a       876     1    13     2    16
 -2.8894701013959084E-01 a       877     1    13     2    17
  8.8536864030055507E-02 a       878     1    13     2    18
  3.0762232712591131E-01 a       879     1    13     2    19
  7.0032779309202597E-02 a       880     1    13     2    20
  4.4111190356091867E-01 a       881     1    14     2     1
 -3.1750944892336534E-02 a       882     1    14     2     2
  2.9880617936230941E-01 a       883     1    14     2     3
 -2.8984304858427878E-01 a       884     1    14     2     4
  8.9681284651157961E-02 a       885     1    14     2     5
 -4.8951213397142557E-01 a       886     1    14     2     6
  6.2489551789794695E-01 a       887     1    14     2     7
 -3.0016507838663753E-01 a       888     1    14     2     8
  7.4461328521007814E-02 a       889     1    14     2     9
  2.7193256025711759E-01 a       890     1    14     2    10
 -2.9721738543713398E-02 a       891     1    14     2    11
 -2.1164831337011233E-01 a       892     1    14     2    12
  2.3083184855915062E-01 a       893     1    14     2    13
  3.3477392439672138E-01 a       894     1    14     2    14
  1.7028503016279767E-01 a       895     1    14     2    15
 -3.3266882130405701E-01 a       896     1    14     2    16
 -1.7313180237272308E-01 a       897     1    14     2    17
 -4.6750983760385328E-01 a       898     1    14     2    18
 -1.3938960605689901E-01 a       899     1    14     2    19
  8.8254770455439363E-02 a       900     1    14     2    20
 -1.0559383948345187E+00 a       901     1    15     2     1
  2.1234630275786701E-01 a       902     1    15     2     2
 -5.5888706169314040E-01 a       903     1    15     2     3
  4.9739998198135238E-01 a       904     1    15     2     4
  5.1828145041778895E-01 a       905     1    15     2     5
  5.1082276676837923E-01 a       906     1    15     2     6
 -1.1957973498983901E-01 a       907     1    15     2     7
 -2.1052288350404172E-01 a       908     1    15     2     8
 -1.6795743887869037E-02 a       909     1    15     2     9
 -3.2043631259130950E-01 a       910     1    15     2    10
 -9.9464927763032743E-02 a       911     1    15     2    11
  3.4246979547877410E-01 a       912     1    15     2    12
 -7.0785690462643269E-01 a       913     1    15     2    13
  1.8473163196300793E-01 a       914     1    15     2    14
  4.7668948695007268E-01 a       915     1    15     2    15
  6.2980040962599204E-01 a       916     1    15     2    16
 -5.0902857955163405E-01 a       917     1    15     2    17
  2.3424682315717799E-01 a       918     1    15     2    18
  8.4078473801083367E-02 a       919     1    15     2    19
 -4.2991237202597760E-01 a       920     1    15     2    20
  1.6803499649460935E-01 a       921     1    16     2     1
  4.2304130153274544E-01 a       922     1    16     2     2
 -9.7826976811794863E-01 a       923     1    16     2     3
 -5.5034729323285647E-01 a       924     1    16     2     4
 -2.4554208583028314E-01 a       925     1    16     2     5
  3.5648201067366420E-01 a       926     1    16     2     6
  1.3693575387767090E-01 a       927     1    16     2     7
 -3.2310887172606678E-01 a       928     1    16     2     8
 -5.4406376896897757E-01 a       929     1    16     2     9
  7.0931417255792484E-01 a       930     1    16     2    10
  6.5348457140439198E-01 a       931     1    16     2    11
 -8.3792565379042824E-02 a       932     1    16     2    12
  1.0407370213789290E-01 a       933     1    16     2    13
 -9.5026138325310344E-02 a       934     1    16     2    14
  1.2257091852038880E-02 a       935     1    16     2    15
  8.7546381071180859E-02 a       936     1    16     2    16
 -2.8639248364945730E-01 a       937     1    16     2    17
  8.8157633773953037E-01 a       938     1    16     2    18
  6.6763614608166832E-01 a       939     1    16     2    19
  5.7460854593335398E-01 a       940     1    16     2    20
 -4.1366506668010133E-01 a       941     1    17     2     1
 -1.9947863810762803E-01 a       942     1    17     2     2
 -5.4240106240678432E-01 a       943     1    17     2     3
 -8.1767461540909714E-01 a       944     1    17     2     4
  3.5162873253956595E-01 a       945     1    17     2     5
 -3.2326385639711508E-01 a       946     1    17     2     6
 -3.2093706371489278E-01 a       947     1    17     2     7
 -7.4501335953255210E-01 a       948     1    17     2     8
  3.1819937262805387E-01 a       949     1    17     2     9
 -8.7460194922724485E-02 a       950     1    17     2    10
  2.0685736990027820E-02 a       951     1    17     2    11
 -2.6976130415685851E-01 a       952     1    17     2    12
  3.5491300032552803E-01 a       953     1    17     2    13
  3.9825509040399087E-01 a       954     1    17     2    14
  2.9074074613850243E-01 a       955     1    17     2    15
  3.6606378600638795E-01 a       956     1    17     2    16
 -3.9791365950965724E-01 a       957     1    17     2    17
 -3.0868080222985428E-01 a       958     1    17     2    18
 -2.8521396115434461E-01 a       959     1    17     2    19
 -5.2552697084885835E-01 a       960     1    17     2    20
  2.5968326681729322E-02 a       961     1    18     2     1
 -3.3613341752775761E-01 a       962     1    18     2     2
  5.4036383685064659E-01 a       963     1    18     2     3
  3.0450974764114719E-01 a       964     1    18     2     4
  1.8363633487041756E-01 a       965     1    18     2     5
  3.9610638249374630E-01 a       966     1    18     2     6
 -1.4492245673736648E-01 a       967     1    18     2     7
 -1.7200787034706766E-01 a       968     1    18     2     8
 -3.6778571831468304E-01 a       969     1    18     2     9
  3.1213804286958613E-01 a       970     1    18     2    10
  3.6430275315588234E-02 a       971     1    18     2    11
  1.0292536338412730E+00 a       972     1    18     2    12
 -8.9400905002732922E-01 a       973     1    18     2    13
 -3.0469073581486245E-01 a       974     1    18     2    14
 -2.1350312148756267E-02 a       975     1    18     2    15
  4.5123240294587696E-01 a       976     1    18     2    16
 -2.7962070402169742E-01 a       977     1    18     2    17
 -2.4316267167811637E-01 a       978     1    18     2    18
  4.2018969257202254E-01 a       979     1    18     2    19
 -4.0583739303331107E-01 a       980     1    18     2    20
  1.2979703914005170E-01 a       981     1    19     2     1
  1.7776409797904125E-01 a       982     1    19     2     2
  1.8070355188296383E-01 a       983     1    19     2     3
  1.1067184310660526E-01 a       984     1    19     2     4
 -7.8508394126608638E-01 a       985     1    19     2     5
  2.0569710395082894E-01 a       986     1    19     2     6
  3.2024398793732511E-01 a       987     1    19     2     7
  4.3941788960609096E-01 a       988     1    19     2     8
 -6.8003824740852342E-02 a       989     1    19     2     9
  7.5712953607407832E-02 a       990     1    19     2    10
 -5.5003803774281179E-01 a       991     1    19     2    11
  1.4079410869906028E-01 a       992     1    19     2    12
  2.0346213728884930E-02 a       993     1    19     2    13
 -3.0855988482244601E-01 a       994     1    19     2    14
 -9.2695282167179469E-02 a       995     1    19     2    15
  9.7672546172524868E-02 a       996     1    19     2    16
  1.9625074751925839E-01 a       997     1    19     2    17
  2.5785850378965669E-01 a       998     1    19     2    18
  4.6896254317595643E-01 a       999     1    19     2    19
  8.6586585609991329E-02 a      1000     1    19     2    20
  6.7418087136181681E-01 a      1001     1    20     2     1
  1.5715819858535160E-01 a      1002     1    20     2     2
 -6.8415283790322423E-01 a      1003     1    20     2     3
  3.6647714803790937E-01 a      1004     1    20     2     4
 -1.0149632365426089E-01 a      1005     1    20     2     5
  8.5017228909095074E-03 a      1006     1    20     2     6
  4.8728702708298921E-01 a      1007     1    20     2     7
  3.8617399809472713E-01 a      1008     1    20     2     8
 -2.7588586445389957E-01 a      1009     1    20     2     9
 -1.3530329409427660E-01 a      1010     1    20     2    10
  2.4099884814107461E-02 a      1011     1    20     2    11
 -6.5605980051483115E-01 a      1012     1    20     2    12
 -4.4749879000436504E-02 a      1013     1    20     2    13
  1.7663380324240502E-01 a      1014     1    20     2    14
 -6.2356623582645210E-01 a      1015     1    20     2    15
 -4.6397798555158803E-01 a      1016     1    20     2    16
  4.2126912672063027E-01 a      1017     1    20     2    17
  1.0354860674721484E+00 a      1018     1    20     2    18
  5.2859216601296721E-01 a      1019     1    20     2    19
  5.8781410599891326E-01 a      1020     1    20     2    20
  3.3060128365635288E-01 b      1021     2     1
 -1.2729099053992294E+00 b      1022     2     2
  1.3181459746529243E+00 b      1023     2     3
  1.2050603529218828E+00 b      1024     2     4
 -7.6717576556781908E-01 b      1025     2     5
 -1.3474672198320135E+00 b      1026     2     6
 -1.6581198435071773E+00 b      1027     2     7
  9.5868460328457994E-01 b      1028     2     8
 -2.9698617957384593E-01 b      1029     2     9
 -1.2527614262017726E+00 b      1030     2    10
 -9.0867891356445862E-01 b      1031     2    11
  1.0953862073723821E+00 b      1032     2    12
 -5.5402030283328385E-01 b      1033     2    13
  1.0890952682289552E+00 b      1034     2    14
  1.3565990966136594E+00 b      1035     2    15
 -7.3757928686921947E-01 b      1036     2    16
  5.7032190018502382E-01 b      1037     2    17
  2.0538895492470493E-02 b      1038     2    18
 -2.3063643200962169E-01 b      1039     2    19
 -1.5063001204656326E+00 b      1040     2    20
  3.4906246529942297E-01 a      1041     2     1     3     1
 -1.4279368876187495E+00 a      1042     2     2     3     1
  6.8073216228571554E-01 a      1043     2     3     3     1
 -3.8381486454128433E-01 a      1044     2     4     3     1
 -1.1772131015088967E+00 a      1045     2     5     3     1
 -1.4161402894406134E+00 a      1046     2     6     3     1
 -1.3372880867827162E+00 a      1047     2     7     3     1
  1.2241476665534994E+00 a      1048     2     8     3     1
  8.2112494222110055E-01 a      1049     2     9     3     1
 -1.2623638565995414E+00 a      1050     2    10     3     1
 -4.2505548107411484E-01 a      1051     2    11     3     1
  8.8626895753749602E-01 a      1052     2    12     3     1
 -1.3114571383935334E+00 a      1053     2    13     3     1
  5.9860478962642416E-01 a      1054     2    14     3     1
  1.4416717368628789E+00 a      1055     2    15     3     1
  6.8009254493468196E-01 a      1056     2    16     3     1
 -1.0383816565845154E+00 a      1057     2    17     3     1
 -8.2520266339054060E-01 a      1058     2    18     3     1
 -1.0418560310928036E+00 a      1059     2    19     3     1
 -1.3573776013769443E+00 a      1060     2    20     3     1
  1.6411007633358179E+00 b      1061     3     1
