################################################################################
# Neural network connection values (weights and biases).
################################################################################
# Col  Name       Description
################################################################################
# 1    connection Neural network connection value.
# 2    t          Connection type (a = weight, b = bias).
# 3    index      Index enumerating weights.
# 4    l_s        Starting point layer (end point layer for biases).
# 5    n_s        Starting point neuron in starting layer (end point neuron for biases).
# 6    l_e        End point layer.
# 7    n_e        End point neuron in end layer.
################################################################################
#                      1 2         3     4     5     6     7
#             connection t     index   l_s   n_s   l_e   n_e
############################################################
  3.7006458999950315E-01 a         1     0     1     1     1
  2.3911448531094606E-01 a         2     0     1     1     2
 -1.2942007407477654E-01 a         3     0     1     1     3
  3.7827586142415291E-02 a         4     0     1     1     4
  6.4189568070760772E-01 a         5     0     1     1     5
 -2.1193666027213090E-01 a         6     0     1     1     6
 -6.3891821045261632E-01 a         7     0     1     1     7
 -6.7346647550369598E-01 a         8     0     1     1     8
 -4.2088783727240942E-01 a         9     0     1     1     9
 -3.8774572791293267E-02 a        10     0     1     1    10
 -6.3811057500177670E-01 a        11     0     1     1    11
  4.2189832432925811E-01 a        12     0     1     1    12
  2.1318990911221913E-01 a        13     0     1     1    13
 -4.5593396232370725E-01 a        14     0     1     1    14
  2.6648852337157614E-01 a        15     0     1     1    15
 -5.3665693678049159E-02 a        16     0     1     1    16
 -2.9980318143192924E-01 a        17     0     1     1    17
 -7.9934206692656079E-02 a        18     0     1     1    18
  3.0938916180270247E-02 a        19     0     1     1    19
 -5.8644004149342543E-01 a        20     0     1     1    20
  1.3730139770739738E-01 a        21     0     2     1     1
 -9.7565685545012359E-01 a        22     0     2     1     2
 -1.4171212164649150E-01 a        23     0     2     1     3
  3.5331881663113890E-01 a        24     0     2     1     4
 -4.2973110289942620E-02 a        25     0     2     1     5
  2.0304833221325599E-01 a        26     0     2     1     6
  1.3521537786655222E+00 a        27     0     2     1     7
  3.5518443134583760E-01 a        28     0     2     1     8
  3.0708790343448822E-01 a        29     0     2     1     9
  2.2917733009941887E-01 a        30     0     2     1    10
  4.5726450141194108E-01 a        31     0     2     1    11
  3.4641067785173074E-01 a        32     0     2     1    12
 -2.4616159932515919E-01 a        33     0     2     1    13
  1.5206018334961344E+00 a        34     0     2     1    14
  4.5113387121355569E-01 a        35     0     2     1    15
 -4.7793536843728629E-01 a        36     0     2     1    16
  4.9182867215819798E-01 a        37     0     2     1    17
 -5.1411606679877625E-02 a        38     0     2     1    18
  1.2244435516358486E-01 a        39     0     2     1    19
  1.1329194398320983E+00 a        40     0     2     1    20
  2.3956997594373503E-02 a        41     0     3     1     1
  2.6446618961858681E-01 a        42     0     3     1     2
 -4.7487419663191843E-01 a        43     0     3     1     3
  2.3104692871169710E-01 a        44     0     3     1     4
 -2.9285114902375303E-01 a        45     0     3     1     5
  2.2755011781025508E-01 a        46     0     3     1     6
 -2.4643958558961016E-01 a        47     0     3     1     7
  3.2091392498119833E-02 a        48     0     3     1     8
  3.4375130139164023E-01 a        49     0     3     1     9
  5.0951243525893919E-01 a        50     0     3     1    10
  5.9026302703217781E-01 a        51     0     3     1    11
 -7.9649900178384969E-01 a        52     0     3     1    12
 -1.5547695913615675E-01 a        53     0     3     1    13
 -5.0651306880128047E-02 a        54     0     3     1    14
 -5.4084167575640130E-01 a        55     0     3     1    15
 -1.8899161173701692E-01 a        56     0     3     1    16
  1.0872356297516422E-01 a        57     0     3     1    17
  5.0245487973753569E-02 a        58     0     3     1    18
 -2.7725734991151069E-01 a        59     0     3     1    19
  3.0152321894032219E-01 a        60     0     3     1    20
 -3.1818646951182666E-02 a        61     0     4     1     1
  2.4525764165459424E-01 a        62     0     4     1     2
  1.6542375236569690E-01 a        63     0     4     1     3
 -6.2194184386447671E-01 a        64     0     4     1     4
  3.9857345728236199E-01 a        65     0     4     1     5
 -4.3861628791859969E-01 a        66     0     4     1     6
 -2.8061035175295979E-01 a        67     0     4     1     7
 -2.3432505774264756E-01 a        68     0     4     1     8
  7.8130915051070249E-01 a        69     0     4     1     9
 -4.9631243394579677E-01 a        70     0     4     1    10
 -4.0617968233516544E-01 a        71     0     4     1    11
  2.7034508811243568E-02 a        72     0     4     1    12
 -2.0804264293821620E-01 a        73     0     4     1    13
 -1.8003183717994850E-01 a        74     0     4     1    14
 -1.9474188712367202E-01 a        75     0     4     1    15
  1.5838904516949187E-01 a        76     0     4     1    16
 -1.8558332340048991E-01 a        77     0     4     1    17
 -5.8655949010372903E-02 a        78     0     4     1    18
  1.3124911888185165E-01 a        79     0     4     1    19
 -6.5783994021825576E-01 a        80     0     4     1    20
  2.2364172548350677E-04 a        81     0     5     1     1
 -3.0381107897015608E-01 a        82     0     5     1     2
 -1.0587771810594792E-02 a        83     0     5     1     3
  2.4036111938347529E-01 a        84     0     5     1     4
 -7.8540130371914563E-01 a        85     0     5     1     5
 -2.3397719908367022E-03 a        86     0     5     1     6
 -1.2893420158418251E-01 a        87     0     5     1     7
 -2.6192136494278057E-02 a        88     0     5     1     8
 -8.5242808059854652E-02 a        89     0     5     1     9
  6.1359155066768611E-01 a        90     0     5     1    10
  2.4348509529726562E-02 a        91     0     5     1    11
  3.7882706994070892E-01 a        92     0     5     1    12
  2.9063857438365015E-01 a        93     0     5     1    13
  1.8765079533624179E-01 a        94     0     5     1    14
 -2.3091648716010857E-01 a        95     0     5     1    15
  5.5539256958676819E-01 a        96     0     5     1    16
 -6.0625981584681987E-01 a        97     0     5     1    17
 -3.4355684044474394E-01 a        98     0     5     1    18
  2.9182382821852426E-01 a        99     0     5     1    19
 -6.8335778706032135E-02 a       100     0     5     1    20
  2.8546406199565294E-01 a       101     0     6     1     1
  5.0508401198115016E-01 a       102     0     6     1     2
  3.4410186180032942E-01 a       103     0     6     1     3
 -1.3378944264741710E-01 a       104     0     6     1     4
  1.6756048488479480E-01 a       105     0     6     1     5
 -1.0345014578205990E-01 a       106     0     6     1     6
 -4.7108862755399428E-01 a       107     0     6     1     7
 -3.3958549943366756E-01 a       108     0     6     1     8
 -1.7510822825231898E-01 a       109     0     6     1     9
 -2.9639246328268122E-02 a       110     0     6     1    10
 -6.0336392890294500E-02 a       111     0     6     1    11
 -7.5874861549131395E-02 a       112     0     6     1    12
  2.9277669553556507E-01 a       113     0     6     1    13
 -6.3965785564824551E-01 a       114     0     6     1    14
  1.2304386971719182E-01 a       115     0     6     1    15
  2.3770095927454865E-01 a       116     0     6     1    16
  1.5784888132662817E-01 a       117     0     6     1    17
  7.5171011784235409E-01 a       118     0     6     1    18
 -2.6635490298423165E-01 a       119     0     6     1    19
  5.8787315094170921E-02 a       120     0     6     1    20
  1.5781198899491141E-02 a       121     0     7     1     1
 -2.7292155112261959E-02 a       122     0     7     1     2
 -4.8764678044606657E-02 a       123     0     7     1     3
  2.3995436200246906E-01 a       124     0     7     1     4
  2.5029675103587351E-01 a       125     0     7     1     5
  1.5768754066373447E-01 a       126     0     7     1     6
 -9.3763561957760533E-02 a       127     0     7     1     7
  5.3940194503981120E-01 a       128     0     7     1     8
 -1.1118921904244553E-01 a       129     0     7     1     9
 -1.1590304983480404E-01 a       130     0     7     1    10
 -5.0356155815080061E-01 a       131     0     7     1    11
  3.2874053933035163E-02 a       132     0     7     1    12
 -4.3673746499034194E-01 a       133     0     7     1    13
  1.7023080881986380E-01 a       134     0     7     1    14
  1.3624281784457412E-01 a       135     0     7     1    15
 -1.0879463368566955E-01 a       136     0     7     1    16
  3.7819146995770775E-01 a       137     0     7     1    17
  3.1625854621776617E-01 a       138     0     7     1    18
 -1.2737811333395260E-01 a       139     0     7     1    19
  1.6979196096450083E-01 a       140     0     7     1    20
 -4.4464458605234713E-01 a       141     0     8     1     1
 -7.9513518690565860E-02 a       142     0     8     1     2
 -6.1578762238297668E-01 a       143     0     8     1     3
  6.7302664423132863E-01 a       144     0     8     1     4
 -1.0465582649616805E+00 a       145     0     8     1     5
  5.9118897073947008E-01 a       146     0     8     1     6
  6.3857106641504846E-01 a       147     0     8     1     7
  7.5984497209545609E-01 a       148     0     8     1     8
 -5.6513993700089560E-01 a       149     0     8     1     9
 -2.1381199930541146E-03 a       150     0     8     1    10
  2.7263657606870306E-01 a       151     0     8     1    11
  2.3791755010320059E-01 a       152     0     8     1    12
  3.1958461116421599E-01 a       153     0     8     1    13
 -4.2170331639483499E-01 a       154     0     8     1    14
 -3.5874327853390509E-01 a       155     0     8     1    15
 -1.6544442837092233E-01 a       156     0     8     1    16
  2.0712597473385916E-01 a       157     0     8     1    17
 -4.6213702924030453E-01 a       158     0     8     1    18
  4.2935032622671127E-01 a       159     0     8     1    19
  3.9841925738194961E-01 a       160     0     8     1    20
 -2.3758012716863811E-01 a       161     0     9     1     1
 -1.7006202292797001E-01 a       162     0     9     1     2
 -1.2485298052252328E-01 a       163     0     9     1     3
 -4.5961321864301363E-01 a       164     0     9     1     4
  2.8487259749715577E-01 a       165     0     9     1     5
 -2.1689906402184642E-01 a       166     0     9     1     6
  2.1447650946651425E-01 a       167     0     9     1     7
  1.9385244128940901E-01 a       168     0     9     1     8
  6.3199490534707647E-01 a       169     0     9     1     9
 -6.6730517006669987E-01 a       170     0     9     1    10
 -3.9912551559902074E-02 a       171     0     9     1    11
 -2.1848483505132749E-01 a       172     0     9     1    12
 -1.1527572408842486E-01 a       173     0     9     1    13
  6.6078984799661655E-01 a       174     0     9     1    14
  2.2770613267420986E-01 a       175     0     9     1    15
  1.4072489264562787E-01 a       176     0     9     1    16
 -2.8188808148812283E-01 a       177     0     9     1    17
 -5.3637802955143771E-03 a       178     0     9     1    18
 -1.3241625746203062E-01 a       179     0     9     1    19
  2.8587714247690810E-01 a       180     0     9     1    20
  3.8971033004603589E-01 a       181     0    10     1     1
  3.4147911965303196E-01 a       182     0    10     1     2
 -8.3062891136053377E-02 a       183     0    10     1     3
  3.4385283785864161E-02 a       184     0    10     1     4
 -8.5746818229117838E-02 a       185     0    10     1     5
 -5.8106726400512942E-01 a       186     0    10     1     6
  1.7583176798020175E-01 a       187     0    10     1     7
 -4.4428224749202311E-01 a       188     0    10     1     8
  4.7251595156891188E-02 a       189     0    10     1     9
  2.7760498567958980E-01 a       190     0    10     1    10
  1.7741253516190356E-01 a       191     0    10     1    11
  2.8932941915178909E-02 a       192     0    10     1    12
 -5.2619194759193626E-02 a       193     0    10     1    13
 -2.2115453354703385E-02 a       194     0    10     1    14
  2.0475496354723852E-01 a       195     0    10     1    15
  2.0363050032810348E-01 a       196     0    10     1    16
 -2.5518709514611226E-01 a       197     0    10     1    17
 -2.4846394980210471E-01 a       198     0    10     1    18
  2.0394849629147296E-01 a       199     0    10     1    19
 -2.7971159810313567E-01 a       200     0    10     1    20
  7.7167420188776467E-02 a       201     0    11     1     1
  1.1027809626119807E-01 a       202     0    11     1     2
 -1.0320425119042592E-01 a       203     0    11     1     3
  4.0913426262512892E-01 a       204     0    11     1     4
 -1.2051865588865797E-02 a       205     0    11     1     5
 -4.3534621497977860E-01 a       206     0    11     1     6
  1.6618122774070770E-01 a       207     0    11     1     7
  5.0684538087141728E-01 a       208     0    11     1     8
 -5.5259254927270707E-01 a       209     0    11     1     9
 -2.4195970633120645E-01 a       210     0    11     1    10
  5.4307583167095630E-01 a       211     0    11     1    11
 -1.4729523360963082E-01 a       212     0    11     1    12
  2.1245292289648293E-01 a       213     0    11     1    13
 -5.4922108448404994E-01 a       214     0    11     1    14
  9.1851299327176825E-02 a       215     0    11     1    15
 -5.9168702940133533E-01 a       216     0    11     1    16
 -6.5636290055762647E-01 a       217     0    11     1    17
  5.9578511515765660E-02 a       218     0    11     1    18
 -2.9418378917130239E-01 a       219     0    11     1    19
  5.1101954993741405E-01 a       220     0    11     1    20
  3.2552780500128375E-01 a       221     0    12     1     1
 -5.9347347459893551E-01 a       222     0    12     1     2
  5.6396687393436906E-01 a       223     0    12     1     3
  8.4823813432528231E-04 a       224     0    12     1     4
 -3.7857362077968293E-01 a       225     0    12     1     5
  4.7995245699808414E-01 a       226     0    12     1     6
 -1.1987233679781330E-02 a       227     0    12     1     7
 -4.9170232860297991E-01 a       228     0    12     1     8
  4.6762902930258171E-01 a       229     0    12     1     9
  4.8176739525210516E-01 a       230     0    12     1    10
 -2.0957017511744488E-01 a       231     0    12     1    11
  2.2005821615136076E-01 a       232     0    12     1    12
 -4.6813413858980690E-02 a       233     0    12     1    13
  3.5586425673216332E-01 a       234     0    12     1    14
  1.8143751325953325E-01 a       235     0    12     1    15
 -1.4609388135285659E-01 a       236     0    12     1    16
  1.2497728207070709E-01 a       237     0    12     1    17
  9.7185282479411661E-02 a       238     0    12     1    18
 -2.0609969711895662E-01 a       239     0    12     1    19
 -6.3225021116264046E-01 a       240     0    12     1    20
  6.3293215611976525E-02 a       241     0    13     1     1
 -2.6284615399965815E-02 a       242     0    13     1     2
 -4.7483174983799101E-02 a       243     0    13     1     3
  3.1612301833436739E-02 a       244     0    13     1     4
 -6.3634696375133293E-01 a       245     0    13     1     5
  2.1755330672795328E-01 a       246     0    13     1     6
  1.7806263039394937E-01 a       247     0    13     1     7
  5.3572693434524116E-02 a       248     0    13     1     8
  2.2223175125100142E-01 a       249     0    13     1     9
  4.2644472163829716E-01 a       250     0    13     1    10
  2.3170141679038175E-01 a       251     0    13     1    11
 -1.5742814861527998E-01 a       252     0    13     1    12
  6.6624247877641235E-02 a       253     0    13     1    13
  7.7665778926717699E-01 a       254     0    13     1    14
 -2.3110434120668555E-01 a       255     0    13     1    15
  3.0545704987341604E-01 a       256     0    13     1    16
  3.4768440574646164E-01 a       257     0    13     1    17
 -2.2601909579238921E-01 a       258     0    13     1    18
  2.9350941815377685E-01 a       259     0    13     1    19
 -6.6213985358054206E-01 a       260     0    13     1    20
 -3.0939278894699057E-01 a       261     0    14     1     1
  8.3780446116067997E-01 a       262     0    14     1     2
 -3.6293791558844363E-01 a       263     0    14     1     3
 -1.5165024378896760E-01 a       264     0    14     1     4
 -2.0464242476799208E-01 a       265     0    14     1     5
 -1.6752223586528781E-02 a       266     0    14     1     6
  2.8284972728199670E-01 a       267     0    14     1     7
  3.6129347954587321E-01 a       268     0    14     1     8
  8.8841958816833178E-01 a       269     0    14     1     9
  1.3345213879967688E-01 a       270     0    14     1    10
 -1.7820306214310228E-01 a       271     0    14     1    11
  6.3365039399748291E-01 a       272     0    14     1    12
 -2.9659688706870965E-02 a       273     0    14     1    13
 -3.9252059795659838E-01 a       274     0    14     1    14
  1.7312427254623350E-01 a       275     0    14     1    15
  3.3044540821559748E-01 a       276     0    14     1    16
 -1.5223927311565574E-01 a       277     0    14     1    17
 -1.4100336863667584E-01 a       278     0    14     1    18
  1.1005428742644197E+00 a       279     0    14     1    19
  1.2718741492831767E-01 a       280     0    14     1    20
 -1.2105179417536416E+00 a       281     0    15     1     1
  6.3297672387626503E-03 a       282     0    15     1     2
  6.3162169916053923E-01 a       283     0    15     1     3
  1.3219931906753781E+00 a       284     0    15     1     4
  3.9010035183707226E-01 a       285     0    15     1     5
  3.0680293358376037E-01 a       286     0    15     1     6
 -5.2649291303661627E-01 a       287     0    15     1     7
 -2.5536868594525558E-01 a       288     0    15     1     8
  2.2126453109388314E-01 a       289     0    15     1     9
  2.2387148270437193E-01 a       290     0    15     1    10
  3.6660292438590558E-01 a       291     0    15     1    11
  7.9903987749534477E-01 a       292     0    15     1    12
 -6.7663198488772769E-01 a       293     0    15     1    13
  2.4229697958836530E-01 a       294     0    15     1    14
  5.2605252186219203E-03 a       295     0    15     1    15
  2.7664708979995412E-01 a       296     0    15     1    16
 -6.9139353240456586E-02 a       297     0    15     1    17
 -5.1745517125438414E-02 a       298     0    15     1    18
 -2.0765432748062712E-01 a       299     0    15     1    19
 -1.2362735790215358E+00 a       300     0    15     1    20
 -2.4105498066707649E-02 a       301     0    16     1     1
 -4.6160405369813101E-01 a       302     0    16     1     2
 -1.3254443970275862E-01 a       303     0    16     1     3
 -1.1246006688512939E-02 a       304     0    16     1     4
  1.1528904884708779E-01 a       305     0    16     1     5
 -2.8117789897485429E-01 a       306     0    16     1     6
 -1.5206514864033091E-01 a       307     0    16     1     7
 -4.1456532309358418E-01 a       308     0    16     1     8
 -2.6109959861063581E-01 a       309     0    16     1     9
  2.1946217366102785E-01 a       310     0    16     1    10
  1.6334332155559690E-02 a       311     0    16     1    11
 -3.4359814332950395E-01 a       312     0    16     1    12
 -4.0007299549936387E-01 a       313     0    16     1    13
  4.2789754908888777E-01 a       314     0    16     1    14
 -1.3909826003359482E-01 a       315     0    16     1    15
 -2.7181642879950013E-01 a       316     0    16     1    16
 -1.3847660716835611E-01 a       317     0    16     1    17
 -3.0533697980143337E-01 a       318     0    16     1    18
 -1.1062584776972578E-01 a       319     0    16     1    19
 -1.6501671110058405E-01 a       320     0    16     1    20
  1.4885078749138905E-01 a       321     0    17     1     1
 -4.2420321996346044E-02 a       322     0    17     1     2
  1.1853157616313419E-01 a       323     0    17     1     3
  1.9834628558686546E-01 a       324     0    17     1     4
 -2.5277780263984601E-01 a       325     0    17     1     5
 -3.6975771387704898E-01 a       326     0    17     1     6
  4.1711642997591486E-01 a       327     0    17     1     7
  3.4476342458241688E-02 a       328     0    17     1     8
  2.8614667994378635E-02 a       329     0    17     1     9
  1.0905048199608665E-01 a       330     0    17     1    10
 -1.9980917446040092E-01 a       331     0    17     1    11
  5.3430893076437634E-02 a       332     0    17     1    12
  9.2958199947401982E-02 a       333     0    17     1    13
  5.2240006508362269E-01 a       334     0    17     1    14
  1.4654021105870096E-01 a       335     0    17     1    15
 -2.5037559322350084E-01 a       336     0    17     1    16
  1.8872475080058851E-01 a       337     0    17     1    17
  3.7039088619092379E-02 a       338     0    17     1    18
  2.8885675896127705E-01 a       339     0    17     1    19
 -9.0576679373754701E-02 a       340     0    17     1    20
 -2.1338807708783031E-01 a       341     0    18     1     1
  2.5542719557192906E-01 a       342     0    18     1     2
  1.1535106502938970E-01 a       343     0    18     1     3
 -7.5382757949824561E-02 a       344     0    18     1     4
 -4.6989276029236327E-01 a       345     0    18     1     5
 -2.0953497719067557E-02 a       346     0    18     1     6
 -1.7438594118428780E-01 a       347     0    18     1     7
  9.0301031718480484E-01 a       348     0    18     1     8
 -2.7948603601876609E-01 a       349     0    18     1     9
 -2.4516374596652990E-01 a       350     0    18     1    10
 -7.4489893696650031E-02 a       351     0    18     1    11
  1.2902295299478381E-01 a       352     0    18     1    12
  6.4975917716390635E-02 a       353     0    18     1    13
 -2.4717822736560779E-01 a       354     0    18     1    14
 -9.4776330054953506E-02 a       355     0    18     1    15
 -1.3803462360163468E-01 a       356     0    18     1    16
  2.4933664224438989E-01 a       357     0    18     1    17
  1.4274960710188123E-01 a       358     0    18     1    18
  2.0536839477273205E-01 a       359     0    18     1    19
  7.4503569191487998E-02 a       360     0    18     1    20
  6.3263541859754732E-02 a       361     0    19     1     1
  1.0778445746378730E-01 a       362     0    19     1     2
  7.2655582699364923E-02 a       363     0    19     1     3
 -1.2316270307798087E-01 a       364     0    19     1     4
  8.5168172687622917E-02 a       365     0    19     1     5
  1.4283692749881707E-01 a       366     0    19     1     6
 -4.8435927315257289E-02 a       367     0    19     1     7
 -9.4376129573133100E-02 a       368     0    19     1     8
 -2.0674296020250596E-01 a       369     0    19     1     9
 -7.4445919335878616E-02 a       370     0    19     1    10
  8.1779512281530187E-02 a       371     0    19     1    11
  2.1111458596910068E-01 a       372     0    19     1    12
  1.2216000126520038E-01 a       373     0    19     1    13
 -3.2196155960954437E-01 a       374     0    19     1    14
  2.3599347908871148E-02 a       375     0    19     1    15
  9.1122777077272066E-01 a       376     0    19     1    16
  2.0789097243679076E-02 a       377     0    19     1    17
  1.8483405778681031E-01 a       378     0    19     1    18
 -1.5696722378604941E-01 a       379     0    19     1    19
  1.1930829713643080E-01 a       380     0    19     1    20
 -2.7875640211463194E-02 a       381     0    20     1     1
 -1.6874617012198614E-01 a       382     0    20     1     2
  6.8136483908085999E-01 a       383     0    20     1     3
  8.8485110627307365E-02 a       384     0    20     1     4
  1.6052649850655489E+00 a       385     0    20     1     5
  1.1306700208892019E-01 a       386     0    20     1     6
  6.6116655069550348E-02 a       387     0    20     1     7
 -1.0833626048139255E+00 a       388     0    20     1     8
 -2.8451703584336935E-01 a       389     0    20     1     9
 -3.1382527294516499E-01 a       390     0    20     1    10
  2.3462387597004690E-02 a       391     0    20     1    11
 -5.8862751529102342E-01 a       392     0    20     1    12
  1.9789745124248651E-01 a       393     0    20     1    13
  4.1324789530115730E-01 a       394     0    20     1    14
  7.1788630641062390E-02 a       395     0    20     1    15
  7.9600679040929823E-03 a       396     0    20     1    16
 -2.3565659666744421E-01 a       397     0    20     1    17
 -3.6919539449623634E-01 a       398     0    20     1    18
 -1.8067813440131014E-01 a       399     0    20     1    19
 -4.8606383782870433E-01 a       400     0    20     1    20
 -4.8251429219237651E-01 a       401     0    21     1     1
 -5.5423990412762858E-01 a       402     0    21     1     2
  4.5618884167560513E-02 a       403     0    21     1     3
  2.0294556666604852E-01 a       404     0    21     1     4
 -5.7756521994998589E-01 a       405     0    21     1     5
  5.1095394948720052E-01 a       406     0    21     1     6
 -3.2569968288317197E-01 a       407     0    21     1     7
  6.0707992661447785E-01 a       408     0    21     1     8
  7.2809911885003176E-01 a       409     0    21     1     9
 -2.3599294121064199E-01 a       410     0    21     1    10
 -1.0618640110970648E-01 a       411     0    21     1    11
 -6.7819657412142198E-01 a       412     0    21     1    12
  2.0476086746191471E-01 a       413     0    21     1    13
  4.3982122034330978E-01 a       414     0    21     1    14
 -1.7564450248730556E-01 a       415     0    21     1    15
  2.1497907886443543E-01 a       416     0    21     1    16
  5.3740792466966092E-01 a       417     0    21     1    17
 -2.1183825931427341E-01 a       418     0    21     1    18
 -1.4826249492971469E-01 a       419     0    21     1    19
  2.5687144447868354E-01 a       420     0    21     1    20
  1.7694198648778459E-01 a       421     0    22     1     1
  7.0249798937470673E-02 a       422     0    22     1     2
  3.7769950921755568E-01 a       423     0    22     1     3
 -3.4229675342618987E-01 a       424     0    22     1     4
  4.5123747545439874E-01 a       425     0    22     1     5
 -1.1419984881196688E-02 a       426     0    22     1     6
 -4.8677616297873622E-01 a       427     0    22     1     7
 -7.2577927119429952E-01 a       428     0    22     1     8
 -7.5455068147762233E-02 a       429     0    22     1     9
  3.6541196572025947E-01 a       430     0    22     1    10
 -1.7650464145999470E-01 a       431     0    22     1    11
 -3.2901881699560231E-01 a       432     0    22     1    12
 -5.3637823519162839E-02 a       433     0    22     1    13
 -5.7305316295288711E-01 a       434     0    22     1    14
  9.7130970315221360E-02 a       435     0    22     1    15
 -1.3601652948224696E-01 a       436     0    22     1    16
 -9.4150185777411866E-01 a       437     0    22     1    17
  1.0134067799855834E-01 a       438     0    22     1    18
 -3.7605561058652476E-01 a       439     0    22     1    19
 -7.7361246917769222E-01 a       440     0    22     1    20
  1.7267597818050720E-01 a       441     0    23     1     1
  4.7371993911861843E-01 a       442     0    23     1     2
 -2.0299762918826322E-01 a       443     0    23     1     3
 -5.5557778579371964E-01 a       444     0    23     1     4
  1.1515637602830900E-02 a       445     0    23     1     5
 -4.8263437345029198E-01 a       446     0    23     1     6
 -2.9017649333203283E-01 a       447     0    23     1     7
  3.5204381294531079E-01 a       448     0    23     1     8
 -7.1889330958329700E-01 a       449     0    23     1     9
  1.1089425295095261E-01 a       450     0    23     1    10
 -8.8665219405508658E-02 a       451     0    23     1    11
  5.8181441686471191E-01 a       452     0    23     1    12
  1.0990179576067025E-02 a       453     0    23     1    13
 -8.9262206223376450E-01 a       454     0    23     1    14
 -3.9811421543835557E-01 a       455     0    23     1    15
 -2.1076105234730450E-01 a       456     0    23     1    16
 -1.4319244869955002E-02 a       457     0    23     1    17
  4.7619965786203250E-01 a       458     0    23     1    18
  1.8755938337824485E-01 a       459     0    23     1    19
 -8.7410035274202991E-02 a       460     0    23     1    20
 -3.7631753592051752E-02 a       461     0    24     1     1
 -1.9627706993885077E-01 a       462     0    24     1     2
  2.2962242025260285E-01 a       463     0    24     1     3
  6.6696012313985489E-02 a       464     0    24     1     4
 -1.4594414772669867E-01 a       465     0    24     1     5
 -2.6336251746081542E-02 a       466     0    24     1     6
  9.5556580103557984E-02 a       467     0    24     1     7
 -2.5435867792917222E-01 a       468     0    24     1     8
  4.6702818083733347E-02 a       469     0    24     1     9
  3.6488873554407934E-02 a       470     0    24     1    10
  1.5414201645512568E-01 a       471     0    24     1    11
  2.0408223604850195E-01 a       472     0    24     1    12
 -1.9663222516639681E-01 a       473     0    24     1    13
  5.9110494719391837E-01 a       474     0    24     1    14
  1.6271201009235742E-01 a       475     0    24     1    15
 -9.8943851078624093E-02 a       476     0    24     1    16
 -2.0664005100692628E-01 a       477     0    24     1    17
 -2.8093014141474559E-01 a       478     0    24     1    18
 -1.5673554285159058E-01 a       479     0    24     1    19
  2.0607789159490275E-01 a       480     0    24     1    20
  2.2798810914878018E-01 a       481     0    25     1     1
  5.0689071511852146E-01 a       482     0    25     1     2
  6.4115704513274821E-02 a       483     0    25     1     3
  7.0894161254107080E-02 a       484     0    25     1     4
  5.9730680299544314E-01 a       485     0    25     1     5
 -3.9723341900901166E-01 a       486     0    25     1     6
  5.4530839019879795E-01 a       487     0    25     1     7
  3.3509518941679600E-01 a       488     0    25     1     8
 -9.2620970018736826E-01 a       489     0    25     1     9
 -5.2756438630435132E-01 a       490     0    25     1    10
  1.7115045560037281E-01 a       491     0    25     1    11
  1.6225061020870221E-01 a       492     0    25     1    12
 -7.0046023350817055E-02 a       493     0    25     1    13
 -2.0561086248534599E-01 a       494     0    25     1    14
  2.1282078240767552E-01 a       495     0    25     1    15
 -2.4053313103342822E-01 a       496     0    25     1    16
  2.6013027044105469E-01 a       497     0    25     1    17
  8.9096056840076793E-02 a       498     0    25     1    18
 -5.3870578181728725E-02 a       499     0    25     1    19
  1.9934634120395436E-01 a       500     0    25     1    20
 -2.0935854343210716E-01 a       501     0    26     1     1
 -2.9244142352578974E-02 a       502     0    26     1     2
 -5.9764515035370380E-01 a       503     0    26     1     3
  4.3698143625033109E-01 a       504     0    26     1     4
  4.6465002351719298E-02 a       505     0    26     1     5
  1.4608606956203632E-01 a       506     0    26     1     6
 -1.7379090112340281E-01 a       507     0    26     1     7
 -6.6085106983633082E-02 a       508     0    26     1     8
  3.2906780432472874E-02 a       509     0    26     1     9
 -9.6901327273865370E-02 a       510     0    26     1    10
  1.4734868911174795E-01 a       511     0    26     1    11
 -2.4497036140738379E-01 a       512     0    26     1    12
 -1.1235092552169262E-01 a       513     0    26     1    13
 -1.2697881132035449E-01 a       514     0    26     1    14
 -2.9078282161370966E-01 a       515     0    26     1    15
  4.0588762689547220E-01 a       516     0    26     1    16
  4.0710364710333535E-01 a       517     0    26     1    17
  1.5892580312874127E-01 a       518     0    26     1    18
  2.2667745668854247E-01 a       519     0    26     1    19
  2.4956603570982053E-01 a       520     0    26     1    20
 -2.2512157357815582E-01 a       521     0    27     1     1
  1.3984819839019356E+00 a       522     0    27     1     2
  1.6087928230671583E-01 a       523     0    27     1     3
 -6.8245821537632312E-01 a       524     0    27     1     4
  8.8288167473501971E-03 a       525     0    27     1     5
  1.2978845930846711E-01 a       526     0    27     1     6
  3.6337762942060264E-01 a       527     0    27     1     7
  3.4073746322435844E-01 a       528     0    27     1     8
  2.0282525291618858E-01 a       529     0    27     1     9
 -1.8125833518521209E-01 a       530     0    27     1    10
 -5.3861372324509837E-01 a       531     0    27     1    11
 -8.0994660654339912E-01 a       532     0    27     1    12
  7.4413533733444415E-01 a       533     0    27     1    13
  5.1096279431478731E-01 a       534     0    27     1    14
  1.2492391285354447E-01 a       535     0    27     1    15
 -8.3299456248556156E-02 a       536     0    27     1    16
 -1.8705639869246207E-01 a       537     0    27     1    17
  2.2910383874698281E-01 a       538     0    27     1    18
 -1.3837947910083642E-01 a       539     0    27     1    19
  1.8952823167928298E-01 a       540     0    27     1    20
  1.8058128774852651E+00 b       541     1     1
  1.4796583346795404E+00 b       542     1     2
  1.5434430185823589E+00 b       543     1     3
 -1.6462068240666263E+00 b       544     1     4
  4.4822492717646123E-01 b       545     1     5
  1.4210773224751276E+00 b       546     1     6
  9.3245446024337042E-01 b       547     1     7
  1.1808578860812760E+00 b       548     1     8
  6.0505480353580265E-01 b       549     1     9
 -2.1409028114731157E-01 b       550     1    10
  8.0951965804778325E-01 b       551     1    11
  9.6380254747432559E-01 b       552     1    12
  1.4235793723178372E+00 b       553     1    13
  1.3285602405152412E+00 b       554     1    14
  9.4972919774359332E-01 b       555     1    15
  1.6120718042286344E+00 b       556     1    16
 -1.4226304550448463E+00 b       557     1    17
 -1.2163710451351095E+00 b       558     1    18
  2.4453951840958088E-01 b       559     1    19
 -5.8724933613422348E-01 b       560     1    20
 -3.9119022297556406E-02 a       561     1     1     2     1
  2.1746793854074012E-01 a       562     1     1     2     2
 -5.8673222198581265E-01 a       563     1     1     2     3
  1.4619278310661835E-01 a       564     1     1     2     4
  4.4342323115129328E-01 a       565     1     1     2     5
  2.3385691180220378E-01 a       566     1     1     2     6
 -4.4413205576708786E-01 a       567     1     1     2     7
 -6.2640631655187806E-01 a       568     1     1     2     8
  2.0330534365748820E-01 a       569     1     1     2     9
  7.6499684404295365E-01 a       570     1     1     2    10
  4.7322731742454210E-01 a       571     1     1     2    11
 -1.2007753392143260E-01 a       572     1     1     2    12
  6.6627509757020498E-01 a       573     1     1     2    13
  4.3695428696351746E-01 a       574     1     1     2    14
 -2.1369032192658435E-01 a       575     1     1     2    15
 -3.5714925657276110E-02 a       576     1     1     2    16
  3.5011582516509077E-01 a       577     1     1     2    17
 -2.6132843655781290E-01 a       578     1     1     2    18
 -3.4770738186818012E-01 a       579     1     1     2    19
  1.1067844763495877E-01 a       580     1     1     2    20
 -3.2667716904191740E-01 a       581     1     2     2     1
  2.3655395645921978E-01 a       582     1     2     2     2
  3.1977784115002350E-01 a       583     1     2     2     3
  2.6771424923953890E-01 a       584     1     2     2     4
 -1.7201880692134073E+00 a       585     1     2     2     5
  3.6341091247228791E-01 a       586     1     2     2     6
  3.7924648173169845E-01 a       587     1     2     2     7
 -6.4500904528015401E-01 a       588     1     2     2     8
  4.1009089325816889E-01 a       589     1     2     2     9
  1.9874397222239121E-01 a       590     1     2     2    10
 -5.7652910702819282E-01 a       591     1     2     2    11
 -2.5452395821564940E-02 a       592     1     2     2    12
 -1.1991400704975465E-01 a       593     1     2     2    13
  3.8435189908609874E-01 a       594     1     2     2    14
  4.5273562638078337E-02 a       595     1     2     2    15
  2.0089558944185687E-01 a       596     1     2     2    16
  5.7477753671377085E-01 a       597     1     2     2    17
  1.0911009804211504E-01 a       598     1     2     2    18
 -6.1222177996085414E-01 a       599     1     2     2    19
 -2.9307055675265048E-01 a       600     1     2     2    20
  7.7539638283795065E-03 a       601     1     3     2     1
 -3.4818161759463867E-01 a       602     1     3     2     2
  9.5075781073102827E-02 a       603     1     3     2     3
 -2.9444973606413299E-01 a       604     1     3     2     4
  4.9210968601405036E-01 a       605     1     3     2     5
 -4.3729940399430817E-01 a       606     1     3     2     6
  5.1912632717734575E-01 a       607     1     3     2     7
 -2.3253658808315303E-01 a       608     1     3     2     8
  5.6755751850556968E-01 a       609     1     3     2     9
  4.1843231595101837E-02 a       610     1     3     2    10
 -5.9332594091264920E-03 a       611     1     3     2    11
 -6.3250467842117741E-02 a       612     1     3     2    12
 -3.8749788711534133E-01 a       613     1     3     2    13
 -4.0938126000815167E-01 a       614     1     3     2    14
  8.5655950229673553E-02 a       615     1     3     2    15
  1.7479535801931656E-01 a       616     1     3     2    16
  2.7307867360502336E-01 a       617     1     3     2    17
 -8.2422802864914346E-01 a       618     1     3     2    18
  8.3871849867970449E-01 a       619     1     3     2    19
  4.9518101031529638E-01 a       620     1     3     2    20
 -5.8720772869993210E-01 a       621     1     4     2     1
  3.2192150997825070E-01 a       622     1     4     2     2
  8.5784698662240733E-01 a       623     1     4     2     3
  5.7849619869276481E-01 a       624     1     4     2     4
  4.5230968470901600E-01 a       625     1     4     2     5
 -1.2467233187238119E-01 a       626     1     4     2     6
 -6.2502479514997114E-02 a       627     1     4     2     7
  2.4540752806334062E-01 a       628     1     4     2     8
 -3.6861684039118703E-01 a       629     1     4     2     9
  4.0720011705104503E-01 a       630     1     4     2    10
 -1.6247805883283387E-01 a       631     1     4     2    11
 -1.3524218388645942E-01 a       632     1     4     2    12
  8.1105880933740673E-02 a       633     1     4     2    13
  4.4608147238476487E-01 a       634     1     4     2    14
 -3.4943881443400721E-01 a       635     1     4     2    15
 -3.3729249142202655E-01 a       636     1     4     2    16
  8.3083416237597385E-01 a       637     1     4     2    17
 -3.7190027932752286E-02 a       638     1     4     2    18
 -5.4804831676956811E-01 a       639     1     4     2    19
 -4.8389308589224506E-01 a       640     1     4     2    20
  3.7572223414389636E-02 a       641     1     5     2     1
 -6.9791976954977547E-02 a       642     1     5     2     2
  5.9713732072277953E-02 a       643     1     5     2     3
  3.2296179729188204E-02 a       644     1     5     2     4
 -3.3776089343670124E-01 a       645     1     5     2     5
 -4.3351338358081593E-01 a       646     1     5     2     6
 -6.0876314025545622E-02 a       647     1     5     2     7
 -2.0950770420730747E-01 a       648     1     5     2     8
  3.7011327071228561E-01 a       649     1     5     2     9
  2.6227097590759629E-01 a       650     1     5     2    10
 -5.2226942452498071E-01 a       651     1     5     2    11
  1.3840923944665720E-01 a       652     1     5     2    12
  2.7502330682258380E-01 a       653     1     5     2    13
  9.9054137533994835E-02 a       654     1     5     2    14
  2.1257301219513017E-01 a       655     1     5     2    15
  6.7460577693857504E-01 a       656     1     5     2    16
  2.3284408282041047E-01 a       657     1     5     2    17
 -4.5124904383101222E-01 a       658     1     5     2    18
 -1.0742678179443804E-01 a       659     1     5     2    19
 -5.7858268803523194E-01 a       660     1     5     2    20
 -6.4094284727816156E-02 a       661     1     6     2     1
  4.4126321357464737E-01 a       662     1     6     2     2
  1.7316044952437851E-01 a       663     1     6     2     3
 -8.2000439354665985E-02 a       664     1     6     2     4
  7.4201832780783872E-01 a       665     1     6     2     5
 -7.3767225401762027E-01 a       666     1     6     2     6
  1.3410943745495160E-01 a       667     1     6     2     7
 -4.1994395024062980E-01 a       668     1     6     2     8
 -2.5279903670384973E-01 a       669     1     6     2     9
  6.2221480697280884E-01 a       670     1     6     2    10
  2.4242917262246227E-01 a       671     1     6     2    11
 -9.1704993673573307E-02 a       672     1     6     2    12
  6.7595551243976348E-01 a       673     1     6     2    13
  4.5957841550164125E-01 a       674     1     6     2    14
  2.9828136482454976E-01 a       675     1     6     2    15
  7.1144745802427667E-01 a       676     1     6     2    16
 -3.0389054786957348E-01 a       677     1     6     2    17
 -8.9577144565377131E-01 a       678     1     6     2    18
 -6.8512224022952461E-01 a       679     1     6     2    19
  5.0939662522048934E-01 a       680     1     6     2    20
  2.8196299255339308E-01 a       681     1     7     2     1
  1.5191524086148468E-02 a       682     1     7     2     2
  2.2511996709221288E-01 a       683     1     7     2     3
  3.4777993963129389E-01 a       684     1     7     2     4
 -5.7307513851699499E-01 a       685     1     7     2     5
 -4.4565643862918602E-01 a       686     1     7     2     6
 -3.5033610793259157E-01 a       687     1     7     2     7
 -6.5246132280030666E-01 a       688     1     7     2     8
  8.3576805054618186E-01 a       689     1     7     2     9
  4.1570821841836886E-01 a       690     1     7     2    10
 -3.1292251473831706E-01 a       691     1     7     2    11
 -1.2907137898180665E-01 a       692     1     7     2    12
  5.6263172312475807E-01 a       693     1     7     2    13
 -1.9983294360513668E-01 a       694     1     7     2    14
 -4.0340464411834792E-01 a       695     1     7     2    15
  4.7597423325400422E-02 a       696     1     7     2    16
  5.9000530113675531E-01 a       697     1     7     2    17
  2.7653837319760172E-01 a       698     1     7     2    18
 -2.7175463937326566E-01 a       699     1     7     2    19
 -3.1888029729045470E-01 a       700     1     7     2    20
 -2.6056874473202929E-01 a       701     1     8     2     1
  7.3750617433844215E-02 a       702     1     8     2     2
  1.6302968531791101E-01 a       703     1     8     2     3
 -4.4632540730282810E-01 a       704     1     8     2     4
  4.3227974166879085E-01 a       705     1     8     2     5
  2.7998297925061668E-02 a       706     1     8     2     6
 -4.3113414082583251E-01 a       707     1     8     2     7
  3.2755667399364896E-01 a       708     1     8     2     8
  5.4486582233098946E-01 a       709     1     8     2     9
  7.3283329103809192E-01 a       710     1     8     2    10
 -5.1201933069580607E-01 a       711     1     8     2    11
 -6.1938807327261258E-01 a       712     1     8     2    12
  4.3721959863903065E-02 a       713     1     8     2    13
 -3.9180033659824885E-02 a       714     1     8     2    14
  2.6616307965698287E-02 a       715     1     8     2    15
  3.6975784383784954E-01 a       716     1     8     2    16
  8.4866120227940967E-01 a       717     1     8     2    17
  4.3631239563363378E-01 a       718     1     8     2    18
 -2.7863442288694568E-01 a       719     1     8     2    19
  3.2897452510916447E-01 a       720     1     8     2    20
  1.4982300136641505E-01 a       721     1     9     2     1
 -6.9117517215856805E-01 a       722     1     9     2     2
  5.3538764659761366E-02 a       723     1     9     2     3
  2.8943074012355635E-01 a       724     1     9     2     4
 -9.3698425614750080E-01 a       725     1     9     2     5
  4.5792876555267092E-01 a       726     1     9     2     6
 -4.0961484554761979E-01 a       727     1     9     2     7
 -5.6375504442498825E-01 a       728     1     9     2     8
 -4.5653188077218465E-01 a       729     1     9     2     9
 -4.9348354684146040E-01 a       730     1     9     2    10
 -5.2985561687622217E-02 a       731     1     9     2    11
 -5.0107090116724214E-02 a       732     1     9     2    12
  7.3434021558805607E-01 a       733     1     9     2    13
 -1.1774159303712425E-01 a       734     1     9     2    14
 -2.1674565069414314E-01 a       735     1     9     2    15
 -2.9323654308814445E-01 a       736     1     9     2    16
 -5.4200065735126771E-02 a       737     1     9     2    17
 -1.2404717834414367E-01 a       738     1     9     2    18
  2.7878429513518560E-01 a       739     1     9     2    19
 -4.9585481668152415E-01 a       740     1     9     2    20
  4.9979268839767615E-01 a       741     1    10     2     1
  1.8063844416351335E-01 a       742     1    10     2     2
  1.1485350486364886E-01 a       743     1    10     2     3
  3.7039071265441414E-01 a       744     1    10     2     4
 -2.0445351560152858E-01 a       745     1    10     2     5
 -1.7041210207300159E-01 a       746     1    10     2     6
  3.7953859267536180E-02 a       747     1    10     2     7
 -3.3603712389336915E-01 a       748     1    10     2     8
 -5.6782948868610550E-01 a       749     1    10     2     9
 -4.8351285745396204E-02 a       750     1    10     2    10
 -4.4619904805130356E-01 a       751     1    10     2    11
 -4.6851919107356199E-01 a       752     1    10     2    12
 -1.9239193195214488E-01 a       753     1    10     2    13
 -1.3774374750517146E-01 a       754     1    10     2    14
  4.0400984684054697E-01 a       755     1    10     2    15
 -3.9871551693005780E-01 a       756     1    10     2    16
  6.3164082966936586E-01 a       757     1    10     2    17
 -4.4633321398850606E-01 a       758     1    10     2    18
  8.8252650692930409E-02 a       759     1    10     2    19
  1.1268604764764223E-01 a       760     1    10     2    20
 -1.9936333495641412E-01 a       761     1    11     2     1
 -2.4124108562228194E-01 a       762     1    11     2     2
 -5.8808555770945781E-01 a       763     1    11     2     3
  4.6528069463604665E-01 a       764     1    11     2     4
  4.1855251921237063E-01 a       765     1    11     2     5
 -3.5873127815318168E-01 a       766     1    11     2     6
 -8.0686748359601634E-01 a       767     1    11     2     7
  9.1914367467625699E-02 a       768     1    11     2     8
  2.9814556188081554E-01 a       769     1    11     2     9
  6.5560205875755384E-01 a       770     1    11     2    10
 -4.2491136543464153E-01 a       771     1    11     2    11
  4.2207485494608349E-01 a       772     1    11     2    12
  1.7954155197685162E-01 a       773     1    11     2    13
  6.4578248764610657E-01 a       774     1    11     2    14
  2.6153159165497913E-01 a       775     1    11     2    15
 -4.3980381547844671E-01 a       776     1    11     2    16
 -3.9473813568176225E-01 a       777     1    11     2    17
 -3.5495169471849874E-01 a       778     1    11     2    18
  2.9599886649548335E-01 a       779     1    11     2    19
 -1.4333300443734409E-01 a       780     1    11     2    20
 -2.1299075926468994E-01 a       781     1    12     2     1
  4.3046636569979797E-03 a       782     1    12     2     2
 -4.5035110931860065E-02 a       783     1    12     2     3
  8.7399849650083475E-02 a       784     1    12     2     4
  1.6164010525806330E-01 a       785     1    12     2     5
  5.9293266687518324E-02 a       786     1    12     2     6
 -1.2492909115134632E-01 a       787     1    12     2     7
 -6.5239488330967055E-01 a       788     1    12     2     8
  2.0271379577256501E-01 a       789     1    12     2     9
 -2.0141156502462212E-01 a       790     1    12     2    10
 -3.8188811840304254E-01 a       791     1    12     2    11
 -1.1939235627855141E-01 a       792     1    12     2    12
 -3.9521328320696142E-01 a       793     1    12     2    13
  3.0933267644538914E-01 a       794     1    12     2    14
  2.1358238232238136E-01 a       795     1    12     2    15
  1.6689256137927128E-01 a       796     1    12     2    16
 -5.8071778221385117E-01 a       797     1    12     2    17
  3.3291650179252757E-02 a       798     1    12     2    18
 -1.7835453818331037E-01 a       799     1    12     2    19
  5.2511725391119146E-01 a       800     1    12     2    20
 -1.6548106332919876E-01 a       801     1    13     2     1
  4.8454510113435756E-01 a       802     1    13     2     2
  2.4135396674381185E-01 a       803     1    13     2     3
 -6.3099384110342094E-01 a       804     1    13     2     4
  1.4830321763103355E-01 a       805     1    13     2     5
 -3.0286389281603260E-01 a       806     1    13     2     6
 -5.3895534684990432E-01 a       807     1    13     2     7
 -6.2711239578024258E-01 a       808     1    13     2     8
  7.5359348818014249E-01 a       809     1    13     2     9
 -1.5460875992865592E-02 a       810     1    13     2    10
 -1.4583074804303042E-01 a       811     1    13     2    11
  5.4053635612208262E-01 a       812     1    13     2    12
 -1.6914541155626131E-01 a       813     1    13     2    13
 -5.1016012184437476E-01 a       814     1    13     2    14
 -7.9421697105298050E-01 a       815     1    13     2    15
  5.1189418633947603E-01 a       816     1    13     2    16
  2.3035434846574010E-01 a       817     1    13     2    17
 -4.5389317073552565E-01 a       818     1    13     2    18
 -1.0596119277054700E-01 a       819     1    13     2    19
  3.0425385002624689E-01 a       820     1    13     2    20
  6.7433635430264327E-01 a       821     1    14     2     1
 -2.1229400463879119E-01 a       822     1    14     2     2
 -2.7799617772452129E-01 a       823     1    14     2     3
 -4.9255810551966633E-01 a       824     1    14     2     4
 -3.7056419369786264E-01 a       825     1    14     2     5
 -4.2771339086942584E-01 a       826     1    14     2     6
  1.8690147176466251E-01 a       827     1    14     2     7
  2.8620073703111926E-01 a       828     1    14     2     8
  4.8453249527133889E-02 a       829     1    14     2     9
 -2.9872029176815895E-01 a       830     1    14     2    10
 -1.8964955609597448E-01 a       831     1    14     2    11
  1.0937709133196986E-01 a       832     1    14     2    12
  4.5869646980183025E-02 a       833     1    14     2    13
  7.6944510084139628E-01 a       834     1    14     2    14
 -1.0724861544297536E-01 a       835     1    14     2    15
  6.0030076956870471E-01 a       836     1    14     2    16
 -1.5251183137614788E-01 a       837     1    14     2    17
 -1.2375897489593801E+00 a       838     1    14     2    18
 -2.6881156263222994E-01 a       839     1    14     2    19
 -6.9606733254283917E-02 a       840     1    14     2    20
  5.7335866136518110E-01 a       841     1    15     2     1
 -1.1652724990143122E-01 a       842     1    15     2     2
  2.1567563225462286E-01 a       843     1    15     2     3
 -4.8856387120816597E-01 a       844     1    15     2     4
  3.5674108217855066E-01 a       845     1    15     2     5
 -5.3414204789914776E-01 a       846     1    15     2     6
  4.1687401603310159E-01 a       847     1    15     2     7
 -6.7052296646418752E-01 a       848     1    15     2     8
 -4.2474362852411246E-01 a       849     1    15     2     9
  4.7530537611023299E-01 a       850     1    15     2    10
  2.2175142089929875E-01 a       851     1    15     2    11
  4.2776945033205743E-01 a       852     1    15     2    12
  3.3522256746570424E-02 a       853     1    15     2    13
 -2.3740000191820099E-01 a       854     1    15     2    14
  2.4069501262749790E-01 a       855     1    15     2    15
  6.7747106768133369E-01 a       856     1    15     2    16
  1.7215716332653463E-01 a       857     1    15     2    17
  6.2812785870754129E-01 a       858     1    15     2    18
  3.5006165427854635E-01 a       859     1    15     2    19
  4.5456984811130086E-01 a       860     1    15     2    20
  4.3045624211680961E-01 a       861     1    16     2     1
  7.2222287551838205E-01 a       862     1    16     2     2
  2.5693987722473077E-01 a       863     1    16     2     3
 -7.0774946348789125E-01 a       864     1    16     2     4
 -4.2858084589383993E-01 a       865     1    16     2     5
 -2.3101720948780968E-01 a       866     1    16     2     6
  3.3795022017900961E-01 a       867     1    16     2     7
 -2.2482947824774099E-01 a       868     1    16     2     8
  2.2662742336067226E-01 a       869     1    16     2     9
  1.4705996935322430E-01 a       870     1    16     2    10
 -5.2876492207277492E-01 a       871     1    16     2    11
 -3.4568191361019285E-01 a       872     1    16     2    12
  1.4663285297315787E-01 a       873     1    16     2    13
  8.6756152872076456E-02 a       874     1    16     2    14
  2.6197801987428193E-01 a       875     1    16     2    15
  1.8080481464060436E-01 a       876     1    16     2    16
  1.9970640042323535E-02 a       877     1    16     2    17
  2.6023526798850577E-01 a       878     1    16     2    18
  5.4466149211086867E-01 a       879     1    16     2    19
  2.1610643017076221E-02 a       880     1    16     2    20
  3.2541224294691956E-01 a       881     1    17     2     1
 -7.2140133767604842E-01 a       882     1    17     2     2
  5.6694406036487599E-01 a       883     1    17     2     3
  6.2993852485816926E-01 a       884     1    17     2     4
  5.3137009908222277E-01 a       885     1    17     2     5
  9.3545632947966667E-02 a       886     1    17     2     6
  1.9466239960532369E-02 a       887     1    17     2     7
 -7.1606491120102866E-02 a       888     1    17     2     8
 -5.5089733494138038E-01 a       889     1    17     2     9
  5.2527641498280264E-01 a       890     1    17     2    10
 -2.2450607956484264E-01 a       891     1    17     2    11
 -8.9140930886284853E-01 a       892     1    17     2    12
 -7.8318050523358274E-01 a       893     1    17     2    13
  2.7620920138214949E-01 a       894     1    17     2    14
 -1.7426387383365333E-01 a       895     1    17     2    15
 -3.3180435596925001E-01 a       896     1    17     2    16
  8.0085183232442042E-02 a       897     1    17     2    17
 -8.5004780963880103E-02 a       898     1    17     2    18
 -7.4412373754066818E-01 a       899     1    17     2    19
 -5.3582169692820147E-01 a       900     1    17     2    20
 -4.6878376874341066E-01 a       901     1    18     2     1
 -6.9084099334043447E-01 a       902     1    18     2     2
  5.1344632514070961E-02 a       903     1    18     2     3
  5.3598808663857600E-01 a       904     1    18     2     4
 -1.0184091834662007E-01 a       905     1    18     2     5
  2.1945308215954001E-01 a       906     1    18     2     6
  5.3176848728756676E-01 a       907     1    18     2     7
  1.2317059084001607E-01 a       908     1    18     2     8
 -5.4230945447036730E-02 a       909     1    18     2     9
 -8.5026102600233799E-01 a       910     1    18     2    10
 -3.6749830843109560E-01 a       911     1    18     2    11
 -9.4351306519482880E-01 a       912     1    18     2    12
 -1.4044262802312948E-01 a       913     1    18     2    13
 -2.3749047399689951E-01 a       914     1    18     2    14
  5.8912339171884132E-01 a       915     1    18     2    15
 -3.1101686168288867E-01 a       916     1    18     2    16
 -5.1356484265859725E-01 a       917     1    18     2    17
  2.4530772817217500E-01 a       918     1    18     2    18
 -6.5926517136851714E-01 a       919     1    18     2    19
  2.6996525460087151E-01 a       920     1    18     2    20
  7.7396504042617320E-01 a       921     1    19     2     1
 -8.3673891958762667E-02 a       922     1    19     2     2
 -3.8077308470143489E-01 a       923     1    19     2     3
 -9.8890423731403873E-02 a       924     1    19     2     4
  3.3099387172324291E-01 a       925     1    19     2     5
 -2.2443855509842825E-01 a       926     1    19     2     6
 -5.4389204703709382E-01 a       927     1    19     2     7
 -4.0306295372905927E-02 a       928     1    19     2     8
 -2.1197035805089390E-02 a       929     1    19     2     9
  2.1802446611049850E-01 a       930     1    19     2    10
  2.3959055427563522E-01 a       931     1    19     2    11
  1.1681685420119438E-01 a       932     1    19     2    12
  1.1811889787503710E-01 a       933     1    19     2    13
  4.6775306063562359E-02 a       934     1    19     2    14
 -5.2008809611585820E-02 a       935     1    19     2    15
 -2.7499514317821341E-02 a       936     1    19     2    16
 -8.5069504857177047E-01 a       937     1    19     2    17
 -1.8699646967136696E-01 a       938     1    19     2    18
  6.1315485350114762E-01 a       939     1    19     2    19
 -9.7788061436090590E-02 a       940     1    19     2    20
 -6.2738372051543700E-01 a       941     1    20     2     1
  2.9597338130975864E-01 a       942     1    20     2     2
  7.0549942276993738E-01 a       943     1    20     2     3
 -3.0016354514144356E-01 a       944     1    20     2     4
  8.5622852439649677E-01 a       945     1    20     2     5
  7.4040726402569812E-01 a       946     1    20     2     6
  4.6490160308639972E-01 a       947     1    20     2     7
  5.4791539250559163E-01 a       948     1    20     2     8
 -2.6408410583925351E-01 a       949     1    20     2     9
 -3.5537565812565580E-01 a       950     1    20     2    10
 -1.1521890339545111E-01 a       951     1    20     2    11
  3.7304686304681645E-01 a       952     1    20     2    12
  1.0935122666766470E-02 a       953     1    20     2    13
 -8.4462722072860608E-01 a       954     1    20     2    14
  4.7925239913118378E-01 a       955     1    20     2    15
  4.6928405914063687E-01 a       956     1    20     2    16
 -2.7336563851310730E-01 a       957     1    20     2    17
 -1.8293718559598704E-01 a       958     1    20     2    18
 -1.4364397798308634E-01 a       959     1    20     2    19
  4.1556922373396499E-01 a       960     1    20     2    20
  1.1607030070866025E+00 b       961     2     1
  1.2586798436429079E+00 b       962     2     2
  9.9283540374131607E-01 b       963     2     3
  1.6357583440309809E-01 b       964     2     4
  4.1820052146923958E-01 b       965     2     5
 -1.3579650490484947E+00 b       966     2     6
 -1.5989596705230358E+00 b       967     2     7
 -3.8764573773675620E-01 b       968     2     8
 -6.7794843918249292E-01 b       969     2     9
 -3.8736579182945036E-01 b       970     2    10
  7.7311224374465370E-01 b       971     2    11
  9.7934547810840078E-01 b       972     2    12
  1.4066718611349742E+00 b       973     2    13
 -8.7808395982663490E-01 b       974     2    14
  1.8650498445739354E+00 b       975     2    15
 -3.2774372498104359E-01 b       976     2    16
  1.4823485549860174E+00 b       977     2    17
 -1.2259404096637158E-01 b       978     2    18
  2.6494834178059843E-02 b       979     2    19
  1.4441831841905635E+00 b       980     2    20
  7.8777409401297915E-01 a       981     2     1     3     1
  8.2688269452448460E-01 a       982     2     2     3     1
  7.0965641142206093E-01 a       983     2     3     3     1
 -8.3274278251674994E-01 a       984     2     4     3     1
  1.6180233819735593E-01 a       985     2     5     3     1
 -1.6571583159253205E+00 a       986     2     6     3     1
 -1.2482076917061433E+00 a       987     2     7     3     1
 -1.4940970022288735E+00 a       988     2     8     3     1
  1.1004951221820813E+00 a       989     2     9     3     1
  9.4130363228761227E-01 a       990     2    10     3     1
  5.9451190082875416E-01 a       991     2    11     3     1
  7.5029823443868915E-01 a       992     2    12     3     1
  1.7368687234327178E+00 a       993     2    13     3     1
  3.1529810289165050E-01 a       994     2    14     3     1
  1.1729747151959411E+00 a       995     2    15     3     1
  1.5392549980418639E+00 a       996     2    16     3     1
  1.8573389906343003E+00 a       997     2    17     3     1
 -7.9144437556847014E-01 a       998     2    18     3     1
  1.3510460233366481E+00 a       999     2    19     3     1
  2.2077767034628879E+00 a      1000     2    20     3     1
  1.1649099885691967E+00 b      1001     3     1
