      3.2434042216
     -0.3320408891
      1.4451649306
     -0.8551150472
      0.1649375821
     -0.8664309838
     -2.1332297274
      4.3317276628
      0.6641778379
     -1.0748534588
     -0.3250005459
     -0.2899380641
     -0.4530086874
     -0.2508815753
     -0.6476712880
     -1.4485167343
      0.8421628820
      0.9320479371
      4.9017575352
      0.5267525556
      0.1151578638
     -2.9507354504
      0.4947399913
      3.1842758012
      2.1320788625
      0.6079378819
      1.1318058134
     -0.1312316865
      0.6697790424
     -0.9150761100
     -1.5492825893
     -1.7565362683
     -0.9336739292
     -0.7333136301
      1.0967052473
      1.7361610765
      0.8078304310
     -1.4371906425
      2.2747276967
      0.4544333080
     -0.8612097753
      1.8072169315
     -0.2325227687
      1.1481341061
     -2.5963690010
      0.5385563909
      0.0355912826
     -1.2267787011
     -1.2003210245
     -0.3343211993
     -2.2694194390
     -2.8605385299
      2.1399920474
     -0.4207202399
     -2.2274533851
      0.8788132175
      1.5553408211
      6.8164253901
     -0.7779882454
      4.6131491066
     -1.1443487475
     -1.1445136848
     -1.3784245442
     -1.9812566864
      2.9943617808
     -2.1247223623
     -3.9178768759
      0.5743268461
      6.4082080750
     -0.3801474769
     -2.1784415384
     -3.3210238463
      2.0293316741
      0.5714028804
      2.0202785387
      3.2239310210
      1.5641824189
     -2.7208370757
     -1.2258134246
      3.2616606921
      1.0825196226
     -0.9575024391
     -0.7599874423
     -0.4748793787
     -0.6506963138
     -1.2746179942
     -2.3605732094
      1.1237645189
      0.1803611471
      0.9211840193
     -3.3871038095
      3.4783798568
     -1.6119404114
      3.8268447703
      0.9858380243
     -1.0372033510
     -1.8071080064
     -0.5082524591
     -1.9340385699
     -1.8781011203
      1.9066203647
     -2.9160087929
      0.6083357850
     -0.5964384834
     -0.6037376525
     -4.2617610176
      0.0162439370
      2.3138299161
     -1.6817277848
     -1.8266536111
      1.8736023204
      2.5654035312
     -1.6531180968
     -1.0322324813
     -2.9025876684
     -0.2319842704
      1.7930632623
      2.5678160158
     -0.3392449586
     -0.3528974547
     -1.9814526486
      0.4216483194
     -1.6509904895
      0.3311658096
     -2.3125932529
     -0.0440700573
      0.7164969429
      0.1818788297
      0.2777263914
     -0.2540334164
      1.9987568340
     -0.0545783946
     -0.0532710721
      0.6008236490
      0.9493501872
      1.8668042283
     -0.5172988729
      0.1498374033
      0.3312873205
      0.1134743650
     -1.6691487277
     -1.5390638184
     -0.1218133026
     -0.8093179094
     -1.8305307820
     -0.2170249331
      0.7194793731
      0.2247079659
      0.3580589521
     -0.1889454182
      1.5668978104
      1.4586671678
      1.7552482665
      1.0639048633
     -0.1092070961
      2.5400609744
     -0.9476898865
     -2.8666938247
      1.1309463397
     -0.0476432583
     -2.9852467354
     -1.2538717371
      0.1609619822
      0.8941741505
      0.4123956375
     -0.1703983864
     -0.6326174946
     -1.4710948053
     -1.6721385959
      1.2327351410
      1.8715545849
     -0.5191309045
      0.3366185518
     -1.1286182994
      2.5662236086
     -1.9450640933
     -0.4933988323
      0.2305312586
      1.1877241189
      0.9258961581
     -0.4287957998
      0.4383034248
     -0.4265485027
      0.6717372429
     -0.7107125998
     -0.8007502633
     -0.7844716620
     -1.6492006304
     -1.4100911724
     -0.5842164013
      1.1061663996
     -0.9203755595
      1.3793607754
      0.2610495323
      0.3413699806
     -0.3900265341
     -1.2317925764
     -0.9402861858
      0.0659023814
     -0.6083852186
     -0.2026400877
     -1.1622934857
     -1.0775280965
     -2.1227546131
      1.5658151075
      0.2423443909
     -0.7273897069
      0.3337649055
      0.9863561832
      0.9157120049
      1.0095956539
      0.2075811478
     -0.1404255962
      0.7768539474
     -0.3498808387
      0.5599334372
     -0.3510591378
      2.2184506421
     -0.4749708058
      0.2183374140
     -0.7323566599
     -0.5802928259
      0.7566487764
      0.8977414732
      0.4900747686
     -0.1062606144
      0.7022618794
     -0.7155809758
     -0.3756938946
     -0.0592154096
      0.5785152157
     -0.2912895158
      0.1597336771
     -0.1595350817
     -0.0042463041
     -0.2469824101
      0.0170972648
      0.0862794936
      0.7624303882
      0.3693309676
     -0.2930623919
     -0.3723384805
     -0.8712150002
      0.3953926241
     -0.4700012498
     -0.4995427766
      1.1908891419
     -0.5198222644
      0.4449141627
     -0.2153726300
     -0.1745076586
      1.2390706383
     -0.1089921229
     -0.4107781466
      0.4801861751
     -0.6727418174
      0.5482030116
     -2.0497026123
     -0.9229747131
      0.9499187217
      1.2433754140
      0.3133031881
      0.6531300257
      0.1944254023
      0.5746705964
      1.2525094509
     -0.3845560050
     -0.7367426471
      0.3982911829
     -1.6757001321
     -0.8786789715
      0.9725308112
     -0.2246836540
      0.7142254320
     -0.6754879925
     -1.0795469132
     -0.5269092632
     -0.5670831690
      0.0837794448
     -1.1065171180
      1.6909613459
      0.6433755899
     -2.5935680211
      0.3236093730
     -1.2091914628
     -0.9560554523
     -0.9259586535
      0.3560358123
     -0.4855946997
      0.5284112483
     -0.8576985808
     -0.4495606911
      0.4016693293
     -1.5665543928
      0.9640764246
     -0.5668751077
      0.4618600942
      0.7168497099
     -0.4818621479
      1.0928057004
     -1.6578850789
      1.9804649170
      0.0998152885
     -1.9736884158
      2.0805512468
     -0.7227274992
      0.5403666440
     -3.1958204873
      1.2606759703
      2.8717294297
      1.4211904597
     -0.7969974865
      1.3512774401
      1.3130793839
      1.1836990367
      0.3917635462
      3.4778016576
     -2.1364713915
     -2.1396346163
     -3.4982753862
      2.3508691769
      0.4296452058
     -1.6532898510
     -4.5253542775
     -0.7331435178
     -2.9767385004
     -2.7547394586
      0.0882232388
      2.4776679939
     -0.5759932734
      1.6525852717
      1.2568682718
     -6.2250510807
      3.1212388660
     -4.7745976053
     -0.2419359037
      2.1746211218
      1.7051844296
     -1.8773319594
     -3.1567104964
     10.4726956846
     -3.7035003690
      2.2407506809
    -12.1769143560
      6.9934150916
     -0.5293084288
      9.4184175648
      3.3525371266
      1.9870027786
      1.9465810078
      0.6027983596
      0.1286948525
     -0.1499025749
      0.8812158894
     -0.0142311679
     -0.1897728848
      0.2037415660
     -0.9138093305
      0.0632294316
     -0.6102457997
     -0.8001802236
      0.1625089163
     -0.7041020515
     -0.1043622988
      0.5162855634
     -0.6681477188
     -0.3810841559
      0.4184948811
      0.5440316505
      1.1604749582
     -0.3609819211
      1.0823582875
      1.5879959200
      0.5048447024
      0.0120652395
      0.1609399544
      1.0875675020
     -1.1700113349
     -2.9377893189
     -1.0675992013
      0.6610505037
     -0.0915505144
      1.4377610951
     -0.7344251164
      0.4246760977
      2.8843211601
     -1.6804189337
      0.9989318283
     -0.1155128118
      0.7903805747
     -2.7504695531
      0.6950606272
     -0.0792293515
      2.1233822623
     -0.8939637458
     -0.0238490691
     -1.5767302556
     -2.2799219969
      1.5272068491
     -0.4044246168
      0.1491017855
      0.4796922229
      0.5844377065
     -0.4307810759
      0.0534411474
     -0.2715243553
      0.1849141735
     -1.1484093999
     -0.4673210603
      0.1653000344
      0.2921465767
      0.9392215903
      0.1744782239
     -0.2210542706
     -0.4193954301
     -0.1132719160
      0.6408136442
      1.0038636388
     -0.5330742053
     -1.0340150293
      0.7625177997
     -1.1217128330
     -0.3831729509
     -0.1563838045
     -0.9165617211
     -0.4097281809
     -0.8754184075
      0.7113202307
     -1.2469636393
     -0.8519923662
      2.3232442170
     -0.1904500902
      0.0232816505
     -0.2724906194
     -0.6316735059
      4.9054950507
      0.7697347583
     -2.9953063037
      0.5291330412
      1.1442409519
      0.3478749625
     -0.9250601614
     -1.8977944934
     -0.2280223200
      2.2087699108
      0.3053918729
      0.4197967362
     -0.7842422506
     -0.1740260617
      0.0717881145
     -0.1283698135
      1.0378227086
      1.2913470751
     -0.4174795504
     -1.0264951211
      1.0140461085
     -0.3254609877
      0.2062307467
     -0.4456217654
     -0.2137560813
      5.0843943385
      0.1294896691
      1.4430061883
      0.0192967382
      0.4490384082
     -0.0463171456
      0.2567725025
      0.7584502276
     -0.5869428994
      0.2333273410
      0.0232697527
      0.1196378591
      1.7617309734
      2.8891702936
     -1.2473763104
     -1.1185473034
     -0.1419233877
     -2.2569865366
     -0.7770225926
     -1.9126602284
      1.0489792506
     -0.8554589310
     -1.4366293281
     -0.7428706364
      2.9738325025
     -1.3314208428
      0.9809178622
     -0.3359457187
      1.0129407475
     -0.1766943902
     -1.7423263042
      1.0086884406
      1.3141035318
      0.0278998133
     -1.6471614479
      1.9462649816
     -0.7139845245
      1.0414941443
      0.1539474205
      1.4316223773
     -0.0423282817
      1.0976066427
     -0.4324188914
     -1.2169335187
     -2.1115297009
     -2.3218593806
     -0.0101791936
      0.5971915955
      1.1101014801
      1.2078160296
      1.7318426044
     -0.4585575166
     -3.7755317574
     -1.5703331668
     -0.5826307325
      0.4686509927
     -0.5493564585
     -0.1707032100
     -0.2574145301
      0.0229114388
     -0.4567861838
      1.0171070466
     -2.2274274592
     -0.4087610968
      0.6750071807
     -0.1463176264
     -3.4432545347
     -0.3325553371
     -0.5306999101
     -0.2449993142
      2.6108696421
      0.8018321139
     -0.7986472516
     -0.1172794925
      0.5943722809
      2.2119513094
      0.6229174985
     -1.5964382343
      0.5014182526
      0.8191888345
     -0.3201592210
     -1.1326399832
      0.1985076429
     -0.3638534002
     -4.0396542647
      1.4398235777
     -2.6144705208
     -1.3640075977
     -1.8473262793
      1.3787233543
      0.9131620863
      0.0171915315
      0.0984234357
      0.6160314681
      1.1000249230
      1.4428657782
     -0.1004968379
      0.3498037795
     -0.1644550115
      1.2892923069
     -1.3537012527
     -0.6362425759
      2.6637368309
     -0.6359316226
     -1.1273884505
     -1.1716109846
      1.9432193152
     -1.5923333174
     -0.1468205797
      4.0898261731
      1.8051880596
      0.3023202261
      1.2892706738
      0.4938801487
     -0.1422519076
     -0.8600899479
     -0.4270275192
     -0.5466523980
     -1.9651906715
     -0.3829782786
     -0.4065496388
     -0.1158614908
      0.3441395745
     -0.3148748809
      2.2734250412
     -0.6998056029
     -0.5571124095
     -2.5494765639
      0.5375285892
     -0.4253033751
     -0.4640313532
      1.2212318822
     -1.3328159722
     -2.7145676655
      1.7916009845
      0.5956696280
     -1.5835231621
      0.3287934099
     -0.3582223035
     -0.8722489409
      0.9369969104
      1.5939283468
      1.1492908399
      1.8820884315
     -0.4386419955
      1.3208859814
      0.7694155238
     -0.4209687355
     -0.0521709196
     -0.8516477404
      2.6598526965
     -0.1326587678
      0.1201200462
      0.1275672118
      1.0686913407
      1.1687254220
     -1.2061266214
     -1.3356447361
     -0.0228853770
     -0.7100807935
      0.3839057556
      1.1892386226
     -1.5409247376
      3.0974312491
      0.5986487054
      0.4530587730
      2.4487621464
      0.3223385053
     -1.1341208024
     -2.4618761057
     -2.4150022777
     -0.2702183235
     -0.2181595904
      0.1649700428
     -0.8864086362
      0.2712600065
     -0.4346169381
      0.2795701771
     -0.7351680883
     -1.0109174247
      0.7364923903
     -1.4524985787
     -0.0956222575
     -3.0611932908
      0.9509416208
      0.0000923678
     -0.4286724065
      3.0940971830
      0.4678918193
     -0.9939635997
      0.2684984253
     -2.5746444932
     -2.3153943800
     -0.3194666337
      0.0647549320
     -2.2564662486
      0.2641532238
      0.9783180933
      0.7197061352
     -1.8582042845
     -2.0350024956
     -0.0299517576
     -0.4791706950
      0.2794799418
     -0.1127257186
      0.5003504905
     -0.2252779334
      0.6168200081
     -0.3656052565
      1.5135905356
     -1.2072409144
      0.3698699447
      0.7861853317
     -0.8975212042
     -0.4021746774
     -0.1230550430
      0.0017051960
      0.9380160678
      0.0180484795
     -1.4743757318
     -0.1623070920
     -0.8755401645
     -0.3943274048
      0.3461644330
      1.2782347958
      0.7741917248
     -0.4400463537
      0.6883697798
     -1.4037017591
     -0.9717155438
      0.3475840084
      2.1348046276
     -1.7097275737
     -0.0275843504
      1.8346882478
      1.1111178898
      3.0632520664
     -0.6114928968
      1.5181764542
      1.5996910548
      0.0195657876
     -0.1209738619
      2.0244914080
      0.2499239369
     -1.1985746347
     -0.2613426066
     -0.3113912525
     -0.9942973538
      0.4041706951
      0.7324225394
     -1.8772323167
     -0.6102549875
     -0.4413545974
     -0.2342076472
     -0.3611140858
     -0.4004568887
     -0.8934503278
     -0.9799638625
     -1.5723791541
      0.2283415233
      0.6747268995
     -2.0692933873
      2.8471988017
      0.1118468860
     -0.8850621389
      0.4070699394
      1.4568259992
     -0.0149000607
     -0.6273919818
     -0.0871529686
     -1.0286468975
      0.5879294903
      0.1091346679
      0.1708239036
      1.4738169487
     -2.6547588168
      0.9866459190
     -0.1477286293
     -0.5228130639
      0.6765635141
      1.2920978235
     -0.0183695214
     -0.6802460606
     -0.3897256156
     -0.5037870141
     -0.1592327155
      0.3733240317
     -0.2128718158
     -1.4831403973
      0.5252495431
      1.1162398313
     -1.6187909627
     -1.6001646368
      1.1800851571
      0.3209540345
     -0.1376370856
      0.5717325185
     -0.1612548243
     -0.1172732040
      3.2286201709
      1.6227398522
      1.3665903114
     -1.1010038838
      0.0493791493
     -0.0700830117
     -1.0534966742
      1.3786384961
     -2.4900679882
      1.4424012273
     -1.8633952746
      1.9003601836
      0.7565803533
      0.9985426170
     -0.1146269846
     -0.2027246594
     -0.7026713524
     -3.1384914349
     -0.9968399933
      0.0465907385
     -1.4623891832
     -1.0844081846
     -0.2112292444
     -0.3163684456
      0.1260769445
     -0.4564236484
     -0.3752398036
      0.6357976092
     -2.7767326629
      0.9844369745
      0.8769766687
      0.0927282641
     -1.2654396912
     -1.6124062194
     -1.9684394478
     -3.3851075782
     -0.7540353684
      0.9727779966
     -0.6374294729
     -0.1953370873
      1.2186757637
      0.2889081588
     -0.6888345168
      1.1029332953
     -0.6556504994
      0.2929550511
     -0.8801337538
      0.6698101852
      0.6385997277
     -0.0742934371
     -1.9450595596
      0.7865956681
     -0.5850291779
     -0.6299070731
     -0.4959928688
     -0.6523276684
      0.4315699369
      1.4574246927
      0.9261532079
     -1.5370569856
      3.4621844864
      0.2757957093
      1.2163486052
      0.5292095662
     -0.5299199936
     -0.3924881620
      0.3881889912
      0.4998042542
      0.9125423535
     -0.9591663393
      0.0390793615
     -0.8553391215
     -0.0903651021
      0.0325621452
     -0.3750702490
      0.3884480974
     -0.7535844705
      1.2001035910
     -0.0341311123
      0.3905148585
     -0.2872292164
     -0.0976140284
     -0.9667381128
      1.7855662096
      1.3932670118
      2.1509959520
     -1.2615322897
     -0.5050411536
     -1.1640016045
      0.0222815445
     -0.7492164100
      3.0108104471
     -0.2317852217
     -0.6899161221
      1.0708943940
      3.5033348012
      2.0610853262
      1.6507386129
      0.8893092688
      1.4007415317
     -1.6882431675
      1.1484143557
      0.4272466309
     -2.0095045822
     -0.9373786217
      2.2195230916
     -0.3647762669
      1.3283743515
     -3.0539202429
     -2.1813201125
      2.0955132787
      1.1081201177
     -0.3587980254
     -0.8079066989
     -0.5263676261
      0.4497905569
      0.4120702392
     -0.6732440114
     -2.4255966123
     -0.3651215630
     -1.1404319296
      0.1190790112
     -0.2417011884
     -0.7436311073
     -0.8322599864
      0.8749214050
      1.7295285699
     -0.5734688967
     -0.2729068596
      1.3582619823
      0.2830600287
     -1.1841107821
     -1.7066736850
      1.7134114818
      2.3113477079
     -3.3018064060
      0.3553594168
     -0.1450840625
      0.9347965671
     -1.7209615694
     -1.5998773347
     -2.8612154247
      1.0015361978
     -0.7685821254
     -0.3651018986
     -1.9309678616
      0.3462845970
      0.0413769373
     -0.5120048566
     -0.2117195681
     -0.2021307794
     -2.9101570734
     -0.5356278729
      0.5702239151
     -1.6923177066
      0.0890075068
     -0.6422803751
      3.6461700584
     -2.3573702684
     -1.5748213203
      1.0665687403
      1.9897709399
     -0.5499772375
      0.2897082925
     -1.6377113171
      1.2539462515
      0.2299033841
     -2.2878584885
     -0.9425458406
      0.6612236109
      0.6823411861
      0.9337225446
     -0.2583553194
     -0.5880049209
     -0.2480847286
     -1.5372642386
     -0.1265751957
     -1.0066672944
     -0.9021986616
     -0.4974582267
     -0.1497872585
     -1.2339946952
      0.7866670277
      0.4262056933
     -0.1601518347
      1.0473019798
      0.4433830901
      1.9296050172
     -0.7732587082
     -1.4913506038
      0.3261036617
     -0.0683794939
      1.8413869449
      0.5477745061
     -1.4361734316
     -0.4965926561
     -1.2968120768
      0.2961474898
      0.8548338275
      0.0803451127
      0.5686233298
     -0.7714338442
     -0.0358164750
     -1.1716468410
     -1.0707628257
     -0.9901000993
     -1.4539968564
     -0.1395321239
      0.8015690068
     -0.5505610161
      2.7102277654
      0.0561932668
      0.1578068530
     -1.0343271560
     -0.0346705102
      1.3198287617
      1.9387384169
      2.4023949985
     -0.3080128876
      0.8805876227
      2.4479065049
     -0.3795985397
     -0.0437386680
     -0.0120887403
      0.1255984291
     -1.5059555828
      1.3820127750
      0.3111282507
      1.7906422323
     -0.0093908839
     -0.3538363221
      1.0546149791
     -0.8456998233
     -1.4398968961
      1.8222396967
      0.0060950887
     -0.4424090776
      1.1358187367
     -0.7241708163
      2.5467470252
      0.3568285968
     -1.7646333792
      1.7531114618
      0.2062165179
     -0.6832582802
     -0.9690378283
      0.1360460094
      0.0501306430
     -0.4719763105
      0.4419472561
     -0.7825610428
     -0.9447819439
     -0.9531863351
      1.2928441500
      0.0612607613
     -0.1651970380
     -0.3130936205
     -1.7753846611
      1.1638260183
     -0.5482996166
      0.9794132321
      0.1448008026
     -0.3992688261
     -2.5755293868
     -0.0029717921
      0.3792136310
     -1.5814705216
     -1.4196358687
      1.4610185973
     -2.0242830197
     -1.5441493269
      0.4794426543
     -0.4706394667
     -0.3396441574
      0.2446017946
      2.6477920244
     -1.6906609850
      0.0103552352
      1.2960786847
     -0.2936986244
     -1.0430062914
     -0.0096503168
      0.9311301767
      1.8942732896
      0.0251620762
     -0.9829496144
      0.8311157356
     -0.6997384923
     -0.5108030235
      1.0590079398
      1.3330952297
     -2.6930242630
      3.3566614010
      2.0895154897
     -0.4419618954
     -2.4979268376
     -4.6302592306
     -0.8206370899
      1.4421249392
      1.4356051016
      2.4363501994
      2.0091886284
     -2.4335692471
      1.3006873470
      0.6605774898
      0.3424199576
     -0.7450019331
     -1.8785274882
      1.0148486371
      2.5342254461
     -3.4565022814
      1.3795155152
     -1.7418494401
     -3.1152384745
      1.1730281742
      2.1335562133
     -0.0006602274
      0.0001487049
      0.0006985195
      0.0007231695
      0.0015376261
     -0.0001537444
      0.0055642945
      0.0021717015
     -0.0145894848
      0.0002828188
     -0.0000822873
     -0.0006855023
     -0.0000693325
      0.0037930764
     -0.0040881852
     -0.0024302338
     -0.0007997264
      0.0000773621
     -0.0003884010
      0.0001318157
     -0.0012332953
      0.0001790076
      0.0002016838
      0.0005981705
      0.0006077690
      0.0130801381
