      0.9060148261
     -3.3151924806
     -0.2434705206
      0.2081377856
     -1.0695092540
     -1.6081372120
      3.0359799810
     -3.5020890563
      0.0485078428
      0.8992477168
      1.3796316946
      0.4182046745
     -0.6710684853
     -1.1806909854
     -0.3002130055
     -0.4406986438
      0.7095645070
     -3.0635571614
     -1.7759598812
      2.2212727853
      2.9999318026
     -2.1344327130
      0.8561185365
     -0.4770219643
      1.0522498731
      0.9088401080
     -1.6819737897
     -0.7420403220
      1.0572311401
     -0.4569166102
     -0.6521236939
      2.1309900394
     -1.1856248521
     -0.8761605359
      0.2313332848
      0.6720932669
     -0.4690604256
     -0.1814550052
     -0.3799666015
     -0.0732037283
      0.4446521726
      1.2419866177
     -0.3344275993
     -0.9172561025
      1.8285972815
      1.2202681742
     -0.9252110679
     -0.4398168414
     -0.5057676949
      1.8660952798
     -0.2676693465
      2.0569312381
      0.8741706961
      0.9419943351
      0.8978867043
      0.6541350345
     -1.4780340029
      1.7006439711
     -0.6184963269
     -0.5199192282
     -0.4242004615
     -0.6983185633
      1.1527259144
      1.2515341172
      1.3701714343
     -0.1309557737
      0.3348529555
      0.5688789957
      1.0228631733
     -0.3274399009
     -0.6257322936
      2.2628410243
     -1.4946688803
      0.4900435523
     -0.3797252011
     -1.6554372553
      3.8265505885
      0.8424220729
      0.4945535447
      1.4939470112
      3.5136052142
     -2.8204097801
      3.8048287736
      0.5138592865
      0.0199643268
     -1.5890730984
      1.7353630083
      0.1014583873
      2.2590937587
      1.0827167145
      0.5759934790
     -0.1952901655
      4.1926927598
      2.1259343897
     -3.7351548247
     -5.8740363282
      2.8723012896
     -1.1639883403
      0.0544131933
     -1.9003884786
      0.9226451041
     -2.5244304548
     -2.4245692237
      0.1709412272
      0.5559748044
     -1.5824644992
      1.1556426766
     -1.5726938658
     -0.8714936101
     -0.0326988353
      0.3811275400
     -0.9745030182
     -0.8794835151
      0.8759603411
     -1.0294455656
     -0.7059309692
      0.0009402616
     -2.4430904665
     -0.2305008176
      0.4822488115
      2.5956003261
     -2.0303477254
      0.8821125776
      2.1817207129
      0.0657657280
     -0.3081893872
      0.3432387914
      1.3918661213
      0.0220583799
     -0.7102766206
      0.5178960442
     -0.3716861798
      0.1852420912
      0.5138473026
      0.1774408792
      0.5237914329
      0.0827044968
      0.1261314952
     -0.6031814856
     -0.1117644674
      0.1912964598
     -0.2085158002
     -0.1969269812
     -0.5888709495
     -0.0991413608
     -0.2814024124
      0.4178578121
     -0.4282581230
     -1.0761109576
      0.0340910863
     -0.1495355416
     -0.0690654413
     -0.9216480090
      1.9776421900
     -0.7074927879
      0.0800551537
      0.9630806509
     -0.2887510287
      2.3336152131
     -4.2089802524
      1.1385329480
      0.4981145580
      0.2699996619
     -2.3366367917
     -4.1045832311
      1.2743030530
      0.6334184863
     -2.7606337061
     -0.7696751702
      2.5467578521
      0.6001768008
     -4.9753773212
      0.5719115817
      0.5511462946
     -2.1134122910
      0.4888473332
     -1.1111409203
      0.1132428615
      1.6302213175
      1.6868418210
      0.1488944396
     -0.4363621464
     -0.6141113848
      0.4319380533
     -0.1568273554
      0.1945509128
      0.3466424601
     -0.6833880546
     -1.3684019769
     -1.7406198995
      1.0381762145
     -0.3136355254
     -1.2015869131
      2.1306095379
     -1.1108111875
      0.2065718130
     -0.1000469894
      1.1334483696
     -0.4192428438
      0.2461687039
      0.0889425108
     -0.5892268300
      3.3772231797
     -0.2636458412
      2.4494451109
      0.1024586250
     -1.7819367502
      0.5288420116
     -2.8797441597
      2.1031823279
     -0.3055171100
     -0.5597629343
     -0.7871420520
      1.0517191997
      1.2771895080
     -1.3533473690
     -0.5155314666
     -0.0507639801
      0.7184660317
     -2.8019409732
     -1.5606360934
      5.0392165928
     -1.2738738177
     -2.5229227509
      1.6665281138
      0.5565879963
      2.0721709648
     -3.7232261278
     -0.8799195144
     -2.8143860571
     -1.8403379532
      1.7853051424
     -0.2220379604
     -0.7858444921
      0.5108252816
     -2.7597357144
     -0.4319001913
     -1.4081699156
     -0.1187125597
      2.0206596418
     -0.0023294091
      1.4953511727
      1.6198929486
     -1.6490288118
      2.2609593116
      1.4643522920
      1.9313066665
     -1.7590696677
     -0.0675502008
      2.9703679736
     -0.6565152073
     -0.9669340307
      1.4688400837
      1.0538576740
      0.8661247853
      0.8892257804
     -0.2225718123
      0.1338607431
      0.4537607873
     -1.0147776226
      1.1079210701
      0.4282892846
      0.8838622781
     -0.3806650443
     -0.7783501359
     -0.2697276512
      0.1377558148
     -0.6293131657
      0.8487264335
     -0.4440857583
     -0.0251133407
     -1.7198865052
      1.4646525385
      0.7707685197
     -0.9067827026
     -0.0195729212
      0.6338421701
     -0.4850167361
     -0.6787006428
     -0.2116132666
     -0.2232934660
      0.1857079329
     -0.0488817573
     -0.1422180346
     -0.2697390949
      0.0039543924
     -0.2154073415
     -0.3274136515
     -0.1483971394
      0.2610956767
     -0.2380594434
     -0.5007120115
      0.0336415605
     -0.0601264562
      0.1282634644
      0.0608883436
      0.4449587501
     -0.4900488810
     -0.2438086068
      0.2893331184
      0.0486751457
      0.3595511604
      1.0713225979
     -0.5078670451
     -1.0485839088
      0.0238520835
      0.0982299034
     -0.3926770621
      0.0964900965
      0.1688924462
     -0.4376620891
      0.2689179411
      0.7055397022
     -0.0022531066
     -0.0493179522
     -0.8614457378
     -0.9275293474
     -1.0006670157
     -0.0484229857
      0.3531842776
      1.5958829102
      1.2274329979
      0.4965980670
     -2.3582397120
     -1.7310013808
     -1.0529627699
     -0.7852489547
     -0.8551516213
     -1.0378494886
      1.2165776186
     -0.5325998472
      0.1052932819
      0.2840638502
      0.1334297186
      1.2856460411
      0.4689078469
     -0.4704243145
     -2.9910520308
      0.4270363386
      0.9805430738
     -0.2600807799
      0.6645070816
      1.0048349392
      0.3670547896
     -1.4168155745
     -1.2432275286
      0.1328599947
     -0.8007151737
      1.9331519284
      3.5481242902
      1.8300782770
      4.7870820109
     -0.8278144633
      3.3569861032
     -0.8183161276
     -0.4165460984
      0.2401892332
     -0.6221765641
      0.5538173859
     -1.2678780005
      1.0875720468
      0.4948640507
      1.0827779180
     -3.1501203238
     -0.9298684716
     -0.7109285068
     -0.7935594880
     -0.7971063863
     -2.2863520689
     -0.6362843139
     -0.7040993110
     -2.1322027667
      0.5663997031
      1.8639783422
     -0.9761723728
     -0.4696437080
     -1.7897518024
      0.8407208513
     -2.9307630294
      1.8611202408
     -0.2870159170
      0.3861363722
     -0.1474684417
      0.3096442845
      0.3572516115
      0.3414252622
      0.7980046722
     -0.8463845000
      3.4575364033
      0.8133265383
      1.6373694962
     -2.4334669739
      2.2688798549
      0.5875479454
      0.8657670704
      1.0196691049
      2.9995002352
     -0.6414738341
     -2.0016391268
     -0.4028426270
     -0.8067820966
      0.8338280211
      0.6936849215
      2.4081979168
     -1.5456645151
     -0.2095294156
     -0.1486969284
      1.4594942014
     -0.7094009665
      0.1219582204
      0.0548719846
     -1.3278681565
      0.2938139655
      0.0666981007
     -0.5638843165
     -0.1463490447
      1.8074242856
     -0.2589667011
      0.3809764008
     -0.9886927612
     -1.3750372405
     -0.0787511731
      1.2933496255
      0.6025286862
      0.9033695046
      0.1898479730
     -0.0914711962
      0.4043555042
     -1.3151353520
     -0.4121153470
      0.8261881744
      0.4950434637
      0.5238723222
      0.5672066677
     -0.3379993375
     -0.8917728583
     -0.1643733454
      1.1448298429
      1.0945238197
      1.0986695087
     -0.5796520900
     -0.4526949393
      1.3242374493
      0.4583297691
     -0.0875598160
     -0.7839933891
     -0.0851124387
     -0.4886415070
     -0.4295862741
     -1.0583721453
      0.5061878193
     -0.2398390447
      2.7091776924
     -3.6784647153
     -1.5738471869
      0.4245096977
      0.6582037051
     -0.6872141652
      1.1220277424
      0.3332095384
      0.2777987297
     -0.0898002215
      1.7147841633
      1.8668441571
      2.4116331221
     -0.7808969701
     -0.4730985382
      2.5293800052
     -1.4067330954
      0.7179765970
     -0.2252660798
     -2.4847511080
     -0.2196304719
      3.1849181590
     -2.2129982802
      0.0173815650
     -0.1569854122
      0.7286521105
     -0.0235253606
      0.5709596958
     -0.4267083790
     -0.0950476180
      0.8407714388
     -0.1124304180
     -0.2165918497
      0.6263878288
      0.0352291488
      0.2960659905
     -0.8269452489
      0.0268187040
     -0.4610416029
     -0.9742131398
     -0.3022141500
      0.0716943548
      0.4429075160
      1.3272247703
      1.0858197959
      0.8249374450
     -1.7831317610
     -0.2331645650
      1.1825174401
     -1.2527076906
     -2.1531092619
     -0.2500141058
     -2.3700757042
      0.2462373634
     -0.8119906026
      1.3454733071
     -0.0655382154
     -0.3537713678
      1.7536943558
     -0.5951132607
      1.1210016679
     -0.5841054080
     -1.8617155696
      0.1218132252
      0.9476767793
      0.7061779289
     -0.2606260342
      1.1425168510
     -0.3949652147
      0.3831970887
      0.2802738282
     -0.0208555199
      0.8117763192
      0.4508944611
     -0.8259721293
     -1.1225512944
      3.4926830483
      1.6770429617
      1.6325504545
     -0.9146360535
      0.8488957544
      1.1707712977
     -0.5733487411
     -0.2195740839
     -1.6090558170
     -1.3301348620
     -0.7095819968
     -0.6698517060
      1.2295365136
      2.4003930666
      1.9514630065
      0.0394090891
     -0.5818978042
     -1.2287473227
      0.6306734219
     -1.5884841732
      1.5775771826
      1.8024709955
      0.1189405414
     -0.6555742758
      0.1362533626
      0.1062481255
     -2.1911777334
      0.0563569012
      0.4604884820
      0.0678187434
      0.2008169234
      0.0395531086
     -0.3948761334
      0.9143877662
     -0.0162692903
      0.4396843856
      0.2408248687
      0.2774339995
      0.4983088551
      0.0928241028
      0.4052256387
      0.0942121435
      0.1995283039
     -0.1786888762
      0.1538779751
     -0.6927377263
      0.1448593365
     -0.6284821473
     -0.0031143447
     -0.3306565856
     -1.4777390892
      0.1565085035
      2.4679846434
     -0.5977708551
     -0.0814076776
     -0.6050842729
      0.2634943034
     -0.6253737124
      0.0862277947
      0.1084213140
     -1.7561379760
     -0.0972585809
     -0.1254302025
      0.0656794645
      0.3456697033
     -0.7155594095
     -0.0905441276
     -1.3150090903
     -0.3501135505
      0.2752762098
      0.0752954001
     -0.3462553824
     -0.2210669184
     -0.5524824232
      1.4359228412
     -0.5938969484
     -0.1821934068
      0.6975684106
      0.6689322063
      0.5388848131
     -0.9118779247
     -0.4935295644
     -0.9813900327
      1.0819978586
     -0.0845935729
     -1.2857630329
     -0.3483703418
     -0.5778428139
     -1.4656476464
     -1.2277231706
      0.5100039495
      0.8231558972
      0.8584516059
     -1.3328841540
     -0.0445214372
      0.9619222815
     -1.1073089114
      0.5231339147
     -1.0786442299
     -2.6633797830
     -0.3734564000
     -0.6988357089
      0.1793404150
      0.4563436369
     -1.0240929397
     -0.3086853955
      1.1619124309
      0.0811288453
     -0.9565358669
     -0.9457843790
      1.3917002864
      1.0004672852
     -0.8098413146
     -0.7392950571
     -0.9689456968
     -0.2890940027
      0.0442600610
      1.7295357074
     -0.0359537107
     -0.8130522077
     -0.3500849803
      0.4648128580
      0.1196296715
      0.9838458606
      0.4623025370
      0.0556570970
      0.0612526835
     -0.0816630800
     -1.1336759227
     -1.3062803262
     -0.3107001682
      0.3845298208
      0.5724638133
     -0.1471438678
      1.3457526026
     -0.9744230016
      0.9818819666
     -1.5847469978
      1.4599460767
      3.0138339228
      0.6051537350
     -0.0676262115
      0.4118839793
      0.6477115327
     -0.3921994021
      0.0114464013
     -0.1751737619
      0.0538213492
      1.2412110308
     -1.7881193727
      1.7530074994
      0.9193794762
      0.0871103992
      0.3507917218
     -0.2378252505
      0.3794949476
     -0.6215945145
      0.7694412509
      0.3768399499
      1.4643775547
      0.8742897986
      0.6118582760
      0.6526562158
      0.8275820455
      0.2784112550
      0.7409149767
      0.6791843015
      1.2033927649
     -1.4734262504
     -0.3517110319
      0.2575094855
      0.8307565069
      0.4302732759
     -0.3748665211
     -0.6366162534
     -0.5467602417
      1.1879985240
      0.1594754175
      0.6530183196
      0.1031095623
     -0.5162124185
     -0.1848545504
      0.9347603534
     -0.4771093242
      0.7847221788
     -0.1548617009
     -0.1347368035
     -0.3059810397
     -0.9422220877
     -0.8492875256
     -0.3302733121
     -0.2626521821
      0.8662505394
      0.5747642567
     -0.9532640527
     -0.4317040518
      0.3622493374
     -0.7246143081
     -1.6975265208
      0.3375653941
     -0.0971788043
     -0.3345894732
     -0.1957404776
     -0.4817881773
     -0.9851172211
      0.3441725797
      0.1730959908
      0.5306170701
      0.4438535655
      0.4097206720
     -0.4150472497
     -0.2330084151
      0.0410324487
      0.7674683973
      3.8997566127
     -0.1788506680
      0.2263504858
     -1.0667384896
      0.7234545436
      0.3181934693
      0.4168141748
     -0.3791457183
      0.5328543562
     -0.9386494811
     -0.8551597782
     -0.2856018360
      3.5909940854
      0.5457318302
     -0.3816553099
     -0.7100393081
     -0.7982090165
      1.3275978321
     -0.1039077547
     -0.0356951482
      1.0818189170
      1.4788780443
      0.1798022169
     -0.5895476129
     -3.2209414158
     -3.2724465319
     -0.4817727614
      0.6536156634
     -0.5276234886
      0.0215347436
     -1.1855017388
      1.0483851660
     -0.2544861248
      0.1956829789
     -0.5217542838
      0.1288877992
     -0.1861145521
      0.7788675286
      0.1815565944
     -0.3239805358
     -0.9621140562
      0.3292597400
     -0.5515477236
     -0.6207020532
      0.7060298117
      0.6359867432
      0.5981873011
     -0.1307376035
     -0.5315098001
      0.4740074390
     -2.1774899645
     -0.9601742260
      0.4065896226
      0.2055541419
      1.3644429110
     -0.9257810146
     -1.0598373388
      0.5781782380
      0.8659485164
      0.6551846055
      0.7547622947
      0.8772587107
     -2.1487203584
     -0.1554497976
      0.9381899765
      0.0367332854
      0.8189364893
      0.6529361697
     -2.1775606148
     -0.6807644764
      1.3344611721
     -0.6534154100
      0.5194749676
      0.8050742173
      0.3572890662
     -0.4299123117
     -0.2880052875
      0.9632599655
     -0.5889109843
      1.0101017456
      0.9428902603
     -0.2969133049
     -0.1991615335
      1.1039700001
     -0.5732329183
     -1.2839225498
     -0.1689706981
     -1.8326421553
     -0.0979544965
     -0.0834720056
     -0.5095449590
     -0.2651512056
      0.7175975297
     -0.3249943004
     -0.2721960513
     -0.1142735636
     -1.3458650505
     -0.5949470761
     -0.0020418156
      1.4568833465
     -1.5557732229
      0.2161638654
     -1.9680980506
      0.3592493224
     -0.1380025983
      0.0830959467
     -0.8324122060
      0.0915440585
      0.9232602648
     -0.5574165350
     -0.8697812633
     -0.3857573898
      2.8966165309
     -0.3064785014
     -0.4207294394
     -2.1156314676
      0.0533977636
     -0.4991181432
      0.4576914253
      0.2251331837
     -0.2365176428
     -0.9936437924
      0.1931574419
      0.5181233139
     -0.1116142398
      0.4070798438
      0.2693258942
     -0.1972089070
      0.1153868760
      0.3656162869
     -1.2254550523
     -0.9500113397
      0.9729752430
     -0.0661111148
     -1.0369140189
      1.0245752062
      0.9919507510
      0.0318745934
     -0.0697848458
      0.3433080178
      0.7510105073
      0.2333290043
     -0.8559230507
      1.4420022735
     -0.2979080581
     -3.2031372167
      0.8225641747
     -0.4140463085
      1.6543507160
      0.4158486100
     -0.4481980684
      0.4275425389
     -0.3240612730
     -0.0417492242
     -0.7874918080
      0.1746374596
     -0.3894121789
     -0.4489718701
      3.4530897495
      0.4105346131
     -3.1880311136
     -0.4789110789
     -0.9821741004
     -0.0937924827
      2.3599204780
      0.5270061411
      1.0032959391
      2.2163176707
     -0.9384521320
      0.9940715318
      0.7926760112
      0.9442140355
     -0.5906897024
     -0.3892961246
      0.3552161863
     -5.2716719167
     -0.1179307778
     -0.3904052239
      0.0250395742
     -0.9868069032
     -2.2985137379
     -1.3677610429
      0.0509385189
     -0.7081747849
     -0.2531525166
     -0.2965275869
      0.3051189209
     -0.2123470869
     -1.1335446573
      0.3923025816
     -0.5037887612
     -0.1007743012
     -1.2211774223
      0.6168850347
      0.4151846283
      0.5336747964
     -1.7572502951
     -0.0890335257
     -0.5580069346
      0.4942488149
     -1.6592884785
      0.7182256583
      0.7150707977
     -0.9875349217
      0.6745401660
     -0.1039202617
     -1.3139212801
     -0.0217848731
     -0.5174283778
      0.3149861035
      0.0722696513
     -0.7117142707
     -0.0754628670
     -0.0330177283
     -0.4667636684
      0.2690171584
      0.7830433544
      0.6578311800
     -0.7364122533
     -0.7198514831
      1.4759619962
     -0.0166361751
      0.6127372739
     -1.2706418827
      0.4378679626
      4.4011320278
      0.0785600400
     -0.2525701889
      0.4199100654
      2.2181418644
      0.0831281883
     -0.1166007363
     -0.1650131942
      0.0315695097
      0.4782231426
     -2.0434979152
      1.1037769620
     -1.2494022676
      0.7818185877
     -0.5116865227
      1.4692143738
     -0.8945981080
      0.1749644098
     -0.3305683627
     -0.1342756399
     -0.5192438648
      0.6909286670
      0.1603452548
      1.0192599419
     -1.4066957031
      0.6739787457
      0.0131797862
     -0.8291616327
      0.1395530129
     -0.6050036994
     -1.1464615711
     -0.6563868621
     -0.5167170448
      1.6768850827
      1.0726437229
      0.4232882529
     -0.3961335718
     -0.5161762620
      0.6798105501
     -0.3575787466
      0.1646686939
     -1.0109976369
     -0.7567328955
      0.4669975948
     -0.1747926709
     -0.8807603680
      1.4241051587
     -0.4251430123
     -0.9478260439
     -1.3453468111
     -0.1282515029
      0.2057437300
      0.5512283961
     -0.2738979900
      0.1534272636
      2.1742570288
      0.8081077768
      1.1958956739
      0.1193478096
      0.7136669390
     -1.3048844392
     -0.0743053818
     -1.6172500849
     -0.9214599855
      0.2669023218
      0.5728739478
      0.0500795567
     -0.1969505075
     -0.3621672031
      1.0584273920
     -1.1087476368
     -0.6092009948
      0.9603132903
      0.8405220895
      2.2823289971
      0.8085050868
      0.4878067826
      0.5863583355
     -1.1366977798
      0.0733837704
     -1.1022949034
     -0.4511345955
      0.1512673706
      0.0123382946
     -0.4706577797
      0.1385941904
     -1.6423062301
      0.7349390799
      0.1470146528
      1.3815588045
      0.7433022541
      1.1818745903
      0.2171356678
     -0.2510766211
     -0.8541125458
     -0.1175114004
     -1.4263851712
      0.5378641385
      0.3814139043
     -0.3758958374
      1.6655458257
      0.5345293776
     -0.2290742365
      1.1399007725
     -0.9011176499
     -1.8633487577
      1.4904346528
     -0.1608934363
      0.5593088477
      0.8381290960
      1.6790581899
      1.0813331824
      2.9537353162
     -0.3773451203
      0.0530197986
     -1.5066644082
     -0.7311762850
     -0.7245526773
      0.8300198326
      0.4015478023
     -0.7757652438
      0.4533358640
      0.1678303990
     -0.0803204315
      0.8301887809
      2.6633896612
      0.7292131747
     -1.0637119241
      1.6043646807
     -0.6892778328
      0.2276199924
     -1.0482586979
     -0.1303468949
     -0.7830862758
      0.1451135800
      0.1209421712
      0.3224223457
      1.8464773659
     -0.4192699972
      0.8504839868
      0.3340184386
     -0.9592843395
      0.5604546076
     -0.6049617847
      0.5387592575
      2.1679026092
     -0.7529993720
      0.5139825911
     -0.8824491444
     -2.0544315398
      1.1327946284
      0.4572922527
     -1.7350832524
     -0.0627362663
      0.6198245360
      0.3113457335
      0.8135062473
     -1.7437078657
     -0.4094193569
      0.9495157359
      0.7316162260
     -1.1986265817
      2.3738944773
     -0.4415715747
      1.8676963390
      1.2308260548
      0.2131434883
     -0.7692661903
      0.8851682327
     -0.6974250930
     -0.7329408414
     -1.3282267943
      0.7615848747
      0.1455478671
     -0.2641181355
      0.0624200653
      0.9671130824
      0.5842593291
     -1.6720731210
      0.5721888128
     -0.5231684857
     -1.8760553350
      0.2504188046
     -0.8302292502
     -1.3418835560
      1.3194078101
      1.4437727272
      0.7370057720
      0.1419625080
      0.7549552749
     -1.1699884865
      0.8051896540
     -0.5667713831
      1.1058390991
      0.0247882018
      2.2145228270
     -0.3077431653
     -0.4659024842
      0.8481522456
      0.0132465057
      1.9580294337
      0.4749955922
     -0.9307078183
      0.4233407956
      0.0238222106
     -0.2498580707
     -2.0652432784
     -0.1885126404
      0.1202879765
     -0.4309106261
     -0.7319188440
     -0.5953361109
      1.0135930365
      1.2554288672
     -0.3950838269
     -1.1189326047
     -0.6787893462
      1.1620958637
      0.6062865241
      1.1526913611
      0.5946061325
      1.4060171861
     -0.2801544766
     -1.1009398808
     -2.3584536298
      1.3997044792
     -0.2908291838
     -0.6814138510
      1.9424177480
      0.2863683944
     -0.7121995511
      1.1256557836
      0.1694237137
      0.3590725308
     -0.2227492513
      0.2788909787
      0.4569714325
      0.2333823556
     -0.0554485605
      0.4944174770
     -0.0286605877
     -0.2341442060
      0.3820664479
     -0.7523734363
      0.3842210366
      0.0665009954
     -0.0810113370
     -0.1379397366
     -0.9705121035
     -0.8885935708
      3.4631723332
     -0.0192649282
     -0.2873724246
      0.4293375716
      0.1221754465
      0.6350572143
     -0.1210178971
      0.2918695465
     -1.0259630987
      0.1575604150
     -0.2888725635
     -0.7847446089
     -1.7250441529
      0.0224791263
      1.6176062663
      0.6396926802
     -0.1650723070
      0.2805758274
     -0.3388279272
      0.1006770817
      1.7664431142
     -0.2812196041
     -0.9880252268
      1.7127530484
      1.3756042231
     -2.5563700630
      1.1118217932
     -0.0614918925
     -1.1779500812
     -1.4850433321
      0.1824621808
     -2.8781180634
     -1.1591685741
     -2.4400077496
      0.4414991338
     -0.4433771362
     -2.5761488496
     -0.9975396230
     -0.5445387704
     -1.8208754068
      1.6709789146
     -0.5817944375
     -3.4883787656
     -0.7407191191
      0.1389566713
     -4.6267865443
     -3.4602371506
      1.0460230806
     -0.8108713234
      1.0185632078
      0.4794064446
      0.5058685771
     -1.1102979319
      0.3672540816
      2.2081405041
     -0.3379181916
     -0.2814702314
      1.0484743146
      0.0001846198
     -0.0014445852
      0.0000587603
     -0.0001449472
     -0.0001187761
      0.0007734141
     -0.0000996026
     -0.0002918483
      0.0002413662
     -0.0010047060
     -0.0017327607
      0.0005455017
      0.0001178990
     -0.0001142632
     -0.0009334372
     -0.0018673730
      0.0000828949
      0.0001459151
      0.0005028604
     -0.0003682209
     -0.0001058523
     -0.0003409919
      0.0000632070
      0.0001557000
      0.0003480488
     -0.0011223594
