################################################################################
# Neural network connection values (weights and biases).
################################################################################
# Col  Name       Description
################################################################################
# 1    connection Neural network connection value.
# 2    t          Connection type (a = weight, b = bias).
# 3    index      Index enumerating weights.
# 4    l_s        Starting point layer (end point layer for biases).
# 5    n_s        Starting point neuron in starting layer (end point neuron for biases).
# 6    l_e        End point layer.
# 7    n_e        End point neuron in end layer.
################################################################################
#                      1 2         3     4     5     6     7
#             connection t     index   l_s   n_s   l_e   n_e
############################################################
 -2.1879316248318592E-01 a         1     0     1     1     1
  3.6792854545358517E-01 a         2     0     1     1     2
  4.2358916635635790E-01 a         3     0     1     1     3
 -9.0668156053316451E-01 a         4     0     1     1     4
 -5.6112930379678516E-02 a         5     0     1     1     5
 -3.2582843756103003E-01 a         6     0     1     1     6
  9.1258792166405658E-02 a         7     0     1     1     7
 -9.5948536843804288E-01 a         8     0     1     1     8
 -5.9035587692692426E-01 a         9     0     1     1     9
  2.8057057110014583E-01 a        10     0     1     1    10
 -4.1044149778756234E-01 a        11     0     1     1    11
  2.6555455018745105E-02 a        12     0     1     1    12
 -5.6433271288973097E-01 a        13     0     1     1    13
  8.3520431861002539E-02 a        14     0     1     1    14
  8.8621264686502485E-03 a        15     0     1     1    15
  3.6515864155872763E-01 a        16     0     1     1    16
  2.7377999198641778E-01 a        17     0     1     1    17
  2.1072129814192248E-01 a        18     0     1     1    18
  3.4892714124581677E-02 a        19     0     1     1    19
  7.6087410808146197E-02 a        20     0     1     1    20
  5.8155525572911870E-02 a        21     0     2     1     1
  9.7190550311560459E-02 a        22     0     2     1     2
 -5.3605730554758646E-01 a        23     0     2     1     3
  9.1987289512670478E-01 a        24     0     2     1     4
  3.8849220003003881E-01 a        25     0     2     1     5
  6.4311766427810879E-01 a        26     0     2     1     6
 -2.8007730133190678E-01 a        27     0     2     1     7
  1.5013447276460443E+00 a        28     0     2     1     8
  1.0713812138757566E+00 a        29     0     2     1     9
  5.1704029926236550E-01 a        30     0     2     1    10
  4.4983439337106607E-01 a        31     0     2     1    11
  8.6742662468219961E-02 a        32     0     2     1    12
 -1.0449847979484100E-01 a        33     0     2     1    13
  4.9650911006371107E-01 a        34     0     2     1    14
  2.1490595056936915E-01 a        35     0     2     1    15
 -3.6578905216852482E-02 a        36     0     2     1    16
 -4.0149302263362774E-01 a        37     0     2     1    17
 -9.6760211317857225E-02 a        38     0     2     1    18
 -6.1948741521984785E-01 a        39     0     2     1    19
  2.4586017086999340E-01 a        40     0     2     1    20
  5.6903446525636350E-02 a        41     0     3     1     1
 -2.8411608521871767E-01 a        42     0     3     1     2
  2.2290336238749775E-01 a        43     0     3     1     3
 -2.3083860938019732E-01 a        44     0     3     1     4
  4.4434296056653291E-02 a        45     0     3     1     5
 -4.9399597125771721E-01 a        46     0     3     1     6
 -5.1726736632278891E-01 a        47     0     3     1     7
 -1.1249914031985861E-01 a        48     0     3     1     8
 -2.3882906701489293E-01 a        49     0     3     1     9
 -1.4056738858376613E-01 a        50     0     3     1    10
  2.6622635216591489E-01 a        51     0     3     1    11
  1.5982332087058085E-01 a        52     0     3     1    12
  4.8971121122457700E-01 a        53     0     3     1    13
 -7.1399654729870740E-02 a        54     0     3     1    14
  1.3694693196856744E-01 a        55     0     3     1    15
  2.7803305620887325E-01 a        56     0     3     1    16
  2.8753717074103591E-01 a        57     0     3     1    17
  2.0703733136058367E-01 a        58     0     3     1    18
  2.7473475507353146E-01 a        59     0     3     1    19
  1.1794743377568308E-01 a        60     0     3     1    20
  4.0386968920121002E-01 a        61     0     4     1     1
 -9.9735136626332738E-02 a        62     0     4     1     2
 -3.5803145661378932E-01 a        63     0     4     1     3
 -2.7962773078589570E-01 a        64     0     4     1     4
  3.5732424783063960E-01 a        65     0     4     1     5
  5.6344938982669079E-01 a        66     0     4     1     6
  3.6264211928728518E-01 a        67     0     4     1     7
  2.0600407902500756E-01 a        68     0     4     1     8
  1.7402881848016799E-01 a        69     0     4     1     9
 -5.4688579049018660E-01 a        70     0     4     1    10
 -1.7700476592597239E-01 a        71     0     4     1    11
 -2.3867732057686919E-01 a        72     0     4     1    12
 -6.4347007173437498E-02 a        73     0     4     1    13
 -4.4625504693968709E-01 a        74     0     4     1    14
 -3.5976351797245054E-01 a        75     0     4     1    15
 -1.3359670293375143E+00 a        76     0     4     1    16
  1.1130932152916594E-01 a        77     0     4     1    17
 -9.7672162625520434E-02 a        78     0     4     1    18
  3.3639494394964048E-01 a        79     0     4     1    19
  2.4676172533576436E-02 a        80     0     4     1    20
 -1.1603313242370628E-01 a        81     0     5     1     1
 -3.0040786323114321E-01 a        82     0     5     1     2
 -4.8456732675429201E-02 a        83     0     5     1     3
  8.5574059150473902E-01 a        84     0     5     1     4
  1.8378578900188835E-03 a        85     0     5     1     5
 -2.4030744705155027E-01 a        86     0     5     1     6
 -4.8779564962707361E-01 a        87     0     5     1     7
  2.9784395042232428E-02 a        88     0     5     1     8
  4.4367089992667580E-01 a        89     0     5     1     9
 -1.8912112180585716E-01 a        90     0     5     1    10
  1.0336790471485409E-01 a        91     0     5     1    11
  1.1360716567480021E-01 a        92     0     5     1    12
 -2.1950330366187820E-01 a        93     0     5     1    13
  4.5031114937149752E-01 a        94     0     5     1    14
  1.4215030877380443E-02 a        95     0     5     1    15
  1.2439998045895416E-01 a        96     0     5     1    16
 -6.1935540946074596E-01 a        97     0     5     1    17
  2.3492585961907200E-01 a        98     0     5     1    18
 -1.4530771103823925E-01 a        99     0     5     1    19
 -2.2823173735499769E-01 a       100     0     5     1    20
  1.4498115637887163E-01 a       101     0     6     1     1
 -1.1124960574752296E-01 a       102     0     6     1     2
  6.8164641144690796E-01 a       103     0     6     1     3
 -1.3694608734078559E-01 a       104     0     6     1     4
 -6.0553457249578307E-02 a       105     0     6     1     5
 -3.5660443834366817E-01 a       106     0     6     1     6
  1.8874787402046747E-01 a       107     0     6     1     7
 -3.3697307889211137E-01 a       108     0     6     1     8
 -5.3356722504127052E-01 a       109     0     6     1     9
 -3.0702000163738413E-01 a       110     0     6     1    10
  1.4642655093997078E-01 a       111     0     6     1    11
  3.0072168230278539E-02 a       112     0     6     1    12
 -1.7196382035520035E-03 a       113     0     6     1    13
 -4.4231960622848304E-01 a       114     0     6     1    14
  2.1654473670303784E-01 a       115     0     6     1    15
 -5.7740148812422964E-01 a       116     0     6     1    16
 -3.0931876713367154E-02 a       117     0     6     1    17
  1.8620761801040803E-01 a       118     0     6     1    18
  3.6675863099200248E-02 a       119     0     6     1    19
 -2.0827402069515819E-01 a       120     0     6     1    20
  9.0648056109007683E-02 a       121     0     7     1     1
  1.9458652558332706E-01 a       122     0     7     1     2
  8.8405169128741093E-02 a       123     0     7     1     3
  2.4492575379787523E-01 a       124     0     7     1     4
 -9.5909495583076362E-02 a       125     0     7     1     5
  4.3173068113523921E-02 a       126     0     7     1     6
  3.6282165365955571E-01 a       127     0     7     1     7
  5.0332359613122957E-01 a       128     0     7     1     8
  5.7710545654521564E-02 a       129     0     7     1     9
 -2.6876604782281632E-01 a       130     0     7     1    10
 -6.4197189241706498E-01 a       131     0     7     1    11
 -7.2145982048812374E-01 a       132     0     7     1    12
  1.7788088205744146E-01 a       133     0     7     1    13
  2.2328686331560249E-01 a       134     0     7     1    14
 -2.5652510968307995E-01 a       135     0     7     1    15
  1.1807332645302011E-01 a       136     0     7     1    16
  4.0294339599183993E-01 a       137     0     7     1    17
 -4.3669196725561543E-01 a       138     0     7     1    18
  5.1831953311195522E-01 a       139     0     7     1    19
 -2.0293739964209320E-01 a       140     0     7     1    20
 -1.0160986499678117E-01 a       141     0     8     1     1
 -3.0287661664172449E-01 a       142     0     8     1     2
  1.3142256707246208E-01 a       143     0     8     1     3
  7.3682092358808471E-01 a       144     0     8     1     4
 -2.6405401582543737E-02 a       145     0     8     1     5
  6.9862375076221106E-01 a       146     0     8     1     6
 -5.6724558388345565E-02 a       147     0     8     1     7
  1.3797050151114240E-01 a       148     0     8     1     8
  6.4591328135666107E-02 a       149     0     8     1     9
  4.6340074682831500E-01 a       150     0     8     1    10
 -6.8890141856670106E-01 a       151     0     8     1    11
  3.0466347494967133E-01 a       152     0     8     1    12
  8.8932639614098488E-02 a       153     0     8     1    13
  5.6124914410472071E-02 a       154     0     8     1    14
 -3.1941731865207358E-02 a       155     0     8     1    15
  7.3293114314065366E-01 a       156     0     8     1    16
  3.8161364058728497E-01 a       157     0     8     1    17
 -4.1784365617374086E-02 a       158     0     8     1    18
 -3.0112020775906573E-01 a       159     0     8     1    19
  1.5343309887735643E-01 a       160     0     8     1    20
 -3.5286808505191419E-01 a       161     0     9     1     1
  2.1630854337435640E-01 a       162     0     9     1     2
 -7.4399972186516353E-02 a       163     0     9     1     3
 -1.3011215288039618E-01 a       164     0     9     1     4
 -1.9447591007742998E-01 a       165     0     9     1     5
  3.2247228938547828E-01 a       166     0     9     1     6
  5.8585367874610361E-01 a       167     0     9     1     7
  1.4594989660260657E-01 a       168     0     9     1     8
  3.8119307398446195E-01 a       169     0     9     1     9
  1.7754343821671992E-01 a       170     0     9     1    10
  4.1594841759403417E-01 a       171     0     9     1    11
 -4.7318473049839593E-01 a       172     0     9     1    12
  3.8404243451009595E-01 a       173     0     9     1    13
  5.8844708768452748E-02 a       174     0     9     1    14
  4.8473579433120317E-01 a       175     0     9     1    15
 -5.1811089924221942E-01 a       176     0     9     1    16
 -4.5474365615167189E-01 a       177     0     9     1    17
 -3.4724434103245932E-01 a       178     0     9     1    18
  5.3425672484921560E-01 a       179     0     9     1    19
 -6.1130498154794943E-01 a       180     0     9     1    20
  9.3511222637306018E-02 a       181     0    10     1     1
  1.0076281946075046E-01 a       182     0    10     1     2
 -4.2066144644544490E-01 a       183     0    10     1     3
 -2.5305910910223722E-01 a       184     0    10     1     4
  2.8155176237433403E-02 a       185     0    10     1     5
 -4.3502365557344791E-01 a       186     0    10     1     6
 -2.7015478924952901E-01 a       187     0    10     1     7
 -2.6407570585796392E-01 a       188     0    10     1     8
 -2.4389346497085174E-02 a       189     0    10     1     9
  1.5355967488423594E-01 a       190     0    10     1    10
  4.5953499599402381E-01 a       191     0    10     1    11
  5.2970281242158246E-01 a       192     0    10     1    12
 -2.1193330757497356E-01 a       193     0    10     1    13
 -6.4505697158372133E-01 a       194     0    10     1    14
  4.6819672269000252E-02 a       195     0    10     1    15
  5.4130312096591866E-02 a       196     0    10     1    16
 -3.3365210515929972E-01 a       197     0    10     1    17
  1.1672286752632219E-01 a       198     0    10     1    18
 -1.1809832465631062E-02 a       199     0    10     1    19
  5.9051479860986189E-01 a       200     0    10     1    20
 -2.8308579713216531E-01 a       201     0    11     1     1
  2.8458619132105667E-01 a       202     0    11     1     2
 -1.7068004274883575E-01 a       203     0    11     1     3
  5.3828074234496204E-01 a       204     0    11     1     4
  4.0002410701684349E-01 a       205     0    11     1     5
  5.3308693396778017E-01 a       206     0    11     1     6
  3.0931016163731223E-01 a       207     0    11     1     7
  1.5614495108259138E-01 a       208     0    11     1     8
  4.9642761639389393E-01 a       209     0    11     1     9
 -4.6871201635542314E-01 a       210     0    11     1    10
  1.7712155336258517E-01 a       211     0    11     1    11
  9.5885285529377817E-01 a       212     0    11     1    12
  9.0486540730804621E-01 a       213     0    11     1    13
 -5.3369189631902492E-01 a       214     0    11     1    14
  7.2827683192855985E-01 a       215     0    11     1    15
 -2.7673198404715771E-01 a       216     0    11     1    16
  3.3967811341269394E-01 a       217     0    11     1    17
  2.7446225824074372E-01 a       218     0    11     1    18
 -4.1985044693694407E-02 a       219     0    11     1    19
  2.6126401036951030E-01 a       220     0    11     1    20
  7.9065233840328830E-01 a       221     0    12     1     1
  4.8764672627049102E-02 a       222     0    12     1     2
 -2.7672041202460729E-01 a       223     0    12     1     3
 -1.1964973424227091E-01 a       224     0    12     1     4
  3.3953295978516468E-01 a       225     0    12     1     5
 -3.4213859179899336E-01 a       226     0    12     1     6
 -2.9833316222947837E-01 a       227     0    12     1     7
  3.0620778947117749E-01 a       228     0    12     1     8
 -8.5906081002026912E-03 a       229     0    12     1     9
  5.0018573318629245E-03 a       230     0    12     1    10
  7.9723833465872057E-02 a       231     0    12     1    11
 -1.2553660880849091E-01 a       232     0    12     1    12
 -1.5741725208279136E-01 a       233     0    12     1    13
  7.3362710451246171E-01 a       234     0    12     1    14
 -1.2564430183995368E-01 a       235     0    12     1    15
  2.6200215631111190E-02 a       236     0    12     1    16
  3.9682213106252345E-01 a       237     0    12     1    17
  3.2460455119231313E-01 a       238     0    12     1    18
 -2.7249095506343163E-01 a       239     0    12     1    19
  6.4811206225872664E-02 a       240     0    12     1    20
 -1.9282851290637576E-01 a       241     0    13     1     1
 -4.7473677988576501E-01 a       242     0    13     1     2
 -5.9716739298177657E-01 a       243     0    13     1     3
  1.9555995164089895E-01 a       244     0    13     1     4
 -9.7952898785521836E-01 a       245     0    13     1     5
 -1.6081398971901292E-01 a       246     0    13     1     6
 -3.7662875988038191E-01 a       247     0    13     1     7
  2.6684263102307698E-01 a       248     0    13     1     8
 -3.6363615872161453E-01 a       249     0    13     1     9
  3.6625152329801419E-01 a       250     0    13     1    10
 -1.8681352867514553E-01 a       251     0    13     1    11
 -7.3256282587985250E-02 a       252     0    13     1    12
 -7.6066070366695415E-01 a       253     0    13     1    13
  2.2028437890351998E-01 a       254     0    13     1    14
 -6.8745272492932041E-01 a       255     0    13     1    15
  3.0899735078930540E-01 a       256     0    13     1    16
  2.9239229552320761E-01 a       257     0    13     1    17
  2.6810924264822927E-01 a       258     0    13     1    18
  3.9935221112205049E-01 a       259     0    13     1    19
  5.2683753337736026E-02 a       260     0    13     1    20
  1.1788972045240756E-01 a       261     0    14     1     1
  6.0712926783059007E-02 a       262     0    14     1     2
 -2.7565053999104805E-01 a       263     0    14     1     3
  2.2952496023561625E-01 a       264     0    14     1     4
  1.0963259473720020E+00 a       265     0    14     1     5
 -5.5886220911406714E-01 a       266     0    14     1     6
  4.2933530036645351E-01 a       267     0    14     1     7
 -2.4849267501143887E-01 a       268     0    14     1     8
  1.8343722760630327E-01 a       269     0    14     1     9
  5.7655741481976064E-01 a       270     0    14     1    10
 -1.2228724457400136E-01 a       271     0    14     1    11
  3.9443631425679265E-01 a       272     0    14     1    12
  2.1551989691539811E-01 a       273     0    14     1    13
 -6.4651324494428009E-01 a       274     0    14     1    14
  1.7175761930960162E-01 a       275     0    14     1    15
  2.3322705079623574E-01 a       276     0    14     1    16
 -1.9172427074426099E-01 a       277     0    14     1    17
  1.0583827782918789E-01 a       278     0    14     1    18
  8.4076301734348713E-01 a       279     0    14     1    19
  1.7028792281765376E-01 a       280     0    14     1    20
 -2.0335786109389659E-01 a       281     0    15     1     1
  8.4125780972334877E-02 a       282     0    15     1     2
 -9.4462345694484667E-02 a       283     0    15     1     3
 -1.4143743548547386E-01 a       284     0    15     1     4
  2.3981922145455042E-01 a       285     0    15     1     5
 -4.8114556093919181E-01 a       286     0    15     1     6
 -7.1191885369756638E-02 a       287     0    15     1     7
 -1.5561139628570524E+00 a       288     0    15     1     8
  7.0773720424462139E-01 a       289     0    15     1     9
  8.4252558251942011E-01 a       290     0    15     1    10
 -1.2082360675774702E-01 a       291     0    15     1    11
 -3.1845731606875323E-02 a       292     0    15     1    12
 -4.0078935217635547E-01 a       293     0    15     1    13
 -3.4120652970542051E-02 a       294     0    15     1    14
  5.4146758716466514E-01 a       295     0    15     1    15
 -8.0392511173413395E-02 a       296     0    15     1    16
  2.8768731463934993E-01 a       297     0    15     1    17
  2.4989903358887999E-01 a       298     0    15     1    18
  1.1605507273715360E-01 a       299     0    15     1    19
 -9.2137781500039109E-03 a       300     0    15     1    20
  1.7302231270474011E-01 a       301     0    16     1     1
  2.7025007694488345E-02 a       302     0    16     1     2
 -2.2833849372237608E-01 a       303     0    16     1     3
 -1.8022856976940063E-01 a       304     0    16     1     4
 -9.9245633610056908E-02 a       305     0    16     1     5
 -3.8534743925216242E-01 a       306     0    16     1     6
 -3.1330113784383090E-01 a       307     0    16     1     7
  1.3560668798490796E-01 a       308     0    16     1     8
  9.2085060801877089E-02 a       309     0    16     1     9
 -1.2945637545275301E-01 a       310     0    16     1    10
  1.1559648793952097E-01 a       311     0    16     1    11
 -9.9010676877315254E-02 a       312     0    16     1    12
 -5.4606695717511824E-02 a       313     0    16     1    13
  6.5283989573672685E-01 a       314     0    16     1    14
 -1.7093744746273714E-02 a       315     0    16     1    15
  1.7178516933776070E-01 a       316     0    16     1    16
 -7.1561234964314643E-02 a       317     0    16     1    17
  6.7960945383939250E-02 a       318     0    16     1    18
  3.9051313941575863E-02 a       319     0    16     1    19
  1.3589233554840766E-01 a       320     0    16     1    20
  3.4142143058243729E-01 a       321     0    17     1     1
  2.0463873608157972E-02 a       322     0    17     1     2
 -3.2203168068250576E-01 a       323     0    17     1     3
  3.5611311476520252E-01 a       324     0    17     1     4
 -2.7186033938679993E-01 a       325     0    17     1     5
 -2.0200268142223257E-01 a       326     0    17     1     6
 -8.2251682009409466E-02 a       327     0    17     1     7
  4.5085106054883411E-01 a       328     0    17     1     8
  2.8329662882801154E-01 a       329     0    17     1     9
 -1.0372926863402376E-01 a       330     0    17     1    10
  2.1635084649042632E-01 a       331     0    17     1    11
 -1.2407549157948147E-01 a       332     0    17     1    12
 -6.5747366783353162E-02 a       333     0    17     1    13
 -1.8534311744736218E-01 a       334     0    17     1    14
  5.2145282185700970E-02 a       335     0    17     1    15
 -9.9068054830022581E-02 a       336     0    17     1    16
 -2.6348042872854088E-01 a       337     0    17     1    17
 -3.2774029579049280E-01 a       338     0    17     1    18
  1.7406316739126682E-01 a       339     0    17     1    19
  2.1647297873739921E-01 a       340     0    17     1    20
 -7.3856761814664024E-02 a       341     0    18     1     1
 -1.2368891621448391E-01 a       342     0    18     1     2
  3.3058845816293719E-01 a       343     0    18     1     3
  5.2450908872417057E-01 a       344     0    18     1     4
 -1.9270973923893137E-01 a       345     0    18     1     5
 -1.2843851321442048E-02 a       346     0    18     1     6
  2.0527754380989760E-01 a       347     0    18     1     7
 -1.5205908010757188E-01 a       348     0    18     1     8
 -9.8297545239473330E-02 a       349     0    18     1     9
 -1.8255043987040548E-01 a       350     0    18     1    10
  1.6131256145382526E-02 a       351     0    18     1    11
 -1.3218920969493725E-01 a       352     0    18     1    12
  3.0228974988413176E-01 a       353     0    18     1    13
 -1.1096576566585996E-01 a       354     0    18     1    14
  7.3649697864626038E-02 a       355     0    18     1    15
  5.6961454037823288E-02 a       356     0    18     1    16
  2.1437418266271914E-02 a       357     0    18     1    17
 -1.9479708094172313E-01 a       358     0    18     1    18
  3.1603119197010410E-01 a       359     0    18     1    19
 -2.9741548326979106E-01 a       360     0    18     1    20
 -1.3186626067861790E-01 a       361     0    19     1     1
 -2.7768271368142323E-02 a       362     0    19     1     2
  2.2720109390574689E-01 a       363     0    19     1     3
 -4.1227689904388229E-02 a       364     0    19     1     4
 -4.7452840022535019E-02 a       365     0    19     1     5
  2.2756733375414934E-01 a       366     0    19     1     6
 -1.5420827083724126E-01 a       367     0    19     1     7
 -7.8486718195980729E-02 a       368     0    19     1     8
 -7.9843014351789143E-02 a       369     0    19     1     9
 -1.0338435401766649E-01 a       370     0    19     1    10
 -4.2643064514589879E-01 a       371     0    19     1    11
 -5.3574396786483784E-02 a       372     0    19     1    12
 -1.6710232238486087E-02 a       373     0    19     1    13
 -1.1495735507879068E-01 a       374     0    19     1    14
 -1.3471497986717956E-01 a       375     0    19     1    15
 -5.9533400992907819E-02 a       376     0    19     1    16
  1.3741792317564241E-02 a       377     0    19     1    17
 -2.3910262586446691E-02 a       378     0    19     1    18
 -5.3626546155250553E-02 a       379     0    19     1    19
 -3.0238725475536432E-01 a       380     0    19     1    20
 -4.2294288574654176E-01 a       381     0    20     1     1
  3.7833672493100490E-01 a       382     0    20     1     2
 -3.4543590337316804E-01 a       383     0    20     1     3
 -1.6971680296877762E+00 a       384     0    20     1     4
  1.3128954219095437E-01 a       385     0    20     1     5
 -4.5621379808289542E-01 a       386     0    20     1     6
  3.5726743007527367E-01 a       387     0    20     1     7
 -3.9469998601185946E-01 a       388     0    20     1     8
 -1.2610010598448190E-01 a       389     0    20     1     9
  4.7692411499894677E-01 a       390     0    20     1    10
 -3.4848482167935202E-01 a       391     0    20     1    11
  4.3410975391619155E-01 a       392     0    20     1    12
 -3.7886336196891751E-01 a       393     0    20     1    13
  7.4572879105611056E-02 a       394     0    20     1    14
  8.3455082895252816E-02 a       395     0    20     1    15
  4.3760539610879229E-01 a       396     0    20     1    16
  1.8761248390630234E-01 a       397     0    20     1    17
  5.3370460261563946E-01 a       398     0    20     1    18
 -6.1346477791911491E-01 a       399     0    20     1    19
  7.2030585350296883E-01 a       400     0    20     1    20
 -1.1656950147937090E-01 a       401     0    21     1     1
  9.0142241401364551E-02 a       402     0    21     1     2
  7.5326755349290153E-01 a       403     0    21     1     3
  2.5860916122792116E-01 a       404     0    21     1     4
 -6.6170036665634646E-01 a       405     0    21     1     5
  1.3371738514799664E-01 a       406     0    21     1     6
  4.6797428403451807E-01 a       407     0    21     1     7
  2.5349619853580502E-01 a       408     0    21     1     8
  4.4357960101568428E-01 a       409     0    21     1     9
 -5.4375558463824566E-02 a       410     0    21     1    10
 -4.2476418161518276E-01 a       411     0    21     1    11
 -4.6151327811627862E-01 a       412     0    21     1    12
  4.4277022163448543E-01 a       413     0    21     1    13
  3.5699668087302311E-01 a       414     0    21     1    14
  1.1013627936010188E-01 a       415     0    21     1    15
 -4.3264761248033029E-01 a       416     0    21     1    16
 -3.0969592431347576E-01 a       417     0    21     1    17
  3.8706346934318608E-01 a       418     0    21     1    18
 -2.6879044271357805E-01 a       419     0    21     1    19
 -4.7328655452476404E-01 a       420     0    21     1    20
  1.5218842989930031E-01 a       421     0    22     1     1
  1.9802143760286747E-01 a       422     0    22     1     2
 -5.2961230773043433E-02 a       423     0    22     1     3
 -7.4063513900677647E-01 a       424     0    22     1     4
  3.2610093413022712E-01 a       425     0    22     1     5
 -1.0778536335775115E+00 a       426     0    22     1     6
 -4.5640048074082917E-01 a       427     0    22     1     7
 -3.7447479488351681E-01 a       428     0    22     1     8
 -3.5091768287071379E-01 a       429     0    22     1     9
 -3.1568269112062314E-01 a       430     0    22     1    10
  1.4920210776961290E-01 a       431     0    22     1    11
  2.9918918258475813E-01 a       432     0    22     1    12
 -3.3500023292206821E-01 a       433     0    22     1    13
  1.8972896323473618E-01 a       434     0    22     1    14
  6.6851415166712447E-02 a       435     0    22     1    15
  8.8037249662789169E-02 a       436     0    22     1    16
  2.6387841989830074E-01 a       437     0    22     1    17
  2.8952461526895362E-01 a       438     0    22     1    18
  9.5332468339052026E-02 a       439     0    22     1    19
  3.0726610148508599E-01 a       440     0    22     1    20
 -7.1993821162040755E-02 a       441     0    23     1     1
 -3.4909985343175404E-01 a       442     0    23     1     2
  7.4859480331023825E-02 a       443     0    23     1     3
  1.8329422567130724E-01 a       444     0    23     1     4
  2.0431036031478351E-02 a       445     0    23     1     5
  6.6723363017773685E-01 a       446     0    23     1     6
 -2.6858191559379968E-01 a       447     0    23     1     7
 -4.5632654382802101E-01 a       448     0    23     1     8
 -7.1434046118221983E-01 a       449     0    23     1     9
  3.4612922117255168E-01 a       450     0    23     1    10
  3.7385762812447326E-01 a       451     0    23     1    11
  3.9529848726819444E-01 a       452     0    23     1    12
 -1.3883703733892913E-01 a       453     0    23     1    13
 -3.3895472506494295E-01 a       454     0    23     1    14
 -2.6372085256968802E-01 a       455     0    23     1    15
 -1.7138027009014062E-01 a       456     0    23     1    16
  5.1596016352169560E-01 a       457     0    23     1    17
 -4.1910244027677562E-01 a       458     0    23     1    18
  4.0991073447080367E-01 a       459     0    23     1    19
 -3.8886230916871756E-01 a       460     0    23     1    20
  1.0922255519009706E-01 a       461     0    24     1     1
  8.7886999761604426E-02 a       462     0    24     1     2
 -1.5642268320799690E-01 a       463     0    24     1     3
  1.2480742854134001E-01 a       464     0    24     1     4
 -1.1315562365016223E-01 a       465     0    24     1     5
  6.7400590852913070E-02 a       466     0    24     1     6
 -1.2468545192438833E-01 a       467     0    24     1     7
  3.0282137626952249E-01 a       468     0    24     1     8
  3.1493468483486614E-01 a       469     0    24     1     9
  9.2252271265343397E-02 a       470     0    24     1    10
  3.5086757510072203E-01 a       471     0    24     1    11
 -6.5841095225569496E-02 a       472     0    24     1    12
  3.9625304555428540E-03 a       473     0    24     1    13
  1.9391640094897952E-01 a       474     0    24     1    14
  1.5612381507823428E-01 a       475     0    24     1    15
 -8.0261683828885960E-02 a       476     0    24     1    16
 -1.4907548880832933E-01 a       477     0    24     1    17
 -1.4545792443457575E-01 a       478     0    24     1    18
 -2.9548719799816117E-02 a       479     0    24     1    19
  4.0061632336302222E-02 a       480     0    24     1    20
 -4.5289568920738965E-01 a       481     0    25     1     1
 -2.3716303504189634E-01 a       482     0    25     1     2
 -1.4476964767604741E-01 a       483     0    25     1     3
  2.4050676614549554E-01 a       484     0    25     1     4
 -9.4297150455028358E-02 a       485     0    25     1     5
  1.6143756633723139E-01 a       486     0    25     1     6
 -1.0616816545673986E-02 a       487     0    25     1     7
 -2.6148331760393750E-01 a       488     0    25     1     8
 -2.4001867305738872E-01 a       489     0    25     1     9
  8.1280805172133930E-02 a       490     0    25     1    10
  1.4076479216897231E-01 a       491     0    25     1    11
 -1.0508393549627637E-01 a       492     0    25     1    12
 -2.0639641903810793E-01 a       493     0    25     1    13
 -8.0467924425726145E-01 a       494     0    25     1    14
 -5.7103062089742265E-02 a       495     0    25     1    15
  7.8602282744161131E-02 a       496     0    25     1    16
 -1.8333716003671860E-01 a       497     0    25     1    17
 -3.4928374459856704E-01 a       498     0    25     1    18
  1.1054772843696072E-01 a       499     0    25     1    19
  2.0530989492843793E-01 a       500     0    25     1    20
 -1.1857870988825217E-01 a       501     0    26     1     1
 -9.6601871457970501E-02 a       502     0    26     1     2
  6.8587771039254827E-02 a       503     0    26     1     3
  2.4994146659124739E-01 a       504     0    26     1     4
 -1.3676345787453431E-01 a       505     0    26     1     5
 -9.9050934955963357E-02 a       506     0    26     1     6
  3.1660966527263124E-01 a       507     0    26     1     7
 -3.6725874792038662E-02 a       508     0    26     1     8
  3.7825224903839438E-02 a       509     0    26     1     9
 -7.2890625685587873E-01 a       510     0    26     1    10
 -3.8064460473776179E-01 a       511     0    26     1    11
 -3.1554366773184755E-01 a       512     0    26     1    12
  2.1400279377327949E-01 a       513     0    26     1    13
  2.1579567138265743E-01 a       514     0    26     1    14
 -2.4866713301295501E-01 a       515     0    26     1    15
  4.3846769972292765E-01 a       516     0    26     1    16
 -4.7059313734473807E-01 a       517     0    26     1    17
  1.1844817461969546E-01 a       518     0    26     1    18
 -3.1223112001897801E-01 a       519     0    26     1    19
 -2.3477701755642041E-01 a       520     0    26     1    20
  1.2317965214528644E-01 a       521     0    27     1     1
  3.4416949638548869E-02 a       522     0    27     1     2
  2.8537608238103401E-01 a       523     0    27     1     3
 -5.8307752259495438E-01 a       524     0    27     1     4
  4.1093932749087203E-01 a       525     0    27     1     5
 -8.7328273331559042E-02 a       526     0    27     1     6
  2.8486596517935510E-02 a       527     0    27     1     7
  3.2506433321391826E-01 a       528     0    27     1     8
  3.1765213425282607E-01 a       529     0    27     1     9
  4.6193906389384531E-01 a       530     0    27     1    10
  3.6393322156321695E-01 a       531     0    27     1    11
 -1.9125837882694999E-01 a       532     0    27     1    12
  2.8479037426595261E-01 a       533     0    27     1    13
 -1.4845484919654506E+00 a       534     0    27     1    14
  4.5002341706355592E-01 a       535     0    27     1    15
 -1.8680987679518279E-01 a       536     0    27     1    16
  9.4233621893327665E-02 a       537     0    27     1    17
  3.2943550527716151E-02 a       538     0    27     1    18
  9.9568417688871494E-03 a       539     0    27     1    19
 -1.1736933948294082E-01 a       540     0    27     1    20
  1.1829672666974715E+00 b       541     1     1
  5.0479171650709143E-01 b       542     1     2
 -1.0785252517135802E+00 b       543     1     3
 -1.2337313310008176E+00 b       544     1     4
  1.5177952047073866E+00 b       545     1     5
 -1.1590379729192444E+00 b       546     1     6
 -1.5475960048306459E+00 b       547     1     7
  1.4307208876773250E+00 b       548     1     8
 -1.3654962968511439E+00 b       549     1     9
  1.0713732002318594E+00 b       550     1    10
 -1.2695151872140491E+00 b       551     1    11
  6.7000601758198497E-01 b       552     1    12
 -9.9137328228247290E-01 b       553     1    13
 -1.4414648702411748E+00 b       554     1    14
 -1.1007971975008561E+00 b       555     1    15
  4.1746744794619950E-01 b       556     1    16
  4.8204518294054061E-01 b       557     1    17
 -1.1426906990551196E+00 b       558     1    18
 -8.4897975190922820E-02 b       559     1    19
  1.5224504882036556E+00 b       560     1    20
 -4.8617997142107627E-01 a       561     1     1     2     1
  2.5050522512408746E-01 a       562     1     1     2     2
  2.1317076184851433E-01 a       563     1     1     2     3
  2.0170873653080032E-01 a       564     1     1     2     4
  1.6942262166644756E-01 a       565     1     1     2     5
  2.7743915599031976E-01 a       566     1     1     2     6
  3.1366753778533862E-01 a       567     1     1     2     7
  7.2389885898628703E-01 a       568     1     1     2     8
 -4.4479773179645909E-01 a       569     1     1     2     9
  4.3469529697051472E-02 a       570     1     1     2    10
 -3.5642808393045144E-01 a       571     1     1     2    11
  7.4517916711202070E-01 a       572     1     1     2    12
  5.3140595163382054E-01 a       573     1     1     2    13
 -1.4043692167728397E-01 a       574     1     1     2    14
  1.9870378195888294E-01 a       575     1     1     2    15
 -2.7526662151891601E-01 a       576     1     1     2    16
 -2.3009949211918845E-01 a       577     1     1     2    17
  2.7537535811743358E-01 a       578     1     1     2    18
  2.3681467584662910E-01 a       579     1     1     2    19
  2.9339099803568386E-01 a       580     1     1     2    20
 -6.5199867634705000E-01 a       581     1     2     2     1
  3.4576888077591333E-01 a       582     1     2     2     2
 -1.6837317078345568E-01 a       583     1     2     2     3
  3.3657733130287887E-01 a       584     1     2     2     4
  2.2819557605496840E-01 a       585     1     2     2     5
 -1.9511777142740511E-01 a       586     1     2     2     6
 -5.1194267175544128E-01 a       587     1     2     2     7
 -6.3630089103942034E-01 a       588     1     2     2     8
  1.6976915626588190E-02 a       589     1     2     2     9
 -3.6675413258906225E-01 a       590     1     2     2    10
 -1.6550092800025878E-01 a       591     1     2     2    11
  9.5086641775837866E-02 a       592     1     2     2    12
 -8.1287805052536119E-02 a       593     1     2     2    13
 -4.9564546887008974E-02 a       594     1     2     2    14
  4.1221095757135595E-01 a       595     1     2     2    15
 -2.0759519994623540E-01 a       596     1     2     2    16
 -5.4998371838573612E-01 a       597     1     2     2    17
  6.0199434364844751E-01 a       598     1     2     2    18
  3.9070761388599684E-01 a       599     1     2     2    19
 -8.9570468084921903E-02 a       600     1     2     2    20
 -2.9660954689436891E-01 a       601     1     3     2     1
  5.9631616408231736E-01 a       602     1     3     2     2
  4.2800583622176464E-01 a       603     1     3     2     3
 -1.8792633418087772E-02 a       604     1     3     2     4
 -4.5024420645239271E-01 a       605     1     3     2     5
  1.2828376388136251E-02 a       606     1     3     2     6
  1.0718639653857178E+00 a       607     1     3     2     7
  8.1128377870256518E-01 a       608     1     3     2     8
 -9.3120047481363447E-02 a       609     1     3     2     9
 -2.2597917603190848E-01 a       610     1     3     2    10
  4.5751189629092898E-01 a       611     1     3     2    11
 -1.2770086470455450E-01 a       612     1     3     2    12
 -5.1160694084529901E-01 a       613     1     3     2    13
  1.4988296240272961E-01 a       614     1     3     2    14
 -4.8086003178078984E-01 a       615     1     3     2    15
  6.2962459257614867E-01 a       616     1     3     2    16
  9.7200189530376724E-01 a       617     1     3     2    17
 -5.9570184385937186E-01 a       618     1     3     2    18
 -7.0942902450153444E-01 a       619     1     3     2    19
  5.3119951450276548E-01 a       620     1     3     2    20
  4.9678750442944858E-01 a       621     1     4     2     1
 -3.4473071725412757E-01 a       622     1     4     2     2
 -3.6852942756071805E-01 a       623     1     4     2     3
 -2.9305788101666819E-01 a       624     1     4     2     4
  2.2311847985752392E-01 a       625     1     4     2     5
  3.2175155053868049E-01 a       626     1     4     2     6
  1.0670536009628451E-01 a       627     1     4     2     7
 -2.1377172831251243E-01 a       628     1     4     2     8
 -1.0598587084688714E-01 a       629     1     4     2     9
 -3.1401337486513005E-02 a       630     1     4     2    10
 -1.8873945756777460E-01 a       631     1     4     2    11
 -3.9419139597943142E-01 a       632     1     4     2    12
  1.9742113392716129E-01 a       633     1     4     2    13
  1.6723321433204291E-01 a       634     1     4     2    14
 -1.0473019686409454E-01 a       635     1     4     2    15
  7.1874190344918557E-02 a       636     1     4     2    16
 -3.6865642988166403E-01 a       637     1     4     2    17
  4.2004156497900424E-01 a       638     1     4     2    18
  6.7368456088519357E-01 a       639     1     4     2    19
  3.2346512337292743E-01 a       640     1     4     2    20
 -4.8052179983776261E-01 a       641     1     5     2     1
  8.3934961273021941E-02 a       642     1     5     2     2
 -3.6313637840239243E-01 a       643     1     5     2     3
 -5.0574127815325576E-01 a       644     1     5     2     4
  1.1203689057485326E-01 a       645     1     5     2     5
  3.6438058607543533E-01 a       646     1     5     2     6
  5.2392129591264236E-01 a       647     1     5     2     7
  2.9709342818162709E-01 a       648     1     5     2     8
  4.7919286875277689E-01 a       649     1     5     2     9
 -1.3090421720778928E-01 a       650     1     5     2    10
  4.1217109256104117E-01 a       651     1     5     2    11
  1.0778544505230409E-01 a       652     1     5     2    12
  6.4346529863619484E-01 a       653     1     5     2    13
  1.9478078379430355E-02 a       654     1     5     2    14
  6.2816063683075229E-01 a       655     1     5     2    15
 -5.7111067086730999E-02 a       656     1     5     2    16
  2.1161321348549447E-01 a       657     1     5     2    17
  3.5069301133747754E-01 a       658     1     5     2    18
 -3.6183328598952197E-01 a       659     1     5     2    19
 -2.5535810704574030E-01 a       660     1     5     2    20
 -1.8781083152378894E-01 a       661     1     6     2     1
  3.1620220241897223E-01 a       662     1     6     2     2
  3.6420710592002181E-01 a       663     1     6     2     3
  3.3882169859665667E-01 a       664     1     6     2     4
 -3.8975930848644502E-01 a       665     1     6     2     5
 -3.7314165512629410E-01 a       666     1     6     2     6
  8.7450437542965512E-02 a       667     1     6     2     7
  2.0892714635403964E-01 a       668     1     6     2     8
 -2.4319641083795013E-01 a       669     1     6     2     9
 -1.7428561050426683E-01 a       670     1     6     2    10
 -2.7598310048734209E-01 a       671     1     6     2    11
 -3.6898131997015216E-01 a       672     1     6     2    12
  2.2374418088648820E-01 a       673     1     6     2    13
 -6.0940762261323590E-02 a       674     1     6     2    14
 -7.5604179859323961E-01 a       675     1     6     2    15
 -9.6613287833985512E-02 a       676     1     6     2    16
 -7.1008565878241525E-01 a       677     1     6     2    17
 -4.3018882826145299E-02 a       678     1     6     2    18
  4.8622356033676267E-01 a       679     1     6     2    19
 -4.6618280067216450E-01 a       680     1     6     2    20
  5.9399021557105069E-01 a       681     1     7     2     1
  7.0619487226933553E-01 a       682     1     7     2     2
  3.1098465271303083E-01 a       683     1     7     2     3
  6.2657469599241122E-01 a       684     1     7     2     4
  1.3409774265352109E-01 a       685     1     7     2     5
 -1.2518847587020479E-01 a       686     1     7     2     6
  2.1074447018093470E-01 a       687     1     7     2     7
 -8.3765200939563011E-01 a       688     1     7     2     8
 -8.6409473893675690E-02 a       689     1     7     2     9
  1.9334311798965345E-01 a       690     1     7     2    10
 -7.3533467024365962E-01 a       691     1     7     2    11
 -1.6269576580321164E-02 a       692     1     7     2    12
 -2.5083939834088748E-01 a       693     1     7     2    13
 -6.5383707914755340E-01 a       694     1     7     2    14
 -8.3104548669192890E-01 a       695     1     7     2    15
 -1.0454283036399073E-01 a       696     1     7     2    16
 -3.7732959976886177E-01 a       697     1     7     2    17
 -2.8839951379906659E-01 a       698     1     7     2    18
  1.8228035779234050E-01 a       699     1     7     2    19
  5.3165336763338589E-01 a       700     1     7     2    20
 -5.1202533962508257E-01 a       701     1     8     2     1
  3.0836958862686964E-01 a       702     1     8     2     2
 -4.2532683547593303E-01 a       703     1     8     2     3
  2.6702367411085343E-01 a       704     1     8     2     4
 -6.5548562559990187E-01 a       705     1     8     2     5
  5.5078372280759591E-01 a       706     1     8     2     6
  3.6999447326304730E-01 a       707     1     8     2     7
  6.0227301959106350E-01 a       708     1     8     2     8
  1.3979850080923082E+00 a       709     1     8     2     9
 -4.0090818121089183E-01 a       710     1     8     2    10
  7.8959698509788590E-01 a       711     1     8     2    11
  3.9465887594781496E-01 a       712     1     8     2    12
  3.9749514983606160E-01 a       713     1     8     2    13
 -5.7430460961279750E-01 a       714     1     8     2    14
  2.6793806015502913E-01 a       715     1     8     2    15
 -5.7290137242695538E-01 a       716     1     8     2    16
 -6.3706461778660173E-01 a       717     1     8     2    17
 -3.1303973798096546E-01 a       718     1     8     2    18
 -1.2933435339017885E-01 a       719     1     8     2    19
  2.4165139914346481E-01 a       720     1     8     2    20
 -2.0058140712718986E-01 a       721     1     9     2     1
  2.2177848467233749E-01 a       722     1     9     2     2
 -1.8306886376654533E-01 a       723     1     9     2     3
 -3.9606918413333531E-01 a       724     1     9     2     4
  3.4402205975478450E-01 a       725     1     9     2     5
 -3.9588684184071349E-01 a       726     1     9     2     6
  4.0863833902551194E-01 a       727     1     9     2     7
  2.0237879648700741E-01 a       728     1     9     2     8
 -8.6170955512479364E-01 a       729     1     9     2     9
 -4.2243553881665036E-01 a       730     1     9     2    10
 -4.9385426173961980E-02 a       731     1     9     2    11
 -1.0497729074572450E-02 a       732     1     9     2    12
 -3.5289961489276622E-01 a       733     1     9     2    13
 -7.0570069549975833E-01 a       734     1     9     2    14
  1.9836161042007325E-01 a       735     1     9     2    15
 -2.8024531174211803E-01 a       736     1     9     2    16
  8.9772669722886667E-02 a       737     1     9     2    17
 -7.1435706793150633E-01 a       738     1     9     2    18
  2.0029908810540276E-01 a       739     1     9     2    19
  9.0603821962311759E-01 a       740     1     9     2    20
  4.2261681883968866E-01 a       741     1    10     2     1
  1.5995390935151776E-01 a       742     1    10     2     2
  7.1323892850849746E-01 a       743     1    10     2     3
 -5.2993939989138705E-01 a       744     1    10     2     4
  4.8872648122836410E-01 a       745     1    10     2     5
 -5.8228455147978830E-01 a       746     1    10     2     6
  1.7953590070830286E-01 a       747     1    10     2     7
  1.0574213975396221E-02 a       748     1    10     2     8
  1.1840712489048553E+00 a       749     1    10     2     9
  3.8604613192517118E-01 a       750     1    10     2    10
  3.0346642414521757E-02 a       751     1    10     2    11
  9.3787721106727417E-01 a       752     1    10     2    12
  7.1699517462780071E-01 a       753     1    10     2    13
  6.1575985221976304E-01 a       754     1    10     2    14
  3.7919466933953661E-01 a       755     1    10     2    15
 -3.6885297616986978E-01 a       756     1    10     2    16
  2.9937693974460422E-01 a       757     1    10     2    17
  1.9551285761194337E-01 a       758     1    10     2    18
  1.7189002728581598E-01 a       759     1    10     2    19
 -4.7124980239057823E-01 a       760     1    10     2    20
 -2.5802003269605189E-01 a       761     1    11     2     1
  6.4574870213275037E-01 a       762     1    11     2     2
  6.3623351350499635E-01 a       763     1    11     2     3
 -8.7827861979782235E-02 a       764     1    11     2     4
 -4.8505317276042348E-01 a       765     1    11     2     5
  9.9898977866976091E-01 a       766     1    11     2     6
 -3.8105947740560470E-01 a       767     1    11     2     7
  1.9474487199115081E-01 a       768     1    11     2     8
  6.1771448087777647E-01 a       769     1    11     2     9
 -4.3264288055620892E-01 a       770     1    11     2    10
 -4.8087244693313513E-01 a       771     1    11     2    11
  2.7927917780670043E-02 a       772     1    11     2    12
 -4.1063449790522888E-01 a       773     1    11     2    13
 -2.7311251121401764E-01 a       774     1    11     2    14
 -4.5192062911951614E-01 a       775     1    11     2    15
  2.4377527777737598E-01 a       776     1    11     2    16
 -2.8083368721334201E-01 a       777     1    11     2    17
 -8.3183608730362346E-01 a       778     1    11     2    18
  1.9628158761415504E-01 a       779     1    11     2    19
  7.1467319958119291E-01 a       780     1    11     2    20
  4.9311786594639273E-01 a       781     1    12     2     1
 -4.0012384190301414E-01 a       782     1    12     2     2
  4.5906768406875620E-01 a       783     1    12     2     3
 -3.8423584605805799E-01 a       784     1    12     2     4
  3.3604538544765938E-01 a       785     1    12     2     5
  2.9640519693443096E-01 a       786     1    12     2     6
  2.7792760070858796E-01 a       787     1    12     2     7
  1.0733778545418822E-01 a       788     1    12     2     8
 -2.6960095472569678E-01 a       789     1    12     2     9
  1.1397724451241960E-01 a       790     1    12     2    10
  3.6548897800934432E-01 a       791     1    12     2    11
  4.2337435157164960E-01 a       792     1    12     2    12
  4.8053553063452087E-01 a       793     1    12     2    13
  1.9561445541084483E-02 a       794     1    12     2    14
 -2.0331930412167928E-01 a       795     1    12     2    15
  5.0274037794953992E-02 a       796     1    12     2    16
 -2.7322824382107946E-01 a       797     1    12     2    17
 -2.1700173211905388E-01 a       798     1    12     2    18
 -9.0071823409601393E-03 a       799     1    12     2    19
  2.5498411326574494E-01 a       800     1    12     2    20
  1.9301154894151815E-01 a       801     1    13     2     1
  5.6943414668015979E-01 a       802     1    13     2     2
 -3.6633979288572532E-01 a       803     1    13     2     3
  6.0785937713050930E-01 a       804     1    13     2     4
 -1.0016843520836621E-01 a       805     1    13     2     5
 -4.0021914215113608E-01 a       806     1    13     2     6
  8.0084375012153042E-01 a       807     1    13     2     7
 -4.1625518847252241E-01 a       808     1    13     2     8
 -5.6591261341948129E-01 a       809     1    13     2     9
 -8.5165749287255260E-02 a       810     1    13     2    10
 -3.0564933922068527E-01 a       811     1    13     2    11
  1.5546604421937565E-01 a       812     1    13     2    12
 -3.0635827368945995E-01 a       813     1    13     2    13
  2.4514213239929972E-01 a       814     1    13     2    14
  7.0719101103230694E-02 a       815     1    13     2    15
 -2.3881372731242041E-02 a       816     1    13     2    16
  2.5372674847212340E-01 a       817     1    13     2    17
 -6.2950698002892180E-01 a       818     1    13     2    18
  4.4779246251798091E-02 a       819     1    13     2    19
  2.9371894162703771E-01 a       820     1    13     2    20
  7.1340739921212337E-01 a       821     1    14     2     1
 -2.4627907935894261E-01 a       822     1    14     2     2
 -4.0279239570447090E-01 a       823     1    14     2     3
  5.5816632273291789E-01 a       824     1    14     2     4
 -8.7667785768662132E-02 a       825     1    14     2     5
  4.2443181722445966E-01 a       826     1    14     2     6
 -1.8855755288637022E-01 a       827     1    14     2     7
 -3.7529294770685118E-01 a       828     1    14     2     8
 -7.4026789835608953E-01 a       829     1    14     2     9
  4.7339269333957516E-03 a       830     1    14     2    10
 -6.8730721855348564E-01 a       831     1    14     2    11
  1.1502812481396325E+00 a       832     1    14     2    12
  2.5901460467115234E-01 a       833     1    14     2    13
  5.3200497105017697E-01 a       834     1    14     2    14
 -6.8865548740413418E-01 a       835     1    14     2    15
 -2.2438506604199870E-01 a       836     1    14     2    16
 -9.6579873504345996E-03 a       837     1    14     2    17
 -2.7724580755318706E-01 a       838     1    14     2    18
 -5.9851886676761856E-01 a       839     1    14     2    19
  4.1970000651869654E-01 a       840     1    14     2    20
  4.1094102536793725E-01 a       841     1    15     2     1
  4.5072227024737327E-01 a       842     1    15     2     2
  3.5566689899520726E-01 a       843     1    15     2     3
  4.5545274872727670E-01 a       844     1    15     2     4
 -7.1309923966771482E-01 a       845     1    15     2     5
 -2.4627658392699620E-01 a       846     1    15     2     6
  1.4013259817663273E-01 a       847     1    15     2     7
 -5.0943276890272206E-02 a       848     1    15     2     8
 -3.9138702635046638E-02 a       849     1    15     2     9
  5.0578974231541496E-01 a       850     1    15     2    10
  1.2524085223647863E-01 a       851     1    15     2    11
 -1.1539889509271545E-01 a       852     1    15     2    12
 -6.0944324759829582E-01 a       853     1    15     2    13
  5.4703945528875542E-01 a       854     1    15     2    14
 -6.9578345086652316E-01 a       855     1    15     2    15
 -2.6883326163516280E-01 a       856     1    15     2    16
  6.4780015274081715E-01 a       857     1    15     2    17
 -7.0413007857980425E-01 a       858     1    15     2    18
 -2.5500343195407316E-01 a       859     1    15     2    19
 -5.4515231928179742E-01 a       860     1    15     2    20
  5.9737372626437725E-02 a       861     1    16     2     1
  9.2933412672942875E-02 a       862     1    16     2     2
  2.1555997156711779E-01 a       863     1    16     2     3
  6.3128229417016402E-01 a       864     1    16     2     4
 -8.7499573705136868E-01 a       865     1    16     2     5
 -2.1016020996868418E-01 a       866     1    16     2     6
 -3.4977632852172735E-01 a       867     1    16     2     7
  1.8700574281722313E-01 a       868     1    16     2     8
  1.9798337085992671E-01 a       869     1    16     2     9
 -5.6622186002374737E-02 a       870     1    16     2    10
 -1.8633482904569953E-01 a       871     1    16     2    11
  3.6606081581768513E-01 a       872     1    16     2    12
  5.9467529388329365E-01 a       873     1    16     2    13
  1.0826340650340704E-01 a       874     1    16     2    14
 -4.7987533108938651E-01 a       875     1    16     2    15
 -6.9424697429909676E-01 a       876     1    16     2    16
  2.5313845329122082E-02 a       877     1    16     2    17
  5.2215165045634337E-02 a       878     1    16     2    18
 -5.8401591040961230E-02 a       879     1    16     2    19
 -3.5321829305742086E-01 a       880     1    16     2    20
 -1.1590952205637976E-01 a       881     1    17     2     1
  4.5505657490953716E-01 a       882     1    17     2     2
 -6.7769305275602854E-01 a       883     1    17     2     3
 -7.9491772534834360E-02 a       884     1    17     2     4
  3.3528136850548029E-01 a       885     1    17     2     5
 -2.1470845708694161E-01 a       886     1    17     2     6
  6.3657678388780747E-01 a       887     1    17     2     7
  2.0445972169636475E-01 a       888     1    17     2     8
 -2.4544167206310802E-01 a       889     1    17     2     9
 -2.7269021764694351E-01 a       890     1    17     2    10
 -5.3000123550956166E-02 a       891     1    17     2    11
 -9.7804970838332583E-01 a       892     1    17     2    12
 -4.0754934967311324E-01 a       893     1    17     2    13
 -2.3020990602464123E-01 a       894     1    17     2    14
  3.7644630423880604E-01 a       895     1    17     2    15
 -6.1863287080285123E-01 a       896     1    17     2    16
 -4.8889436065355751E-01 a       897     1    17     2    17
  4.3729425040004150E-01 a       898     1    17     2    18
 -2.8158924747080497E-02 a       899     1    17     2    19
 -4.3217241243223065E-01 a       900     1    17     2    20
  1.8831749457606270E-01 a       901     1    18     2     1
  4.1876135426017608E-01 a       902     1    18     2     2
 -1.8031482789787193E-01 a       903     1    18     2     3
 -3.9624989684468960E-02 a       904     1    18     2     4
  6.8250866342098385E-02 a       905     1    18     2     5
 -3.0676949137354054E-01 a       906     1    18     2     6
  3.1230090152914231E-01 a       907     1    18     2     7
 -6.5710229319643954E-01 a       908     1    18     2     8
 -7.8359801035400314E-02 a       909     1    18     2     9
  1.5685942647294165E-01 a       910     1    18     2    10
 -2.9497070165519357E-01 a       911     1    18     2    11
  9.0835566006805146E-01 a       912     1    18     2    12
 -3.9199127640801246E-02 a       913     1    18     2    13
  2.3157355324929996E-01 a       914     1    18     2    14
 -6.0525696381830210E-02 a       915     1    18     2    15
  3.4252814491303080E-01 a       916     1    18     2    16
 -7.9305639406643325E-01 a       917     1    18     2    17
  7.6850319734434555E-02 a       918     1    18     2    18
  3.2556106130136558E-01 a       919     1    18     2    19
  3.9979700866363482E-01 a       920     1    18     2    20
 -3.9947704682617641E-01 a       921     1    19     2     1
  2.0006887983812421E-01 a       922     1    19     2     2
 -2.7343308425055179E-01 a       923     1    19     2     3
 -4.1025863244380567E-01 a       924     1    19     2     4
  2.8426796010781608E-01 a       925     1    19     2     5
  1.6692290511381597E-01 a       926     1    19     2     6
  4.6150911712446491E-01 a       927     1    19     2     7
  1.9572515731553763E-01 a       928     1    19     2     8
  2.5142474874695386E-01 a       929     1    19     2     9
 -1.2391774587378773E-01 a       930     1    19     2    10
  2.1163239210584241E-02 a       931     1    19     2    11
  6.9522034621172535E-01 a       932     1    19     2    12
  1.3009374582455602E-01 a       933     1    19     2    13
 -2.1087112793592111E-01 a       934     1    19     2    14
 -4.1788789078539434E-01 a       935     1    19     2    15
  1.9888648383032295E-01 a       936     1    19     2    16
 -7.4843650898400604E-01 a       937     1    19     2    17
  5.6282477412719856E-01 a       938     1    19     2    18
  3.5528992660877456E-01 a       939     1    19     2    19
  5.7911566154712291E-01 a       940     1    19     2    20
 -1.9894510122454784E-01 a       941     1    20     2     1
  2.8671780495424620E-01 a       942     1    20     2     2
 -4.8874765716828034E-01 a       943     1    20     2     3
 -4.1280305071880535E-01 a       944     1    20     2     4
  7.0901697673688902E-01 a       945     1    20     2     5
  1.0036413320555798E-01 a       946     1    20     2     6
  4.3016703051519745E-01 a       947     1    20     2     7
  7.1889018451592634E-01 a       948     1    20     2     8
 -1.0138367258590271E+00 a       949     1    20     2     9
  2.2162250823895970E-02 a       950     1    20     2    10
 -3.2938207756914745E-01 a       951     1    20     2    11
  1.3737474733630287E-01 a       952     1    20     2    12
  2.9922633688502914E-01 a       953     1    20     2    13
  7.2739715785738379E-01 a       954     1    20     2    14
 -5.5390889406225906E-02 a       955     1    20     2    15
 -5.2334920159926113E-01 a       956     1    20     2    16
  6.2287701032086043E-02 a       957     1    20     2    17
  9.8248541998337491E-01 a       958     1    20     2    18
 -1.2194177268999272E-01 a       959     1    20     2    19
  3.9865478481666279E-02 a       960     1    20     2    20
 -6.5477098857616411E-01 b       961     2     1
 -1.6834497851353465E+00 b       962     2     2
 -4.8160349214793285E-01 b       963     2     3
 -1.0602292237332160E+00 b       964     2     4
  9.8901602994052040E-01 b       965     2     5
 -2.4085255161969159E+00 b       966     2     6
 -9.9569681271707719E-02 b       967     2     7
 -9.6254215991210523E-01 b       968     2     8
 -1.8707179428387031E+00 b       969     2     9
 -8.3244837645847269E-01 b       970     2    10
  1.0129635553945640E+00 b       971     2    11
  1.2214152015377910E+00 b       972     2    12
  1.1306993101060830E-01 b       973     2    13
  4.7950518035695011E-01 b       974     2    14
 -4.1934984712122847E-01 b       975     2    15
 -1.1864056783600614E+00 b       976     2    16
 -1.9980008145302477E-01 b       977     2    17
 -7.7712320591482886E-01 b       978     2    18
  1.1082523019859540E+00 b       979     2    19
  3.5995129457058039E-01 b       980     2    20
 -2.0337823311507424E+00 a       981     2     1     3     1
 -2.1509869583429091E+00 a       982     2     2     3     1
 -5.1774517517652829E-01 a       983     2     3     3     1
 -1.5184183199469239E+00 a       984     2     4     3     1
  1.0385567315025761E+00 a       985     2     5     3     1
 -1.0769444586899144E+00 a       986     2     6     3     1
  2.6709441963383856E-02 a       987     2     7     3     1
  4.8763821932004614E-01 a       988     2     8     3     1
 -6.1355059642498966E-01 a       989     2     9     3     1
 -1.4656078846010521E+00 a       990     2    10     3     1
  1.8532411920654084E+00 a       991     2    11     3     1
  1.5344034992068247E+00 a       992     2    12     3     1
  1.2209578591637498E+00 a       993     2    13     3     1
  1.2452163664590070E+00 a       994     2    14     3     1
  1.8453442644123617E+00 a       995     2    15     3     1
 -1.9556320636657514E+00 a       996     2    16     3     1
  3.4461168445885726E-01 a       997     2    17     3     1
  2.5200443677839739E+00 a       998     2    18     3     1
  6.9741280579875264E-01 a       999     2    19     3     1
 -1.0232591712792534E+00 a      1000     2    20     3     1
  1.8809356052901032E+00 b      1001     3     1
