################################################################################
# Neural network connection values (weights and biases).
################################################################################
# Col  Name       Description
################################################################################
# 1    connection Neural network connection value.
# 2    t          Connection type (a = weight, b = bias).
# 3    index      Index enumerating weights.
# 4    l_s        Starting point layer (end point layer for biases).
# 5    n_s        Starting point neuron in starting layer (end point neuron for biases).
# 6    l_e        End point layer.
# 7    n_e        End point neuron in end layer.
################################################################################
#                      1 2         3     4     5     6     7
#             connection t     index   l_s   n_s   l_e   n_e
############################################################
  2.7502994153200883E-01 a         1     0     1     1     1
 -3.0401068281940713E-01 a         2     0     1     1     2
 -6.0371173371977727E-01 a         3     0     1     1     3
 -7.4229704095505666E-02 a         4     0     1     1     4
  8.1114532764409372E-02 a         5     0     1     1     5
 -3.9257272896931017E-01 a         6     0     1     1     6
 -1.0919650205285280E-02 a         7     0     1     1     7
 -5.5808176892682559E-01 a         8     0     1     1     8
 -6.9306958807405894E-02 a         9     0     1     1     9
  9.5066594823883110E-01 a        10     0     1     1    10
  4.6715933167107415E-01 a        11     0     1     1    11
  3.0026515324918440E-01 a        12     0     1     1    12
 -1.0758515828189212E+00 a        13     0     1     1    13
 -1.0181859886345574E+00 a        14     0     1     1    14
  1.7027179599332007E-01 a        15     0     1     1    15
  3.1136687880668177E-02 a        16     0     1     1    16
  5.3305900541053730E-01 a        17     0     1     1    17
 -1.7878809567708437E-01 a        18     0     1     1    18
  3.3188979474440555E-01 a        19     0     1     1    19
 -1.1256627911359529E+00 a        20     0     1     1    20
  2.4613256246378068E-01 a        21     0     2     1     1
 -1.0015108979083445E-01 a        22     0     2     1     2
  2.0344292612014838E+00 a        23     0     2     1     3
  1.2733195081509519E-01 a        24     0     2     1     4
 -5.6788464753381473E-01 a        25     0     2     1     5
 -2.2423801713881728E-02 a        26     0     2     1     6
 -3.2771261408810942E-01 a        27     0     2     1     7
  5.4660017479570233E-01 a        28     0     2     1     8
 -1.2282041418605479E-01 a        29     0     2     1     9
 -5.4766741918675377E-01 a        30     0     2     1    10
 -4.2678665102849805E-01 a        31     0     2     1    11
 -6.0021872541834576E-01 a        32     0     2     1    12
  1.0565985556503934E+00 a        33     0     2     1    13
  8.9697901997232021E-01 a        34     0     2     1    14
  1.4872739937208808E-02 a        35     0     2     1    15
  4.4991706147652973E-02 a        36     0     2     1    16
 -5.6315952067888309E-01 a        37     0     2     1    17
  5.4565082310347797E-02 a        38     0     2     1    18
  2.5894956776225619E-01 a        39     0     2     1    19
  1.3781883718112560E+00 a        40     0     2     1    20
 -2.4929999648287285E-01 a        41     0     3     1     1
  8.0243602634214969E-02 a        42     0     3     1     2
 -6.3912201677553815E-01 a        43     0     3     1     3
 -9.9320510045967189E-02 a        44     0     3     1     4
 -2.2738439493891391E-01 a        45     0     3     1     5
 -4.5068165092967932E-01 a        46     0     3     1     6
 -1.1190254498213309E-01 a        47     0     3     1     7
 -2.7220460905014715E-01 a        48     0     3     1     8
 -3.7155496184793574E-01 a        49     0     3     1     9
 -1.5288565355862332E-01 a        50     0     3     1    10
  1.6709517028215090E-01 a        51     0     3     1    11
 -1.2891896400249886E-01 a        52     0     3     1    12
  3.9176114191583089E-01 a        53     0     3     1    13
  3.7471626021418880E-01 a        54     0     3     1    14
  1.1611127238371555E-01 a        55     0     3     1    15
 -2.3654328456638246E-01 a        56     0     3     1    16
  1.1244760494335898E-01 a        57     0     3     1    17
 -1.5416929265363652E-01 a        58     0     3     1    18
 -2.9746596918001195E-01 a        59     0     3     1    19
 -1.9074005158904925E-01 a        60     0     3     1    20
 -6.4216484550897779E-01 a        61     0     4     1     1
  2.0344092310379033E-01 a        62     0     4     1     2
 -6.6397320938454940E-01 a        63     0     4     1     3
  5.1090819029841528E-01 a        64     0     4     1     4
 -4.8754465824823075E-02 a        65     0     4     1     5
  9.9557641156895360E-01 a        66     0     4     1     6
  6.4297201523073111E-02 a        67     0     4     1     7
  6.2910302381742156E-01 a        68     0     4     1     8
  5.7208384241519117E-01 a        69     0     4     1     9
  6.8335717868458226E-02 a        70     0     4     1    10
  9.9567201448422918E-02 a        71     0     4     1    11
  4.0493808452560676E-01 a        72     0     4     1    12
 -2.7793027333040293E-01 a        73     0     4     1    13
  1.4930701964452953E-01 a        74     0     4     1    14
 -1.7710531814071220E-01 a        75     0     4     1    15
  6.9605047585559798E-02 a        76     0     4     1    16
  6.6235275370043513E-03 a        77     0     4     1    17
  2.0085179075841253E-01 a        78     0     4     1    18
 -2.4298456618363731E-01 a        79     0     4     1    19
  8.5936436290789042E-01 a        80     0     4     1    20
  3.6079074958439172E-01 a        81     0     5     1     1
 -4.9475081641831836E-01 a        82     0     5     1     2
  5.1792786049443651E-01 a        83     0     5     1     3
  3.9212454500830335E-01 a        84     0     5     1     4
 -1.5861751605818212E-02 a        85     0     5     1     5
 -4.1448146872510488E-01 a        86     0     5     1     6
  6.7733666313981276E-04 a        87     0     5     1     7
 -1.0669077631198753E-01 a        88     0     5     1     8
  2.8494235886844427E-01 a        89     0     5     1     9
 -1.4409353160474161E-01 a        90     0     5     1    10
 -3.5179619566681763E-01 a        91     0     5     1    11
  4.4783382115686290E-02 a        92     0     5     1    12
  2.4988423746576963E-01 a        93     0     5     1    13
  1.8034418508678890E-01 a        94     0     5     1    14
 -2.1615613712391629E-01 a        95     0     5     1    15
  5.4597691856057773E-01 a        96     0     5     1    16
 -1.2008466155977215E-01 a        97     0     5     1    17
 -4.4316921479508631E-01 a        98     0     5     1    18
 -8.6930063221177287E-02 a        99     0     5     1    19
 -4.3890007950533622E-01 a       100     0     5     1    20
  5.1269812965766037E-01 a       101     0     6     1     1
 -4.9383835914801927E-01 a       102     0     6     1     2
  8.3173546457916678E-02 a       103     0     6     1     3
  5.2286088238426461E-02 a       104     0     6     1     4
  2.2785917698046089E-03 a       105     0     6     1     5
  2.3207619788804082E-01 a       106     0     6     1     6
  5.8419028455844929E-02 a       107     0     6     1     7
 -1.8824678995131341E-01 a       108     0     6     1     8
 -2.3674124550704886E-02 a       109     0     6     1     9
  6.0395999235200759E-01 a       110     0     6     1    10
  3.5583907069366921E-01 a       111     0     6     1    11
  1.3348896776201233E-01 a       112     0     6     1    12
 -4.7314463900924403E-01 a       113     0     6     1    13
 -4.2002607541508702E-01 a       114     0     6     1    14
  6.0302504481205388E-01 a       115     0     6     1    15
  4.9546874548527309E-01 a       116     0     6     1    16
 -3.4496954502755854E-02 a       117     0     6     1    17
 -1.8061922033256499E-02 a       118     0     6     1    18
 -3.3972297272399232E-01 a       119     0     6     1    19
  2.8277074015552281E-02 a       120     0     6     1    20
 -5.7105122276268860E-01 a       121     0     7     1     1
 -5.7457196854220759E-02 a       122     0     7     1     2
  4.7191806904012634E-01 a       123     0     7     1     3
  2.7772671955894629E-01 a       124     0     7     1     4
  2.1342703724140055E-01 a       125     0     7     1     5
 -5.7492798170927562E-01 a       126     0     7     1     6
  1.3273133013902566E-01 a       127     0     7     1     7
  6.1285454752408930E-01 a       128     0     7     1     8
 -4.1184310786831663E-01 a       129     0     7     1     9
 -6.2762453386981373E-02 a       130     0     7     1    10
 -3.3976671964150817E-01 a       131     0     7     1    11
  4.7828497496384287E-01 a       132     0     7     1    12
 -6.8965772209293397E-01 a       133     0     7     1    13
 -7.0457472634442120E-01 a       134     0     7     1    14
  2.2680454465029393E-02 a       135     0     7     1    15
 -4.8692200280513009E-01 a       136     0     7     1    16
 -7.3074854748643822E-02 a       137     0     7     1    17
  1.6119172666205334E-01 a       138     0     7     1    18
  8.1759081299412964E-02 a       139     0     7     1    19
 -1.8143804081469134E-01 a       140     0     7     1    20
 -3.7585443650963873E-01 a       141     0     8     1     1
 -8.4046568636602159E-01 a       142     0     8     1     2
  4.1193185014736944E-01 a       143     0     8     1     3
  8.6373323350639672E-02 a       144     0     8     1     4
  2.0499158386362487E-01 a       145     0     8     1     5
 -5.5718665703523396E-01 a       146     0     8     1     6
  8.0382926120234777E-01 a       147     0     8     1     7
 -9.5850903871811097E-02 a       148     0     8     1     8
 -3.1343634102845519E-01 a       149     0     8     1     9
 -3.6539195315869410E-01 a       150     0     8     1    10
 -6.2034521818725463E-01 a       151     0     8     1    11
  3.8083684482055624E-02 a       152     0     8     1    12
  3.2347872722198795E-01 a       153     0     8     1    13
 -1.8852269563152702E-01 a       154     0     8     1    14
 -1.6056385511841544E-02 a       155     0     8     1    15
 -2.8728876669104375E-01 a       156     0     8     1    16
 -2.4088304256124404E-02 a       157     0     8     1    17
 -2.2399121624543067E-01 a       158     0     8     1    18
  3.1352527651669826E-01 a       159     0     8     1    19
 -5.2642308758028300E-01 a       160     0     8     1    20
 -7.2977682554075607E-02 a       161     0     9     1     1
  3.9974471840948861E-01 a       162     0     9     1     2
  2.5295238584028745E-01 a       163     0     9     1     3
  1.8649314903374251E-01 a       164     0     9     1     4
 -2.6973607103892472E-01 a       165     0     9     1     5
  5.9504185821668620E-01 a       166     0     9     1     6
 -8.5990892551774806E-02 a       167     0     9     1     7
  1.0496165594498902E-01 a       168     0     9     1     8
  1.6132693908523232E-01 a       169     0     9     1     9
  4.7059242258609646E-01 a       170     0     9     1    10
  7.9727182107761450E-03 a       171     0     9     1    11
  1.8106913011347173E-01 a       172     0     9     1    12
 -3.3376176374739358E-03 a       173     0     9     1    13
  4.2495418781661111E-02 a       174     0     9     1    14
  5.3363131651811307E-02 a       175     0     9     1    15
  3.9195565036698049E-01 a       176     0     9     1    16
 -6.7952457685837603E-02 a       177     0     9     1    17
 -1.5359084259032621E-01 a       178     0     9     1    18
 -2.4396970232881207E-01 a       179     0     9     1    19
  7.6579335810453997E-01 a       180     0     9     1    20
  9.6032031411039508E-03 a       181     0    10     1     1
 -1.9305757693505579E-01 a       182     0    10     1     2
  5.8828185224639199E-03 a       183     0    10     1     3
 -2.0361785141175734E-01 a       184     0    10     1     4
  4.8212629544226948E-02 a       185     0    10     1     5
  3.6823698168279961E-01 a       186     0    10     1     6
 -3.0111530999301833E-01 a       187     0    10     1     7
  1.6765139622837474E-01 a       188     0    10     1     8
  1.6955272940290356E-01 a       189     0    10     1     9
  1.0030103667136074E-01 a       190     0    10     1    10
  1.5713036508252234E-01 a       191     0    10     1    11
  6.0778015460334041E-03 a       192     0    10     1    12
  1.4058576477238555E-01 a       193     0    10     1    13
  6.2992161787022172E-01 a       194     0    10     1    14
 -2.2027999850290406E-01 a       195     0    10     1    15
  3.7364739066639124E-01 a       196     0    10     1    16
  2.5997492220759272E-01 a       197     0    10     1    17
  3.7272758467600409E-01 a       198     0    10     1    18
 -2.3433803951029006E-01 a       199     0    10     1    19
  4.6503041805975598E-01 a       200     0    10     1    20
  2.1374075101423423E-01 a       201     0    11     1     1
  3.9512406978331288E-01 a       202     0    11     1     2
 -1.8734247973343259E-02 a       203     0    11     1     3
 -1.5620653288514827E-01 a       204     0    11     1     4
 -2.3074259770048806E-02 a       205     0    11     1     5
  5.2569981291832768E-02 a       206     0    11     1     6
  2.8221099375362071E-02 a       207     0    11     1     7
  2.9739069705872168E-01 a       208     0    11     1     8
  1.4423487790331715E-01 a       209     0    11     1     9
 -1.2462203483813128E+00 a       210     0    11     1    10
 -2.6805171357865137E-01 a       211     0    11     1    11
  6.9746294696137834E-01 a       212     0    11     1    12
  2.1512708681329459E-01 a       213     0    11     1    13
 -3.4565151940054911E-02 a       214     0    11     1    14
  1.0965334630249728E+00 a       215     0    11     1    15
  6.6356668841284372E-01 a       216     0    11     1    16
 -2.5915154412397373E-01 a       217     0    11     1    17
  2.3119486494571535E-02 a       218     0    11     1    18
 -1.1436584343311679E-01 a       219     0    11     1    19
  2.5087154112023006E-02 a       220     0    11     1    20
  2.7677298930704582E-02 a       221     0    12     1     1
  5.5399778279315892E-01 a       222     0    12     1     2
 -1.4763792489862079E-01 a       223     0    12     1     3
  2.2202213495235235E-01 a       224     0    12     1     4
  2.2624512745403719E-01 a       225     0    12     1     5
 -3.3032403880203653E-01 a       226     0    12     1     6
 -4.2733586058996986E-01 a       227     0    12     1     7
 -2.6360151753482058E-01 a       228     0    12     1     8
  2.5647392645258371E-01 a       229     0    12     1     9
 -1.7236053721645825E-01 a       230     0    12     1    10
  2.4067163125196317E-01 a       231     0    12     1    11
  2.2297360208611669E-01 a       232     0    12     1    12
  5.7996838725288477E-03 a       233     0    12     1    13
 -5.7694373715916569E-02 a       234     0    12     1    14
 -3.3717852631426209E-01 a       235     0    12     1    15
 -1.5728108242776614E-01 a       236     0    12     1    16
 -2.4926966645875390E-01 a       237     0    12     1    17
  2.6076351167738776E-01 a       238     0    12     1    18
 -2.0530715583885470E-01 a       239     0    12     1    19
 -3.0477625882178394E-01 a       240     0    12     1    20
 -3.0820095491298560E-01 a       241     0    13     1     1
 -3.0263469191845110E-01 a       242     0    13     1     2
  2.2259111978311269E-01 a       243     0    13     1     3
 -2.3628143463508630E-01 a       244     0    13     1     4
 -2.8475359523499838E-01 a       245     0    13     1     5
  1.4360396968602543E-01 a       246     0    13     1     6
  8.6634228305993932E-02 a       247     0    13     1     7
 -3.5434977226389092E-01 a       248     0    13     1     8
 -1.1417180032618479E-01 a       249     0    13     1     9
  1.1384875932351837E+00 a       250     0    13     1    10
 -6.8053332396130273E-01 a       251     0    13     1    11
 -3.2258390345189769E-01 a       252     0    13     1    12
 -1.0672997876821665E-01 a       253     0    13     1    13
  7.4803812915875723E-01 a       254     0    13     1    14
 -1.3708867199770602E-01 a       255     0    13     1    15
 -1.0232502110977011E+00 a       256     0    13     1    16
  2.1428082477495303E-01 a       257     0    13     1    17
 -4.7499036269542105E-01 a       258     0    13     1    18
 -6.3657269152391405E-01 a       259     0    13     1    19
  2.6832733350222226E-01 a       260     0    13     1    20
 -7.9852756631215627E-01 a       261     0    14     1     1
 -5.6356892627737099E-01 a       262     0    14     1     2
  7.7948405937549159E-01 a       263     0    14     1     3
  4.9048300318065724E-01 a       264     0    14     1     4
 -1.3801517651383524E-01 a       265     0    14     1     5
 -6.7023403383616853E-01 a       266     0    14     1     6
  4.9878844496534158E-01 a       267     0    14     1     7
  3.5595483475873968E-01 a       268     0    14     1     8
 -2.4443599685636186E-01 a       269     0    14     1     9
  3.6522614345114207E-01 a       270     0    14     1    10
 -1.1105908264735562E+00 a       271     0    14     1    11
  9.5960271906676928E-02 a       272     0    14     1    12
 -2.9560231198717135E-01 a       273     0    14     1    13
 -1.5668289471949842E-01 a       274     0    14     1    14
 -1.4813808479392396E-01 a       275     0    14     1    15
  3.8092883824406437E-01 a       276     0    14     1    16
  6.7729356781035355E-01 a       277     0    14     1    17
  4.3432627958049652E-01 a       278     0    14     1    18
  5.2429564288282138E-01 a       279     0    14     1    19
  1.5410421965633886E-01 a       280     0    14     1    20
  2.5424550699315190E-01 a       281     0    15     1     1
 -1.3738749846544401E-01 a       282     0    15     1     2
 -7.2181486854067967E-01 a       283     0    15     1     3
  7.8608944498491162E-01 a       284     0    15     1     4
  3.8240399955842441E-02 a       285     0    15     1     5
  7.7083734880497551E-02 a       286     0    15     1     6
 -1.7454165868679583E-01 a       287     0    15     1     7
  5.0438903903102594E-01 a       288     0    15     1     8
 -1.1340455928742974E-02 a       289     0    15     1     9
  1.6173918534695972E-01 a       290     0    15     1    10
  6.6522812397750763E-01 a       291     0    15     1    11
  2.3796486327254945E-01 a       292     0    15     1    12
 -6.1551930701142921E-01 a       293     0    15     1    13
  3.6941305260046098E-01 a       294     0    15     1    14
 -2.1694538219796169E-01 a       295     0    15     1    15
 -3.8723448469920291E-01 a       296     0    15     1    16
 -1.7895521314441445E-01 a       297     0    15     1    17
  3.7040423963395563E-01 a       298     0    15     1    18
  1.4253274666229452E+00 a       299     0    15     1    19
 -1.7623781988108109E-01 a       300     0    15     1    20
  1.8786069443008982E-01 a       301     0    16     1     1
 -6.1101034651524482E-03 a       302     0    16     1     2
 -9.1085239240810675E-02 a       303     0    16     1     3
 -4.3539265932815208E-01 a       304     0    16     1     4
  1.3297317154378466E-01 a       305     0    16     1     5
 -2.4903843708757648E-01 a       306     0    16     1     6
  9.8192409599637473E-02 a       307     0    16     1     7
  4.0344170404848179E-01 a       308     0    16     1     8
 -4.3090029094982329E-02 a       309     0    16     1     9
 -3.0616989358027097E-01 a       310     0    16     1    10
  6.4725370167825369E-01 a       311     0    16     1    11
 -1.3800978390245353E-01 a       312     0    16     1    12
 -1.5676962215238885E-01 a       313     0    16     1    13
  1.9556589933392313E-01 a       314     0    16     1    14
 -1.5961497986949166E-01 a       315     0    16     1    15
  9.2996498006923445E-02 a       316     0    16     1    16
 -7.7872954428170660E-02 a       317     0    16     1    17
 -1.2638767945786492E-01 a       318     0    16     1    18
 -1.6289026689022704E-01 a       319     0    16     1    19
 -4.6336944319391150E-02 a       320     0    16     1    20
 -1.5679562240059036E-01 a       321     0    17     1     1
  2.8665667888739016E-01 a       322     0    17     1     2
  2.5478103197899832E-01 a       323     0    17     1     3
 -3.2042368612595029E-01 a       324     0    17     1     4
 -4.9690762046025218E-02 a       325     0    17     1     5
  8.1371974362197938E-02 a       326     0    17     1     6
 -2.2659773562722177E-01 a       327     0    17     1     7
  3.7239656434633989E-01 a       328     0    17     1     8
  1.4083467056072135E-02 a       329     0    17     1     9
  2.3992235229157496E-02 a       330     0    17     1    10
 -3.3011617435311430E-01 a       331     0    17     1    11
 -5.3392500532294086E-02 a       332     0    17     1    12
  1.2624896440755637E-01 a       333     0    17     1    13
  3.2117959453011957E-01 a       334     0    17     1    14
 -3.7052455548304603E-01 a       335     0    17     1    15
 -5.1096577113527719E-02 a       336     0    17     1    16
 -3.2413933104602000E-02 a       337     0    17     1    17
  2.8880196877948072E-01 a       338     0    17     1    18
 -1.2207783323184182E-01 a       339     0    17     1    19
  1.6683277602581628E-01 a       340     0    17     1    20
  1.2178759387850374E-02 a       341     0    18     1     1
  5.1243263119011129E-01 a       342     0    18     1     2
 -7.0189635754992485E-02 a       343     0    18     1     3
 -4.2274312864310895E-02 a       344     0    18     1     4
  1.3597113220008641E-01 a       345     0    18     1     5
 -1.8472308000252340E-02 a       346     0    18     1     6
  1.1998088794562245E-01 a       347     0    18     1     7
 -6.2997923379161741E-02 a       348     0    18     1     8
 -6.9188395707503333E-02 a       349     0    18     1     9
 -3.3376911357773048E-01 a       350     0    18     1    10
 -6.9667641724928819E-01 a       351     0    18     1    11
  1.3282370949859873E-01 a       352     0    18     1    12
 -8.5172762025397697E-02 a       353     0    18     1    13
 -1.3929494074059920E-01 a       354     0    18     1    14
 -1.1801024691868366E-01 a       355     0    18     1    15
  1.4020967452623111E-03 a       356     0    18     1    16
 -1.6332500090196328E-01 a       357     0    18     1    17
  1.9108649899117469E-01 a       358     0    18     1    18
 -1.4779892972887579E-01 a       359     0    18     1    19
 -2.3962935044637029E-01 a       360     0    18     1    20
  4.3819695802916885E-02 a       361     0    19     1     1
 -7.0837044323930232E-02 a       362     0    19     1     2
  2.2551256294184269E-02 a       363     0    19     1     3
  1.8211462427668088E-01 a       364     0    19     1     4
  2.8612836029665040E-01 a       365     0    19     1     5
  2.1163882719778010E-01 a       366     0    19     1     6
 -1.1050500746530979E-01 a       367     0    19     1     7
  3.6418939491464780E-01 a       368     0    19     1     8
 -7.6789033013470245E-02 a       369     0    19     1     9
 -1.9366754544074946E-01 a       370     0    19     1    10
  1.2391501440537867E-01 a       371     0    19     1    11
 -1.3785129027356977E-01 a       372     0    19     1    12
  5.9510204160894671E-03 a       373     0    19     1    13
  4.7187794457608234E-02 a       374     0    19     1    14
  5.5492984824527310E-02 a       375     0    19     1    15
  1.5997530645870647E-01 a       376     0    19     1    16
 -1.1349479235447005E-02 a       377     0    19     1    17
 -5.1262616810026196E-02 a       378     0    19     1    18
 -1.3867110448913497E-01 a       379     0    19     1    19
  1.7208901817206740E-01 a       380     0    19     1    20
  3.6547935209002708E-03 a       381     0    20     1     1
 -2.2590171434331888E-01 a       382     0    20     1     2
 -8.0508877528683198E-01 a       383     0    20     1     3
 -4.5618352150569097E-01 a       384     0    20     1     4
  2.0605429378128695E-01 a       385     0    20     1     5
  1.3395492840155993E-01 a       386     0    20     1     6
  5.1729628913700998E-01 a       387     0    20     1     7
 -4.0309771595683591E-01 a       388     0    20     1     8
  4.6424872378977293E-02 a       389     0    20     1     9
 -4.6768433342278693E-03 a       390     0    20     1    10
  1.5427216053189468E+00 a       391     0    20     1    11
 -5.8006789492410649E-01 a       392     0    20     1    12
 -6.9016030846293222E-02 a       393     0    20     1    13
 -4.2284498740360034E-02 a       394     0    20     1    14
  2.9247522460998754E-01 a       395     0    20     1    15
 -5.6034158345307139E-01 a       396     0    20     1    16
  7.1497826046923141E-01 a       397     0    20     1    17
 -9.5888385683022964E-02 a       398     0    20     1    18
  3.4631551342031835E-01 a       399     0    20     1    19
 -2.1891388743477205E-01 a       400     0    20     1    20
  2.3604573912976218E-01 a       401     0    21     1     1
  1.9075119518867409E-01 a       402     0    21     1     2
  4.8089262188372305E-02 a       403     0    21     1     3
 -4.6360582142127509E-02 a       404     0    21     1     4
  5.2008172553353361E-02 a       405     0    21     1     5
  2.8782082611864318E-01 a       406     0    21     1     6
 -1.1558776781445811E-02 a       407     0    21     1     7
 -1.5553357174345102E-03 a       408     0    21     1     8
 -1.1364435258611066E-01 a       409     0    21     1     9
 -5.8478049602299531E-01 a       410     0    21     1    10
 -2.8334598343109477E-02 a       411     0    21     1    11
 -4.9626785322023503E-01 a       412     0    21     1    12
  5.6973590575680055E-01 a       413     0    21     1    13
 -6.4329188645887395E-02 a       414     0    21     1    14
 -1.3267370535939768E-01 a       415     0    21     1    15
 -7.4574587996213332E-02 a       416     0    21     1    16
 -2.7413454108521729E-01 a       417     0    21     1    17
  6.7681416947724213E-02 a       418     0    21     1    18
  4.4011459241567619E-01 a       419     0    21     1    19
  3.5628230113484727E-01 a       420     0    21     1    20
  1.6744695170210122E-01 a       421     0    22     1     1
 -2.8802837922932267E-02 a       422     0    22     1     2
 -2.8631628672935155E-01 a       423     0    22     1     3
  5.1360720207713428E-02 a       424     0    22     1     4
 -5.1047286512743451E-01 a       425     0    22     1     5
 -4.3126191928349655E-01 a       426     0    22     1     6
 -4.0174746415537010E-01 a       427     0    22     1     7
 -1.5408225666568343E-01 a       428     0    22     1     8
  1.2524771582079350E-01 a       429     0    22     1     9
  2.3434077029977404E-01 a       430     0    22     1    10
  8.3897307545304078E-01 a       431     0    22     1    11
 -1.6439164818560208E-02 a       432     0    22     1    12
 -2.1507142481044811E-01 a       433     0    22     1    13
 -1.4558381664701362E-02 a       434     0    22     1    14
  1.1995215752892650E-01 a       435     0    22     1    15
 -4.4774611494042944E-02 a       436     0    22     1    16
  2.8179243130225473E-01 a       437     0    22     1    17
  5.0620948328500892E-02 a       438     0    22     1    18
  1.2225057820603887E-01 a       439     0    22     1    19
 -3.8689281267833875E-01 a       440     0    22     1    20
 -1.7968460086981680E-01 a       441     0    23     1     1
  1.4124247324630682E-01 a       442     0    23     1     2
 -2.8274434496478795E-01 a       443     0    23     1     3
 -9.6064172829660996E-02 a       444     0    23     1     4
 -3.1890325032614647E-01 a       445     0    23     1     5
  4.5856435732707218E-01 a       446     0    23     1     6
  1.6831004145197101E-01 a       447     0    23     1     7
 -1.9579090574429509E-01 a       448     0    23     1     8
  2.0645839492250850E-01 a       449     0    23     1     9
  1.1029590294048672E+00 a       450     0    23     1    10
 -4.8159777664513254E-01 a       451     0    23     1    11
 -1.2892535149922524E-01 a       452     0    23     1    12
 -4.3762491444286844E-02 a       453     0    23     1    13
  1.9427866070270400E-01 a       454     0    23     1    14
  3.9146133197053061E-02 a       455     0    23     1    15
  1.1092085557603465E-02 a       456     0    23     1    16
 -1.9690453686986123E-01 a       457     0    23     1    17
 -3.5890482540925817E-01 a       458     0    23     1    18
 -2.3224338322013199E-01 a       459     0    23     1    19
 -1.2352165269314877E-01 a       460     0    23     1    20
 -9.1490843699388050E-02 a       461     0    24     1     1
 -1.9161641824014972E-01 a       462     0    24     1     2
  3.3453637072593606E-01 a       463     0    24     1     3
 -9.0270524711585157E-02 a       464     0    24     1     4
 -1.7510730491298560E-01 a       465     0    24     1     5
 -1.7969847974127781E-01 a       466     0    24     1     6
 -4.8569773515457748E-01 a       467     0    24     1     7
  2.5211996945448495E-01 a       468     0    24     1     8
  1.8376149655943011E-01 a       469     0    24     1     9
  1.8194835405308717E-02 a       470     0    24     1    10
  1.0323578550306069E-01 a       471     0    24     1    11
  4.0084246494762626E-01 a       472     0    24     1    12
  2.8757479677033426E-01 a       473     0    24     1    13
  2.3540003676341278E-02 a       474     0    24     1    14
 -2.2399021192575846E-01 a       475     0    24     1    15
  2.1044540015953939E-01 a       476     0    24     1    16
 -2.5115562197926705E-01 a       477     0    24     1    17
  3.9434076788144756E-01 a       478     0    24     1    18
 -1.0479188333744117E-01 a       479     0    24     1    19
 -1.1221459878692530E-01 a       480     0    24     1    20
  2.0125370391103317E-01 a       481     0    25     1     1
  2.0308818494203237E-02 a       482     0    25     1     2
  1.0283314575919041E-01 a       483     0    25     1     3
 -4.1110276522146424E-02 a       484     0    25     1     4
 -3.0684051121296876E-02 a       485     0    25     1     5
  1.8297802189114287E-01 a       486     0    25     1     6
  1.1613396067549697E-01 a       487     0    25     1     7
 -2.5046190809751612E-01 a       488     0    25     1     8
  1.4188259494012084E-01 a       489     0    25     1     9
  3.5775894000011427E-01 a       490     0    25     1    10
 -4.5582743948455656E-01 a       491     0    25     1    11
  3.7128418104274258E-01 a       492     0    25     1    12
 -2.8699370303280258E-01 a       493     0    25     1    13
 -1.2436293132850558E-01 a       494     0    25     1    14
  2.2865207653762648E-01 a       495     0    25     1    15
 -1.3633841368651103E-01 a       496     0    25     1    16
 -4.5769536508408398E-02 a       497     0    25     1    17
 -1.8071829386949942E-01 a       498     0    25     1    18
 -1.8745414507419800E-01 a       499     0    25     1    19
  4.4145011906276166E-01 a       500     0    25     1    20
  1.6520750402536177E-01 a       501     0    26     1     1
  1.1688322869165245E-01 a       502     0    26     1     2
 -2.6082030780405047E-01 a       503     0    26     1     3
  4.1261549792589843E-02 a       504     0    26     1     4
 -3.1300129549559942E-02 a       505     0    26     1     5
 -1.1671596006794721E-01 a       506     0    26     1     6
  2.2479497663904813E-01 a       507     0    26     1     7
 -1.0778915459316304E-01 a       508     0    26     1     8
 -5.9410211138304436E-01 a       509     0    26     1     9
 -4.7435804845043439E-01 a       510     0    26     1    10
  5.3916594333278271E-02 a       511     0    26     1    11
 -2.9418061390523154E-01 a       512     0    26     1    12
 -3.0322942076624326E-01 a       513     0    26     1    13
 -4.1739104054800094E-02 a       514     0    26     1    14
  1.3553857417939508E-01 a       515     0    26     1    15
 -2.0363554893018687E-01 a       516     0    26     1    16
  1.6822319883291673E-01 a       517     0    26     1    17
 -1.3517009912701097E-01 a       518     0    26     1    18
  4.6750898276201464E-02 a       519     0    26     1    19
 -4.9391765332131504E-01 a       520     0    26     1    20
 -4.0563861017249242E-01 a       521     0    27     1     1
  4.1117300347003366E-02 a       522     0    27     1     2
  2.7474704469609440E-01 a       523     0    27     1     3
  4.7131349275421830E-01 a       524     0    27     1     4
  7.2292795448759536E-02 a       525     0    27     1     5
  1.5982002436898748E-01 a       526     0    27     1     6
 -5.7521988443973682E-01 a       527     0    27     1     7
 -2.9804850390922710E-01 a       528     0    27     1     8
  3.2226723454668127E-01 a       529     0    27     1     9
 -1.8938019964263936E-01 a       530     0    27     1    10
  3.5061184923482341E-02 a       531     0    27     1    11
  2.4959067719224240E-01 a       532     0    27     1    12
  7.8700804272367708E-01 a       533     0    27     1    13
 -4.5925333770591897E-01 a       534     0    27     1    14
 -1.0920606467720916E-01 a       535     0    27     1    15
  2.2827848628915129E-01 a       536     0    27     1    16
  1.1102554966098912E+00 a       537     0    27     1    17
  1.2496085264191863E-01 a       538     0    27     1    18
  8.1946125320233043E-02 a       539     0    27     1    19
 -1.6429955451752049E-01 a       540     0    27     1    20
  6.3472433781890103E-02 b       541     1     1
  1.8005151781895326E+00 b       542     1     2
  1.2755064774192002E+00 b       543     1     3
  8.1820720211575060E-01 b       544     1     4
 -1.8587549713887603E+00 b       545     1     5
 -8.6118909725902348E-01 b       546     1     6
 -1.0587888530498291E+00 b       547     1     7
 -1.1618491508003467E-01 b       548     1     8
 -9.0014140276861154E-01 b       549     1     9
  1.1564586315434306E+00 b       550     1    10
 -1.7203464352377775E+00 b       551     1    11
 -7.1105744540469384E-01 b       552     1    12
 -8.8945094292396998E-01 b       553     1    13
  1.2939632420036029E+00 b       554     1    14
  1.3947871061305421E+00 b       555     1    15
  3.0115225593918910E-01 b       556     1    16
  1.6336565878495226E+00 b       557     1    17
  1.5676324176634229E+00 b       558     1    18
 -1.1759435324493326E+00 b       559     1    19
 -1.5679390829753906E-01 b       560     1    20
 -4.6451811062853071E-01 a       561     1     1     2     1
 -1.9294000818032983E-01 a       562     1     1     2     2
 -2.2079200555302186E-02 a       563     1     1     2     3
 -5.4018484334990624E-01 a       564     1     1     2     4
 -6.4434668349766577E-01 a       565     1     1     2     5
  2.4519843365295094E-01 a       566     1     1     2     6
 -4.5902725116846838E-01 a       567     1     1     2     7
  5.2816894508030998E-01 a       568     1     1     2     8
 -6.8098254724914931E-01 a       569     1     1     2     9
 -4.2884631894500547E-01 a       570     1     1     2    10
  4.3541641805402564E-01 a       571     1     1     2    11
 -2.1645328000753855E-01 a       572     1     1     2    12
  2.9838453821184591E-01 a       573     1     1     2    13
  7.3359897309435240E-01 a       574     1     1     2    14
  6.5996957291178882E-01 a       575     1     1     2    15
 -2.6639448726748399E-01 a       576     1     1     2    16
  4.6799637538049854E-01 a       577     1     1     2    17
  2.2203848727913111E-01 a       578     1     1     2    18
  3.0714160034546384E-01 a       579     1     1     2    19
  7.5948917619821324E-02 a       580     1     1     2    20
  1.3563444339599032E-01 a       581     1     2     2     1
 -4.5912865017857180E-01 a       582     1     2     2     2
  1.4551423641994615E-01 a       583     1     2     2     3
 -3.1462160734226619E-01 a       584     1     2     2     4
  3.6259698178225402E-01 a       585     1     2     2     5
 -6.8649261499436343E-01 a       586     1     2     2     6
 -3.6361938590294485E-01 a       587     1     2     2     7
  6.0276811183255297E-01 a       588     1     2     2     8
  5.1555518758635444E-01 a       589     1     2     2     9
 -2.9234321306804972E-01 a       590     1     2     2    10
 -1.2249508970732549E-02 a       591     1     2     2    11
  2.8971221599839964E-01 a       592     1     2     2    12
 -4.1635878240009673E-02 a       593     1     2     2    13
 -7.9315670743815903E-01 a       594     1     2     2    14
  8.7443735904814537E-02 a       595     1     2     2    15
  5.3376776199058573E-01 a       596     1     2     2    16
  3.8018711838347791E-01 a       597     1     2     2    17
 -5.5754080035076359E-01 a       598     1     2     2    18
 -1.3143331540697284E-01 a       599     1     2     2    19
 -8.2713250127093607E-01 a       600     1     2     2    20
 -2.2026637804134164E-01 a       601     1     3     2     1
  4.0954554411305427E-01 a       602     1     3     2     2
  1.7466941566841673E-01 a       603     1     3     2     3
  1.1523034434209185E-01 a       604     1     3     2     4
  3.9889078716944873E-02 a       605     1     3     2     5
 -1.8712687572113212E-01 a       606     1     3     2     6
  1.9928017106909116E-01 a       607     1     3     2     7
 -1.8623123659609456E-01 a       608     1     3     2     8
  3.0984123524253365E-01 a       609     1     3     2     9
  2.4720361101124494E-01 a       610     1     3     2    10
 -1.1540846126195321E-01 a       611     1     3     2    11
 -5.5220272494816680E-01 a       612     1     3     2    12
 -3.0873586657659541E-01 a       613     1     3     2    13
 -2.9938489377493303E-02 a       614     1     3     2    14
  4.2810290533935513E-01 a       615     1     3     2    15
 -1.6289830367061017E-01 a       616     1     3     2    16
 -5.7197677657453150E-01 a       617     1     3     2    17
  7.9448644921310962E-01 a       618     1     3     2    18
  1.7696439955455051E-01 a       619     1     3     2    19
 -2.9212129806897452E-01 a       620     1     3     2    20
  5.6757197774939239E-01 a       621     1     4     2     1
  1.2603883475277777E-01 a       622     1     4     2     2
 -2.1921987181695063E-01 a       623     1     4     2     3
  5.0313723630727814E-01 a       624     1     4     2     4
  1.3841706924088721E-02 a       625     1     4     2     5
 -3.3222836597046496E-01 a       626     1     4     2     6
 -2.7887116725783995E-01 a       627     1     4     2     7
 -9.0038214796992463E-02 a       628     1     4     2     8
 -4.4522177368571952E-01 a       629     1     4     2     9
 -1.5311677305734880E-01 a       630     1     4     2    10
 -5.0474086191631184E-01 a       631     1     4     2    11
  2.8442138132196143E-01 a       632     1     4     2    12
  8.5611290250482219E-01 a       633     1     4     2    13
  6.6558804612580658E-01 a       634     1     4     2    14
 -2.9062941410047061E-01 a       635     1     4     2    15
  2.9865612449001716E-01 a       636     1     4     2    16
  5.2485421154482259E-01 a       637     1     4     2    17
  2.3109279393596391E-01 a       638     1     4     2    18
  3.3821738907831606E-01 a       639     1     4     2    19
  7.3835092965890761E-02 a       640     1     4     2    20
 -1.3734146773866246E-01 a       641     1     5     2     1
  1.2009120534563394E-01 a       642     1     5     2     2
  3.9804224336191074E-01 a       643     1     5     2     3
 -3.4360981128786766E-01 a       644     1     5     2     4
 -7.2726978681235255E-01 a       645     1     5     2     5
  4.4179403066626757E-03 a       646     1     5     2     6
  2.2149432919016165E-01 a       647     1     5     2     7
 -2.5627562556263372E-01 a       648     1     5     2     8
  5.7123245080376084E-01 a       649     1     5     2     9
  6.4039809365073486E-01 a       650     1     5     2    10
  4.3994260722292661E-01 a       651     1     5     2    11
  3.3113264678894277E-01 a       652     1     5     2    12
 -5.0929611265391250E-01 a       653     1     5     2    13
  8.3644670867623394E-01 a       654     1     5     2    14
  2.8568670978902572E-01 a       655     1     5     2    15
 -5.8884840819998285E-01 a       656     1     5     2    16
 -1.0584745177899599E+00 a       657     1     5     2    17
 -7.6929376999259155E-02 a       658     1     5     2    18
  6.2634804552583426E-02 a       659     1     5     2    19
  7.4162434896595553E-01 a       660     1     5     2    20
  7.4875050133554744E-01 a       661     1     6     2     1
  1.8763637660301119E-01 a       662     1     6     2     2
 -1.9532087480463009E-01 a       663     1     6     2     3
  1.0085209694648134E+00 a       664     1     6     2     4
 -6.0519196087123317E-01 a       665     1     6     2     5
  8.0983194566642669E-01 a       666     1     6     2     6
 -3.3012679735104317E-01 a       667     1     6     2     7
  2.5186665447538115E-01 a       668     1     6     2     8
 -5.0435881336633759E-01 a       669     1     6     2     9
 -1.8988116897105511E-01 a       670     1     6     2    10
 -6.2333794785488272E-01 a       671     1     6     2    11
  5.0703643619091188E-01 a       672     1     6     2    12
 -1.9832304832820584E-03 a       673     1     6     2    13
  9.4728148121943956E-01 a       674     1     6     2    14
 -1.7659442219966920E-01 a       675     1     6     2    15
 -4.4243511267136931E-01 a       676     1     6     2    16
  5.6222317599265614E-01 a       677     1     6     2    17
  4.6565599793217449E-01 a       678     1     6     2    18
  2.4259663525399344E-01 a       679     1     6     2    19
  6.0795589717709646E-02 a       680     1     6     2    20
  1.3272520478917654E-01 a       681     1     7     2     1
  1.4597657881095258E-01 a       682     1     7     2     2
 -1.5074849643558802E-01 a       683     1     7     2     3
 -5.6863894031218831E-01 a       684     1     7     2     4
 -9.5679447832610495E-02 a       685     1     7     2     5
 -1.8582086600131850E-01 a       686     1     7     2     6
  3.2232708113074077E-01 a       687     1     7     2     7
  3.1180841694753919E-01 a       688     1     7     2     8
  4.9168178452737681E-02 a       689     1     7     2     9
  1.8340628773143347E-01 a       690     1     7     2    10
 -5.1060233050905535E-01 a       691     1     7     2    11
  3.2514066670214237E-01 a       692     1     7     2    12
 -3.4273309224018955E-01 a       693     1     7     2    13
  1.6167687208076850E-01 a       694     1     7     2    14
 -8.1423271083048188E-01 a       695     1     7     2    15
 -6.5652929665449256E-01 a       696     1     7     2    16
 -8.8057654942978969E-01 a       697     1     7     2    17
  2.8672904467491489E-01 a       698     1     7     2    18
  6.5779878730294739E-01 a       699     1     7     2    19
  5.5812269305993711E-01 a       700     1     7     2    20
  4.3742484382432656E-01 a       701     1     8     2     1
  1.9021331724352999E-01 a       702     1     8     2     2
 -4.4183235743813970E-02 a       703     1     8     2     3
  5.1555913317926270E-02 a       704     1     8     2     4
  1.7601244336555244E-01 a       705     1     8     2     5
  4.3798494990199344E-01 a       706     1     8     2     6
 -2.9794396637689756E-02 a       707     1     8     2     7
 -3.0297070927203035E-01 a       708     1     8     2     8
  5.7124043724148303E-02 a       709     1     8     2     9
  8.4011852029204290E-02 a       710     1     8     2    10
  1.7310732388688996E-01 a       711     1     8     2    11
  3.6164378714622314E-01 a       712     1     8     2    12
  8.9486815834402411E-01 a       713     1     8     2    13
  1.2968789518596091E-01 a       714     1     8     2    14
  2.8655850769348240E-01 a       715     1     8     2    15
  1.3860939213857082E-01 a       716     1     8     2    16
  4.9164602846555000E-01 a       717     1     8     2    17
 -6.0470734332849752E-01 a       718     1     8     2    18
  2.5421123094853332E-01 a       719     1     8     2    19
  2.6747486036996476E-01 a       720     1     8     2    20
  3.3674652620736312E-01 a       721     1     9     2     1
  4.8211344712249615E-01 a       722     1     9     2     2
  8.0327803773885009E-01 a       723     1     9     2     3
 -3.9546439591597465E-01 a       724     1     9     2     4
 -2.8751567511555348E-01 a       725     1     9     2     5
  5.8562120194204648E-01 a       726     1     9     2     6
 -5.4034901405457059E-01 a       727     1     9     2     7
 -6.6861229421840696E-01 a       728     1     9     2     8
 -6.1054715206742971E-01 a       729     1     9     2     9
  4.1215023681090179E-01 a       730     1     9     2    10
 -6.4189230649821283E-01 a       731     1     9     2    11
 -1.6805179225794109E-01 a       732     1     9     2    12
  3.9339212200101020E-01 a       733     1     9     2    13
  2.2643719791606556E-01 a       734     1     9     2    14
 -4.2784411555911456E-01 a       735     1     9     2    15
 -4.8655294959373457E-01 a       736     1     9     2    16
  5.5620176936046362E-01 a       737     1     9     2    17
  3.0618241572384564E-01 a       738     1     9     2    18
  2.1338389211028272E-01 a       739     1     9     2    19
 -7.0662139320052456E-02 a       740     1     9     2    20
 -3.0846565170942880E-01 a       741     1    10     2     1
  2.0849399903880719E-01 a       742     1    10     2     2
  1.4431110345027731E-01 a       743     1    10     2     3
 -3.9379254641517364E-01 a       744     1    10     2     4
 -3.4695189579053259E-01 a       745     1    10     2     5
 -1.3056920256556084E-01 a       746     1    10     2     6
  2.3034487413729883E-02 a       747     1    10     2     7
 -8.2827910033715965E-02 a       748     1    10     2     8
  9.0504070075949739E-02 a       749     1    10     2     9
 -2.5635468489874202E-01 a       750     1    10     2    10
 -7.8613994292794231E-01 a       751     1    10     2    11
 -5.4701504413671331E-01 a       752     1    10     2    12
 -4.5291354529670469E-01 a       753     1    10     2    13
  6.6891973579770919E-02 a       754     1    10     2    14
  6.6257545785381691E-02 a       755     1    10     2    15
  2.3607859760847838E-01 a       756     1    10     2    16
 -4.7479754694278131E-01 a       757     1    10     2    17
 -4.0646823819868805E-01 a       758     1    10     2    18
  2.7989712237750242E-01 a       759     1    10     2    19
  4.2203274756715276E-01 a       760     1    10     2    20
 -1.5407588447533591E-01 a       761     1    11     2     1
 -3.7156734640776284E-01 a       762     1    11     2     2
 -6.0340756316837929E-01 a       763     1    11     2     3
  2.4150716371338374E-01 a       764     1    11     2     4
  5.0908657686513736E-01 a       765     1    11     2     5
 -4.5859492910653143E-01 a       766     1    11     2     6
  8.5195092659761396E-01 a       767     1    11     2     7
  2.3300266516471430E-01 a       768     1    11     2     8
  1.2415895070448951E-01 a       769     1    11     2     9
  2.5997255642991013E-01 a       770     1    11     2    10
  7.0231788585044225E-02 a       771     1    11     2    11
  5.7088644930567456E-01 a       772     1    11     2    12
 -3.4036895013009677E-01 a       773     1    11     2    13
  6.4937314486141140E-01 a       774     1    11     2    14
 -7.6472579981248168E-01 a       775     1    11     2    15
  3.3709159440783049E-01 a       776     1    11     2    16
 -2.6551525121233388E-01 a       777     1    11     2    17
  4.7466411949970304E-02 a       778     1    11     2    18
  3.7390366299368111E-01 a       779     1    11     2    19
  3.0774088932064897E-01 a       780     1    11     2    20
 -1.6719703692421015E-01 a       781     1    12     2     1
  4.0429562852290696E-01 a       782     1    12     2     2
 -3.3986127142248457E-01 a       783     1    12     2     3
  2.0597784656780715E-01 a       784     1    12     2     4
  5.8766187636806855E-01 a       785     1    12     2     5
  7.2634781296685241E-02 a       786     1    12     2     6
  6.4495509328749101E-01 a       787     1    12     2     7
 -6.6221726648373680E-01 a       788     1    12     2     8
 -8.7274070173199769E-01 a       789     1    12     2     9
 -3.2966902194312658E-01 a       790     1    12     2    10
  1.0374645793204613E-01 a       791     1    12     2    11
  3.7855321708046563E-01 a       792     1    12     2    12
  4.2988542489710801E-01 a       793     1    12     2    13
 -3.1958790795642361E-01 a       794     1    12     2    14
  1.8520256701428747E-01 a       795     1    12     2    15
  3.5627094438131979E-01 a       796     1    12     2    16
 -7.2709577475339038E-01 a       797     1    12     2    17
 -8.8134832650163319E-01 a       798     1    12     2    18
  2.1546042791878839E-01 a       799     1    12     2    19
  6.1861202950731753E-01 a       800     1    12     2    20
  1.2999642317830540E-01 a       801     1    13     2     1
  4.5235939234145800E-01 a       802     1    13     2     2
 -4.3321779785316988E-01 a       803     1    13     2     3
  4.1087439463417738E-02 a       804     1    13     2     4
 -7.2600855546884946E-01 a       805     1    13     2     5
 -1.1252438516871419E-01 a       806     1    13     2     6
  2.0565508668257301E-01 a       807     1    13     2     7
 -3.2146189091213584E-01 a       808     1    13     2     8
 -2.2274582223874761E-01 a       809     1    13     2     9
  2.7376902284652394E-01 a       810     1    13     2    10
 -7.0918383937720753E-01 a       811     1    13     2    11
 -1.5966712082265663E-01 a       812     1    13     2    12
  3.3503118873012633E-01 a       813     1    13     2    13
  6.3261028720379020E-01 a       814     1    13     2    14
 -2.9029536480733886E-01 a       815     1    13     2    15
 -4.0119672433912124E-01 a       816     1    13     2    16
  1.5285007983122884E-01 a       817     1    13     2    17
  8.6857014455163051E-01 a       818     1    13     2    18
  9.9223051244346369E-02 a       819     1    13     2    19
  2.7764305063796502E-01 a       820     1    13     2    20
 -7.2489520754092585E-01 a       821     1    14     2     1
 -6.8616258189410240E-01 a       822     1    14     2     2
  5.6433447605716491E-01 a       823     1    14     2     3
 -2.4778269189810317E-01 a       824     1    14     2     4
  6.4803995608182074E-01 a       825     1    14     2     5
  2.0173774559210572E-02 a       826     1    14     2     6
 -1.7790604124306852E-01 a       827     1    14     2     7
 -1.4551710418429381E-01 a       828     1    14     2     8
 -4.2183721379582112E-01 a       829     1    14     2     9
  4.5717930601783441E-01 a       830     1    14     2    10
  6.7540513609684960E-01 a       831     1    14     2    11
  6.7686144525694728E-02 a       832     1    14     2    12
 -8.2139498240647410E-02 a       833     1    14     2    13
  6.3128251517748557E-01 a       834     1    14     2    14
  4.3328828288825699E-01 a       835     1    14     2    15
 -1.6166428900358486E-02 a       836     1    14     2    16
  6.2985870162552882E-01 a       837     1    14     2    17
 -2.1666964844723802E-01 a       838     1    14     2    18
 -1.1553412363064344E-01 a       839     1    14     2    19
 -3.8878073909728650E-01 a       840     1    14     2    20
  3.7170434873203689E-01 a       841     1    15     2     1
 -4.4518979514540846E-01 a       842     1    15     2     2
  3.7563223673588880E-01 a       843     1    15     2     3
  1.0854187740409627E+00 a       844     1    15     2     4
  6.5818146747338524E-01 a       845     1    15     2     5
  3.0974150471643497E-01 a       846     1    15     2     6
 -6.6468399235847142E-01 a       847     1    15     2     7
 -4.4106840826366911E-01 a       848     1    15     2     8
  5.3768591849100911E-01 a       849     1    15     2     9
 -8.7800022193210453E-02 a       850     1    15     2    10
  5.6701525551141614E-02 a       851     1    15     2    11
 -5.0953933055047940E-01 a       852     1    15     2    12
  4.8308238336640735E-01 a       853     1    15     2    13
 -5.1086582743301090E-01 a       854     1    15     2    14
 -1.3333781379736745E-01 a       855     1    15     2    15
  2.2353314145232622E-01 a       856     1    15     2    16
  5.6445057145833288E-01 a       857     1    15     2    17
 -3.8594070603748359E-01 a       858     1    15     2    18
 -6.5015933759201427E-01 a       859     1    15     2    19
 -5.2771220093201920E-01 a       860     1    15     2    20
 -2.5817403142584225E-02 a       861     1    16     2     1
 -1.2750011267817696E-01 a       862     1    16     2     2
  1.6630088708926463E-01 a       863     1    16     2     3
 -8.1909032978688112E-01 a       864     1    16     2     4
  5.1333443052620964E-01 a       865     1    16     2     5
 -3.2904369031163250E-01 a       866     1    16     2     6
  2.0904529237705041E-02 a       867     1    16     2     7
  1.8890341946885267E-01 a       868     1    16     2     8
 -1.2371327934827024E-01 a       869     1    16     2     9
 -5.8685785962601178E-01 a       870     1    16     2    10
 -5.0794200298273351E-01 a       871     1    16     2    11
 -6.7852550435020878E-02 a       872     1    16     2    12
 -7.5806252572287081E-01 a       873     1    16     2    13
  8.2019879655213535E-01 a       874     1    16     2    14
  7.5997374785282223E-01 a       875     1    16     2    15
  5.1708984952183579E-01 a       876     1    16     2    16
 -4.2194339974401329E-01 a       877     1    16     2    17
 -1.9951752085530659E-02 a       878     1    16     2    18
 -1.1280040427688304E-01 a       879     1    16     2    19
  5.0817884890055309E-01 a       880     1    16     2    20
  1.9303353551263797E-01 a       881     1    17     2     1
 -4.3831122818847501E-01 a       882     1    17     2     2
  5.0725355834368724E-01 a       883     1    17     2     3
  3.8322365146962167E-01 a       884     1    17     2     4
 -2.9025081707779871E-01 a       885     1    17     2     5
  2.1412570009850923E-01 a       886     1    17     2     6
 -4.9351739469587275E-01 a       887     1    17     2     7
  6.7775084258414908E-01 a       888     1    17     2     8
  2.9523983444699653E-01 a       889     1    17     2     9
 -4.1960900792722916E-01 a       890     1    17     2    10
  9.0726336108695271E-01 a       891     1    17     2    11
  3.3250070899937417E-01 a       892     1    17     2    12
 -1.9052596767379509E-01 a       893     1    17     2    13
  6.4724184084288461E-01 a       894     1    17     2    14
 -2.9959905620725230E-01 a       895     1    17     2    15
 -2.2394401470768776E-02 a       896     1    17     2    16
  2.8123627842439541E-01 a       897     1    17     2    17
 -2.3983224667558856E-01 a       898     1    17     2    18
  2.0514209384117681E-02 a       899     1    17     2    19
 -8.8197562415478437E-01 a       900     1    17     2    20
 -5.2868241390325765E-01 a       901     1    18     2     1
 -7.8267974250520378E-01 a       902     1    18     2     2
 -2.2522971732969269E-01 a       903     1    18     2     3
 -1.7704090488384494E-01 a       904     1    18     2     4
 -4.2961766358211362E-01 a       905     1    18     2     5
 -5.6176288283639408E-01 a       906     1    18     2     6
  2.0681890191186708E-01 a       907     1    18     2     7
  2.7864561312105740E-01 a       908     1    18     2     8
  4.3330923264419458E-01 a       909     1    18     2     9
  2.5729701846976161E-01 a       910     1    18     2    10
  1.9694961909501665E-01 a       911     1    18     2    11
 -6.7474072870744817E-01 a       912     1    18     2    12
  5.9777121350584076E-03 a       913     1    18     2    13
  8.3308724446744791E-03 a       914     1    18     2    14
  5.0946819121474383E-02 a       915     1    18     2    15
 -5.9270880887583421E-01 a       916     1    18     2    16
  1.7998948308436716E-01 a       917     1    18     2    17
 -7.6236171536062780E-01 a       918     1    18     2    18
 -9.7585852026231587E-02 a       919     1    18     2    19
 -5.3678512438663584E-01 a       920     1    18     2    20
  4.9776195184508076E-01 a       921     1    19     2     1
 -2.2247590098483375E-01 a       922     1    19     2     2
  7.2442825900362010E-02 a       923     1    19     2     3
 -1.5999639913351188E-01 a       924     1    19     2     4
 -2.4385666150546517E-01 a       925     1    19     2     5
  2.7673329149211612E-01 a       926     1    19     2     6
 -1.0306002221150537E-01 a       927     1    19     2     7
  4.0372372087993386E-01 a       928     1    19     2     8
  2.5813238861883075E-01 a       929     1    19     2     9
 -1.6627866393775925E-01 a       930     1    19     2    10
 -4.6901734392182515E-01 a       931     1    19     2    11
 -3.1865537147054901E-01 a       932     1    19     2    12
  1.1364180353935911E+00 a       933     1    19     2    13
  6.4929307262097480E-01 a       934     1    19     2    14
  4.8452601019624669E-01 a       935     1    19     2    15
 -1.9691447589214331E-01 a       936     1    19     2    16
 -4.2668612955818852E-01 a       937     1    19     2    17
  4.4086314598754051E-01 a       938     1    19     2    18
 -3.2756387418904920E-01 a       939     1    19     2    19
  4.4978064415169883E-01 a       940     1    19     2    20
  3.5098064930670560E-02 a       941     1    20     2     1
  2.2031211817570832E-02 a       942     1    20     2     2
 -1.4512880280605520E-02 a       943     1    20     2     3
  5.6529215962731964E-02 a       944     1    20     2     4
  5.5007090467432157E-02 a       945     1    20     2     5
 -3.2628942983758807E-01 a       946     1    20     2     6
 -1.9772127937915107E-01 a       947     1    20     2     7
  9.9395809204105109E-02 a       948     1    20     2     8
  2.0802641780948333E-01 a       949     1    20     2     9
 -9.1352975966092653E-02 a       950     1    20     2    10
 -4.9771150040283785E-01 a       951     1    20     2    11
  8.0094850305969717E-02 a       952     1    20     2    12
 -2.6796622623498512E-01 a       953     1    20     2    13
 -7.0544639465429249E-01 a       954     1    20     2    14
 -1.4590923689974970E-02 a       955     1    20     2    15
  3.1681139339629150E-01 a       956     1    20     2    16
 -2.4325993564097886E-01 a       957     1    20     2    17
 -1.0681270289216236E+00 a       958     1    20     2    18
 -1.4527942112417319E-01 a       959     1    20     2    19
  1.6642701828055428E-01 a       960     1    20     2    20
 -1.3000232971595023E+00 b       961     2     1
 -1.1770676460934786E+00 b       962     2     2
 -2.0202252158808509E+00 b       963     2     3
 -5.1725334958997182E-01 b       964     2     4
  8.6543285737112419E-01 b       965     2     5
 -1.5205345088273658E+00 b       966     2     6
 -9.9507218852400747E-01 b       967     2     7
  1.7045431286402113E+00 b       968     2     8
  7.7399520734593596E-01 b       969     2     9
 -8.1108328770779559E-01 b       970     2    10
  6.7729100779039864E-01 b       971     2    11
 -5.0212572400092392E-01 b       972     2    12
 -1.4988630509945875E+00 b       973     2    13
  3.2326660518203731E-01 b       974     2    14
  2.2201371374130882E-01 b       975     2    15
  1.0655102559704830E+00 b       976     2    16
 -8.6030200322415984E-01 b       977     2    17
 -4.3947218313673625E-01 b       978     2    18
 -3.3332188441386668E-01 b       979     2    19
  7.8782810437872286E-01 b       980     2    20
 -1.1039398772546480E+00 a       981     2     1     3     1
 -1.8439449357590083E+00 a       982     2     2     3     1
 -1.0791514853358277E+00 a       983     2     3     3     1
 -1.6694262488910974E-01 a       984     2     4     3     1
  1.6915187794324131E+00 a       985     2     5     3     1
 -1.5516537372964530E+00 a       986     2     6     3     1
 -2.3239659132893715E+00 a       987     2     7     3     1
  7.1431450733452362E-01 a       988     2     8     3     1
  1.6715932556406758E+00 a       989     2     9     3     1
 -8.2850980600768154E-01 a       990     2    10     3     1
  1.4573882445021762E+00 a       991     2    11     3     1
 -9.5047854226179063E-01 a       992     2    12     3     1
  4.9913483150288207E-01 a       993     2    13     3     1
 -1.2542517389557599E+00 a       994     2    14     3     1
  3.7798555008910756E-01 a       995     2    15     3     1
  1.4630547854126539E+00 a       996     2    16     3     1
  6.9719980974360052E-01 a       997     2    17     3     1
 -1.3325158772875623E+00 a       998     2    18     3     1
 -1.6802726158823298E+00 a       999     2    19     3     1
 -2.1303247122868134E+00 a      1000     2    20     3     1
  1.1627883831943548E+00 b      1001     3     1
